svm_type c_svc
kernel_type rbf
gamma 0.000244141
nr_class 2
total_sv 104
rho 0.73429
label 1 0
probA -4.90831
probB -0.00211075
nr_sv 39 65
SV
0.004690759791713791 3:1.297015 5:0.72051418 6:1.3576 12:4.011714 19:0.57917327 20:0.49300626 21:0.20081173 26:0.28352994 27:3.1691535 31:1.0750899 44:0.9299475 46:2.9434502 60:3.1780264 61:2.6101522 64:0.61764705 68:6.267488 73:0.014351964 78:5.3456264 80:1.0022221 89:5.0165567 100:0.3514607 101:1.3927224 105:2.1637244 108:1.627273 110:2.5812819 113:2.8360415 116:0.86637092 140:5.0106916 147:2.8232439 148:4.0607729 153:0.7220552 156:0.28294373 158:0.82746291 163:5.2600422 170:1.219878 172:1.2281797 173:0.6317063 184:2.5661485 190:1.7191321 195:2.9771295 210:0.45270327 225:0.54432982 235:3.7953455 237:2.6018009 241:0.67610198 245:0.52620357 249:0.74117827 258:4.8745151 261:4.7118788 262:2.1056061 267:1.1265124 275:0.67813945 279:2.2266996 283:1.1028916 288:2.8634577 295:0.32484123 301:0.81223983 302:1.0762702 303:0.77521151 312:2.8899708 317:1.1657453 323:3.4906445 334:0.26481116 335:2.2141464 346:1.4335061 348:2.7480056 362:0.46364596 365:0.92298687 376:1.245698 396:1.5835278 398:0.58923548 411:0.40842223 414:0.46453851 432:2.9403644 434:1.0826504 435:0.56988239 436:1.9293945 450:4.6772823 451:0.92206001 452:2.2286794 454:0.31778571 455:0.29003116 462:0.4786976 476:0.56323665 481:1.1528711 482:1.2515758 483:1.2651156 485:0.65007633 491:0.95447403 499:1.831881 500:2.9745228 501:0.89835292 508:0.12809271 509:0.84876639 514:2.6377552 515:0.99000818 536:0.84635592 541:0.96209764 543:0.29927301 545:2.0202923 547:0.096599966 552:2.6490653 559:3.2655911 560:1.1107807 563:0.84480017 571:1.339986 572:6.1358204 579:1.9644406 596:0.29090917 601:1.6087834 605:2.5036242 607:0.77875894 614:1.6360987 616:2.1781433 619:0.3282401 632:1.7875181 639:0.71762186 641:0.63721502 650:0.52231014 652:3.2452497 653:0.12175593 658:0.09749081 671:3.2743871 672:3.2844932 673:2.3604054 682:2.0486789 700:3.3284624 711:0.94045544 720:3.2569172 722:2.7653694 725:0.022573739 726:0.96270931 738:0.021279007 740:0.74859631 754:0.11229524 755:1.0961113 759:0.81610793 763:1.2177668 781:0.18331051 782:0.8362686 788:4.1951776 791:1.1972258 793:0.36991504 795:2.5235572 796:3.8977339 800:0.73006994 803:1.3575256 809:0.62301707 820:1.9963686 833:0.37190086 835:1.1526506 839:4.8834677 859:1.4994552 868:1.3045671 877:0.99266279 885:2.693732 908:3.2937903 918:2.7939284 922:5.3870625 931:1.5161207 934:2.30637 937:0.81000072 945:3.7656813 947:1.846293 963:2.9299095 966:1.4700476 968:0.46551675 979:1.7808551 984:0.93405128 994:0.079438239 996:0.75748509 997:1.4617653 1013:5.5063777 1015:0.54593658 1018:2.5458689 1022:1.2043961 1023:2.3272266 1036:0.4666563 1039:0.083359048 1041:1.0082276 1045:2.0405059 1047:2.5196929 1053:0.45041135 1080:6.3995605 1093:0.13167003 1104:1.187963 1116:0.43329698 1117:1.8146355 1120:3.5656488 1136:2.8797328 1138:0.53623486 1146:3.910069 1149:0.62646496 1150:0.90039736 1159:1.5463243 1169:2.0651822 1170:4.9884543 1176:0.76706272 1177:2.6200738 1181:0.1050126 1188:4.1675 1191:2.2314868 1203:1.4792569 1208:1.0533772 1213:1.8049173 1217:0.58145475 1219:0.01251632 1224:2.4613791 1225:0.99642605 1232:0.27597862 1233:0.15806213 1236:2.7475638 1239:0.54068589 1242:0.77756178 1260:0.49785048 1263:1.5765817 1274:0.24975036 1277:2.4309025 1279:0.39776161 1285:1.8041494 1287:0.60853958 1288:2.4494803 1314:2.6937492 1316:2.1138458 1319:1.7350824 1320:2.4768348 1328:2.0459561 1331:0.52096933 1335:0.10197486 1341:3.5868871 1359:0.062827423 1360:0.48938566 1365:5.1673117 1368:1.553059 1369:0.067720771 1375:3.4039109 1376:3.2713168 1386:5.2589102 1409:0.93053371 1411:0.35416037 1416:3.0495622 1422:2.7341013 1429:0.6129325 1435:1.1934094 1438:3.3202987 1446:0.097402975 1450:1.8165768 1452:5.9765282 1465:0.56458008 1466:2.1455553 1469:2.1170595 1470:2.7607086 1471:1.9041159 1475:0.13813409 1480:0.13292687 1484:3.5930891 1486:0.33104163 1506:0.78661239 1513:0.066195488 1514:5.0261755 1515:2.5227475 1523:2.9655509 1525:3.1153784 1526:0.28747532 1538:3.2523584 1545:0.31095475 1550:1.7253642 1562:0.15747747 1568:2.1885629 1580:2.7332919 1582:2.7001653 1596:0.33773479 1598:1.3140004 1602:1.4225399 1613:3.7491515 1616:0.20515151 1622:3.8045316 1624:2.1865287 1625:2.8058572 1626:0.68939054 1630:2.0661736 1633:1.8143086 1634:0.92711228 1646:0.24972093 1653:1.2780647 1659:1.2375852 1661:1.382411 1662:0.5056681 1668:0.45787141 1669:0.27391985 1672:0.045163684 1673:0.78864342 1675:1.4657893 1677:1.4313252 1679:3.2565873 1681:1.5324672 1684:0.46734625 1685:1.6171796 1686:2.4980693 1690:0.57615125 1703:2.7395451 1708:2.6152465 1721:0.99179852 1732:0.3357895 1733:0.51750052 1737:1.8069675 1738:0.64177865 1748:3.7065177 1751:0.21115579 1752:0.78174222 1756:1.2830615 1760:0.698856 1761:2.4792085 1762:2.5387988 1764:2.8247895 1768:0.058158748 1771:2.0452385 1772:2.1454384 1778:0.9031983 1782:0.4579055 1794:0.76437122 1799:0.83072519 1804:3.4687264 1810:1.4274685 1814:1.2426751 1817:2.198668 1822:0.69911814 1830:0.38740879 1833:3.4896476 1835:0.57512593 1838:0.61257577 1844:0.30395976 1856:1.7946471 1860:3.7334206 1868:0.52880859 1870:3.0700819 1872:0.2959294 1881:2.538589 1912:3.4724348 1916:0.42032194 1930:2.7463653 1938:2.5634713 1942:0.28861529 1943:0.14985961 1958:0.52987355 1972:1.8702646 1990:4.3189917 1993:1.2102705 2000:1.4498005 2006:0.83055383 2020:1.1230445 2021:0.41059029 2022:1.0294645 2032:0.73342168 2042:0.75250018 2044:0.67065603 2045:0.38918149 2048:0.16491142 2051:0.91226804 2060:0.55049402 2065:4.5924382 2076:2.466419 2077:0.27672288 2083:2.4286842 2085:0.3398343 2086:1.1663928 2092:1.4349991 2105:1.8882614 2106:1.4899518 2110:1.5544416 2114:0.012060195 2117:2.5133476 2120:6.1926031 2125:1.1343856 2134:0.90273821 2138:0.61944973 2156:1.6667058 2159:4.4112201 2166:1.5613915 2168:4.2499495 2170:5.0308475 2178:0.77742267 2181:4.5949121 2189:2.0429382 2194:0.068376958 2202:9.2758656 2210:1.1505096 2214:0.2545864 2226:0.85671186 2229:1.8736711 2233:0.7221787 2255:1.0396122 2259:0.88226783 2263:1.486706 2267:1.6637582 2269:1.7959864 2270:0.14455329 2273:0.89784968 2274:2.2912929 2278:1.9178857 2286:0.36041015 2288:3.225245 2297:1.8022432 2300:2.6585784 2303:1.6412725 2305:2.9585311 2311:2.0909951 2313:1.9936699 2328:2.5721879 2329:0.7941283 2331:1.4640995 2343:2.3585479 2344:3.5622661 2348:3.2955496 2356:0.7759673 2360:2.4015026 2370:0.71460074 2393:2.6255949 2407:0.37359336 2408:1.536339 2416:7.8263521 2422:0.5973978 2434:1.1491903 2435:0.90176517 2444:0.6167683 2445:0.26081085 2452:0.90799809 2470:0.54967725 2480:0.76425481 2486:1.4092946 2494:3.36643 2501:4.0328588 2520:3.0033824 2522:2.4859996 2525:1.6518282 2526:4.2693906 2535:0.075723425 2537:0.51958215 2568:2.3001785 2575:0.2871986 2579:0.36351565 2585:1.6941731 2589:0.47711894 2592:2.8027112 2601:0.021408275 2602:1.704205 2604:1.9495698 2620:4.2012172 2636:3.7559955 2637:4.2670317 2639:0.17061457 2641:0.45551327 2642:0.57108253 2644:2.8082459 2646:3.3105681 2653:1.0910929 2655:1.5673256 2658:1.1983249 2668:1.0721216 2669:4.1381755 2672:0.82470918 2678:0.56309545 2679:1.9768764 2681:3.4099596 2688:0.47535637 2690:0.93591678 2692:0.17635569 2693:0.85048211 2694:0.11468796 2698:1.3432134 2701:0.80980039 2708:0.42593655 2723:2.5698249 2731:2.0995266 2736:0.22738804 2740:0.73842841 2742:0.62873971 2743:0.90620553 2747:0.025511116 2751:3.5606906 2753:2.8867106 2759:2.082176 2761:1.3350505 2763:0.28204399 2766:0.2816906 2769:0.55048019 2785:0.51521134 2786:0.77079868 2787:3.6460454 2790:1.4911242 2795:0.85443366 2807:0.4646093 2811:1.7302659 2816:2.7166619 2819:0.54773682 2821:0.30962273 2831:3.003866 2833:0.0075034723 2838:0.39053944 2840:1.6958437 2842:0.12040108 2843:2.3525555 2853:0.75015295 2867:2.1758895 2872:1.6058148 2880:0.32920551 2892:0.25897899 2896:0.52013087 2898:1.9807191 2901:0.94197452 2912:1.3973415 2917:0.76498342 2920:0.99592954 2930:2.951128 2932:2.3606133 2948:0.31151205 2950:1.1243929 2954:1.9323174 2958:1.2969792 2964:5.4278426 2966:0.38026974 2967:1.6425878 2971:2.3941944 2976:0.019731164 2979:1.6639209 2996:1.0035629 3004:0.39654523 3011:0.057816714 3019:4.3964372 3025:1.777005 3028:0.9425689 3032:2.5861807 3039:1.1196368 3041:2.625802 3048:0.52799356 3050:1.2379537 3051:1.765628 3052:4.8037457 3059:3.2628527 3065:1.1624345 3075:3.4504044 3094:0.9399662 3095:0.8222639 3109:1.4817746 3110:0.96022785 3117:0.68565536 3119:3.1022415 3125:0.94923657 3133:1.8901747 3143:2.916734 3145:1.7454557 3152:5.761755 3154:3.2533641 3162:0.16946882 3168:1.1239699 3169:3.4378164 3170:0.96184748 3172:2.3778031 3181:3.4795294 3182:2.0958455 3184:1.1144571 3199:0.27375111 3200:0.056030691 3216:1.0022689 3220:4.0955625 3228:1.8945265 3231:0.87727714 3232:1.2769936 3234:0.53574914 3235:3.1954694 3237:0.45168948 3239:1.0580115 3253:2.8041918 3271:0.88856423 3275:1.2020028 3287:3.1820102 3290:2.9017904 3294:0.16469613 3299:3.4973011 3302:0.0030454844 3310:5.2164183 3314:1.6539679 3319:1.0035802 3324:0.088521145 3327:2.8113012 3334:2.083132 3349:0.60748053 3354:1.9164097 3355:1.3082827 3358:4.1591611 3361:2.0409572 3364:1.4857779 3366:1.4942764 3383:0.66316593 3387:0.15734537 3388:2.673739 3390:3.692064 3394:0.2753365 3397:2.1461143 3404:3.5653677 3424:3.8479483 3425:2.0034041 3427:3.4940665 3431:1.5672758 3438:1.80775 3445:0.80120468 3451:0.83785552 3465:2.8145924 3467:0.37612429 3476:0.92134225 3486:1.1432461 3495:1.941642 3501:0.26203454 3504:2.3814249 3507:0.33647847 3511:2.0532074 3519:0.85735643 3532:4.1768856 3535:0.28891069 3538:3.1000922 3544:1.2157333 3548:1.4105713 3564:1.6422684 3569:5.2815127 3570:0.0060533583 3573:0.43992567 3576:0.42537588 3582:1.6496658 3583:0.86731505 3595:0.1957358 3599:1.7102147 3603:0.69047213 3608:2.3413744 3614:0.71303272 3624:2.3000813 3626:0.90108496 3627:1.203265 3629:0.75393283 3638:1.9839573 3640:0.53238797 3643:2.0974786 3649:2.229501 3650:0.96803147 3668:2.9281316 3677:0.82509565 3684:1.4907002 3689:0.74284315 3690:5.3833508 3710:3.9404814 3711:1.1545779 3712:0.62679446 3717:3.1980512 3722:2.1028833 3729:1.8962513 3732:0.92748708 3752:2.0351357 3757:2.1173155 3765:0.69816673 3767:1.2498196 3774:1.2075727 3778:1.4949687 3785:4.5891376 3789:3.212544 3795:0.50208229 3797:2.2217455 3802:4.3472605 3810:1.549485 3826:3.5268874 3828:0.82720971 3831:1.0716876 3835:1.6615832 3836:2.583936 3837:1.8396761 3841:0.50331962 3848:2.2181134 3856:0.14852786 3860:1.1840553 3864:1.5777394 3870:0.44502354 3876:1.5251224 3878:0.92162955 3880:0.63094115 3881:2.816215 3883:1.2644504 3885:1.7852429 3888:3.1393704 3892:0.18625912 3893:3.7300355 3903:0.47153249 3906:0.27328718 3909:4.4637361 3921:3.7071366 3928:0.25296411 3929:0.16192606 3936:0.67108315 3937:0.29044515 3951:3.3269405 3954:1.3735869 3955:0.67781508 3962:2.2878206 3963:2.0569241 3966:2.6249163 3981:0.13514228 3988:1.0647259 3994:3.2750926 3996:2.3280182 4000:3.0879121 4001:2.0140247 4006:2.6916907 4013:4.7040415 4016:1.1236353 4021:3.9651184 4023:3.3380654 4034:6.4153638 4036:2.2470233 4040:1.0322284 4043:0.86960673 4051:1.1733075 4055:2.3147197 4060:0.19389492 4063:0.46986657 4084:0.28362614 4085:2.9439952 4089:2.2057588 4096:3.9352989
0.4548676572629514 5:0.12771907 6:0.74243826 12:1.8175563 19:2.6880374 21:1.0263711 22:0.1212797 27:2.0322983 29:0.20649508 44:1.4112206 46:4.0533438 60:2.5738213 61:3.3436093 64:1.0575445 68:6.4540038 73:1.0763943 75:1.6512836 78:3.9492431 89:4.1138854 99:2.3010647 101:2.9513724 105:2.6446829 108:1.6914449 110:1.6370555 113:1.2995558 116:2.3831522 118:0.60327566 121:0.15108514 123:0.89848018 127:0.14727429 136:1.9730299 140:6.5091076 147:2.4357333 148:4.1402493 156:0.90846872 163:5.3877602 167:0.16031966 178:0.97852194 184:1.0094286 190:0.12673369 195:3.4683983 203:0.17953756 214:0.22371577 222:0.94147682 235:3.2275445 237:2.7984567 241:1.1894382 249:0.93406749 258:6.9601927 261:2.0569952 262:2.875773 275:1.1155095 279:2.1339092 283:3.5920281 288:3.7247114 295:2.7196164 301:1.0954803 302:0.77846837 303:1.16754 317:0.78205246 323:4.1426268 335:0.37670827 346:1.4205978 348:3.4746156 359:0.73828709 362:1.0822957 365:1.0894563 376:3.8009064 396:0.51451087 397:0.044897586 398:0.54041517 411:0.6232658 412:1.2159948 419:0.76796299 432:2.3114796 442:0.21064961 449:2.6259117 450:3.3171856 451:1.9948781 452:0.46884158 454:1.8909938 455:0.47292674 462:0.13323709 476:1.2700478 483:0.89077169 491:1.9096577 493:0.88515532 499:1.1164417 500:4.9014573 501:1.9456642 508:0.61677325 509:1.4945884 512:1.0210855 514:2.8230329 536:0.67280221 541:0.58324617 543:1.0692648 544:0.51630664 545:0.10722148 552:2.3443582 559:1.8897823 571:3.3090596 572:4.7056599 579:2.7364304 582:0.090970844 584:0.35075349 596:2.2301965 601:1.2291856 605:2.4138534 607:0.39915413 614:4.5563593 616:4.5266075 619:1.8926647 639:0.6081028 650:1.3129855 652:3.7160065 661:1.2089648 671:3.702332 672:1.6927783 673:3.9361093 682:1.7683053 700:1.3505659 711:0.82333851 713:0.39361566 719:0.49364048 720:0.89208031 722:1.5300351 724:0.38330686 726:0.15914795 728:2.6251516 731:1.620978 738:0.35835582 754:2.9912047 759:0.2796855 763:0.27574593 764:0.45742518 775:1.5181847 780:0.28547484 782:0.89873827 788:3.3875124 791:0.84370482 795:4.0310283 796:5.0974379 800:0.51632786 808:0.72529638 809:0.49276847 839:4.6329203 859:2.8640845 869:1.4106274 871:1.334198 882:0.39080042 885:2.3425097 891:0.16412601 896:0.96512389 908:3.8318281 911:0.21151105 913:0.21992204 918:1.829945 922:7.1293068 923:1.5932646 931:2.5462649 934:2.3556082 938:0.21716771 943:0.85314572 945:3.4082358 947:3.3300366 953:0.21205421 963:0.83717966 966:3.4918811 968:0.6954931 978:0.1598376 979:2.5450683 984:0.62643081 997:5.226892 1013:4.5715723 1015:0.082415849 1016:0.70540309 1020:0.22055453 1023:2.1313064 1036:0.40666151 1042:2.2862189 1045:1.1055357 1047:1.1682131 1053:0.0069473386 1067:0.49388111 1080:4.7251959 1088:0.012079477 1093:0.84178317 1103:1.3416493 1104:0.33411065 1105:0.90411115 1107:0.53657615 1114:1.7005163 1116:1.1214765 1117:1.3243122 1120:4.6159506 1136:4.8288736 1138:0.78443259 1146:6.5890789 1149:0.45817518 1150:0.17458883 1155:0.17037897 1157:0.59615928 1159:1.8969862 1169:3.0439556 1170:3.2197385 1177:2.0893593 1188:2.2069705 1191:1.340665 1196:0.023897156 1203:2.4788015 1208:1.3039725 1213:1.6800075 1217:1.6205866 1218:0.78499627 1219:1.772033 1224:3.0378685 1225:0.65929598 1233:0.21377747 1236:2.0648055 1239:2.162132 1242:1.17626 1250:0.32644647 1260:1.5962254 1263:3.9747894 1264:0.12859163 1272:0.147974 1274:1.2770536 1277:3.2187898 1279:0.56275821 1281:0.043676734 1285:0.65001267 1288:2.6696284 1295:0.099760622 1314:3.8850744 1316:1.6145358 1319:1.8566282 1320:3.3932867 1328:0.35559744 1329:0.96890903 1332:2.0671494 1335:0.98593444 1341:3.7807739 1354:0.20202333 1360:0.48063564 1365:3.6416769 1368:1.0135944 1369:1.312113 1375:2.9393494 1376:3.3094096 1386:4.0344048 1388:0.9168089 1394:0.074171156 1401:0.013691142 1411:3.0769644 1414:0.095493093 1415:1.7166607 1416:3.5245214 1422:2.1839855 1426:1.5594687 1429:2.2034416 1438:3.9669812 1450:2.5013063 1452:7.0968094 1465:1.3514601 1466:1.110292 1469:1.1049061 1470:2.0126634 1471:0.90988612 1475:0.4569957 1480:0.19207467 1484:3.6602631 1486:0.12465811 1506:0.74949133 1514:3.0876269 1515:1.6626999 1522:0.58880329 1523:1.8855393 1525:1.8449881 1526:0.70424771 1538:0.33523571 1545:1.1246396 1550:2.296701 1562:0.12532543 1563:0.6787191 1568:2.6748772 1580:1.3788121 1590:0.28358084 1595:1.0702024 1596:1.2257271 1598:1.0204532 1599:0.47543564 1602:5.0284519 1612:0.37660208 1613:3.7594306 1615:1.4807003 1617:1.0601755 1622:3.1998625 1624:2.7822988 1625:4.1277652 1630:4.2176323 1633:3.5680542 1653:2.080868 1659:0.01146476 1662:1.9188678 1666:0.1349756 1667:0.5865252 1668:1.9626656 1675:1.4915946 1679:2.8196249 1681:0.95993185 1686:1.7686472 1690:0.91263276 1703:1.4232335 1704:0.34872392 1708:2.1635752 1712:0.084053874 1714:0.019553849 1721:1.6906708 1725:0.085345387 1727:1.5609719 1731:0.92040348 1733:0.10811655 1738:1.4134605 1748:0.51359326 1752:0.069680378 1756:1.3552203 1761:3.1838634 1762:1.2679194 1764:2.881005 1768:0.35302055 1770:1.5955135 1771:1.6215143 1772:0.39749348 1778:0.23001039 1785:0.57544529 1804:2.9173541 1810:2.1051846 1814:1.7951658 1817:2.3360116 1821:0.40999174 1822:1.5985861 1825:0.1114493 1830:0.7915889 1833:3.6046331 1835:0.79199493 1838:1.6920859 1844:1.4974487 1848:0.19495404 1856:2.092798 1860:3.7949965 1863:0.11754379 1870:0.63823235 1881:1.9847188 1888:1.5679492 1890:0.76797402 1891:0.63657999 1894:1.0708315 1912:2.6611423 1916:2.547776 1930:2.8122327 1936:0.015453815 1938:1.9779521 1946:0.053827852 1958:1.321799 1972:0.19735728 1974:0.96001691 1990:4.959466 1993:0.78019297 2000:0.19847409 2004:0.14731815 2006:0.77857697 2019:1.550879 2021:1.6040505 2022:0.46085358 2026:0.34938446 2032:3.4531114 2039:0.15314083 2040:0.35400981 2042:0.41798273 2043:0.30849099 2044:0.13064381 2048:0.21289997 2051:3.4948075 2055:1.7403744 2065:2.4934916 2075:2.2440641 2076:0.91780126 2077:0.6286 2083:2.4271648 2089:1.4386842 2105:0.28478634 2115:2.0242739 2117:1.0645152 2120:4.2689638 2134:0.18658608 2146:2.4391923 2156:0.34639925 2159:5.2236872 2166:1.9923383 2168:2.7286463 2170:6.6592803 2181:1.3870075 2189:0.9381361 2202:11.98824 2217:1.1393107 2226:1.578481 2229:1.415766 2233:0.64879602 2259:0.56755078 2263:0.39505565 2267:1.0459045 2269:1.2850878 2274:1.4770782 2278:2.2907739 2281:1.5657742 2288:2.3740706 2297:0.60167813 2299:0.40476489 2300:0.66162676 2304:1.6013271 2305:0.97302401 2311:2.5206935 2313:1.7663549 2322:1.913761 2328:3.3783517 2343:3.4913332 2344:3.3811972 2348:1.6532453 2356:2.8171837 2360:2.975203 2367:0.18847644 2370:1.9407103 2393:3.0442603 2396:2.2595725 2402:0.57306451 2407:0.35952145 2408:1.9476755 2409:1.6893429 2410:0.69251692 2413:0.098604724 2416:7.1279578 2421:0.68730772 2434:1.9778358 2435:0.19952938 2445:1.4074864 2452:0.93999326 2486:1.0015085 2487:0.26360324 2494:1.7365282 2501:1.6935291 2505:0.37017208 2511:1.2701956 2514:0.078043759 2516:0.85029095 2520:0.42622203 2525:0.38691148 2526:5.9945784 2566:1.0237582 2568:2.9587011 2579:0.24536893 2583:1.2729645 2585:0.066431642 2592:1.5017527 2595:1.3693283 2596:0.84637886 2601:0.96847951 2602:1.6631341 2604:1.2189506 2620:2.3716078 2636:3.8887706 2637:1.6378233 2639:0.71047795 2641:4.4182358 2642:1.3870234 2644:3.1441915 2646:0.39046237 2650:0.02573134 2651:0.093437195 2653:3.9021058 2655:1.2336448 2658:0.88556087 2668:0.79050148 2669:3.2222495 2675:0.0080022812 2677:0.39636371 2679:6.1652055 2681:2.1558154 2686:1.0830044 2688:0.26554269 2690:1.2221032 2692:0.3858909 2694:1.1210024 2697:0.20433182 2698:1.0752538 2708:0.3960312 2719:0.97109282 2723:1.5434004 2726:0.50190032 2731:3.9765038 2733:0.21218313 2740:0.53992122 2742:0.4611634 2743:0.021888644 2749:0.14552464 2751:4.0926785 2753:2.6174574 2759:0.50558114 2760:0.71169484 2761:3.4584537 2763:0.67121845 2769:2.0715363 2775:1.4776363 2785:2.2013426 2786:1.3427083 2787:4.4090791 2790:1.1766224 2792:1.3451068 2795:0.38636366 2807:0.47379363 2811:1.6589324 2814:0.54924166 2816:0.26580054 2819:0.45387566 2821:0.78101873 2823:1.5387485 2829:0.13386026 2831:0.70472091 2833:2.6405935 2838:0.68238974 2840:2.7285345 2843:2.2711613 2859:0.3125577 2864:1.328706 2866:0.058038905 2867:3.4806972 2872:1.3838768 2880:2.7946877 2896:0.36140713 2898:0.53020382 2901:0.47878894 2903:0.61710095 2912:2.1067417 2914:0.6821295 2920:1.4408646 2930:3.1323495 2931:0.036230594 2932:0.68748391 2950:1.0655695 2954:3.8998494 2962:0.02768445 2964:4.9161053 2977:2.9671443 2979:0.080036357 2996:2.1220086 3006:0.18758439 3012:0.389274 3018:1.9257919 3019:4.0941472 3025:1.9044459 3027:0.43653649 3028:1.9293934 3033:0.46141914 3039:0.019800693 3041:1.3040349 3050:2.6927137 3051:0.95623404 3052:5.6765265 3059:2.6404917 3061:0.18682027 3069:0.5340327 3075:3.8665714 3081:0.43667519 3091:0.31223789 3094:2.5637188 3095:1.6853622 3106:0.78208685 3107:0.064814895 3117:1.0678813 3119:3.9020677 3120:0.13006923 3125:2.7302382 3133:0.51061058 3143:5.4974937 3145:2.4320984 3152:3.6860776 3154:2.256844 3163:2.4273531 3168:1.7334189 3169:3.182472 3170:1.6867317 3172:1.9901471 3181:2.4262469 3183:0.99813133 3184:0.82740647 3199:0.35373348 3200:0.71232665 3216:4.6347628 3220:5.4704862 3228:0.34979331 3231:1.1919988 3232:1.2903674 3234:3.61709 3235:0.6386323 3236:0.28117436 3237:1.3804127 3239:0.50263107 3246:0.25008374 3253:2.8366239 3271:0.51154166 3275:0.17157073 3285:1.0181015 3287:2.5622208 3290:2.9922795 3299:2.612644 3302:0.042946965 3310:5.357697 3319:3.4205887 3327:3.8873799 3334:2.5767446 3349:0.39953268 3354:3.4855747 3358:5.102016 3359:1.6337769 3361:1.639641 3364:2.1287222 3365:1.0265523 3366:0.51253605 3370:1.8942521 3375:0.43697345 3383:0.58770162 3387:1.1585913 3390:2.8609462 3397:2.6820173 3404:3.6076319 3417:0.69996119 3418:0.27453327 3424:3.3690202 3425:3.2018504 3427:3.9744754 3431:2.0091174 3438:1.7321091 3445:0.17047396 3451:0.8039028 3465:4.0093508 3467:0.11556646 3468:0.064839214 3470:0.035144418 3476:0.95363891 3483:1.6141038 3486:2.9985125 3488:1.2150841 3492:1.20197 3493:0.34186417 3495:5.1139383 3501:1.7634172 3504:2.450233 3511:0.90191084 3516:0.20322502 3519:0.45666158 3530:0.12206651 3532:5.8270245 3537:1.1769071 3538:1.3176982 3548:0.74191976 3554:0.96663904 3562:0.46919429 3564:0.85015267 3569:4.0060682 3573:0.5539723 3582:0.097341657 3583:0.070370853 3599:2.8978264 3608:4.3903079 3615:0.44117248 3621:0.18405455 3624:1.7586622 3626:0.2059906 3627:0.31548905 3629:1.2246374 3638:5.0447693 3640:0.51382875 3643:3.7481523 3650:0.94160211 3652:0.5112837 3668:1.5214517 3672:0.42130631 3677:2.0773993 3684:0.015431166 3690:4.1139688 3697:0.47173786 3710:5.2117181 3712:2.5733111 3717:2.7652342 3722:2.3375869 3729:1.7829705 3752:2.1613569 3754:0.46405417 3767:1.456383 3774:1.1849782 3777:1.04178 3778:1.2436339 3785:4.4448466 3789:3.184094 3792:0.46080923 3794:0.53472072 3795:0.083564401 3797:1.7745732 3804:0.31879124 3810:1.927891 3826:3.8276522 3828:0.19606599 3831:1.5664754 3835:5.3036304 3836:0.82718039 3837:0.99702168 3848:3.6097553 3854:2.2836983 3856:0.57366765 3860:1.5725069 3876:0.13506438 3878:1.2374176 3879:0.11538845 3880:1.1139848 3881:0.78906506 3883:1.2753561 3886:0.028187931 3888:3.2669485 3892:0.66921186 3893:0.53641021 3909:5.2602882 3912:0.81044698 3913:0.61705762 3918:0.61289984 3921:4.5799766 3925:2.5542574 3929:1.9398874 3936:2.7718263 3941:1.0538527 3951:2.1847556 3954:3.4298046 3955:3.0939727 3959:2.5112882 3962:4.7814989 3963:1.8607159 3966:1.4354826 3981:0.15818031 3988:1.7811831 3994:1.6670003 3995:0.38147169 3996:2.5144873 3997:1.2734722 4000:3.2583687 4001:0.88621444 4006:1.0102389 4013:0.81863904 4016:1.3184998 4021:1.8306544 4023:0.36560631 4034:6.9116969 4036:2.695451 4040:3.0246644 4043:0.76794672 4055:3.7099795 4060:0.70594496 4072:0.68532079 4084:0.29092383 4085:1.7999284 4089:1.9508922 4096:5.8572283
0.482386599716254 8:1.0266312 12:2.4354672 21:2.9597192 27:5.5192323 29:0.36958379 31:0.24026814 44:0.535083 46:1.9359457 60:0.40515316 61:4.2961745 68:6.7691092 75:0.68299294 78:4.3357878 87:0.061454535 89:0.065038383 99:1.0398543 101:2.1418619 105:1.8519007 116:1.2667072 118:1.8975847 123:2.0766368 127:0.52377826 136:0.64445013 138:0.22840124 140:5.3854499 146:0.34846389 147:6.810667 148:4.3775697 156:2.4014215 163:8.0763941 166:1.230894 167:1.6721842 170:0.92059857 174:0.92078453 190:2.160964 195:1.2079712 210:2.5336344 211:0.87318361 214:1.2985361 216:0.3137739 217:0.97847557 218:4.5981059 219:0.41686562 224:1.9597067 235:0.37635717 236:0.6581459 239:0.75861317 243:0.93947721 258:7.1391459 262:0.31710789 263:2.9107983 267:2.3099766 269:2.739289 275:1.6843491 279:0.58971441 283:0.36581272 288:2.7575083 293:0.17598003 295:1.0581803 303:1.0891099 317:0.45971274 319:1.1117854 323:1.4129519 335:4.4983902 348:0.57432991 349:0.079691172 359:0.44392711 365:2.165482 376:0.75791883 378:1.6421235 381:1.7970682 384:1.7847311 396:0.30758876 398:1.5421941 411:2.6493521 412:1.173851 419:0.98541045 420:1.223866 432:3.0012078 442:2.2451806 444:2.585824 449:0.58630836 454:5.0448418 455:0.81462741 462:1.343882 466:2.9799311 473:4.2529879 483:3.5929339 485:1.9376047 491:3.202904 493:0.70775503 496:0.11455056 500:3.8982031 509:0.5815624 514:1.4177746 515:0.80105412 521:0.12070319 536:2.158396 547:0.11396664 555:0.75063115 572:4.6566935 579:2.2552788 581:0.98238075 583:0.080281466 595:0.6564486 596:2.4086533 601:1.8626543 605:2.4598441 614:0.92047805 616:1.5555546 619:1.8489076 635:2.7618027 638:0.56482953 639:0.24372035 650:2.270412 652:0.36110091 655:0.10459615 657:4.2527561 660:2.1488035 664:4.3534851 666:2.0804026 669:1.4225233 671:2.4090803 672:0.30883843 675:3.9179487 679:0.37240407 681:0.78840053 682:1.6088698 694:2.8100319 699:2.4941683 700:0.50176114 705:4.0402989 711:2.3114183 713:1.6524245 720:0.34665376 722:1.4529961 724:5.6573005 725:0.84050882 728:2.0399351 730:2.3590319 731:2.1616797 735:0.80104429 740:2.0368283 748:0.84201252 751:2.5565717 753:0.59909904 754:2.167181 755:4.1039834 759:0.84755337 764:1.0770966 765:1.4650658 766:0.95025218 771:0.04893906 774:0.73049605 775:0.45785388 782:3.8432162 785:2.0290926 788:4.2846537 793:0.44750905 794:0.013380796 795:4.0572681 796:3.8385432 801:0.49467528 802:2.9293628 820:1.4393914 823:0.29260123 830:1.0253019 831:0.88812155 833:3.788537 837:1.6938264 839:2.658782 848:1.0908357 855:2.8025761 857:2.8843508 858:1.4089262 859:0.1286543 867:1.9214011 868:3.9369202 869:6.2964745 871:2.6802223 878:1.4886421 880:0.26381049 885:0.30196321 886:1.1470131 902:1.2035301 911:0.72032207 912:2.2750313 915:2.21632 918:4.8532743 922:7.2344193 923:0.38262853 931:1.6812869 934:1.7782303 943:3.0939817 944:2.938242 945:3.1739483 947:2.0016994 951:1.6922902 953:0.79472804 963:1.1232963 966:4.306263 978:1.6782101 990:2.3874404 998:3.3118882 1006:1.3244267 1013:2.0263011 1014:3.6887414 1018:0.11175501 1023:4.5907631 1034:0.74718225 1036:0.58273363 1041:1.1847365 1042:2.0087848 1047:2.8679442 1067:0.69053203 1075:0.94583309 1078:1.1840581 1080:4.7993293 1095:0.55702543 1103:3.7529993 1105:0.48960656 1106:0.88233638 1107:0.27407843 1111:0.17832407 1117:2.4967039 1126:0.50550985 1136:2.2673488 1138:3.308738 1146:3.7236848 1150:1.917062 1155:2.3667111 1159:2.3310783 1167:0.27101371 1169:1.6514323 1170:1.617088 1180:0.29809922 1181:0.059577383 1188:7.7279806 1191:0.6475482 1193:1.3268669 1203:1.0127075 1206:1.3339916 1208:1.1158903 1212:0.9369514 1213:2.8300161 1217:0.9606564 1219:0.039606601 1221:3.2337704 1224:1.339016 1226:0.80009961 1233:2.4282308 1236:0.92199039 1239:4.0175309 1242:1.6309317 1250:1.8323233 1251:0.47070578 1263:0.39800131 1264:5.0220456 1274:1.5579429 1277:4.083106 1279:0.041959316 1281:4.9174094 1288:1.6945419 1295:1.0501332 1297:2.115123 1303:0.59512329 1305:0.10512808 1311:1.0150638 1314:0.8355751 1317:2.9203734 1319:0.97245473 1320:0.53745621 1331:0.49240825 1332:2.5199375 1333:0.065658443 1335:2.8139544 1341:0.5932368 1352:0.0091295633 1354:2.0883255 1359:1.5130446 1360:2.5665047 1361:2.6317637 1365:0.3753202 1368:0.82769334 1371:0.58171731 1372:1.0849913 1375:4.0618672 1376:3.7944462 1378:0.83679718 1385:1.3291677 1386:4.272016 1393:0.76701987 1395:0.61125922 1401:0.67807907 1405:0.38918319 1408:2.2137706 1409:1.1480547 1411:3.6559136 1412:1.1385646 1414:0.44031078 1416:0.55376464 1419:0.84823704 1429:2.6129322 1444:0.22150588 1450:0.66138977 1452:5.1221652 1456:1.8282254 1465:0.87145615 1467:5.3904581 1470:1.0888929 1484:5.9243236 1486:0.64788473 1487:0.43690604 1489:0.078180268 1495:2.1433299 1502:1.7183144 1514:1.2380673 1515:1.0243919 1519:1.3878554 1520:0.84332758 1522:0.2260648 1523:4.774507 1525:2.3166642 1526:0.69443953 1528:0.50794297 1531:1.6926738 1538:0.11420913 1545:0.79261708 1550:1.9355646 1555:1.059407 1556:0.092990637 1560:1.0270861 1562:3.5397317 1568:4.0170221 1580:0.6409393 1582:0.93411666 1587:1.9787041 1588:1.3134159 1596:0.090734601 1602:1.4517517 1613:3.870019 1615:0.22742794 1618:2.8501124 1620:3.2185483 1622:3.4016743 1624:3.6082346 1625:4.5271239 1627:0.89810634 1630:1.1434668 1633:2.0127604 1634:1.4005656 1637:2.0781989 1638:0.5691461 1653:4.3334398 1656:0.11227772 1668:0.74275643 1671:0.56485796 1675:3.4803953 1676:0.61689872 1677:0.50642908 1679:1.7356172 1690:2.3118427 1691:1.7442679 1695:0.10106036 1703:3.6000423 1704:4.2370386 1708:3.8005543 1712:1.3601724 1721:1.2174238 1726:0.90676844 1727:1.6991339 1737:1.4232006 1742:1.0381241 1752:4.8501129 1755:0.98991388 1756:3.0229363 1761:2.3493738 1762:7.9672079 1764:0.5102731 1772:0.50094575 1773:0.73331916 1780:0.4159613 1799:0.42404714 1804:1.2711411 1814:1.7682526 1817:2.8378382 1822:3.6107831 1825:1.6925118 1830:1.0581131 1833:4.7897806 1837:0.25172496 1838:0.20487003 1844:1.4136665 1848:0.22338602 1854:0.50463408 1860:3.8543239 1863:0.57628459 1870:0.25548166 1871:1.2323788 1874:0.59510881 1881:0.31024951 1888:1.0680088 1890:1.8967466 1891:0.51237237 1895:2.3115003 1901:0.046824649 1912:1.3999395 1930:0.80976552 1936:0.76883382 1938:6.720109 1943:0.43706554 1948:2.5010862 1952:0.81201798 1958:0.65923142 1960:4.2416668 1968:2.2918088 1972:2.461195 1973:1.1099521 1990:3.3126056 1992:0.092874289 1993:1.5627949 1997:0.83999157 2006:3.5434873 2017:0.21541938 2019:2.3416533 2020:1.5248665 2021:2.0250065 2022:3.1788654 2026:1.1553637 2030:0.70257056 2032:2.3437173 2038:0.061955243 2039:3.1301007 2042:0.15637508 2043:3.1304774 2048:1.616075 2051:1.6800832 2055:2.689301 2061:1.1486849 2075:3.8980954 2079:1.5152915 2082:1.0295494 2083:0.16220132 2089:0.17835003 2101:1.3111875 2105:0.15603869 2114:0.58243418 2115:1.7492695 2117:0.3212781 2120:1.7225844 2125:0.86013788 2135:0.44751209 2154:1.148562 2155:2.3618021 2159:2.3458712 2160:1.7433054 2162:0.98266578 2166:2.2003074 2168:1.5621389 2169:0.20924535 2170:2.4842033 2181:0.18083033 2187:3.1968353 2189:2.3705018 2202:6.9039221 2211:1.233093 2214:1.077502 2217:2.3974588 2226:1.2340121 2229:5.2320781 2233:0.72742885 2241:1.2213786 2254:0.5009706 2260:2.8433847 2267:1.5797826 2269:0.3077116 2274:2.7280285 2278:2.9551258 2281:1.9467781 2288:0.51565897 2304:4.152617 2305:1.2620684 2307:0.46737015 2311:4.4887342 2313:1.3300122 2320:2.8805325 2322:0.99463558 2325:0.10270128 2328:3.4643524 2343:4.613503 2348:1.7292372 2356:0.48024374 2360:9.3066998 2367:0.45141423 2370:1.9563096 2379:0.20229989 2382:0.22538942 2383:0.422115 2386:2.4504852 2392:0.12477664 2393:3.7240198 2396:2.4109044 2399:0.58692521 2408:1.2308843 2414:0.19577633 2416:3.8570192 2417:0.22205107 2422:1.881596 2423:0.75446177 2432:2.8859348 2433:0.22869101 2434:0.3487654 2435:4.2248564 2437:1.2927922 2445:0.90764523 2452:3.2119465 2467:1.6332259 2470:1.3688251 2472:0.28916571 2486:1.3989938 2487:0.58154052 2490:0.44092739 2501:0.42716274 2507:1.7544574 2509:1.6553752 2511:1.6875728 2516:0.18241501 2520:2.6216335 2522:2.7764175 2525:5.0108948 2526:4.2632189 2528:0.61035156 2530:1.3279684 2531:1.3737694 2535:0.26065701 2545:2.4272783 2551:1.7831709 2558:5.5883508 2568:1.5869732 2572:0.17270157 2579:2.9608488 2585:0.005187422 2594:2.1373425 2595:1.1638389 2601:1.5375104 2604:3.7563481 2610:0.78861392 2611:0.0087489486 2617:2.0002635 2620:1.0235678 2621:1.2299647 2623:0.97121912 2625:1.2166979 2630:0.5264107 2636:4.450449 2637:4.3314829 2639:0.57044339 2641:4.1306944 2642:1.5174251 2644:1.2435703 2646:0.48217872 2652:1.0627803 2653:3.2339458 2655:3.0272582 2669:3.9779563 2672:0.95908463 2675:0.007050395 2676:0.54972577 2679:3.0507302 2681:2.9566243 2687:0.70409214 2692:1.1493192 2695:0.53673625 2697:0.68117803 2698:0.32095739 2708:2.5853214 2715:2.3926392 2718:2.3979864 2719:1.2984978 2723:1.2168876 2731:4.8882475 2733:1.8540335 2742:1.6942983 2744:0.32054731 2751:2.4364073 2752:0.87046015 2753:1.4968206 2754:1.5989362 2759:1.2694033 2761:0.71679962 2765:1.3855896 2766:0.68017983 2769:0.052183479 2775:1.1926552 2785:0.15514967 2787:4.4257321 2792:2.8537178 2800:1.6073843 2807:2.1148722 2811:2.0501292 2823:0.36803687 2826:0.098959953 2833:0.69409633 2838:1.6817226 2840:3.1377583 2841:0.941643 2842:2.1708448 2843:1.5664136 2856:1.2197118 2859:0.76346546 2860:1.7652372 2864:2.7501802 2866:2.3150735 2867:4.6584301 2880:0.032718197 2882:3.4059701 2889:0.078123599 2894:0.19691649 2896:2.5070868 2900:0.18570751 2913:0.49322748 2917:1.1460416 2919:0.0033145621 2920:1.4235002 2928:1.0269541 2930:1.5074403 2932:1.2228928 2945:0.63656831 2946:1.1217299 2947:0.29390097 2950:2.7228322 2958:3.4163332 2962:0.88244885 2964:3.8795774 2967:1.4697182 2971:2.4738567 2977:0.81003261 2978:0.059586406 2979:1.1311816 2996:0.4213523 3010:1.0508113 3012:0.091322824 3018:0.32810241 3019:1.9533427 3021:2.2449353 3026:2.2817528 3028:2.0548708 3032:2.1080091 3034:0.32858992 3037:0.5007208 3039:0.17032242 3042:1.0593932 3051:1.7871363 3052:2.855016 3059:4.9335823 3063:1.5242565 3067:0.7315982 3069:0.13287598 3075:0.68041068 3078:0.23204844 3081:0.67224866 3088:0.13210025 3094:1.4120593 3104:2.4706883 3107:5.176681 3118:2.9090018 3119:4.4425731 3120:0.75138098 3121:2.5875978 3123:0.19125515 3127:1.6859449 3133:1.4102441 3141:0.87781304 3143:3.3916223 3145:4.3981409 3152:7.1571236 3154:2.9369702 3162:2.3615901 3163:2.5442588 3164:2.3393044 3169:0.7842021 3172:0.03331022 3177:0.17543668 3190:1.4415485 3195:0.34578797 3196:0.77046144 3199:0.79399925 3200:2.0390377 3216:2.3131864 3217:0.64657086 3220:4.3442249 3232:1.568959 3233:0.73853558 3236:1.2415088 3237:1.1275543 3253:1.9927702 3256:2.7724776 3260:3.0789974 3269:0.11909705 3287:0.69716477 3290:0.33273768 3293:1.0798689 3294:0.16618142 3299:1.9961338 3302:0.63811237 3310:5.0278726 3319:1.2122335 3321:0.31426603 3324:1.1215616 3327:2.8055031 3334:7.2557549 3343:3.2413721 3349:0.27429992 3354:4.2698402 3355:0.56964636 3358:1.9740961 3360:0.79736674 3361:3.8991005 3364:0.3321791 3375:0.14900661 3377:0.39691299 3381:0.8915382 3390:2.2681849 3394:0.77119249 3396:0.46990794 3397:6.2320347 3404:5.2510757 3417:1.3207989 3424:4.3835149 3425:3.2166824 3427:1.2081627 3431:6.5554132 3438:6.7743073 3442:0.76286244 3445:2.3588703 3446:2.9540291 3458:0.95003676 3465:4.562602 3476:3.6407514 3486:3.1504841 3488:1.5621858 3491:1.6327798 3492:1.0096974 3495:1.0215513 3496:2.0136569 3501:0.7761904 3504:3.2472401 3505:0.65492725 3511:1.3191298 3515:0.15007591 3526:0.41867846 3530:2.1063628 3532:5.2296572 3535:0.22412434 3536:0.78876072 3537:3.179466 3538:2.9441381 3539:1.8231816 3540:3.6029077 3548:2.0173619 3551:2.7882323 3554:2.2974057 3556:0.51838833 3562:1.3182498 3564:3.5013518 3569:2.2777357 3570:0.97696626 3576:1.4912355 3582:1.86904 3599:2.2258906 3601:0.63927752 3603:2.9613652 3608:6.8028026 3612:0.25977954 3614:0.73296499 3615:2.7811217 3616:0.062552437 3621:0.064594746 3624:1.5709169 3626:1.2693294 3627:2.2773077 3629:1.2225175 3638:1.1056933 3645:0.077724487 3649:0.22505768 3650:3.393882 3653:0.048806787 3669:0.22288454 3676:0.19401181 3677:2.8505588 3678:0.81083524 3687:2.774487 3690:5.2551293 3691:1.0780971 3710:3.4503772 3712:6.4280972 3722:1.2972442 3724:1.3078642 3729:1.3740979 3732:2.0917592 3752:2.4066663 3756:0.20294237 3757:0.016340336 3767:0.23342004 3777:0.27142459 3778:1.7179991 3785:4.6846056 3789:2.6922023 3792:0.32486963 3795:3.9641824 3796:0.12131909 3797:2.6083016 3802:2.707233 3808:0.024925202 3810:1.5424194 3811:0.93027186 3815:1.0293396 3824:0.33547908 3831:2.7079294 3835:2.2499223 3836:4.2067933 3837:0.16252744 3848:7.127409 3854:0.38745356 3860:1.9376109 3864:2.9214132 3867:0.9943983 3871:1.1637622 3875:1.223949 3876:4.129766 3888:1.6648442 3893:6.2020445 3907:1.2531383 3909:0.73232847 3912:1.7321184 3913:0.87592506 3921:3.2063434 3925:0.79985344 3936:2.354527 3937:0.24658434 3941:0.85459358 3948:1.3240604 3949:0.12294304 3950:0.80977011 3954:1.9764676 3955:5.8191509 3959:2.1504967 3962:3.1754303 3963:3.6865008 3972:1.6113434 3985:0.60697639 3988:5.4571309 3990:0.050120711 3993:1.9337161 3994:3.1469183 3997:1.6159285 4000:3.3535705 4006:2.8178556 4016:2.4899693 4021:3.3801007 4022:0.54435122 4023:0.29096824 4024:2.6354959 4032:1.5877095 4034:4.5714502 4036:1.2367519 4043:4.119132 4050:0.15768422 4055:1.2361166 4063:3.7804556 4073:1.8585278 4074:3.3076105 4076:3.8522043 4085:2.4267032 4089:1.3616447 4095:0.19327693 4096:5.9917092
0.6392060341990706 5:2.0387499 9:1.1205108 12:4.0178142 19:2.7569048 21:1.4457856 27:4.0706859 29:1.1442215 44:1.4149662 46:1.2868074 54:0.50162929 61:5.1320972 68:7.4609151 72:0.88008976 78:5.1624799 89:1.7283031 113:2.8577664 118:0.49486387 121:0.94491363 126:0.63294733 140:2.5382891 146:1.405423 147:5.5501189 148:4.3965874 156:0.11771931 158:0.11715403 159:0.26471871 163:6.8962069 167:0.43754596 172:1.5284727 173:0.38324368 174:4.5590711 178:0.81863976 195:1.3744264 210:5.1265693 217:1.2539601 218:1.3212442 221:0.4410615 234:0.38444617 235:1.262502 239:0.50712669 243:1.4278296 258:6.2302961 262:0.90500295 263:1.6132118 267:0.029472262 269:3.1012714 271:1.5309767 275:2.8825428 279:1.9030403 288:3.2875476 293:2.5806828 302:1.0662502 303:0.61768788 308:0.43988433 318:0.95749623 319:0.66440648 320:1.3377907 323:3.2235765 335:1.3479366 346:1.2874923 359:0.78453505 362:1.0105761 365:1.7440264 379:0.32214919 396:0.91026837 398:0.46445835 411:0.1257703 414:0.049507499 420:0.25147384 432:1.1227299 442:5.2114549 444:1.5601901 450:1.88375 451:1.4159745 452:3.8938501 454:3.0990539 455:2.6873431 466:0.70141464 473:2.6649113 483:3.9473612 485:1.2862327 486:0.30482119 491:2.7453587 500:4.1470256 509:1.6734346 515:1.2624482 527:2.795507 536:1.1602602 544:1.0004448 553:1.7683852 555:0.10033692 572:3.3807061 583:4.0335813 596:3.3973494 601:2.8359754 605:0.15677951 606:0.26309508 635:3.3943479 650:2.1877921 653:0.28616738 657:4.4445028 664:1.8086554 671:4.5469971 672:1.9759607 675:1.7705865 677:1.1242845 679:0.3297011 682:1.4054117 694:3.1066852 699:0.85831541 700:1.8831786 703:1.4294715 705:3.8391738 711:3.7950213 713:0.88485837 720:5.1949668 722:1.6401082 723:0.12733272 724:5.7445903 726:0.10293034 728:2.5041842 730:0.71027762 731:0.26606634 735:1.7196639 738:0.34581318 740:0.95512164 749:2.6121135 753:1.1303356 754:0.39923209 755:4.0240588 759:1.564569 763:0.74687529 766:1.8495781 771:0.96449733 774:0.21234044 781:0.53965211 782:5.2595916 787:1.0946718 788:4.9372516 793:1.3190224 795:3.8045931 796:4.1699176 802:1.7783793 803:0.079687566 820:2.2149367 830:1.4745976 831:0.34648919 833:2.9255404 839:4.4153562 842:0.76126134 857:4.0975609 858:0.28954393 859:1.5712985 865:0.050614446 868:0.82375991 869:4.7557473 871:4.6041288 873:2.4411621 878:1.2219399 882:1.6203713 885:0.67339063 886:1.0319968 899:2.4220636 908:0.14089373 912:0.53910083 915:2.3619587 918:5.5553789 919:0.032046743 922:6.6934729 923:0.73880911 928:0.98791206 931:0.96212864 934:0.004763104 937:0.29728758 938:0.32079187 943:1.3618009 944:2.7689743 945:2.429523 966:2.0399914 971:3.5403705 972:0.14116031 978:1.9971279 996:1.2481675 997:0.12554747 998:1.2169297 1006:1.2266922 1013:1.5939736 1014:0.5338245 1018:5.2414036 1019:0.57488322 1022:0.76993471 1023:2.9643474 1027:0.31550488 1029:0.80019265 1034:0.52326864 1042:0.16616666 1047:4.5125647 1077:1.9983573 1080:0.19502819 1095:1.8926358 1103:0.8614682 1106:2.324646 1107:2.163502 1111:1.5405889 1116:1.7494459 1126:0.95830405 1130:2.7102435 1136:2.6792514 1138:2.1643386 1146:3.4655886 1150:1.608997 1159:0.23086426 1166:0.76427102 1169:0.83916497 1170:5.5864096 1176:1.2867337 1177:0.083613068 1180:0.50381941 1188:9.9321327 1191:1.3581302 1193:1.6059968 1203:2.0626345 1206:0.12931094 1208:1.5898042 1212:0.78789282 1213:0.64328885 1221:2.4340856 1236:0.26414639 1239:4.3203254 1249:0.413201 1250:1.158916 1251:0.8943491 1252:0.95674896 1264:4.5546832 1277:2.0888619 1281:2.6371222 1288:3.3961055 1295:0.40967149 1297:2.2456653 1305:1.5191234 1309:0.38148779 1317:0.58382565 1319:0.51259762 1320:0.29887301 1328:0.34315047 1331:1.2639785 1332:1.0990828 1335:3.9494748 1337:0.74884582 1341:1.9576352 1342:1.4726386 1354:1.1016408 1359:3.087693 1360:2.1450064 1361:3.1212962 1368:0.87624341 1371:2.6197042 1375:4.0408282 1376:5.6402864 1378:0.49869257 1386:1.9984868 1387:0.69798756 1409:3.5646229 1411:4.6541719 1419:3.3457668 1424:0.19710416 1426:1.6249367 1429:3.8604782 1430:0.36289281 1431:0.6770153 1450:1.742206 1452:3.5754304 1465:1.4197886 1466:1.1191905 1467:5.6126642 1470:1.721752 1471:1.4759643 1484:8.4911346 1487:1.4923017 1495:2.3826778 1502:1.2615635 1514:1.8756137 1515:3.3926885 1523:5.4907103 1525:2.0264666 1526:0.91302454 1531:2.1764777 1545:0.19785199 1550:2.7375965 1555:0.54852831 1560:0.7266044 1562:3.6044667 1568:4.8682718 1580:0.97028327 1583:0.1166226 1588:0.49188507 1590:0.41814584 1596:0.8530606 1602:0.24061757 1605:4.1726923 1613:1.7867 1615:1.6551539 1618:2.1591187 1620:5.274456 1622:3.8143492 1624:0.8324495 1625:0.088661626 1627:1.244982 1633:0.68816936 1634:0.042540818 1636:1.4516256 1637:0.72211123 1653:5.0601554 1661:4.066288 1671:0.70831931 1672:0.64491212 1675:0.53711379 1679:0.83531511 1681:1.1742605 1698:0.90312427 1703:3.5616541 1704:3.372035 1708:4.7357159 1712:1.3629014 1721:0.0988473 1726:0.3991923 1727:2.3461328 1730:0.57890332 1732:4.5030932 1733:1.4762539 1738:0.41371021 1748:0.9253391 1752:6.6227269 1755:1.0736432 1756:2.837054 1758:0.76052177 1760:1.22594 1762:7.2873073 1764:2.2159226 1772:4.3194079 1799:2.7385383 1804:4.0378547 1814:1.8514671 1817:0.77234834 1822:1.7194651 1830:0.48766837 1833:3.9031794 1836:0.065882355 1844:1.7545462 1848:1.5884897 1854:0.27038854 1860:2.8349898 1870:2.4452918 1874:2.7975974 1881:1.1214467 1883:0.16525647 1890:4.1594343 1895:3.9539094 1901:0.96518427 1912:2.7135324 1928:0.34681505 1936:0.31249717 1938:5.3359976 1942:0.29424027 1948:3.60114 1951:1.5901066 1955:3.7739398 1960:0.66129851 1963:0.012910724 1966:0.092710078 1968:0.56274629 1972:1.5927181 1990:2.5179272 1992:0.19775262 1996:0.91207308 2006:3.0266645 2020:0.58165485 2022:0.67592025 2030:0.67855358 2032:4.376049 2035:0.6673972 2038:1.6562785 2039:3.5998418 2041:2.9627843 2043:0.48667556 2055:3.9020934 2058:1.5425413 2065:1.9514345 2068:1.2017155 2075:1.2301623 2079:0.4960472 2085:0.650217 2101:2.2563219 2105:0.63650411 2114:2.5629492 2115:1.979551 2117:4.6937881 2120:2.6765141 2125:1.1557918 2132:1.4308028 2135:0.14695615 2154:0.1246289 2159:2.9676135 2160:1.9848592 2162:2.5087221 2170:2.065819 2174:1.8871859 2178:0.032321393 2186:0.51873142 2187:1.7814652 2189:6.4986577 2202:9.287364 2203:0.40092143 2206:1.0273982 2210:0.58590019 2211:0.95204043 2214:2.0414379 2217:4.1884775 2226:1.0412794 2229:4.1057024 2233:0.80882388 2241:2.36111 2254:1.1584109 2260:1.7173243 2269:0.498182 2274:0.74996525 2278:5.3962731 2281:2.0525987 2288:3.085418 2300:0.5649488 2304:0.63360053 2305:3.3514988 2311:1.9984224 2313:1.2608619 2320:1.9678978 2325:1.8888508 2328:2.6699183 2329:2.1235385 2343:6.8432288 2348:1.5062033 2360:10.420703 2367:1.1389443 2370:1.2772247 2383:1.1769966 2386:3.873035 2393:4.8820181 2399:1.069514 2408:1.0468189 2413:0.42320681 2416:6.2678895 2419:0.073244669 2420:3.9003768 2421:0.34283274 2422:1.1570107 2423:1.8498678 2432:0.71784556 2434:3.5925922 2435:4.5993757 2436:0.86829185 2445:1.0769167 2452:1.793153 2467:1.2450514 2470:5.3235674 2471:0.97001266 2480:1.9672282 2486:2.251936 2487:0.10617384 2494:2.0140266 2501:2.7588096 2507:5.5108232 2511:3.5164075 2520:4.0436049 2522:0.13206485 2524:0.80356348 2525:4.5968394 2526:2.0430944 2528:0.85761446 2531:0.65552688 2535:2.2947228 2551:0.12354275 2558:2.6908021 2561:0.16809271 2579:0.45303625 2592:0.62957305 2594:2.2352021 2595:1.5146555 2598:1.8670776 2601:1.0349178 2604:5.4244666 2610:2.1797361 2611:0.55489981 2620:0.59502983 2621:2.4303563 2623:3.1396341 2625:3.5379725 2636:3.460891 2637:3.01401 2641:1.9659394 2642:0.44100809 2643:0.40714726 2644:2.2734826 2646:0.7609207 2653:0.3373546 2655:1.976258 2669:5.2726984 2674:0.46776709 2676:1.874069 2679:4.002521 2681:3.4948311 2690:0.74105781 2692:1.0435017 2693:1.6324209 2704:0.70809937 2715:1.763221 2718:2.8940907 2723:0.84258592 2731:2.2023804 2733:1.5477027 2736:1.0871596 2742:0.64955902 2744:0.22493248 2747:0.24954978 2751:1.7421688 2753:1.0369456 2754:2.6546123 2760:2.1556396 2766:1.1538481 2769:0.16683802 2771:1.2058038 2777:0.21285671 2787:7.7326541 2788:1.8715862 2792:5.0023952 2811:1.0061229 2814:0.27070674 2816:0.28154689 2823:0.2622214 2826:0.59572744 2841:0.22179233 2842:3.4173174 2843:2.767179 2853:2.2950618 2859:2.426343 2864:3.9812124 2866:1.2814293 2867:4.8903279 2879:2.7053411 2882:1.2315447 2892:0.27651858 2896:1.4874904 2903:1.1146493 2913:1.1953459 2917:1.3149494 2919:1.4410127 2920:1.8670598 2928:1.8995525 2930:1.698632 2932:2.4472752 2945:0.81662834 2950:5.2858725 2951:1.8570884 2957:1.7555896 2958:2.3588855 2964:2.9962595 2967:2.3704219 2971:4.0028291 2977:2.3591044 3000:0.83935273 3018:1.3204172 3019:2.9525652 3021:4.3412089 3032:2.7229812 3037:1.0244958 3042:0.27282149 3048:0.081020035 3050:0.34057939 3051:3.4775524 3059:5.717288 3063:0.82108635 3068:2.6982594 3069:0.2375063 3070:1.7872092 3078:0.14886622 3081:0.37688699 3094:1.1712828 3104:0.060480803 3107:4.8520827 3110:1.2686571 3111:0.94492185 3117:0.67545217 3118:0.083185405 3119:1.0177612 3120:0.12036614 3124:0.22381982 3132:2.6227088 3133:1.2513156 3143:1.3580493 3144:0.51064187 3145:3.2696967 3148:0.35981706 3152:7.4177213 3154:2.8405576 3162:1.5299485 3163:1.5391951 3164:0.2411173 3169:0.63680446 3170:1.2945485 3172:1.0628872 3174:0.20418844 3182:1.5222132 3183:1.6870118 3185:0.16663304 3186:0.089165896 3190:1.4408758 3195:2.454051 3196:0.41015992 3199:0.443764 3200:1.2489913 3220:1.2300973 3233:1.4053172 3236:1.6884515 3238:0.16021147 3253:2.7347617 3256:3.4407866 3260:4.0335526 3269:2.9955959 3275:2.1075673 3287:1.9346168 3290:2.7703776 3293:2.5518172 3294:2.1901798 3299:1.7434969 3302:2.6571913 3309:0.050268237 3310:4.7553458 3314:2.0626912 3321:2.8664412 3323:0.047959536 3327:4.9153056 3334:6.9165397 3349:1.4858913 3355:0.7712543 3361:5.1270108 3390:4.0250454 3394:2.4544857 3397:4.7650547 3404:4.2277393 3417:0.4480136 3424:3.2981164 3425:2.361418 3431:6.3545051 3437:0.88170421 3438:0.25431037 3442:0.61588001 3445:5.2028618 3446:4.1557441 3457:0.42305586 3465:2.9836974 3467:0.42955238 3468:1.4154406 3481:1.5859573 3486:1.7610627 3489:0.018684715 3491:4.1351671 3492:0.86309177 3495:1.0306064 3496:0.27435172 3501:1.327002 3504:4.4740882 3505:2.1715698 3511:2.3592584 3521:0.58492386 3526:0.53084373 3530:1.1910133 3532:4.5014 3535:1.3837837 3537:3.1799572 3538:3.676717 3539:1.7065439 3540:2.0203414 3544:0.46235555 3548:1.549314 3549:4.2929435 3551:2.2130723 3561:1.163249 3562:2.2779427 3564:4.0874038 3569:2.1779649 3570:0.83100396 3576:4.0932765 3582:5.1893291 3586:2.3748879 3592:0.60532618 3599:2.5670841 3601:2.7850499 3603:0.37253493 3608:7.6531358 3614:3.5236673 3615:3.7667217 3621:0.48708856 3624:0.31245995 3627:2.0325282 3629:3.0795331 3632:0.88121367 3638:0.99018776 3650:2.0294709 3652:1.7692337 3658:0.19136694 3665:0.1445774 3669:1.0313262 3672:6.0709267 3682:0.17574228 3687:6.6516833 3689:2.4432843 3690:6.6202278 3710:1.2362565 3711:0.021395892 3712:3.8597891 3722:0.82249945 3729:0.87534541 3732:3.2099314 3737:1.5800494 3746:0.11344138 3748:0.67348176 3752:4.7699604 3767:1.7435588 3778:3.0445499 3785:3.2857664 3794:0.25618792 3795:1.5392051 3797:0.95751315 3802:6.5965514 3808:1.0171777 3810:0.0068725944 3811:5.5622568 3815:1.698537 3824:0.043837685 3835:3.5664701 3836:1.437153 3837:2.5210621 3845:0.3875322 3848:6.3302155 3864:3.3751893 3867:0.51652706 3869:0.21809977 3871:1.8102471 3872:0.0080334619 3876:2.8876636 3881:0.04820478 3888:0.11283273 3893:3.4019139 3903:1.2569305 3907:3.2623794 3909:0.67725903 3913:0.58138645 3921:2.3477135 3923:0.5907073 3925:3.3688545 3935:0.3454774 3936:0.31321174 3941:0.86648405 3951:1.2996361 3952:1.3987426 3954:0.55456412 3955:0.80485147 3957:2.9198315 3963:4.2298179 3972:1.3607715 3974:0.39706838 3981:0.10453586 3984:1.5580792 3985:1.2871904 3988:6.6324677 3990:0.91269559 3993:0.63265836 4000:3.0370419 4006:2.803122 4016:5.9986258 4021:3.7133772 4023:0.61621928 4034:0.90080196 4036:0.18773809 4043:4.4085302 4050:1.7886608 4055:0.24430062 4060:0.05771713 4063:4.6796308 4074:3.0936382 4076:3.2178261 4085:2.4921751 4088:0.77252841 4089:1.317323 4093:1.4362311 4096:3.2088933
0.02561092846945935 5:1.1866956 6:0.68636656 8:0.16298878 12:3.4079218 19:1.4667375 20:1.2408549 26:2.5047846 27:1.1740302 29:1.5354295 31:0.098886982 34:0.38711411 42:0.30619368 44:1.4564273 46:2.357193 60:1.6946659 61:3.3365278 64:0.19854048 68:6.1834874 73:2.5949726 78:6.3001323 89:3.7210214 100:0.80384856 101:0.41438216 105:2.0482972 109:0.58100593 110:2.8649673 113:4.2466607 118:1.1040767 121:1.1075352 123:1.1042572 127:0.20076582 140:3.554507 147:3.9798796 148:2.8819895 156:2.0505779 158:1.1218963 163:5.2911096 172:2.6681879 173:0.063609645 174:0.4244746 178:0.79984844 184:1.7286828 190:3.2299132 195:2.0045993 210:2.0159407 211:0.66960144 235:3.1620286 237:1.4424548 244:0.33558607 245:1.4481632 249:1.0112478 258:4.7365355 259:0.44191882 261:4.2179246 262:3.9062901 267:1.6859483 271:1.0818974 272:0.84700829 279:1.8764437 283:1.7838502 288:2.631799 293:3.8300724 295:1.9526924 301:0.37093663 302:0.94711161 312:1.68285 317:1.621354 320:0.51397699 323:4.8157382 335:0.2453171 336:0.10198966 346:1.1084557 348:0.20569049 349:0.15613301 359:0.58718157 362:1.6792593 365:1.5697856 376:4.319962 396:0.87077975 398:0.93703586 412:1.2320377 414:0.16013812 431:0.3113876 432:2.4849267 434:1.9250783 435:1.7931809 436:2.0862763 442:1.5940399 449:2.8237915 450:5.1219316 451:0.74886662 452:3.020093 454:2.0296998 466:0.13319677 481:0.39217535 482:1.0554568 483:1.9939353 485:0.24392854 491:1.6215756 499:1.2442158 500:4.601553 501:0.69385934 514:2.3704336 515:0.84183085 527:2.2432702 536:2.0917785 543:3.4141855 545:0.97391975 547:0.51459694 552:2.6052635 559:2.202131 565:0.24112004 571:1.6368611 572:6.1645217 579:0.66232717 583:0.37731993 584:1.3620609 596:2.0453737 601:0.87106979 605:3.6907926 607:0.16803691 616:2.5028236 619:2.4574203 632:1.1122823 650:1.62394 652:2.386656 653:0.80628335 657:0.85053366 658:0.59908557 659:0.81491739 671:4.9537086 672:2.9998507 673:0.39443657 682:3.6767857 684:0.33173549 699:0.86142075 700:1.8684314 705:0.81570029 720:2.2615013 721:1.3582335 722:2.0417082 723:0.51669627 724:2.5588515 725:0.6372124 726:1.0903335 728:1.1086085 731:0.81581259 735:1.4019191 738:0.1718584 740:0.61335421 749:0.80038005 754:2.0184231 755:1.4812554 759:0.76619858 763:0.86837262 764:1.8783227 781:0.48014173 782:4.8158598 784:0.14901459 787:1.2296896 788:3.8091109 791:1.2125084 793:0.74801946 795:3.0241439 796:3.9130931 800:0.46239051 803:1.4295112 809:0.18814588 820:1.0443134 826:0.13767464 831:0.23364995 835:1.1614668 839:4.1940403 841:0.71611065 863:0.5700863 867:0.48008472 869:1.4132586 871:1.1722171 873:0.32469988 877:0.0017549247 878:0.90036041 885:2.4409814 886:0.61262596 899:1.9869099 908:1.6817126 918:2.5056052 922:4.5594811 923:0.31725886 928:1.1162834 931:2.780756 932:0.60645527 934:2.2854433 935:0.61844665 943:0.55970353 945:3.9335618 947:2.4228671 963:4.2383747 966:2.9931314 971:0.87254453 978:1.2546299 984:1.0886908 994:0.52600509 996:0.8994602 997:2.7836559 1013:4.0540228 1015:1.1341494 1018:2.6868689 1019:1.3870409 1022:2.2385573 1023:3.1794143 1034:0.50421327 1036:1.096975 1042:1.04389 1045:0.4827317 1047:3.6682184 1053:0.42742446 1080:4.2071505 1088:0.28424406 1104:1.6312625 1107:1.5331802 1116:0.43707919 1120:3.9932632 1129:0.13665926 1130:0.0062996745 1136:4.0063176 1138:0.60908502 1146:3.3784788 1150:0.8583833 1153:0.9722259 1159:2.1669698 1160:0.51894969 1167:0.038373798 1169:0.18472075 1170:5.7739849 1177:1.6393143 1181:1.4024557 1188:4.0375528 1191:2.3210483 1208:1.917145 1213:2.1542654 1218:0.23048368 1219:1.2780371 1221:0.90118742 1224:2.8453612 1232:0.80333543 1233:1.8960323 1235:1.3599237 1236:1.7083465 1239:2.5875256 1242:1.8900018 1249:0.26229873 1250:1.2120156 1260:0.34712362 1263:0.74789852 1264:0.33608446 1274:0.84694177 1277:2.3801615 1285:1.371531 1288:1.7094483 1298:0.71112996 1309:0.27336344 1313:0.90673006 1314:0.29128838 1316:0.44077626 1318:0.28933281 1319:1.7860374 1320:3.3070812 1328:1.9437608 1331:0.5361138 1335:0.84823495 1341:5.8960838 1352:1.4793255 1359:1.9192851 1360:2.1375396 1365:3.4859333 1368:1.450896 1369:0.36978045 1375:4.0574441 1376:5.4632635 1386:2.5718586 1387:0.37363327 1388:1.2331108 1409:2.0434418 1411:2.482949 1416:1.3825436 1421:0.96636939 1422:2.8418002 1429:3.0894887 1438:1.8933476 1446:0.18082118 1450:1.8617585 1452:6.0656781 1466:2.5169973 1467:0.11725393 1469:1.7350658 1470:3.4547551 1471:1.7495227 1472:0.42788205 1475:1.0811319 1480:0.32898861 1484:5.8201604 1486:0.31810141 1487:0.17888828 1495:1.9410441 1506:0.77628505 1514:4.263936 1515:1.709636 1523:2.9330957 1525:2.3634334 1526:0.50187165 1538:1.267939 1550:0.95104396 1566:0.91604954 1568:3.6887736 1582:0.20811784 1587:0.33929369 1595:0.22767033 1596:2.1607976 1598:0.32460856 1602:0.70314032 1613:2.4701807 1615:0.055244118 1616:1.5967427 1618:0.72238976 1620:0.0028889477 1622:5.6067801 1624:3.5365746 1625:1.3770756 1630:1.5055984 1633:2.1352031 1634:1.2478652 1636:1.8503284 1637:0.20109026 1646:0.03109467 1653:2.2129741 1658:1.3743057 1659:0.10779287 1661:1.4793251 1662:0.67948008 1669:0.43544316 1675:1.2529118 1677:2.3079617 1679:3.6916218 1681:1.3581079 1684:0.2193581 1685:1.373468 1686:0.64668328 1690:1.0936042 1703:0.52027428 1708:2.8923442 1712:1.0028384 1714:0.75049031 1721:1.5602704 1727:0.12780006 1733:0.19027312 1738:1.8679862 1747:1.1748853 1748:2.3484547 1752:1.4069345 1756:1.612643 1761:1.0721443 1762:2.8497641 1763:0.20059933 1764:3.9301956 1766:0.37108678 1771:2.4482088 1772:3.7723403 1794:1.1574963 1799:2.1977746 1804:3.9116964 1812:0.34159502 1814:3.6278641 1817:1.1345402 1822:1.7465519 1830:0.30140698 1833:2.0061421 1835:0.17400223 1836:0.11111519 1844:2.5395663 1860:3.4335237 1870:2.5414281 1874:0.88475573 1881:5.6489553 1888:0.33855888 1890:0.33591592 1902:0.067122728 1912:4.6009994 1916:0.3760435 1930:2.4818156 1938:2.6895351 1942:1.1584631 1943:0.28769216 1955:0.86074334 1958:1.5152338 1959:0.71242642 1972:2.1271501 1990:5.1630211 1992:0.037153542 1993:2.1013179 2000:0.66838259 2006:1.3261517 2020:2.1069534 2021:0.55518806 2032:2.3935516 2040:0.083166383 2042:0.57063824 2043:0.36999232 2051:2.2105763 2055:3.1924191 2061:0.004011482 2065:4.556644 2076:0.58630419 2083:2.4977291 2085:2.8488388 2086:0.023299992 2101:1.033915 2105:3.9134257 2110:1.2089933 2114:1.2051611 2115:0.11102238 2116:0.65758467 2117:3.8772006 2120:4.764616 2125:0.7868256 2134:0.71586442 2138:0.24335265 2146:0.094919413 2155:0.17271665 2156:0.12731095 2159:5.8870559 2166:3.2088904 2167:0.026553094 2168:1.6629996 2170:6.0283165 2178:1.617182 2181:2.9062016 2186:0.62852538 2189:2.3198709 2194:1.2257705 2202:8.0074873 2214:1.1105661 2217:1.5840609 2226:1.8530495 2229:2.6567204 2233:0.6936723 2249:1.3509712 2259:0.42227542 2260:0.23513252 2263:1.1038592 2267:0.54139483 2269:1.4490644 2270:0.26089746 2273:2.3545563 2274:1.5798576 2278:4.6563039 2281:1.5681372 2288:3.7631867 2297:1.9831821 2300:2.458612 2303:0.26047349 2304:0.42814678 2305:3.3895051 2307:0.15760201 2311:2.0447524 2313:1.8216118 2320:0.031249046 2328:0.89596665 2331:1.7562937 2343:3.9044776 2344:2.4626021 2346:0.053201824 2348:3.6612737 2356:1.0239998 2360:3.0994987 2370:2.2834115 2392:0.32196206 2393:2.4375815 2399:1.0855671 2408:0.775648 2413:0.63700992 2416:7.664691 2422:1.1896037 2423:1.1857522 2434:3.4008384 2435:0.42333001 2444:0.25200763 2445:0.05591172 2450:0.30598918 2452:0.63730466 2467:1.1261996 2470:1.907747 2480:0.78477907 2486:1.8621193 2490:0.088822991 2494:3.9632988 2501:3.2018805 2507:1.4995147 2511:0.15027705 2520:2.4723144 2521:0.55723727 2522:0.65447211 2525:1.3278565 2526:1.7698934 2537:0.36394092 2568:2.9511201 2573:0.9255091 2575:0.27975374 2583:0.45874387 2585:0.54348487 2592:4.7808437 2595:1.4475635 2602:0.53708625 2604:1.6187916 2620:2.5843618 2623:1.9854664 2628:1.161039 2636:3.2971342 2637:4.0852714 2641:1.3055141 2642:1.2336529 2643:0.78926075 2644:1.483072 2646:3.0181372 2652:1.39516 2653:1.4125652 2655:0.97252059 2658:0.051727962 2668:0.46217808 2669:5.6377993 2672:0.49177963 2679:1.5426348 2681:3.9508491 2688:1.4648845 2689:0.24108396 2690:1.2824928 2692:1.0527451 2693:0.42954764 2694:0.032606609 2695:1.196463 2698:0.80190873 2715:0.88476181 2723:1.5791824 2731:1.9230316 2733:0.80847114 2736:1.5028281 2738:0.71410036 2742:1.3493205 2746:0.20413308 2747:0.66818571 2751:5.403357 2753:1.7507855 2759:1.8084812 2760:1.0812175 2766:2.1594572 2769:4.573534 2777:0.69851243 2785:1.7268183 2786:1.7417536 2787:5.8111048 2790:0.8059634 2792:0.78944999 2794:0.21024537 2807:1.0409905 2811:0.8741492 2814:0.37619385 2816:3.0527678 2819:0.85575986 2821:0.91902232 2831:2.7949295 2834:0.40767765 2838:0.13006163 2840:0.075276732 2843:1.8554518 2853:0.69831532 2859:0.77456039 2866:0.67850184 2867:3.2300637 2879:1.4080809 2892:2.1955249 2912:2.417979 2915:0.018155813 2917:1.2295549 2920:0.011298645 2930:1.0482087 2932:3.6747971 2950:2.3300447 2954:0.24424686 2958:0.27310303 2964:3.4244068 2966:1.5129325 2967:1.6691955 2971:3.2643454 2974:0.76091057 2977:0.79470181 2979:0.34834421 2996:0.0028727651 3000:1.5896062 3003:0.58463973 3006:0.99336243 3018:1.3506192 3019:3.3033214 3020:0.80359852 3025:1.1038371 3028:0.67947614 3032:3.3077347 3039:1.9926547 3041:1.4113051 3050:3.4338906 3051:0.7921983 3052:5.874248 3059:3.4017377 3075:2.9206326 3087:0.18497969 3091:1.0713797 3094:1.23789 3110:1.9014571 3111:0.57496029 3117:1.3296614 3119:1.5581877 3125:0.74939179 3132:0.11383472 3133:3.8881178 3140:0.077938616 3143:0.85783964 3145:2.8482034 3148:1.3285769 3152:5.0834417 3154:1.87918 3163:0.79011166 3169:1.3031321 3170:1.2317392 3172:1.265164 3174:1.6577293 3181:0.62817687 3182:1.0680854 3183:1.2363492 3184:0.10121398 3185:1.1408975 3195:0.75121492 3199:0.62428129 3200:1.1182108 3213:0.89751047 3220:3.8165267 3228:1.8840373 3233:0.90349072 3235:1.9421508 3237:0.3312225 3252:1.1263169 3253:2.4814463 3256:0.42512912 3259:0.17907757 3271:1.3604318 3275:1.6725032 3290:2.9097998 3291:0.083679736 3293:0.29314491 3299:2.8677702 3302:0.83823407 3307:0.35639149 3309:1.1289704 3310:4.343452 3314:1.7208693 3319:0.982315 3324:0.21388587 3327:4.7551618 3334:2.9278095 3349:2.6851339 3354:1.3819628 3355:2.0139639 3358:2.5158892 3361:3.4609158 3365:0.27637053 3366:0.18790826 3370:0.80492568 3375:0.40296391 3383:0.43230668 3388:1.6557417 3390:4.6568575 3394:1.3825135 3397:3.64888 3404:2.676609 3417:1.8242853 3418:0.76660335 3424:2.9565043 3425:3.2760997 3427:4.4014149 3431:2.8211653 3438:0.93676639 3445:0.34889564 3446:0.96357477 3451:0.61684579 3457:0.12361764 3465:2.3816605 3467:0.21408555 3476:1.3168195 3486:1.1194009 3492:2.1634529 3495:2.7529118 3501:2.1132357 3504:4.1514559 3505:2.7687964 3511:1.7423295 3516:0.16447742 3519:1.1846368 3520:0.62234116 3532:5.0490608 3535:0.66617346 3538:3.1385317 3544:3.7758515 3548:1.7427206 3549:0.12745011 3551:0.99316722 3561:1.2077041 3564:0.6628046 3569:2.6216195 3570:0.55740517 3573:1.590608 3576:1.6842681 3582:1.3657813 3583:0.82852763 3584:1.1116974 3586:1.1400189 3595:1.1045849 3599:1.4918547 3603:0.7571584 3608:3.5425167 3614:1.6759619 3615:1.6030551 3617:0.96209806 3624:1.7361164 3626:0.20059368 3627:1.9574543 3629:0.65745306 3638:3.2377479 3643:3.6500096 3650:3.1809511 3652:0.013191879 3658:0.066480666 3668:3.6831012 3669:0.059563726 3672:1.1728964 3687:1.0788586 3689:0.3057898 3690:5.7780333 3710:2.2621405 3712:0.7949276 3717:2.0771475 3722:2.8990405 3729:1.3914884 3730:0.66475189 3732:1.2492843 3738:0.90986395 3748:1.2955067 3752:2.4702458 3757:1.1945889 3760:0.42984664 3767:0.89624608 3774:1.4981549 3778:2.1323984 3785:5.7908177 3789:2.3531244 3794:1.087194 3795:0.51332378 3797:0.16158868 3802:3.5489676 3808:0.11807325 3811:2.1564691 3826:3.186902 3828:2.9154687 3835:3.4852881 3836:2.3707981 3837:0.65754008 3845:0.32078105 3848:3.0088441 3856:0.38008112 3860:0.83611524 3864:2.6949718 3867:1.5649637 3878:0.61416799 3880:0.10604891 3881:0.25132927 3885:0.045837462 3888:2.5371981 3893:2.2839878 3903:1.8507688 3907:0.29012805 3909:5.1115818 3912:0.19246349 3913:0.49267325 3921:5.6272945 3925:1.6296461 3926:0.31187904 3929:1.1591965 3936:0.2862339 3937:1.0968908 3951:3.4643292 3952:0.22255485 3954:2.0569735 3962:1.6438103 3963:1.2355113 3966:2.8225493 3972:0.026928574 3988:1.882898 3994:0.75425345 3996:0.34732947 4000:1.8567852 4006:0.16064927 4011:1.4324484 4013:4.4597163 4016:2.6094332 4021:2.3461611 4023:3.0418253 4029:2.1001797 4031:1.0562028 4034:3.464401 4036:3.7936459 4040:1.7112877 4051:0.071861595 4055:1.4560642 4060:0.010111183 4063:2.021071 4085:1.9793782 4088:2.931401 4089:3.2097585 4096:3.1090639
0.001015886669883923 3:0.75567299 6:1.0588862 9:2.1181779 12:4.0406656 19:1.2540082 20:0.72307092 27:2.3759573 31:1.8185184 44:1.8086077 60:2.0622315 61:4.0694571 68:6.320869 78:7.9668593 80:2.7233157 89:2.5816157 100:1.1077468 105:1.6745472 108:1.0044796 109:0.12905067 110:0.33356747 113:4.8910909 121:2.9485979 126:1.4136335 140:1.8121703 147:3.8843179 148:0.98129952 153:2.6692204 158:2.6527579 159:3.0820816 161:0.5102154 163:2.0112541 172:3.2224386 173:2.231796 181:0.26142675 190:2.7226844 209:1.4741389 210:3.0413294 217:2.4358275 221:0.4158839 225:0.61107767 235:5.731308 237:1.3819721 243:0.14354457 251:0.36284459 258:2.9899538 261:3.5902376 262:4.7605443 267:0.30531752 271:0.66552067 279:2.5310633 288:1.1912996 293:3.6421471 301:0.75490391 302:3.5440874 317:0.11098418 323:4.7303615 334:1.51379 335:1.3205712 346:1.3139802 348:0.077228948 362:1.6721883 374:0.62206626 376:1.1834753 396:0.76519036 420:0.87699091 421:0.22924076 431:1.1412259 432:0.80664825 434:3.5438349 435:2.0189602 442:2.9311974 450:4.9747396 451:0.65279806 452:4.2376037 454:1.1003538 455:1.6508223 466:0.11826205 481:0.065699987 482:0.59109932 485:1.1563728 499:0.4280028 500:3.0524967 501:2.0990038 509:1.1435827 514:1.7291131 515:1.591768 536:0.29256058 543:1.8699002 545:0.39052695 552:0.1134433 553:0.97096503 559:1.1025116 563:0.03361059 572:7.921865 578:1.2565712 579:0.88986307 584:0.47426856 601:2.5352273 606:2.4724655 607:0.41574758 632:3.1670566 650:0.095547199 653:0.97083867 658:2.1964684 671:2.6438479 672:6.8234291 679:1.449904 684:0.38770911 694:0.5724504 700:5.4642377 709:0.82817978 711:0.034502238 720:5.841383 722:1.2962621 723:0.5386439 726:1.5775037 741:0.71260118 749:2.0581558 754:0.089426503 755:2.5276577 763:2.2175527 764:0.58613181 767:0.27789596 775:1.9488132 777:0.86159885 782:3.3043914 787:0.84514177 788:4.7163706 791:2.6011486 793:4.2967749 795:1.0850086 796:3.8625822 803:2.7423575 809:0.22851887 814:1.4737155 820:2.0028718 833:0.5884968 839:8.256588 857:0.28370312 859:0.73736203 865:0.17141542 869:0.1631321 871:0.7858687 873:0.53943038 882:0.6813007 885:3.5047748 899:1.0131396 902:1.0126474 908:0.40603492 913:0.79371381 918:2.7975085 922:4.5560727 928:2.389415 931:0.6079641 932:2.5712965 935:0.87597311 944:0.48802471 945:4.2374716 956:1.0223354 963:2.496259 971:0.3072325 979:0.45792717 994:0.16483995 996:2.2849774 997:0.740448 998:0.73950827 1013:3.528616 1015:0.81703842 1018:4.6174431 1019:3.3750305 1021:0.57891136 1022:1.0242257 1023:1.8093771 1027:0.52295983 1029:0.73692477 1034:1.5320368 1038:2.1306133 1045:2.2809258 1047:3.8094287 1057:0.11120449 1068:0.070623577 1077:0.62039953 1080:3.206953 1095:3.2654445 1104:2.4142563 1106:1.9709111 1110:0.17060739 1116:0.47975212 1117:0.95095587 1120:4.277833 1130:4.332962 1136:2.2804132 1138:1.4298053 1146:3.4038582 1149:0.68585449 1159:1.281121 1162:0.53142118 1170:2.9662178 1176:0.508515 1177:3.3120785 1188:1.4840316 1191:2.8940883 1193:0.23105374 1203:0.85421228 1208:3.0208454 1219:0.94243354 1224:0.52278215 1232:0.090256304 1235:0.1229257 1236:4.2667632 1239:2.668555 1249:0.11488989 1252:1.7706633 1261:0.59592259 1263:1.4324903 1277:2.2358079 1287:1.3328824 1288:1.431527 1305:0.9711951 1319:3.2721517 1320:0.07213679 1328:3.1716456 1331:0.72788036 1335:2.1463478 1341:5.5998158 1342:1.2221709 1359:0.88256788 1360:0.58869529 1365:2.487395 1368:0.61006516 1369:2.6557884 1375:3.3674135 1376:4.1521502 1386:3.7877681 1387:0.7097894 1409:3.7771106 1422:2.4448884 1429:0.15275986 1447:1.5086359 1450:2.4702024 1452:4.1779189 1458:0.38827437 1466:2.7854471 1467:0.37212774 1470:1.8945295 1471:3.8260665 1472:2.5495934 1480:1.7147166 1484:4.7887354 1495:2.8447962 1506:0.41748136 1514:6.8432779 1515:4.9732885 1520:3.1492171 1523:5.4442554 1525:0.22258258 1538:3.1008759 1544:1.0095739 1550:3.2620583 1566:1.227071 1568:0.39722875 1580:2.2503314 1582:1.8208976 1593:0.089400664 1596:4.1115584 1605:3.3048048 1613:2.7965477 1615:2.6104844 1616:1.8887072 1620:3.7069092 1622:4.2839274 1624:0.2953414 1627:1.1165352 1630:1.1279576 1634:1.1555012 1638:0.22666985 1653:2.2805374 1659:3.4625504 1661:4.3568225 1662:1.0983857 1675:0.042991757 1677:1.3286535 1679:1.5660634 1681:2.3432817 1683:1.4918783 1685:3.4196131 1686:0.44205523 1697:2.2734113 1698:0.68311846 1703:2.4031792 1704:0.015345827 1708:2.0077834 1720:1.3660377 1732:4.5497108 1737:0.67067385 1738:3.6478617 1747:1.528011 1748:4.5544233 1752:2.5323424 1761:0.27966878 1762:4.4860206 1764:2.9671979 1771:0.29121375 1772:5.5851307 1778:0.96864778 1794:1.2740284 1799:5.8205118 1804:2.5266221 1814:1.1217541 1817:3.8847971 1822:0.76589453 1830:0.21881627 1833:0.88890302 1836:0.4891741 1844:0.69254106 1848:0.1627807 1856:0.97376549 1860:4.4720531 1870:1.8587259 1875:0.48610178 1890:2.6677403 1912:4.0219479 1930:2.8044925 1938:2.8864279 1939:1.3652655 1942:0.54944658 1946:0.48720914 1955:0.24029028 1972:1.2807145 1990:5.1596699 1993:3.1228838 2000:1.2475674 2004:1.0472281 2016:0.87038147 2020:1.3596942 2031:0.019447818 2032:2.1542115 2041:1.823675 2042:1.1744294 2055:2.6236105 2060:2.157788 2061:1.9662005 2065:3.6555731 2076:5.4722605 2083:1.4130812 2085:2.9078114 2089:0.17800337 2105:2.7510793 2106:0.72127622 2110:0.89459372 2114:2.6432869 2117:4.2515984 2120:2.9205749 2128:1.4238857 2132:1.8295915 2134:4.7957668 2159:3.2123549 2166:0.23200339 2168:1.6195779 2170:4.6913853 2174:0.90855527 2178:1.6866144 2181:2.0997581 2189:4.5618787 2202:8.7872028 2203:0.29575294 2210:0.30801713 2212:0.48646164 2214:2.1214213 2217:3.8650749 2223:0.20844395 2229:1.9695128 2241:0.60783172 2245:1.6861247 2249:0.990453 2254:1.7186322 2259:2.1538305 2263:0.23911528 2269:2.8482528 2270:0.6806922 2273:1.4541327 2274:2.2239408 2278:5.8082738 2286:3.7196703 2288:3.9053147 2294:1.0457733 2297:0.85324728 2300:1.5361102 2303:0.66296202 2305:4.5289059 2311:2.4422669 2313:3.3277299 2320:1.6679136 2328:1.4755311 2329:2.1812 2331:5.2013631 2343:2.6637564 2344:4.5284314 2348:5.3707919 2358:1.0861318 2360:7.2407322 2367:2.1188173 2370:2.1817117 2386:1.9511374 2393:1.4327685 2408:1.9605197 2416:11.944298 2422:0.80755746 2423:1.5073813 2434:0.25659233 2435:0.18732403 2441:0.72726882 2444:1.0286679 2452:0.23517722 2464:3.2400293 2467:3.3645408 2470:5.0104904 2480:2.1796653 2486:2.2828987 2494:6.4420762 2501:5.9179077 2507:4.3467426 2511:1.0071112 2517:1.1863436 2520:2.5132301 2524:1.3728228 2526:1.0300989 2536:0.70381731 2537:1.1255041 2566:0.69445592 2592:5.3959312 2602:1.1370668 2604:3.8455989 2610:1.6469461 2620:2.7077677 2623:0.9241305 2628:1.1044943 2636:1.5563173 2637:2.5784953 2642:2.6879954 2644:2.297471 2646:3.1739094 2655:1.4775411 2668:0.020156309 2669:4.8335128 2674:0.44555646 2679:0.5151127 2681:1.9968699 2701:1.2240462 2708:2.7015376 2718:0.33530584 2723:1.6396492 2733:0.98013437 2735:1.0903431 2738:1.7291205 2744:0.62456566 2747:1.5308496 2751:1.8396038 2753:1.8227421 2754:0.50553101 2759:3.7539423 2760:2.3526816 2763:1.8583587 2771:2.279994 2777:1.356708 2784:0.08299908 2785:0.44647345 2787:0.55824018 2790:1.6656559 2792:2.7345083 2795:0.10951889 2798:1.3269286 2802:2.5856204 2805:0.00055277348 2811:0.57652283 2814:0.95306498 2816:1.5893972 2819:0.90782017 2831:0.61760324 2834:1.1210296 2838:2.5732789 2840:1.1678916 2843:0.68308496 2853:3.9729173 2857:0.22902223 2859:0.83165026 2864:2.7300937 2867:3.1902781 2872:0.66082072 2879:3.4734721 2892:1.811602 2898:0.2213459 2901:1.3640873 2912:0.17487973 2913:2.546226 2917:1.8905294 2920:1.779784 2932:0.75029141 2950:1.0019023 2958:1.0417128 2964:2.3401206 2966:7.2017756 2967:1.0670903 2971:4.6334677 2974:3.6829944 2979:2.3758371 2982:0.28430653 2995:0.090157658 3000:3.5371077 3003:1.3719281 3006:0.18596764 3011:4.6895022 3019:5.0703201 3025:2.7883239 3032:2.0052021 3039:1.7844111 3041:1.4180299 3048:2.1095042 3050:4.2195392 3051:6.7944727 3052:1.5914304 3059:1.9318674 3079:0.35288751 3087:2.9943542 3091:0.22039272 3110:1.9612868 3111:1.261235 3117:2.3744843 3124:0.87946725 3133:4.6020222 3135:0.82613361 3143:0.2916083 3145:5.1012521 3148:0.29998195 3152:5.586 3163:2.3270223 3164:1.0923525 3169:0.90992653 3172:1.6415468 3174:1.251304 3181:2.5504458 3182:1.8669317 3183:5.7086058 3185:0.12550052 3190:0.69934344 3195:4.2131791 3199:1.016627 3213:0.83417398 3231:0.19817396 3232:1.5945402 3235:2.7209888 3237:0.17811602 3252:0.66732872 3253:1.2935632 3256:3.1810031 3259:0.36817119 3260:1.9172176 3269:0.68667448 3271:2.9813781 3275:0.25161052 3285:1.9559101 3287:1.2871199 3290:5.0168262 3293:1.8791628 3299:3.26016 3302:0.92589134 3310:4.9315486 3314:2.3657928 3321:0.91175944 3327:7.0572162 3334:1.6355872 3355:0.35503647 3358:0.043979317 3361:3.0923266 3366:1.1723245 3383:0.20885839 3387:0.88708144 3388:2.6340733 3390:1.6814569 3394:0.79295278 3397:2.0568089 3404:3.0425308 3424:6.6830511 3427:0.19288196 3431:0.79305661 3437:1.1303291 3438:0.3363404 3445:7.2091312 3451:0.35824388 3465:2.9233308 3467:2.1587214 3471:0.13683647 3480:0.17622769 3501:1.716669 3504:4.4868312 3505:1.8144274 3507:0.26304287 3511:1.7362915 3532:4.4191265 3535:6.9366665 3538:2.9538565 3539:3.4654486 3544:3.4640126 3548:1.0091224 3549:4.5123258 3561:2.1486976 3564:2.5645576 3569:3.3824039 3570:1.241752 3573:3.1728094 3576:3.6312373 3582:1.2535954 3583:1.5063094 3586:2.8055193 3599:2.7317667 3614:4.0948524 3615:0.81855488 3617:1.8268523 3629:1.938349 3631:2.1566534 3632:1.4990165 3643:0.073596373 3649:1.4437217 3650:1.092181 3668:2.8347325 3672:0.54000306 3687:1.9969186 3689:0.11914565 3690:7.5047002 3710:0.63780165 3722:2.1313286 3729:3.1267657 3732:3.9116163 3738:0.22158942 3748:1.3562177 3752:3.26369 3757:0.57945269 3765:0.25924718 3778:4.9432502 3785:4.4850731 3789:2.1430132 3797:1.4418014 3802:4.8166518 3810:0.46109718 3811:3.6031523 3815:0.75129646 3824:0.25028649 3826:4.0750117 3835:0.52902168 3836:2.9589264 3837:2.2835939 3848:0.34511179 3849:1.9229428 3856:0.57492977 3860:0.094270349 3864:1.6096902 3870:1.7549095 3872:0.28608704 3876:0.44055074 3881:0.31155762 3888:0.017569393 3892:0.7602762 3893:1.3600605 3903:4.2704644 3909:4.0870438 3912:0.67189729 3921:1.4716519 3926:0.49160397 3935:0.55757427 3937:0.47854775 3951:3.222542 3957:2.7339015 3963:1.1126065 3966:0.57610136 3969:0.19587474 3984:0.56190646 3988:1.2787106 3994:0.20493314 3996:2.002516 4000:3.7346771 4001:0.65124583 4006:2.6200945 4013:5.7704477 4016:4.1957984 4021:2.9896467 4023:4.0307331 4029:2.5695992 4031:1.1091797 4034:3.2479825 4036:3.6036384 4040:0.84552002 4043:1.5907998 4055:0.75993264 4085:2.129962 4086:2.1004035 4088:4.5965023 4090:1.2320803 4093:0.45367205 4096:0.10251856
0.2309884110227867 3:1.2901208 5:1.3143098 6:1.851011 12:1.607456 19:4.0771718 21:0.20995146 27:3.6038573 31:0.052285403 44:2.1666903 60:0.67467964 61:2.3448539 64:3.0310497 68:4.3765149 75:1.9875934 78:5.6862454 80:0.38974848 89:5.234941 99:3.0506451 105:2.7431529 108:0.94458359 110:3.1326439 113:2.901684 116:1.0728898 118:1.5668848 121:0.6203922 127:0.41495985 136:1.5307136 140:4.159112 147:3.3783364 148:3.0910802 159:1.1764779 163:4.0438023 167:0.57407129 168:0.25251624 170:0.26196221 172:1.9731867 178:1.4800866 181:0.26396355 184:1.4305204 195:3.9902351 214:0.76761353 217:0.076109514 218:0.43633667 222:1.4506958 225:0.67670232 235:4.1736951 237:3.3399842 241:1.9540656 245:0.60601389 252:0.69446611 258:5.6170998 261:0.92454302 262:2.1575198 265:0.68749416 275:1.6164734 276:0.4346723 279:3.00896 283:1.669543 288:3.8289289 302:1.3310554 303:2.1307778 312:0.93240893 315:0.8391186 323:2.8053281 334:1.8579062 335:2.9321692 346:1.3748103 348:5.3781524 359:0.70917106 362:1.3570268 365:0.66134715 376:2.2277155 381:1.9768338 394:0.51157779 396:3.2079306 397:0.59687024 398:2.8787286 411:1.7849109 414:1.8118992 421:0.62941533 432:1.8123523 434:0.94779354 442:0.22265446 450:1.774091 451:3.2418895 452:1.501745 454:1.1740265 462:0.74016935 473:0.62583047 475:0.86182255 482:0.84253383 485:1.2053667 486:0.62149459 491:1.8006738 499:2.1388462 500:3.4761958 501:0.84437394 508:1.5907481 509:1.6239438 512:0.35901016 514:3.5270433 521:0.64568448 541:0.61686563 545:1.0837083 552:2.318305 559:1.8592139 571:2.7289505 572:5.2579031 579:0.8833636 596:0.0062605143 600:1.4102831 601:2.3491549 607:0.018468134 614:1.1442432 616:3.2297013 624:0.36097342 632:1.7800468 639:0.879861 641:0.69090819 650:0.84874952 652:1.5466241 653:1.7221594 658:0.53177899 661:2.4494109 665:0.55959249 671:2.901356 672:2.8491478 673:2.076503 679:0.43347934 681:0.085195497 700:3.4050391 705:0.59869182 709:0.39464587 711:0.447404 719:0.058324233 720:4.7870274 726:0.23592408 728:0.70043945 731:0.10490409 738:0.70813155 740:0.13049394 746:0.19653502 749:0.9145956 754:1.1536179 755:0.087649509 763:1.696041 764:1.0060033 781:0.81084931 787:1.0811783 788:5.391798 791:2.3330719 793:0.58203936 795:2.9602571 796:3.4040465 802:0.43776274 809:1.6443679 818:0.83338451 820:2.1741762 833:2.9504871 835:0.12251881 839:6.2494974 848:0.52992368 859:2.6125081 868:0.12760234 869:0.49943694 871:1.5946442 880:0.14780501 882:0.63971621 885:2.9594467 891:0.26289654 896:3.0074725 899:0.48725235 908:2.4408801 912:0.2735849 913:1.4005785 918:1.8300629 922:3.9614384 923:1.5460322 928:1.0359179 931:1.4403659 932:0.53346944 934:1.2577465 937:1.9728495 943:1.0449795 944:0.49153084 945:3.973105 947:1.5837033 953:0.036080211 968:0.011450052 972:0.72904718 978:0.94267118 979:4.489121 984:0.24596559 994:0.76590347 997:3.9723094 998:2.7012742 1013:5.514185 1018:0.34964269 1020:1.0212936 1022:0.6107685 1030:0.79850751 1034:2.349489 1036:0.57413554 1042:2.1665645 1045:2.9252663 1047:1.7739744 1067:2.2165389 1069:0.26905823 1077:0.62331671 1078:1.0903271 1080:4.0111051 1093:1.011847 1095:1.7018788 1103:3.0335076 1104:0.72122121 1105:2.0253973 1110:0.78204423 1114:1.2543393 1116:2.4879549 1117:3.40467 1120:4.2266726 1126:0.032310545 1130:0.91032755 1136:1.7677369 1138:1.5062277 1146:2.6229434 1149:1.8363031 1159:2.386796 1169:3.546948 1170:3.4374185 1176:2.2603893 1177:1.0106454 1182:0.06261456 1188:0.66775763 1191:1.7967942 1201:0.30631191 1203:2.9295263 1212:0.93231219 1213:1.4578884 1219:0.48292038 1220:0.36302191 1224:1.5397898 1225:0.96472877 1226:0.58140039 1232:1.2321582 1236:2.2759843 1239:1.7176756 1240:1.454249 1251:0.063201435 1252:2.5162323 1254:2.3921936 1260:0.39311796 1261:0.6101284 1263:1.7424201 1272:0.31957403 1273:0.45222172 1274:1.1455927 1277:3.3731406 1279:1.4310153 1288:2.0072956 1297:0.46415612 1309:0.19831648 1314:2.585063 1319:1.2369659 1320:1.6962491 1328:2.4464293 1329:0.34599736 1331:0.84408891 1335:1.6763701 1337:0.82996428 1341:3.7887228 1342:0.57030904 1351:1.6585871 1354:0.96498621 1360:1.6844963 1365:2.6800392 1368:1.2879415 1369:0.40513361 1375:4.9061007 1376:3.4687166 1385:0.88044417 1386:4.9924784 1401:2.4501739 1409:0.9656747 1411:1.2545396 1412:0.56896436 1415:0.79148304 1416:2.9943662 1419:0.62091643 1422:1.1283137 1426:1.4286187 1429:0.48963386 1435:0.20831448 1438:1.9608672 1446:0.082863122 1447:1.0182607 1450:0.86731273 1452:6.2211299 1465:2.7575102 1466:1.8082943 1469:1.2667118 1470:5.1862316 1471:2.6469846 1480:0.83944821 1484:0.54078627 1486:1.4488082 1513:1.0753658 1514:3.2797053 1515:3.8370404 1520:1.4157345 1523:3.4907386 1525:0.97128987 1526:0.52127218 1538:3.0922818 1550:1.5367894 1555:0.3849352 1562:2.325002 1563:0.37111989 1566:0.30315784 1568:1.401531 1580:3.9018693 1582:1.2282364 1595:0.56922573 1596:0.62301505 1597:0.28508991 1602:0.38762593 1606:0.11084503 1613:1.7332153 1615:3.0583856 1616:1.1596079 1617:0.5005216 1622:1.0775018 1624:2.2843823 1625:1.374831 1627:0.10425357 1630:3.0893502 1633:0.49677736 1634:1.7727461 1638:0.5421809 1659:1.1138636 1662:0.76890188 1667:3.2241957 1668:0.81516939 1672:0.52343577 1675:0.47239935 1677:0.70158482 1679:1.4272263 1681:2.5794086 1682:0.47245765 1686:2.4578929 1690:0.016977876 1695:0.33751053 1697:0.69078737 1699:0.034195423 1703:2.0709336 1704:1.3629919 1708:1.0534425 1721:1.2646103 1723:0.089365005 1726:0.69723797 1729:0.31728715 1732:1.3274516 1733:1.1004213 1737:1.2380002 1738:0.52018064 1747:0.071800023 1748:2.9221098 1752:0.070215583 1756:1.0471008 1758:0.33359843 1760:2.9144742 1761:3.9632175 1762:0.51544738 1764:1.2308595 1768:0.048170179 1770:0.54758501 1771:0.6941942 1772:2.1605101 1778:1.6060468 1782:0.4401041 1804:4.3860993 1810:1.2931709 1811:0.7296344 1814:1.5675075 1817:2.6670985 1822:3.0592544 1830:0.37239727 1833:3.6425607 1838:0.071918368 1848:2.0757113 1856:2.1726701 1860:1.8007431 1868:1.4288551 1870:1.1466837 1879:1.0130098 1890:1.3204401 1894:0.89817107 1895:1.9175698 1902:1.1720247 1912:2.8640826 1916:0.1841933 1930:4.2056756 1932:0.41374487 1938:1.4421391 1942:1.0279657 1946:2.1805995 1958:0.71144515 1990:4.3882689 1993:0.19524169 2000:0.96471357 2004:0.66659981 2021:1.3352749 2022:3.2714298 2031:0.10219856 2032:1.0032119 2041:1.6056472 2042:0.93320608 2044:0.94694531 2048:1.3183084 2051:0.62143648 2055:0.67133975 2060:0.33263937 2061:0.57403046 2065:3.314889 2073:0.99719322 2075:1.9372045 2076:1.4077801 2083:3.3867626 2085:0.74264306 2086:0.35484016 2089:1.6159527 2092:0.30703688 2105:0.73550701 2106:0.78712595 2114:0.5026685 2115:0.57948053 2117:2.2756128 2120:3.6677573 2132:0.36419213 2134:0.9322865 2156:1.5804532 2159:2.4799707 2164:1.3184201 2166:1.4682724 2168:2.0170765 2170:2.5236063 2178:0.35443187 2181:1.9906116 2189:1.6464498 2202:8.924922 2206:1.242429 2210:1.8742286 2217:0.21589544 2226:0.88940918 2229:2.6646204 2233:1.6850907 2241:2.2199104 2244:0.0018498898 2255:2.3530512 2259:1.9280249 2263:2.9097157 2267:0.5608241 2269:2.3439574 2273:0.3058973 2274:0.54239774 2278:2.8919756 2281:0.048502054 2286:0.43921047 2288:3.0623739 2297:1.1331099 2300:3.0127599 2302:0.18457715 2304:1.7870789 2305:2.720257 2311:2.8254457 2313:1.017246 2328:3.7659652 2329:0.85071456 2331:0.15860447 2337:0.050811462 2343:5.0276909 2344:4.3362908 2348:3.0436037 2357:1.0116167 2360:4.9774895 2366:0.12859201 2367:1.0113122 2370:0.86167073 2384:1.2688634 2393:1.9250004 2396:0.69020033 2399:0.22527236 2402:0.41540712 2404:0.04056868 2407:0.56243753 2408:2.7280664 2409:0.37808791 2413:1.9016874 2416:7.5528932 2421:0.269503 2425:0.658409 2429:1.0764234 2435:0.31198859 2444:0.72681773 2445:0.76347065 2452:0.56533372 2470:1.134688 2472:0.081190318 2486:1.5555574 2494:2.3836722 2501:2.3136175 2513:0.32477021 2516:0.47325003 2519:1.1900378 2520:0.46411514 2522:0.73474503 2525:0.86058509 2526:4.6625414 2535:1.8255777 2537:1.3819687 2566:2.1355188 2568:0.42585406 2583:0.45278621 2585:0.090792194 2592:1.6701688 2595:2.0776796 2602:1.982322 2604:3.0783193 2620:3.9227567 2636:2.7485468 2637:2.086853 2639:0.64698911 2641:1.6747659 2642:0.43751758 2644:2.6594243 2646:2.0583704 2649:0.4075498 2655:2.6558721 2656:0.06691578 2658:0.47020921 2668:2.3828449 2669:2.8735886 2679:3.7302167 2681:2.6094038 2686:0.07551311 2687:0.13141188 2688:0.026639462 2697:0.05209893 2698:0.74070537 2701:0.42119461 2705:0.88844848 2707:1.7149968 2708:1.3391898 2718:1.0922251 2719:0.56230456 2723:1.6300217 2731:1.8185019 2736:0.53852761 2740:1.6912311 2742:1.1956639 2743:2.8350146 2747:0.34907633 2751:0.78512502 2753:1.7349716 2754:1.0347457 2759:1.5573341 2763:2.5174456 2765:0.29555044 2769:1.8959751 2786:0.7461592 2787:0.47066328 2792:2.1439645 2810:0.7764836 2811:2.0534844 2816:0.16988641 2821:0.42144498 2823:0.64939988 2831:1.3170602 2833:1.2675999 2836:0.13191527 2838:0.26837903 2840:4.7280807 2842:0.3869592 2843:1.5453411 2851:0.43915033 2853:0.4446367 2859:0.010428645 2863:0.019100606 2864:2.3229437 2867:2.2108314 2872:2.8499355 2880:3.8887613 2896:1.7775265 2901:2.6372294 2903:0.75206959 2912:2.537941 2913:2.2068441 2914:1.1539332 2917:1.309302 2920:1.2822131 2930:4.4444046 2931:0.60937291 2932:2.2667966 2936:0.97449023 2937:1.4042181 2945:0.042824715 2948:1.2692988 2954:1.0787182 2958:0.29194555 2964:5.1943994 2967:0.36163288 2971:4.069942 2979:0.86058569 2992:0.081176728 2994:0.94140691 2995:0.36533743 2996:1.3507476 2998:0.84879339 3006:0.22340919 3009:1.1373101 3011:1.0615637 3018:0.081200391 3019:2.7323551 3025:0.68054092 3032:0.12003849 3033:1.6573395 3037:0.14235306 3041:0.20737232 3046:0.030919075 3048:2.5972483 3050:0.67026967 3051:2.2800326 3052:5.1840248 3059:2.3638587 3061:0.41028935 3063:0.52265579 3075:1.9396811 3081:1.9417653 3087:1.7459154 3094:1.0418586 3095:0.47812265 3104:0.26669002 3106:0.0007788986 3107:2.4676638 3109:1.0371504 3110:0.83558595 3117:0.91206795 3119:2.8929982 3121:1.3142489 3125:0.81516635 3127:0.49688935 3143:3.2757905 3145:2.5015435 3152:4.6472197 3154:1.8797779 3163:3.3879378 3164:0.2043784 3168:2.4197981 3169:4.9382162 3170:2.9041321 3172:3.1255121 3181:3.4752305 3182:1.6695215 3183:0.78708351 3184:0.91124934 3186:0.1204688 3190:2.3167791 3194:0.0063779652 3195:0.9510029 3199:0.31916916 3200:0.40230349 3203:0.32416928 3213:0.45759982 3216:1.9069971 3220:3.0009725 3231:1.1229471 3232:2.8367503 3234:0.85593998 3235:1.7349529 3237:1.5667559 3239:0.90534168 3242:0.33353317 3246:0.24526539 3247:0.063903481 3253:2.503509 3256:0.13790399 3260:0.97481418 3269:0.26827231 3287:4.4177041 3290:2.9901743 3294:0.0032405704 3295:0.40701416 3299:0.92387223 3310:4.2974048 3314:0.58659685 3327:3.8586543 3334:3.0020583 3354:2.751426 3358:3.8111284 3359:1.2964224 3360:1.2035145 3361:0.97782755 3364:2.995882 3366:1.9493394 3370:0.31039035 3383:0.68494952 3387:3.1525466 3390:2.2832253 3397:2.0915675 3404:1.8331937 3411:1.3881645 3422:0.10289545 3424:2.4783204 3425:1.6729512 3427:1.604128 3431:2.5054705 3438:1.3024057 3444:1.3530102 3445:1.2764572 3446:0.54718 3451:0.91919458 3465:3.3288698 3467:0.31047457 3468:1.0166142 3470:0.1701867 3471:1.5919253 3476:0.065485343 3483:0.76517546 3495:0.6407094 3501:1.1783463 3504:0.87482399 3505:1.0284326 3507:0.72259921 3511:1.8830769 3516:0.22896034 3519:1.6584857 3524:0.12244403 3530:2.7106836 3532:2.586477 3535:2.3455029 3537:0.010367066 3538:0.21350352 3548:1.4265187 3549:0.30484915 3564:0.52371353 3569:4.3734918 3570:1.0119351 3576:1.6558903 3582:0.15949646 3583:0.56578749 3590:0.45122033 3598:0.02008445 3599:1.3306314 3608:1.6678412 3614:0.24177177 3617:0.50043702 3620:0.31305489 3624:0.77640551 3626:2.5280766 3627:1.4755541 3629:1.2533528 3630:0.75515562 3638:0.58278155 3640:0.77450824 3643:2.0532882 3650:3.4860063 3667:0.035462797 3668:2.58024 3677:2.2376666 3681:1.6260927 3684:2.7612193 3687:0.68631339 3690:5.5583334 3691:0.67922097 3710:4.2001324 3717:3.8053193 3722:2.6297543 3729:3.4346309 3752:2.6712255 3767:1.5158261 3778:0.81411231 3785:3.6497605 3789:4.3796554 3802:3.9332166 3804:1.0185103 3810:2.6016943 3815:0.19631541 3824:0.062942684 3826:3.0088899 3828:2.1318264 3831:1.4910226 3835:1.2910919 3836:2.2316284 3837:2.8815572 3841:0.061769307 3848:0.62185377 3854:0.16220532 3856:1.775581 3860:0.85335433 3864:0.35413787 3870:2.7476921 3876:1.2468008 3878:0.61375898 3880:0.36061427 3881:2.245225 3883:1.1120846 3885:0.27221286 3886:1.1294585 3888:1.4710194 3893:1.6805053 3903:1.0120063 3909:3.4803402 3918:1.5796536 3921:1.9637688 3929:1.1287923 3936:1.128859 3941:0.03183724 3951:0.88173234 3959:2.2229848 3962:3.5433517 3963:1.4056597 3966:1.9861366 3972:0.95822477 3981:1.7717576 3988:0.67302525 3990:0.088327616 3994:3.655936 3996:1.8672345 3997:0.66886508 4000:3.2189701 4001:2.7949944 4003:0.12191706 4006:3.9865956 4011:0.025567815 4013:2.8976626 4016:0.16985014 4021:2.1272948 4023:2.1715567 4032:0.70366335 4034:6.1400332 4036:1.9065921 4040:1.883407 4043:1.530677 4051:0.70180392 4055:1.3191671 4072:0.45420122 4085:1.0372043 4089:1.3180599 4090:1.8105724 4096:2.1600566
0.2698162470740488 3:0.42888588 6:3.6514893 12:0.60880399 19:3.0816469 23:1.1247203 27:1.1996499 44:1.075003 54:0.39003748 60:1.3214451 68:3.8197048 78:8.1525402 88:0.50851905 89:1.8857285 101:0.55937576 105:1.9233924 108:1.009895 113:2.6736269 121:3.0554085 126:1.8348964 127:0.41750103 128:3.4979453 131:1.7366585 140:2.1421554 146:1.1962832 147:5.6370163 153:2.7859204 158:2.0937417 159:1.5582108 167:0.75291014 172:1.0580363 173:0.13580289 180:1.3397815 181:1.8486247 185:2.4931726 190:1.5283973 209:4.7168622 210:0.35705024 215:0.64416206 217:3.8730474 221:0.019771084 224:0.33643222 225:2.0215647 235:1.3456314 237:2.9203734 238:1.4717742 243:2.0305071 258:1.5781889 261:3.2444527 262:5.7217984 279:0.62648046 285:2.7088575 288:2.8941875 293:1.7772002 302:4.1022105 303:1.2961311 305:0.42593539 309:0.56308794 323:3.3353341 327:2.8671014 346:1.9395374 348:3.677774 359:0.90507305 362:1.5466807 366:1.1330088 367:1.6359072 368:1.1048238 374:2.4704709 376:2.3351991 377:2.4648657 396:1.0909793 398:1.0304422 411:1.6207527 420:3.3664896 431:5.2433119 434:1.3208313 435:0.039652191 442:1.3393255 450:0.82355464 452:2.6320024 455:2.0470853 459:1.2315342 466:0.76533163 485:3.4532127 486:0.39620715 497:0.31074965 500:0.34915912 501:2.6954021 508:0.81048 514:1.8976586 515:1.623984 541:0.22471967 547:1.7209904 556:2.3845448 559:1.8007479 570:0.42383724 572:6.5217443 583:3.2306254 584:2.2810111 601:1.5468546 602:0.36544135 605:1.0442276 606:4.6265373 614:1.4923172 618:2.0496356 620:0.97187465 624:0.5000549 631:0.69200599 632:3.4171565 641:0.1835064 643:0.91029739 652:1.3912154 657:1.8722663 658:4.5158949 661:0.41242599 662:0.30707124 671:1.343469 672:2.0592537 679:2.3100483 700:4.3465214 709:4.3064003 711:3.6549833 717:2.6100597 720:6.0926123 723:1.4988073 726:0.13464114 738:0.26625103 741:0.74258053 742:0.0071706697 748:1.909999 749:3.0129418 750:1.0300126 754:0.67765456 755:2.6622753 763:1.1278665 764:0.093163878 765:0.40333426 767:2.4823611 775:1.7983446 778:0.81159079 782:2.0728147 784:0.88465023 788:3.7546601 789:0.68725616 791:4.5587192 793:3.9839644 803:0.0061431229 812:0.29708573 814:2.3935771 818:1.2084603 820:5.1148944 826:1.1906167 829:1.8898778 833:1.2836139 836:0.024310023 839:4.9205332 842:0.75341809 858:0.63740063 871:1.477132 874:0.71948296 877:0.25805888 880:0.10880789 885:2.0433106 896:1.1361167 899:2.1983123 902:0.28416511 903:0.14351073 908:1.1689321 913:0.83777058 916:0.2225613 918:2.3112631 922:2.8200042 928:1.2574762 932:3.5977156 935:1.8107915 937:0.8401649 944:1.131965 945:3.4043088 948:1.0100703 956:3.2611291 958:0.18082708 979:1.6281962 987:0.44075355 994:0.96135187 996:1.4633902 998:0.50769353 1013:1.8558248 1016:1.7530019 1021:0.94797212 1022:1.229697 1023:1.3165534 1034:2.0303202 1038:4.3416796 1047:2.2062216 1075:0.4166705 1080:1.8691361 1091:0.11840487 1093:1.3677649 1094:0.61423016 1095:1.6339395 1106:2.2722602 1110:3.2852974 1113:1.3053496 1116:1.119735 1117:1.1334984 1120:0.26181793 1130:3.7918324 1138:2.7219777 1157:0.083525419 1159:2.0277851 1162:2.944536 1170:0.36724862 1171:0.68265343 1191:4.5736456 1193:2.087631 1199:0.55151021 1201:0.55286211 1203:1.6739193 1208:0.59275162 1219:4.0960732 1227:0.045642555 1236:7.6301045 1239:0.083282933 1244:0.088576108 1249:1.5620992 1252:0.43006659 1258:0.74277747 1261:2.9692566 1265:0.20548826 1272:2.3162563 1273:2.0719354 1274:1.1387675 1277:0.97232747 1288:0.32188118 1297:0.1539325 1305:0.35160029 1319:3.1630814 1326:1.3756034 1334:0.11428072 1335:7.1108661 1336:0.066918969 1337:2.1257782 1341:2.9575503 1342:3.2725413 1368:2.1814752 1369:1.2671094 1375:1.2072254 1379:0.22982088 1380:0.13022904 1386:0.95248294 1398:1.5033513 1409:5.3277383 1422:1.0927953 1429:0.61604398 1447:2.1671357 1450:2.7992046 1452:1.1305875 1466:2.6195245 1470:2.7140977 1471:4.2571044 1472:2.2126806 1490:0.25936431 1495:3.4724848 1502:0.7246893 1512:0.40810537 1514:3.3379271 1515:3.7983479 1520:3.3884118 1523:2.7710111 1525:1.0714266 1544:0.37407807 1550:4.0166831 1557:0.14415404 1565:0.37314141 1571:0.10754955 1572:0.96152306 1574:0.77241266 1580:0.1509361 1582:4.1334372 1596:1.4139481 1597:0.94411731 1613:0.64160186 1614:0.44350901 1615:0.53827614 1617:0.40324956 1620:4.6617446 1622:0.64571023 1627:6.6835485 1628:0.87588644 1630:0.82184625 1633:1.0491091 1634:0.77378678 1638:4.0412626 1645:2.1357265 1659:2.1183243 1661:8.0373096 1667:1.9710772 1673:0.24010688 1683:2.3739057 1703:2.7484288 1716:0.6986596 1720:1.9540628 1729:0.42702413 1732:2.6139195 1738:3.3555212 1747:0.43931878 1748:1.0391632 1761:0.73247725 1764:1.3298889 1768:0.12793823 1772:4.4925232 1782:1.2191073 1789:2.1146736 1794:1.5993787 1796:0.29296783 1799:5.3520489 1804:3.4243157 1809:0.030387908 1813:0.27704415 1817:3.0267284 1822:0.5599494 1828:1.7597107 1830:1.5203635 1832:1.0970221 1833:2.1281402 1836:0.707201 1846:0.49305487 1854:1.4628941 1860:6.3963175 1862:0.84568721 1875:4.0514221 1880:3.1812155 1890:2.5699272 1902:3.1407249 1930:2.5256927 1938:2.710789 1939:8.2339153 1956:1.2711599 1963:1.9774177 1987:2.9146695 1990:8.2236691 1992:1.9712999 1993:1.6440185 2000:1.5520985 2004:4.0021362 2016:0.88123935 2030:1.4085698 2032:7.1536212 2038:1.4921964 2041:2.7362349 2042:0.69981283 2060:2.5379615 2061:4.1767097 2068:2.1560299 2075:0.87002265 2076:4.0912838 2083:4.0425282 2085:3.8714447 2089:2.5347497 2114:2.0198674 2117:4.507648 2120:1.1372932 2127:1.1474116 2128:3.721385 2132:3.321758 2134:2.7393823 2136:1.0331309 2151:0.21778575 2158:1.1677099 2159:0.51176369 2164:2.7739356 2166:0.64632946 2174:1.8527522 2177:0.47206181 2178:3.1073332 2184:0.015688211 2189:4.2818155 2190:2.3540955 2202:5.5766878 2203:2.3495119 2210:0.82865524 2214:1.9990098 2217:3.5203929 2229:0.17809148 2241:3.1042583 2245:0.45184582 2249:1.0001879 2255:0.54966444 2263:1.2593113 2269:1.2063059 2270:1.5690048 2275:0.20167708 2278:0.85993481 2286:5.0675721 2288:0.46800834 2291:0.6420331 2294:0.44707486 2300:1.1657434 2305:4.8517318 2309:0.38454878 2311:3.7267408 2313:2.0189805 2315:0.90826011 2317:0.5260365 2320:0.2403523 2324:0.077387393 2328:1.7165504 2329:1.5836872 2331:4.4212651 2343:5.9472237 2344:5.7680402 2348:2.0361023 2358:0.54711246 2360:0.77017379 2365:1.4903153 2367:3.9619083 2383:0.42291966 2384:0.76812738 2386:0.26223993 2408:1.4457934 2416:10.22646 2421:0.53646886 2423:1.9009169 2430:0.60271257 2435:0.54865831 2444:0.74365509 2461:0.6581288 2464:3.1122539 2467:1.7208235 2470:3.8673401 2477:1.5217038 2480:0.062076688 2486:1.7125778 2487:0.11936855 2494:9.2016296 2501:1.9570558 2502:0.19757131 2507:3.1635706 2512:0.75758481 2520:0.047231793 2526:0.5492453 2531:2.4904106 2537:2.6503658 2545:1.3569603 2550:1.3295863 2551:0.1648736 2561:2.3066502 2563:0.049162678 2566:3.8105352 2592:5.2738209 2604:3.1195843 2610:2.1572466 2613:2.1200788 2620:6.7703404 2624:1.0932471 2628:4.9437418 2636:5.523253 2642:3.7807887 2643:0.23136349 2644:0.47856444 2646:3.8900476 2649:1.4207056 2650:0.0073769987 2655:1.3622406 2667:0.89365232 2668:0.25039527 2669:2.7349317 2679:4.0951285 2686:0.70137209 2687:0.0013781786 2698:1.713711 2707:1.7333966 2708:6.014441 2735:3.5228143 2738:3.6543217 2742:0.063907892 2743:0.13804653 2744:3.8983736 2746:3.3179176 2747:2.4113169 2751:1.1544346 2753:0.99647897 2754:2.4444444 2759:0.060885042 2760:2.5575581 2763:1.1213349 2771:2.4491942 2792:3.0158484 2795:0.78295588 2802:3.8407912 2803:0.72268379 2805:1.1177492 2806:0.13489988 2811:1.1703672 2814:0.35434434 2815:0.11697853 2821:1.5194414 2838:7.9181614 2840:0.76298428 2843:3.9643893 2851:2.2488551 2853:2.7581398 2857:1.4975814 2864:1.9664742 2867:3.6453083 2872:2.2903495 2879:2.4831257 2880:2.5609043 2901:2.6248527 2912:0.18902454 2913:6.8779292 2914:3.1039152 2920:0.1858041 2936:2.9785702 2945:4.378212 2948:1.9551301 2964:3.1932721 2966:4.5246315 2970:0.06481111 2971:0.79675108 2972:0.45704794 2974:2.2985706 2979:0.66173321 2982:3.356916 2985:1.7174568 2994:2.2984002 2995:1.4091641 2997:0.77613974 2998:2.3498988 3000:1.3574736 3004:0.67736501 3008:1.6341097 3010:0.085153252 3011:3.0130293 3043:3.4956605 3048:5.3689785 3050:1.8549938 3051:7.3828917 3052:1.5811145 3059:1.7007945 3061:0.082440287 3075:0.97145277 3079:2.3921397 3085:0.01186043 3087:2.9217384 3107:1.1435723 3110:1.7993829 3117:0.68296969 3121:0.51724911 3124:1.5074745 3133:0.56212991 3135:1.5804141 3138:1.9376879 3141:4.5204124 3145:5.4160008 3148:1.221651 3152:0.97375196 3163:4.675499 3164:1.6748358 3169:4.712893 3170:2.2602444 3172:2.6968341 3174:1.0779383 3177:2.6014895 3181:1.6667697 3182:2.3766787 3183:3.7532015 3190:3.9441233 3195:2.4004874 3199:1.4995641 3213:1.0078161 3235:2.0742912 3237:1.2851059 3240:1.9812648 3252:2.2858877 3253:0.61258847 3256:1.6136506 3269:2.9356132 3271:4.4886303 3284:1.7131238 3285:0.74825048 3287:6.698184 3290:6.6133156 3294:0.016886145 3296:1.7605145 3298:2.5344231 3300:0.11682322 3302:0.30364311 3310:4.5297279 3314:1.0518948 3321:1.407819 3327:5.5324306 3331:0.50649804 3332:0.045508921 3347:1.5405512 3382:0.29097787 3383:1.3143452 3387:3.3320878 3396:0.3302415 3397:1.7897806 3404:4.0287733 3411:2.1276426 3412:0.25136399 3422:3.3073943 3424:5.2421889 3427:0.37600929 3442:0.64377505 3445:7.299036 3462:0.60575753 3465:2.7162704 3467:2.5426998 3471:2.3093696 3501:2.453975 3504:1.3083873 3505:0.5401727 3511:0.33877265 3516:0.28556681 3519:1.5218376 3524:4.1677442 3532:0.90354478 3535:9.9643831 3539:1.6785587 3544:1.6628157 3548:0.66046405 3549:5.5496483 3562:0.63839966 3564:1.9989352 3569:1.7164096 3570:5.7431612 3576:2.2593021 3582:2.3423927 3583:2.7021127 3592:1.5606127 3599:2.4107316 3614:3.0208952 3618:2.5148842 3619:1.5410762 3626:5.0999637 3627:0.029244721 3629:1.0382721 3630:0.31598243 3631:2.1041448 3632:0.2599335 3649:2.6945424 3650:2.7722118 3659:2.3383532 3677:1.2300398 3681:2.1698472 3690:6.1407709 3710:1.9316436 3711:0.019363314 3719:0.11011887 3722:0.83933651 3729:3.1564174 3731:4.0872526 3732:4.4463396 3733:1.3023227 3741:0.74228406 3742:1.3421736 3752:0.034481019 3767:0.01732707 3778:6.0810905 3785:2.0204542 3796:2.8568678 3797:0.31791052 3802:3.0585127 3810:1.8797588 3811:3.1194773 3815:0.76898158 3826:0.85902345 3829:2.0012031 3837:1.7016025 3841:0.95653772 3849:1.7490873 3854:1.5569357 3856:3.2460966 3858:0.13325369 3860:3.1829624 3865:0.86384344 3872:0.024614252 3876:2.4040058 3877:0.067793146 3892:0.39959487 3903:4.4665642 3904:1.7133143 3912:3.1369581 3936:0.041401863 3937:1.2445058 3951:3.0333607 3957:0.053628132 3960:1.2593734 3970:0.50455725 3972:0.58441824 3973:0.45258081 4000:2.0511575 4001:4.1759028 4009:1.4102795 4016:3.8885279 4020:0.49064866 4021:1.7434063 4029:1.266943 4030:1.0354205 4031:0.142232 4032:2.9555326 4034:2.624579 4036:2.3874667 4040:0.95819283 4042:2.8843932 4050:1.0441709 4062:1.9319499 4081:0.93495572 4085:0.75482339 4090:0.27571642
