svm_type c_svc
kernel_type rbf
gamma 0.000244141
nr_class 2
total_sv 69
rho 0.502253
label 1 0
probA -4.58895
probB 0.109651
nr_sv 20 49
SV
0.1129462804210415 12:0.84419286 18:2.4697874 19:4.9362206 21:4.1949186 26:2.2368913 27:3.4662955 44:1.9130989 45:2.3196287 60:3.5769193 68:4.4685111 78:3.3564758 80:0.43163973 87:0.89936572 89:4.3679714 101:0.7292279 105:4.7668686 108:1.779868 113:0.93342745 127:0.27204022 136:3.0440488 140:1.9983207 147:1.6053776 148:1.6080813 153:2.4968507 159:1.2410064 167:1.0512271 170:1.5551391 172:3.5346162 173:0.95282507 174:0.43813342 180:4.0952716 186:0.17321765 188:0.13530037 195:0.76845998 215:5.6758904 222:3.0276663 225:3.6181901 228:2.6697192 232:1.0026352 234:1.8046728 238:5.7368355 239:0.50245774 245:0.68220252 258:1.2671554 259:0.063246481 262:0.8145088 269:1.8143612 285:1.2282755 288:3.2770357 290:0.65246207 293:0.40843308 298:0.047761977 301:4.3101149 302:1.808753 312:1.1239046 323:4.5128717 334:0.64491051 346:2.1266625 348:1.9147121 362:1.9953065 363:1.9653003 365:2.8744769 366:0.41013396 372:1.7942352 374:3.1823924 382:1.4382839 384:0.094258606 387:0.78490412 404:0.68600053 414:0.65351915 431:5.6949949 434:3.3314078 435:0.96859086 436:0.74262083 450:0.071492508 451:4.3076129 452:2.4278963 475:1.610293 481:1.2067739 487:0.46022737 488:2.8945079 493:0.17043298 500:3.9038219 501:2.4159348 502:0.3093507 505:3.0700986 508:1.4959335 515:2.0787268 526:0.66271055 536:0.23431669 555:3.2252491 557:1.2078191 559:1.8447798 560:0.75716525 564:0.45021778 570:2.8632188 571:2.4693096 573:3.9765236 576:0.61242098 583:0.088753477 595:2.3163078 599:0.28828925 601:1.8719251 603:0.17542571 605:1.8781058 612:0.31255338 616:1.7530653 619:0.32539192 625:2.8671188 627:1.4409249 631:3.6050737 642:1.5235308 643:0.13368011 652:0.80594957 661:0.86615425 662:2.4781199 671:0.57012689 672:0.15188709 677:3.80759 678:0.33231083 679:0.6794275 682:0.98230034 711:3.3701267 720:4.1243563 725:1.2351983 738:1.9963627 748:2.3442521 749:1.9116368 750:3.3600092 754:3.4045377 763:1.7085258 764:1.5160866 769:1.21683 770:0.48260477 778:1.2080505 780:2.4291308 782:3.2020466 785:1.3574086 788:3.9244289 789:0.71756715 791:0.4687514 793:0.12820145 795:3.6790745 801:1.2017512 811:3.5375853 812:0.16069028 814:1.5006399 820:2.4792576 826:3.3905854 833:0.75401044 836:0.80159163 839:1.3851384 842:1.8004415 846:0.077054992 861:0.54784489 877:1.5187739 879:0.073856182 885:5.4947143 892:2.5985005 895:2.1514163 916:0.60957694 918:1.6229085 928:1.0416229 932:3.4474998 944:1.9513489 945:2.3176796 948:0.28187656 966:0.384702 968:0.3911739 978:0.92964673 996:0.92075491 1004:2.3172569 1006:2.0633636 1013:2.5672851 1014:2.2624404 1016:1.9968425 1021:1.0966799 1022:6.3323936 1024:0.45221752 1047:4.9448724 1059:1.9433947 1063:1.1483296 1067:0.80936754 1077:0.36269853 1080:0.82493991 1081:0.12216835 1090:1.2334213 1092:0.17566508 1093:0.68310851 1095:1.4120226 1096:0.092433795 1097:1.4189873 1110:2.9596422 1114:0.89501297 1138:3.5258017 1149:1.5165534 1157:0.42527503 1159:0.938375 1163:0.46495858 1170:7.7810431 1171:0.38516694 1177:0.056553543 1180:2.8312163 1181:0.33629084 1182:0.022483617 1187:1.9696343 1188:2.4316657 1191:4.6753693 1203:3.811259 1213:0.31059849 1218:0.58877647 1219:2.2705016 1220:0.84567904 1234:3.4883485 1236:5.3176479 1237:0.014171094 1242:4.3154655 1244:1.327073 1254:2.8118451 1260:1.638162 1261:2.9417374 1272:2.9766417 1273:3.1464963 1274:1.6438388 1275:0.75270951 1276:1.5272231 1288:1.2932831 1290:1.207698 1302:1.2867146 1309:2.2016087 1319:1.402325 1320:1.6611049 1326:0.42213809 1335:7.5030909 1337:3.4861684 1341:4.3347459 1342:1.1464686 1343:1.0852963 1344:0.85785359 1346:2.1820116 1348:0.27045053 1355:0.64206213 1364:5.060452 1374:0.029952079 1375:0.46285993 1376:1.3779581 1378:4.8034382 1380:1.3832157 1389:0.72360587 1399:5.3134947 1402:0.52124637 1408:0.057610571 1410:0.42138922 1411:4.0504484 1416:3.4803133 1424:0.81490332 1429:2.4871724 1430:4.0152583 1433:1.2101611 1438:2.8804934 1447:4.3047452 1450:4.162684 1452:1.4893394 1456:0.3642436 1462:0.49233937 1464:0.39083013 1466:0.84413731 1468:1.4786974 1470:5.1297479 1477:0.10076055 1484:2.8925786 1493:3.2673736 1495:1.2917016 1513:1.9239955 1514:2.9821844 1515:2.9307942 1520:2.0872729 1524:1.1216007 1525:5.3664145 1526:0.39534536 1538:4.1083932 1543:2.8071494 1544:0.15571374 1565:0.6186142 1568:2.4653871 1571:4.5914745 1580:0.25787809 1582:3.8253376 1593:1.6912998 1596:1.8918056 1597:1.3510326 1602:1.3525145 1613:1.4206243 1615:1.3217832 1616:1.253181 1617:1.2666574 1634:3.4726098 1636:1.6288577 1637:1.8513561 1645:0.32740346 1661:7.4101443 1667:2.2275996 1668:1.2697775 1675:1.4304427 1683:1.2081614 1690:1.4893698 1703:2.8617694 1723:0.36801159 1725:0.83817542 1727:3.433152 1732:2.4724259 1738:0.37281948 1748:0.65273464 1751:1.2119761 1758:0.14886665 1768:2.8339593 1771:3.3603103 1772:2.4638619 1780:0.27379519 1794:0.75127298 1799:4.0817103 1804:4.7475739 1806:1.8463289 1813:0.57961488 1824:3.3760669 1833:2.4219308 1837:1.3777534 1839:0.06426537 1846:0.9950484 1852:1.7047933 1860:3.8419721 1882:1.0901685 1890:0.1515595 1902:2.0958683 1917:1.3338906 1928:0.50274438 1930:3.2043421 1936:0.688326 1940:3.5780978 1942:2.2713268 1943:1.8788671 1959:2.9753947 1967:1.0582956 1987:2.6226282 1990:3.5019131 1994:0.094582915 1999:0.55094016 2000:2.3133173 2004:4.5797873 2005:3.7435834 2013:1.1486264 2016:2.7187266 2032:2.8863547 2042:1.1060759 2044:1.2795262 2048:2.5823138 2065:0.25134492 2068:0.012146622 2077:0.65832597 2083:7.0711203 2085:7.9370179 2086:3.8093421 2089:1.1984963 2090:1.0431645 2099:0.18729393 2105:0.79913884 2110:3.2145777 2116:0.49480605 2120:1.0935307 2123:0.22097705 2125:0.23155874 2138:2.0744886 2144:0.81487918 2149:2.4135652 2156:0.29555786 2159:4.7130456 2174:1.0768828 2190:3.3216319 2199:1.5906024 2202:1.9514554 2210:0.40057939 2254:0.40203986 2259:1.4865457 2270:0.53029639 2286:1.1631205 2288:1.6516234 2294:1.7940162 2300:3.0071743 2305:3.4426739 2311:3.2551768 2313:2.259928 2315:0.2186801 2317:1.8491075 2323:0.5153572 2324:1.3271536 2328:1.8681116 2329:2.5519161 2333:0.3452737 2337:1.1743807 2343:2.5168152 2344:3.0076859 2349:1.7039101 2351:1.3945001 2356:2.1054637 2358:0.071788415 2365:0.88721657 2369:1.1740549 2384:2.9627166 2404:0.73323846 2408:0.40479493 2409:1.7110739 2416:6.627646 2422:1.8778495 2423:0.90008378 2434:7.2295589 2435:2.8793375 2443:1.6616699 2450:2.7768946 2466:1.0415714 2470:5.2390919 2473:2.3986592 2474:0.11973013 2486:2.0157061 2487:0.95168018 2493:0.31904489 2494:4.6363988 2504:1.3764609 2516:3.7267268 2526:3.5781174 2529:1.6963555 2534:2.5970941 2536:1.4201612 2551:1.0508418 2561:2.3898232 2563:6.160357 2566:1.5330999 2569:0.080981523 2592:2.8352034 2595:3.4887183 2598:0.52314991 2601:2.9913604 2604:2.8700747 2611:0.06961 2620:5.9523253 2625:0.076618135 2636:7.8824759 2639:4.4990129 2642:3.9282346 2643:0.78778887 2644:0.046426803 2646:1.2687871 2651:2.1884308 2655:2.3227479 2658:1.2913001 2663:0.025230587 2678:1.4057517 2686:0.7921921 2688:0.45511764 2692:2.580725 2695:2.06691 2698:4.3382726 2701:0.318057 2706:0.46616822 2708:0.4666785 2715:4.1434889 2720:1.4183642 2723:1.376165 2731:1.1384095 2732:0.99089098 2735:0.75548995 2743:4.0028877 2751:0.46427825 2753:1.6846725 2759:1.0835931 2760:0.87394112 2766:2.9526207 2770:0.88939857 2782:0.38595641 2786:0.48719102 2787:3.6373794 2788:0.90611184 2796:0.41760206 2805:2.9559753 2807:4.8561115 2814:0.85620403 2816:0.082647383 2819:1.121529 2821:3.3901227 2825:0.57457846 2838:2.9556651 2840:0.13243964 2843:4.4016738 2851:0.017334418 2857:1.3460356 2864:0.78159308 2872:4.5445132 2873:1.8994904 2874:0.61312485 2880:0.20266819 2881:0.25727957 2895:0.14126331 2898:4.0838666 2901:3.9124794 2903:0.081803888 2917:0.15950279 2926:0.025716782 2928:3.005826 2931:0.12955284 2936:1.2785501 2945:2.712492 2946:0.44318163 2948:3.8816397 2954:0.18777318 2958:0.23928232 2964:0.8522734 2966:0.51012725 2969:1.4167645 2970:1.7757773 2974:0.63835686 2977:0.95495158 2982:2.2873061 2995:0.33788851 2998:0.13213128 3002:0.96642727 3007:1.7603951 3008:2.2554991 3010:4.6046319 3011:0.83148825 3016:0.57825744 3019:1.3802155 3020:3.0215249 3027:0.94216132 3043:0.34137306 3047:2.7468655 3048:4.0893846 3050:2.4615333 3052:9.772336 3059:1.6950259 3065:0.10593955 3075:6.0169482 3085:0.3493014 3087:1.977963 3097:1.2161556 3110:1.6837473 3114:0.13646929 3117:2.2581718 3118:0.44638568 3124:0.41918516 3145:1.1591196 3148:1.6703629 3151:0.524634 3152:1.9244099 3154:0.46889842 3159:1.8769261 3163:2.6894391 3169:5.4132795 3172:3.0455124 3181:1.4885194 3182:1.9306582 3195:0.63418281 3199:2.0013089 3213:1.7367772 3226:2.2384198 3233:2.0361106 3234:2.4229827 3235:6.8065085 3237:4.4272294 3247:1.1153592 3271:1.6315974 3280:0.042202473 3285:0.04767026 3290:4.8093219 3291:3.4512022 3295:0.51721871 3309:0.22287658 3310:1.8581059 3314:4.6530485 3321:0.51973367 3324:3.1411586 3327:2.2189353 3332:0.30129552 3334:2.7311904 3355:2.9888635 3364:6.1588492 3365:1.9423336 3375:1.5776725 3388:2.3112614 3390:2.5545151 3395:2.2549841 3404:1.2051029 3411:4.3046336 3413:0.69069338 3424:0.14293659 3427:6.1890974 3452:3.1866314 3476:2.3527896 3480:0.49641022 3490:1.6323237 3493:0.67756522 3494:2.0704889 3504:1.7812755 3508:1.31576 3511:0.69706988 3513:1.0687085 3517:0.1915572 3519:1.8423244 3520:0.63715494 3528:0.33960235 3531:1.3421972 3533:0.34834224 3538:0.84652674 3544:0.89919055 3548:0.34710878 3549:1.8532633 3562:2.8582056 3564:5.0000353 3569:6.0395484 3570:1.2744188 3576:0.97776496 3582:1.2833922 3583:1.3805519 3596:0.44761202 3614:1.7887594 3626:2.26916 3638:7.4847746 3640:0.18536171 3650:2.358824 3666:0.62327039 3672:0.12005076 3677:2.9463873 3680:1.8943428 3681:2.976016 3689:0.9419772 3690:2.6375279 3691:3.8571048 3705:4.6872931 3706:1.7078418 3710:0.93027949 3711:0.8180213 3712:0.74173224 3722:0.29513815 3729:0.95915604 3731:3.1257696 3732:0.66723746 3742:6.0627761 3743:1.7147592 3748:0.15142122 3749:0.11809939 3760:1.1416651 3765:0.45833564 3771:1.3382497 3774:0.016689301 3777:3.548089 3778:1.1692207 3785:2.2674282 3794:2.8050268 3795:2.3299842 3797:4.034761 3802:5.9489007 3821:0.7221508 3824:0.80580568 3831:0.76753825 3836:1.3496658 3841:3.0391762 3856:1.5834932 3860:4.617353 3885:0.059000075 3886:2.240083 3889:1.380175 3892:3.0153921 3893:2.9829438 3901:0.85105896 3903:1.2434779 3904:1.5030439 3906:2.9005454 3908:0.760934 3909:0.067515627 3912:3.8780394 3921:1.5511827 3929:1.1683782 3937:1.0336713 3941:1.6889354 3951:8.4429369 3960:0.59493321 3963:2.2082541 3973:1.366044 3976:0.662763 3984:0.68288964 3985:2.2884412 3988:2.245568 3996:2.9563518 4009:0.055122569 4011:1.1558654 4016:3.6264181 4020:0.87284875 4021:0.23671296 4032:4.3314691 4034:2.5632839 4041:0.94342697 4050:0.85071099 4055:0.29238692 4064:0.86826265 4072:0.90476096 4084:2.5796564 4089:2.8577859 4090:0.41677651 
0.7697962914512083 12:0.46364993 18:0.11912146 19:5.1166921 21:2.145714 26:1.6316285 27:3.2116406 44:1.2641912 45:3.4156966 54:1.5559337 60:0.42972955 68:5.5485144 78:0.0077540576 86:0.60487086 87:0.28300086 89:5.2712321 94:0.083991259 105:4.2749624 108:3.0527203 113:1.219921 115:0.13589101 123:0.84972453 136:1.3849308 148:2.7944798 153:2.6985266 154:0.24707825 167:0.52738416 170:2.5367351 172:4.3417568 173:3.4796281 174:2.0642464 179:0.02246362 180:0.38964832 181:0.10243109 186:0.64132744 188:2.6240907 195:0.44962683 215:2.3817244 222:2.4020209 225:4.5555339 228:0.34582177 234:2.3813925 235:0.23754478 238:2.0182686 239:1.1054573 243:0.64479196 258:0.64622337 265:1.1653553 269:2.5199618 282:0.35239559 288:2.8258026 290:1.326021 295:0.31513232 301:3.898381 302:2.8468382 312:1.0711992 323:7.2300334 348:1.0671875 362:2.9208901 363:0.50258851 365:1.445514 368:0.52262855 372:0.063986771 374:2.9432173 376:0.081661165 382:0.84811115 388:0.015654922 401:1.1062433 414:3.0330505 420:0.11504453 431:5.7433562 434:1.9976312 435:2.4823029 450:1.5444156 451:4.1196947 452:2.009547 472:0.27413425 475:1.1152501 481:0.89824885 482:1.5285941 488:1.3255405 493:2.3565972 495:1.2958751 500:0.68713939 501:0.38406017 502:0.17473437 505:2.7978027 514:0.35442132 515:2.5475471 526:0.52564555 541:0.26629353 555:2.3183203 559:0.2096231 562:0.47358704 570:0.98313916 571:2.4671102 573:2.8816586 576:3.0886903 583:1.4949861 592:2.2552211 595:1.7020842 601:0.2936897 603:1.449821 605:2.070075 612:0.080774784 616:0.69552755 625:1.91149 631:0.91018438 642:1.2530301 652:0.59672099 655:0.79892051 657:2.7446976 661:1.8875731 662:0.44616118 671:0.57749254 672:1.0550418 677:2.5418646 679:1.8371993 682:1.4309011 684:0.49771249 707:0.60345483 711:3.5631471 720:4.4966011 724:2.0105736 725:0.30647457 738:0.465543 748:1.5150281 750:4.3618279 754:2.8076887 755:0.87916374 760:0.24137908 764:1.3763341 767:0.80353057 780:2.0702581 781:1.5648098 782:2.3357198 788:4.9364343 789:2.3111541 793:0.10671519 796:2.1812949 801:1.3125124 807:0.26373824 808:0.57961947 811:0.93910861 812:2.3405371 814:2.0221736 820:2.440979 826:1.1491754 833:0.96700716 839:0.74449724 842:1.209102 859:0.083313033 861:0.17145377 873:1.0404121 877:3.4494414 885:5.0411987 895:3.8568304 912:0.77156252 916:0.68510574 918:3.2692471 922:0.90561664 931:1.1352626 932:1.6625246 938:0.92771822 944:1.1120353 945:0.46488771 947:0.96988493 968:1.6110297 971:1.6736401 979:0.010545999 985:0.020075366 996:0.086216554 1004:0.12129787 1006:2.6351829 1013:1.7040942 1014:1.2435586 1015:0.081402928 1016:0.47392344 1018:2.9027627 1022:5.6553922 1024:0.4395003 1030:1.3748249 1038:1.4111089 1047:3.7469571 1059:2.2385445 1067:2.7087541 1081:0.51544058 1090:2.3534052 1095:0.038227916 1097:1.1875217 1103:0.38228455 1110:1.0993035 1116:1.2243323 1130:0.46134201 1138:1.2623518 1149:0.62293255 1159:1.589694 1163:0.11792734 1164:0.23884863 1169:0.71213031 1170:6.6701026 1180:1.3542311 1181:0.66943294 1182:0.17556752 1187:1.4598528 1188:1.8963046 1191:2.0358963 1206:0.057606228 1213:1.3406987 1216:0.31175929 1218:1.1258746 1219:1.3933067 1220:2.8175793 1234:2.796977 1236:3.7020884 1242:1.9273155 1244:0.26707637 1251:2.2274318 1254:2.1228864 1260:0.60037243 1261:3.8282974 1273:2.3507397 1274:3.1856024 1275:0.08253938 1286:1.3807278 1288:5.2461414 1302:1.0658541 1309:3.6013093 1314:0.32305878 1320:4.431819 1328:0.64331639 1333:1.3236791 1335:6.4685988 1337:1.274605 1341:2.0305986 1342:1.1076639 1343:0.14118797 1344:1.1463529 1346:0.46633965 1359:0.48144233 1360:0.12310401 1364:6.8218532 1365:0.45683253 1375:2.0270064 1376:1.2687612 1377:0.41134334 1378:7.4675226 1389:0.31081417 1393:0.044538021 1399:2.7388206 1408:0.15942508 1410:1.9377238 1411:5.5039673 1416:1.813437 1424:2.5797296 1429:0.29444697 1430:2.0286584 1438:2.2728896 1447:3.7303085 1450:4.4370427 1452:1.5766826 1462:2.4907279 1464:0.5352999 1466:1.8173572 1468:1.0181227 1470:1.8039083 1484:6.2638817 1493:2.2114735 1495:2.4843602 1506:1.7916478 1513:2.1530385 1514:2.7690692 1515:2.2501543 1520:2.5349836 1525:4.8357849 1526:1.0840145 1538:3.5108285 1543:0.67776656 1544:3.2015285 1571:2.4670677 1580:2.0385861 1582:3.5583398 1587:1.7652014 1593:0.71993554 1596:3.0244434 1604:0.57941669 1612:0.27680603 1613:1.6781783 1615:1.1404258 1616:1.0933983 1634:4.4795761 1636:3.8692384 1637:0.42864054 1648:1.4528049 1661:3.5281284 1662:0.62315226 1667:1.9776847 1668:3.2937903 1675:1.2736356 1685:1.1884398 1686:1.3228915 1690:0.1839387 1691:1.2490649 1695:0.66642535 1703:3.4799664 1708:4.0269818 1710:0.056862049 1721:0.29209581 1722:3.9015145 1727:0.16761471 1732:3.4700565 1733:0.031321332 1751:0.7013855 1758:1.247463 1764:0.89732689 1771:3.1494548 1772:2.5474567 1780:0.72354847 1782:0.20586184 1799:3.0490789 1804:5.7064757 1819:1.1972007 1824:0.75957203 1833:1.8450379 1837:3.3489299 1845:0.12002537 1846:0.52482718 1852:0.78199428 1856:0.36702734 1860:4.7556443 1872:0.66573161 1880:0.63557357 1890:2.1297591 1904:0.024034649 1926:0.33517602 1928:2.130199 1930:3.3440671 1936:2.1461227 1942:1.9329826 1943:1.740986 1955:1.9513268 1959:2.0603538 1963:1.376848 1967:0.02350609 1990:3.8230343 2000:0.77007228 2005:2.6620233 2038:0.17321289 2042:1.4726729 2044:1.4129956 2048:1.118356 2065:0.57069355 2076:2.5134633 2081:0.25052404 2083:4.4701791 2085:7.551095 2086:3.0114551 2089:1.1158152 2090:0.14640552 2099:0.047098547 2105:1.6936598 2106:2.1416469 2110:1.2032291 2116:2.8990684 2117:1.019327 2120:2.7228177 2123:0.47629318 2125:1.8331132 2127:0.37780184 2134:1.659485 2135:0.63058054 2138:3.5403419 2144:1.4451547 2149:1.1739312 2151:0.47475633 2156:1.539292 2158:0.14937019 2159:4.2502227 2160:0.22295353 2164:0.52247828 2174:2.0329914 2188:1.2011309 2202:3.2943552 2210:0.022782154 2211:0.53219098 2213:2.0299854 2246:0.35413575 2255:0.46370789 2259:0.64195049 2270:1.4502969 2281:1.1988125 2288:3.0813303 2294:2.8710155 2300:2.4746258 2305:2.5224736 2311:2.8518484 2313:3.0816021 2317:1.788576 2324:1.90852 2329:1.265794 2337:2.4380438 2343:1.4394406 2344:2.5762732 2349:1.4955127 2356:2.4467149 2358:0.97204566 2365:0.28337926 2376:1.1136554 2384:0.39321542 2399:0.20718306 2416:7.8551984 2420:0.78780496 2422:1.2003491 2434:9.0401039 2435:4.5395379 2450:3.3147748 2459:0.014391631 2466:0.97678781 2470:8.0256004 2473:3.923126 2480:2.1576095 2486:3.1296864 2487:1.3279555 2493:0.091533571 2494:4.0331674 2501:0.83714223 2513:2.7901206 2516:3.2719271 2520:1.3262486 2522:0.93232441 2526:1.8519737 2529:3.4509647 2534:0.34830821 2535:1.3356727 2536:1.9818927 2561:3.5233769 2563:3.687901 2592:1.6188836 2595:3.6366539 2604:0.61295307 2620:4.8286815 2636:6.5778804 2639:1.9750329 2642:4.3723221 2643:0.77445823 2644:0.23360622 2651:1.8084216 2655:1.7810458 2658:2.290401 2668:1.6122996 2674:1.3499048 2678:1.1443282 2681:2.5561817 2686:1.9493935 2690:0.83417332 2692:2.3138187 2695:3.3452418 2698:3.8349671 2706:0.92530859 2714:2.0539157 2715:1.2516618 2720:0.46186477 2723:4.9238129 2736:0.18665096 2743:2.2941811 2751:1.5680102 2753:0.56045192 2765:0.78518271 2766:5.7341766 2786:1.0297117 2787:4.6498365 2795:1.1322811 2805:2.2114332 2807:2.2911344 2814:1.8649825 2816:0.57805973 2819:1.6596975 2821:2.6479135 2823:0.43903857 2825:1.7517049 2834:0.53304237 2836:0.43980753 2838:0.39779657 2843:1.5322109 2846:1.497851 2851:2.7788599 2857:1.9923667 2864:1.4466283 2872:4.3149357 2873:1.3554435 2898:4.4234929 2901:3.0001535 2903:0.37617138 2917:1.6428165 2919:2.7234683 2928:3.9923377 2931:2.5487404 2932:0.47227353 2942:2.3024282 2948:1.0799174 2950:1.3235898 2958:1.0782824 2964:2.4672976 2969:2.4797354 2977:0.36372739 2981:1.0568476 2982:2.4409657 3003:1.2385255 3007:0.50088036 3010:2.1642733 3019:2.7523694 3020:1.5571008 3021:0.054638058 3035:0.059950128 3047:2.1046977 3048:2.3400834 3050:4.7986126 3052:10.022646 3056:0.64230841 3060:0.44465676 3065:1.0409218 3075:3.3287683 3087:1.8742154 3097:1.186878 3117:0.01276654 3118:1.2429912 3124:0.15919513 3133:2.4206874 3148:1.2960998 3151:0.64784038 3152:1.6237545 3154:2.8472557 3159:0.25805214 3163:2.2467253 3169:2.0620267 3172:3.2133572 3181:1.5907575 3182:3.3353922 3184:0.46996322 3185:0.39887297 3199:1.5804881 3213:3.6360157 3226:3.2216475 3231:0.90888262 3232:1.6281028 3233:2.8118317 3234:0.090105325 3235:4.3149505 3237:3.8206129 3249:0.88815838 3253:0.50562382 3271:0.3268972 3275:2.2375107 3285:0.070200771 3290:4.4092059 3291:3.3142753 3307:0.74222946 3310:3.1732049 3314:3.3212235 3321:0.33966073 3324:2.9332881 3327:2.5996892 3334:2.1888864 3355:6.4484324 3364:4.6420503 3365:0.76859605 3384:0.15263548 3388:2.4715803 3389:0.89774942 3390:4.4987493 3411:5.1648054 3413:0.90074486 3418:1.3590088 3422:1.6820065 3427:3.1635697 3431:0.3759217 3438:1.41871 3449:0.66325468 3451:1.5387267 3452:2.5155425 3461:0.20200607 3465:0.050615817 3476:2.2415679 3490:1.8565091 3493:2.5087392 3494:3.1340828 3500:0.33901542 3504:2.3543601 3508:2.768136 3511:0.71514273 3513:1.4199528 3516:0.52218491 3520:1.8231214 3528:1.598861 3529:1.3184282 3538:2.4207931 3539:0.26570746 3540:0.86997771 3544:1.2594175 3548:0.071138233 3549:1.8003131 3562:0.15142179 3564:6.4140258 3569:4.4685831 3570:1.5467401 3576:1.4381641 3596:1.5029532 3599:0.10696095 3603:0.17504647 3604:2.2282197 3608:3.7475893 3614:2.8257554 3615:0.92493653 3621:0.82663375 3624:1.9462101 3626:2.5178359 3627:1.4934939 3638:6.9633455 3640:0.15282673 3650:2.6024547 3669:0.66909212 3672:0.71653253 3675:0.54120076 3677:0.69487786 3681:1.1686181 3689:3.4838901 3690:2.7372913 3691:2.9919844 3692:1.6431013 3705:5.8785439 3710:2.3035634 3711:1.6180428 3722:0.45558181 3729:2.6752796 3731:4.3078628 3732:3.0413291 3742:5.2278204 3743:1.1523678 3748:1.427657 3749:0.43412822 3751:0.18317437 3752:1.7535983 3753:0.1307548 3760:1.2759206 3765:0.026143208 3771:0.07703802 3777:3.8006871 3778:2.436692 3789:1.499674 3793:0.28567216 3795:1.2248473 3797:2.3428626 3802:6.0787182 3803:0.4628489 3813:0.87574309 3818:0.33375344 3824:2.1337094 3826:0.07011044 3833:1.4714509 3834:1.3117981 3836:2.7581873 3841:1.7510552 3856:1.1758512 3860:4.9099751 3877:2.7843695 3885:0.66229987 3892:3.8808987 3893:1.9095646 3903:1.7158157 3906:0.55538142 3917:0.26680806 3921:0.74487317 3926:1.0152836 3929:2.1178951 3937:2.0213158 3941:1.832739 3946:0.16139233 3951:6.2259908 3952:0.60935915 3984:1.9098459 3985:2.7946682 3988:1.0705436 3996:3.1387501 4011:3.9906859 4016:3.3431053 4020:0.03918311 4021:0.8601532 4031:0.026794791 4032:3.4366512 4034:1.0660508 4036:0.41804543 4041:0.074844584 4050:0.11418745 4052:2.787519 4055:1.7661626 4057:0.39228338 4063:3.529933 4072:0.22513896 4084:3.6532717 4089:1.2615681 4090:2.09372 4096:1.1348757 
0.04225149427026127 4:2.9786992 5:0.69057357 9:1.4358295 12:3.491828 19:0.24012157 21:0.55823928 27:6.0115004 44:1.00872 54:0.45812738 60:0.44064814 61:1.389286 68:6.6752129 78:2.1107397 81:0.80192101 87:1.0335331 89:7.7452002 99:0.4194392 100:0.52624714 101:0.19439696 105:0.36269954 108:1.6956033 110:0.86353296 113:3.3832674 123:1.1423041 136:2.8321359 140:2.3487804 143:1.0752014 147:1.5002373 148:1.421487 153:1.9479491 158:0.29952446 163:1.0367508 167:1.4200864 170:5.6303587 171:0.77589309 172:0.48901123 174:2.8235757 179:2.1676776 180:0.52211654 186:0.77252245 195:2.4117868 210:1.0342386 215:1.9952677 217:0.76807916 218:1.8044981 222:2.5930519 225:2.8876488 228:1.4562478 232:1.9809995 234:1.0932242 235:2.3116753 236:4.0224776 238:3.4572401 239:1.3982112 240:0.23801199 242:1.5866337 252:3.836936 258:2.3497174 269:6.3023272 274:1.2383136 279:1.7735438 282:1.9400418 286:0.39747626 288:3.4037342 293:2.0632677 295:1.787763 301:2.3470564 302:2.1123626 312:1.1840103 314:1.2201804 322:0.6520679 323:4.4851279 335:2.8230758 348:0.51086074 349:0.63700306 362:1.4491711 365:5.3068109 366:0.036683083 384:0.67726076 396:0.86406571 398:1.8657506 401:0.1539278 404:1.1412489 406:1.4768943 414:0.64598709 421:2.1242247 431:4.3493094 432:0.51004022 433:1.0844419 434:2.4840751 435:1.5942211 445:1.0144863 449:2.2850523 451:4.8878679 466:0.29522309 468:0.49574023 472:1.5962038 475:2.4223211 481:1.3257223 488:3.0834889 491:0.0041163028 495:1.6940138 499:1.2704519 500:1.4465096 505:1.3891623 514:3.3960445 515:4.3431473 521:0.43235043 526:1.5171369 541:0.55473745 543:0.90716112 545:2.7475603 548:2.0308881 555:2.6527297 559:0.90802324 564:1.8228223 569:1.3027331 571:1.3602494 572:2.0942776 573:1.035478 576:3.4670532 592:0.20051523 595:3.1312222 596:1.8881332 601:4.1177378 603:1.5388304 605:3.6522164 620:1.8587904 625:3.0630455 627:0.4998765 635:0.75198585 639:1.2680933 641:0.18836811 642:0.50481367 653:0.33216155 657:5.2428274 668:0.58479178 671:2.8411498 672:0.36953047 674:0.77748269 675:1.1428056 677:3.3995306 679:1.8999826 682:0.91330582 691:1.5447174 694:2.4236031 700:3.9827855 705:2.6268954 707:0.72533047 711:4.2220192 712:1.8178109 720:3.421741 721:4.1702256 724:4.0009813 725:1.018911 730:2.8478637 734:1.4964044 738:0.14873748 743:0.44876784 748:3.7668936 749:2.0296884 750:1.3984377 754:5.4929514 755:1.3278078 763:4.3392563 771:0.044318594 780:0.34845978 781:0.70314157 782:5.1884341 787:0.29213536 788:3.0962417 793:1.637934 795:3.349781 809:0.18719183 811:1.9769546 816:0.1287196 817:6.0024261 818:0.58641195 820:3.0634255 821:0.48834467 826:0.99056113 831:0.022996664 833:4.6134291 837:0.86001813 839:0.33881575 842:0.95785499 848:0.16497956 853:2.2547295 866:0.51117551 867:2.5881941 869:0.2462461 876:1.347234 877:1.5879024 885:3.6313865 908:3.1005685 912:3.2522697 915:0.46814913 918:1.1658299 919:0.37117219 922:2.0830913 928:1.0811042 931:2.1117029 932:2.1278858 937:1.2362106 938:1.7022307 944:1.7138501 945:1.2382269 947:2.0608594 956:0.77249515 957:1.5996778 968:4.4238524 971:4.6688256 978:0.34518021 985:1.5652601 994:3.4580755 995:0.87680197 1006:2.1843255 1013:1.6477759 1014:0.64577585 1018:2.0531578 1020:0.27508435 1021:1.8456888 1022:3.344394 1030:0.85400605 1034:0.86058301 1036:1.5063015 1038:1.0905489 1041:2.0407524 1047:11.231006 1050:0.49415493 1054:1.9642863 1058:2.2120628 1067:3.1729598 1077:0.90169406 1080:1.4667268 1081:3.6192031 1090:1.1322622 1092:2.3827195 1093:0.47150815 1095:2.0277989 1096:0.85246217 1101:1.6859398 1103:0.60612494 1110:1.9506717 1117:1.5582711 1120:4.3260269 1125:1.664371 1126:0.13506395 1130:2.4581981 1133:0.95432842 1136:3.5465677 1138:5.3661084 1149:4.3731341 1150:1.743165 1164:2.750493 1169:1.2282884 1170:5.1640639 1182:0.55406725 1187:2.2918046 1188:6.3435307 1191:2.2366133 1199:2.0223441 1203:1.3532667 1213:1.8979354 1216:0.49448299 1219:2.2149627 1220:0.39635068 1228:1.2694347 1234:0.50998634 1239:2.1272523 1244:1.9650874 1251:1.7585534 1252:3.0202811 1254:3.5152636 1261:1.6403141 1271:4.3168778 1274:2.82616 1276:0.34192106 1277:3.3780513 1281:0.094737351 1286:2.4438679 1288:0.35498559 1290:1.6597799 1297:0.47651666 1306:0.63663387 1307:0.43324786 1311:0.2197272 1314:3.2836106 1320:0.82865214 1333:3.89255 1335:6.5902481 1341:3.4286747 1342:0.13497283 1346:0.15510553 1347:0.90978563 1360:3.7328682 1364:4.5219512 1365:0.064138472 1369:0.832636 1375:3.9848845 1376:1.4967273 1378:4.401032 1380:0.86638802 1393:0.94676983 1399:0.52659023 1403:0.0023438036 1406:0.57253784 1408:0.53108037 1409:1.1252117 1411:2.4512393 1416:3.5808237 1419:2.3759403 1421:0.45539337 1423:0.42027092 1424:1.6510252 1438:2.3436298 1447:2.2500019 1450:1.844884 1452:3.1149604 1462:1.9170805 1464:1.111002 1465:0.1679986 1466:3.1077704 1468:2.1158035 1477:0.55359304 1478:0.32846761 1484:6.5732985 1487:0.018394321 1493:1.4869237 1495:1.5341411 1502:0.20772773 1506:0.89746976 1508:0.38073176 1509:1.0777024 1514:0.65476447 1519:0.61751056 1520:3.6198583 1523:2.9213114 1525:4.0520926 1526:0.79850441 1530:0.3897534 1538:3.4006417 1541:0.31948039 1544:3.605211 1552:0.19451189 1555:0.82333118 1560:2.1790862 1565:1.8445601 1566:0.37426069 1568:3.2586856 1571:1.2614955 1580:3.5388708 1582:5.5131092 1587:2.7239683 1593:0.64864433 1596:1.7777205 1613:1.1886597 1615:2.356153 1622:1.1164629 1630:2.2707639 1634:6.2678332 1636:2.8680012 1637:0.11921122 1638:3.7217135 1652:0.47283325 1661:0.98967791 1667:1.0873322 1668:2.884557 1673:0.084257625 1675:0.56725478 1679:3.2285933 1690:4.9712977 1691:2.9934959 1698:1.1509155 1703:2.1697176 1708:2.1602483 1713:0.44873214 1720:1.9208685 1721:1.3032916 1722:2.171042 1732:2.9993746 1737:0.98004794 1738:0.60453081 1739:2.1828077 1752:2.3850424 1755:3.1932707 1762:1.8179424 1764:0.058803532 1765:1.1687182 1771:2.8978767 1772:4.8124695 1780:0.40612555 1782:1.5740283 1791:1.226083 1800:1.8141211 1804:4.6684198 1806:1.1919757 1833:0.29572353 1837:1.1937165 1847:0.58275783 1854:0.6778906 1857:1.3036594 1859:0.75654483 1860:5.2269068 1863:1.6587182 1866:0.50956523 1868:2.4684825 1873:2.8058176 1879:0.82585645 1880:1.306178 1899:0.077818744 1905:0.55446422 1906:0.25241658 1912:2.1792626 1922:3.6636326 1928:3.2624576 1930:3.8379557 1936:0.17840721 1938:0.75010878 1940:0.7644093 1942:4.0223045 1943:0.10514629 1955:1.1490576 1958:1.0165768 1960:0.12700745 1963:0.8110584 1972:0.88296735 1974:0.30859452 1990:4.4174962 1992:2.3083835 2004:0.20693599 2005:0.71076488 2013:0.20406035 2016:0.74850285 2026:1.6961622 2038:2.5918539 2042:0.94016278 2044:1.3566461 2048:0.38427621 2051:0.88121521 2070:0.79572797 2076:2.9004965 2083:3.1568837 2085:8.3934326 2086:3.5255134 2099:0.94931722 2105:1.6723964 2106:0.32702464 2108:0.0084612072 2110:1.2138131 2116:2.0887086 2120:3.9496429 2125:1.8907132 2127:0.88295853 2134:1.2354584 2135:0.57234234 2137:0.76113546 2138:1.0075254 2146:0.026329726 2151:1.6994667 2157:0.61048937 2160:2.5664217 2164:3.7097158 2166:0.75553238 2168:0.33061773 2174:3.4377828 2186:0.14556259 2188:0.45604593 2194:1.4510543 2202:4.1568489 2206:1.1802003 2211:1.876748 2214:0.063800663 2217:3.133899 2218:0.31112751 2223:1.9919357 2226:2.178581 2229:1.6902477 2234:1.3223317 2241:4.1294551 2242:1.0765454 2251:0.0036020875 2253:0.86488533 2259:3.2890124 2262:0.50012589 2269:1.5712597 2270:3.7013094 2271:3.1260748 2281:1.056318 2288:3.3207941 2297:0.33222067 2300:2.4109395 2303:0.52693856 2311:2.3249981 2317:2.2949388 2320:0.90408814 2328:0.66369343 2329:4.7853951 2332:1.1560645 2343:2.2036886 2344:1.1929711 2356:4.2939506 2358:0.74641579 2360:0.33583963 2372:2.3910792 2376:3.7659347 2384:1.8231649 2399:3.7568486 2408:0.0087472796 2409:0.8010143 2414:2.2239227 2416:5.6326084 2420:0.91863149 2423:2.5635827 2424:0.61812127 2432:0.27108425 2434:8.2716579 2435:4.8932228 2437:0.58880991 2440:1.3372177 2443:0.68469507 2446:1.4561117 2450:4.6421108 2452:4.8237371 2466:0.40291345 2470:3.4312367 2473:1.618283 2474:1.4654822 2486:1.2586079 2487:1.7915767 2489:0.92774343 2493:1.405005 2494:5.3033013 2501:3.7117705 2507:0.56924617 2516:2.6319027 2520:2.9724393 2522:1.9495865 2525:0.39418018 2526:3.7439208 2529:3.044395 2535:2.1827228 2536:2.7139709 2551:3.7605581 2561:5.2290988 2563:2.3318794 2566:1.1612253 2568:3.3906066 2590:0.083204836 2592:2.8581567 2595:4.9285402 2601:0.0017557144 2604:4.6425571 2610:0.28648764 2611:0.65401244 2620:3.0666368 2629:0.65042013 2636:3.0484407 2639:2.7472479 2642:2.1918223 2644:0.41050383 2647:0.15534422 2651:0.097243071 2653:2.3544488 2655:4.3127351 2668:1.789373 2678:1.6591364 2681:2.0013494 2686:0.81518191 2690:2.790015 2692:1.5749663 2693:1.9225304 2694:0.27483863 2695:6.6573238 2698:4.6729741 2702:0.32125807 2708:1.0432112 2715:1.589578 2718:0.89690983 2723:1.8329922 2732:1.0644053 2735:0.5576067 2738:3.5306733 2743:2.4558136 2750:0.95450866 2753:0.25823593 2754:1.6243652 2759:0.97269297 2765:1.2084326 2766:1.2375126 2775:0.27820295 2777:2.6709137 2786:3.0265648 2787:6.3971519 2788:0.72935885 2796:1.9301987 2807:2.2062018 2808:4.714386 2819:1.5409174 2821:0.56896412 2823:3.4590821 2824:0.26521277 2825:3.1936562 2831:2.9178932 2838:0.59269303 2840:1.1934633 2841:1.546872 2843:5.5207343 2844:1.3061162 2851:3.2344048 2856:2.1512024 2857:0.73410499 2860:1.0868719 2864:3.788765 2867:3.7776935 2872:2.2620332 2873:2.5515444 2874:1.0711699 2879:0.94857484 2880:0.89710766 2883:0.89819807 2896:0.47200784 2898:2.3285847 2901:3.9064822 2903:0.33382544 2913:1.0125467 2917:3.3434489 2919:2.044976 2920:3.9426353 2928:4.9191256 2932:3.0911231 2940:1.4336207 2945:3.3268876 2954:3.2411501 2958:3.5217755 2964:0.52613777 2966:1.5343071 2969:0.91012102 2970:3.0190165 2971:0.45305517 2981:1.1984118 2982:2.4394004 2991:0.31512249 2995:3.3994951 2996:3.3217025 2998:0.23596998 3000:1.5885131 3003:0.30786061 3007:0.83626008 3019:2.6437845 3020:0.67797279 3021:0.87142158 3022:0.48652968 3028:1.445181 3032:0.53137046 3037:0.77166206 3038:0.63177645 3047:0.42373151 3048:3.4075599 3050:3.6365559 3052:7.1229706 3056:2.2747738 3059:0.19461209 3063:1.8294184 3075:6.1096125 3079:2.5888591 3085:0.65669835 3097:2.4005737 3105:0.77946335 3116:0.71387357 3117:1.6300886 3124:0.13273597 3133:0.11666102 3135:0.56342745 3141:0.81820077 3143:0.18544158 3144:1.3488466 3148:2.9250424 3149:1.23226 3151:1.0531527 3153:0.9493649 3154:2.6860094 3159:0.99693501 3163:2.309938 3167:1.9198906 3169:1.9731475 3172:0.88500738 3182:1.7744565 3184:1.0457034 3195:0.639687 3213:4.869133 3215:0.60323709 3217:0.095681861 3226:0.61048108 3232:0.30868763 3234:0.030645043 3235:3.2090786 3236:3.6506701 3237:3.8306057 3246:0.90923464 3253:0.97190654 3261:1.2124335 3264:0.27710176 3268:0.41665927 3269:1.896134 3275:0.94685078 3276:0.34078997 3277:1.088084 3286:2.4387484 3307:4.5021868 3309:2.2652373 3313:0.11010802 3314:1.3153459 3321:0.025503732 3324:4.6962204 3327:3.4046745 3334:2.5131493 3348:0.21336398 3355:1.7757422 3364:3.6000481 3366:0.73310673 3375:1.1791601 3378:1.2652848 3383:0.066549748 3390:4.9838228 3394:3.0659132 3395:0.98125643 3396:0.4318122 3411:2.6975915 3418:0.15528715 3424:3.6917825 3426:1.5911258 3427:2.2096303 3431:6.5239649 3438:0.9188894 3442:1.5476104 3445:0.70226479 3451:1.832119 3465:2.8492789 3476:2.6597679 3486:1.9228536 3490:1.0190719 3493:2.265913 3496:1.3620906 3500:0.84334689 3504:3.3094153 3507:1.1677384 3508:0.66411561 3511:3.8978641 3516:0.99388909 3519:0.52730244 3520:2.1409404 3521:2.3438108 3528:1.147773 3532:3.3331497 3533:0.33886671 3534:0.32178789 3538:1.3874302 3539:2.2971051 3540:0.54845595 3544:0.94566393 3548:0.74435818 3557:1.7266102 3561:0.95622456 3562:0.51058847 3564:4.7771902 3569:0.68016374 3570:0.18772781 3571:1.4173222 3576:2.3803873 3589:0.11138675 3593:1.1089072 3598:1.9189004 3599:1.5111207 3603:5.215539 3604:0.30632713 3606:0.36799434 3608:3.1285434 3619:1.8642943 3621:1.5436065 3624:2.5395203 3626:3.5029259 3638:4.3643641 3643:0.015480038 3650:5.0615354 3652:2.0677066 3666:0.061922848 3669:1.0036775 3677:2.9523404 3680:1.7624713 3687:0.47027513 3689:3.704277 3690:4.387362 3692:1.2067695 3705:4.6811848 3711:2.0073688 3712:0.61908805 3722:0.10485929 3729:1.4582343 3732:2.659354 3742:2.9797285 3748:2.2839901 3752:0.7197718 3757:0.42546842 3760:2.6984928 3763:2.1367376 3765:1.2528961 3767:1.3287936 3771:4.6024017 3773:0.13522729 3776:0.023068935 3777:1.3732742 3778:4.1396275 3780:0.5185445 3785:6.3305616 3794:0.16130167 3795:3.7251444 3798:1.3872156 3802:3.8278875 3806:0.24590051 3808:1.0785155 3818:0.7344256 3819:0.97574258 3824:0.56309545 3826:3.5603442 3830:0.80605209 3833:2.2278299 3836:1.2948762 3837:2.6975658 3841:1.7835939 3844:0.020505369 3848:0.61507362 3854:1.2278951 3860:2.6614716 3867:1.2669785 3872:0.21927609 3876:1.4789497 3882:1.0090685 3888:2.2752934 3891:2.0389464 3892:3.3076763 3893:5.3207016 3903:2.6065745 3909:0.71197695 3912:0.72617543 3914:0.38973755 3917:0.34320274 3921:4.7561369 3922:0.45598617 3926:1.3620787 3928:2.4843524 3935:1.2379203 3937:0.93403542 3948:0.32584184 3951:2.5655811 3957:0.64346105 3959:1.0424538 3963:2.8314948 3972:0.75250822 3973:0.002938509 3974:0.37768883 3984:3.4532371 3985:2.0723665 3988:0.65302324 3992:0.39190978 3993:0.086185314 3994:0.84143448 3996:2.4590774 3997:3.3936567 4004:0.56626451 4010:0.99214935 4011:2.1717072 4016:2.8587251 4025:0.40929395 4032:1.5134355 4034:1.5418129 4036:5.9204221 4038:2.2563243 4041:3.0639215 4043:1.3710241 4045:1.4121377 4052:2.5725975 4054:0.81777906 4057:1.2712522 4063:2.1323862 4074:0.9962225 4082:0.81402147 4084:1.8276211 4085:0.69513178 4089:2.4548123 4093:0.12624928 4096:3.9443097 
0.04372529442215814 5:2.8024139 9:2.1127305 12:3.477484 19:2.6768057 21:1.6614084 26:3.2132382 27:4.2649589 44:0.79720777 45:1.1498985 60:3.3371565 61:1.945236 64:2.1005969 68:10.302355 73:1.5335621 78:5.2065096 79:0.3026562 89:6.190402 101:1.5871277 105:4.317276 108:1.5278734 113:5.977107 128:0.24707329 129:1.037991 136:1.4536616 140:3.856004 147:3.6672723 148:3.7738996 153:2.3108549 158:0.4111523 167:1.6684592 170:0.6194368 172:2.7683654 173:0.92333019 174:2.7140853 179:0.73512858 185:0.09249416 195:2.5678072 215:1.6307044 217:1.0561901 218:2.3640556 222:0.14315538 225:1.5565312 228:1.6987869 232:1.2661488 234:0.24858417 238:4.1187096 243:1.0344695 252:1.2283093 258:5.6496735 259:1.9650403 260:0.067891903 269:4.8395252 279:0.44023317 282:1.893648 285:1.7611675 288:3.081624 293:1.2790027 295:0.99678135 302:2.3182576 309:2.2031019 319:3.4935741 323:5.9479814 334:3.330822 342:1.7565161 346:2.5243235 348:0.57564777 349:3.3458393 362:2.6308875 365:1.9764943 372:1.2523555 396:0.061635017 406:0.61054677 431:7.4210892 433:0.87996447 435:3.3009868 451:4.4246726 452:0.4545882 466:0.048579454 475:1.8664298 491:1.7210709 495:1.7381672 500:0.91944104 501:2.6657996 512:2.2604249 514:2.2665517 515:2.3586659 539:0.12784326 545:0.47167152 548:1.6495754 557:0.1229886 559:3.0155573 560:1.0909595 564:3.0883846 571:0.51542902 572:0.87308693 573:0.11887726 576:1.1699446 584:0.90259236 599:1.9682027 601:6.4731054 605:1.9469757 612:0.088083133 614:1.0632789 620:1.9001911 625:7.255259 631:0.45045555 635:0.63535601 639:1.898665 642:0.78551936 652:3.8687818 653:0.23610844 657:2.4990416 671:0.16230911 677:0.89238673 679:0.081760913 694:3.3109226 696:1.0446514 699:0.78135079 707:0.64229101 711:2.371141 720:3.6016586 721:3.8305418 724:2.7642863 725:0.13612092 734:0.47134465 748:3.9184084 754:4.7610779 755:0.86546069 763:5.9769149 764:0.77919739 781:2.3401978 782:5.6915116 788:5.1778193 789:1.7213774 795:1.1143155 804:1.7344478 814:1.5262816 817:1.6960623 818:0.30325794 820:4.4238906 826:1.5232434 833:2.7660022 839:0.85212934 842:3.6275265 853:2.5039377 854:0.086515471 865:0.14772108 871:1.8269463 873:0.11707988 885:4.4143748 899:1.0678692 908:2.6199305 912:1.4975901 918:3.6772759 922:0.27276278 928:1.8730203 932:3.4706776 934:0.039019112 938:3.1969521 944:4.4981618 945:0.28037545 951:1.1275265 956:0.020815536 968:2.9138596 971:0.90468061 978:0.82003593 981:0.062929332 987:0.31657869 994:5.6469731 995:1.176572 996:0.54167432 1004:1.4886142 1006:0.65260792 1013:2.1582766 1014:2.8951287 1021:3.5358915 1022:3.7062676 1023:0.51073289 1038:2.3919311 1047:10.209439 1048:0.099448159 1058:0.13477601 1059:0.1313142 1067:1.1873412 1076:1.3079504 1081:1.23877 1093:1.4009241 1095:3.3217027 1100:0.10335729 1110:1.0896652 1120:0.98607183 1126:0.75424612 1130:3.2648928 1133:0.68722248 1136:3.0061929 1138:2.128458 1149:0.46775505 1167:0.39355496 1170:4.4497843 1180:0.76103854 1181:2.1656706 1182:1.0837059 1187:5.0786824 1188:7.8521833 1191:6.9528589 1193:0.12481993 1196:0.43192077 1199:1.0347524 1203:2.2274504 1213:2.5668075 1219:4.5726213 1221:0.17012726 1226:2.7847667 1227:1.1848193 1234:1.0684845 1236:5.8760304 1239:2.2049742 1242:2.0430868 1244:0.47714639 1254:0.30872527 1260:0.6904006 1261:1.9085609 1263:0.8368578 1272:0.81946731 1274:2.7447522 1276:0.86192882 1277:2.612299 1281:1.5459294 1287:0.72660786 1290:3.1124916 1297:0.92234373 1308:0.4279142 1319:2.1982496 1331:1.7223749 1333:1.524546 1335:8.067337 1337:4.220293 1341:6.1176724 1342:1.7606461 1360:0.73285282 1364:3.670989 1369:3.2800102 1375:5.0852089 1376:2.1871271 1378:2.1468492 1408:1.890116 1409:5.6054411 1411:3.616976 1416:4.7363648 1424:4.2200298 1427:0.095665246 1429:0.89386559 1447:3.0088978 1450:1.0023577 1452:4.1028352 1466:6.5725121 1467:0.095198691 1470:0.96669841 1484:7.6105494 1493:0.76170999 1495:1.6586051 1502:0.72978044 1507:2.4495673 1513:0.57300425 1514:3.2241294 1520:5.0516796 1523:5.1179557 1525:5.0028167 1526:0.2087011 1530:3.2391088 1538:1.8000627 1543:0.98642296 1544:1.1892438 1545:3.074209 1550:0.70059001 1555:0.69297659 1565:0.1285394 1568:3.2412827 1570:1.2621915 1571:1.1984531 1582:0.20387962 1593:1.3381633 1596:0.6714009 1602:2.9492793 1613:1.6223433 1616:1.418148 1620:0.21088852 1621:1.2124468 1622:0.59464777 1627:1.2865485 1634:3.1597476 1636:1.5755349 1637:0.41304493 1638:0.81137305 1661:6.9268103 1671:0.88648009 1679:1.6620851 1681:2.1469769 1683:1.812206 1691:0.037147395 1703:2.3712103 1708:1.8192328 1720:3.2389939 1722:1.0502856 1723:1.2240299 1728:0.34778965 1732:2.1823654 1738:2.6135931 1739:0.15658116 1751:0.59636426 1752:0.88364494 1755:0.59165895 1762:1.3472872 1764:1.3076911 1768:3.0182326 1771:4.4275618 1772:6.8911767 1778:0.45687896 1782:4.293539 1783:0.75597477 1799:2.2510979 1804:2.3636229 1806:0.89849889 1813:1.7414829 1833:3.483721 1840:0.5153383 1854:0.58289891 1860:7.4470611 1868:1.2143168 1871:0.87354696 1873:0.055335522 1874:1.0223002 1902:0.45621219 1912:0.31263465 1930:4.5761156 1936:0.038630545 1940:1.4888004 1941:0.14956474 1942:4.0941153 1943:3.0328901 1955:1.7639729 1959:0.048806489 1960:0.30086207 1963:0.78182644 1968:0.096007943 1977:1.1058364 1990:4.2617111 1992:2.107527 1999:1.2352881 2004:2.0151997 2005:1.6734993 2021:1.0007678 2032:0.49069211 2036:2.4761939 2038:0.30617481 2042:0.42255074 2044:1.8951486 2048:0.088791668 2068:0.26484567 2076:1.1147099 2083:7.6521668 2085:9.719264 2089:0.37395978 2096:0.76319546 2099:0.073963225 2106:0.91738963 2110:3.0229738 2116:1.2707543 2125:4.8940496 2127:1.743457 2132:1.0044154 2137:1.0527871 2151:1.307863 2164:1.6491171 2174:3.6306102 2190:3.4783394 2202:1.649518 2213:1.1265601 2226:1.5560012 2229:2.046165 2241:1.1216624 2242:0.29235494 2249:0.15310118 2251:1.3254105 2259:3.1297343 2271:2.0040159 2272:2.0058067 2288:2.3456542 2303:1.1943308 2305:1.1887056 2311:2.0767112 2313:4.3846874 2320:1.9445884 2328:0.49166417 2329:2.9887557 2343:3.8870378 2344:3.1078231 2351:1.2037112 2356:3.5353405 2358:2.6426361 2376:3.7472537 2379:0.31774282 2384:3.5072033 2395:0.29095495 2399:0.43846059 2416:3.7558649 2418:0.81925225 2420:1.2066758 2423:4.9670148 2427:0.6700756 2432:1.4604681 2434:10.190183 2435:3.8462005 2450:2.3251367 2452:0.27168536 2470:5.4412012 2486:1.1793411 2487:0.56877577 2494:5.2633343 2507:0.37861389 2514:0.041818082 2516:4.3793554 2520:1.5055341 2521:1.7812386 2526:0.40376765 2529:1.638465 2534:0.53285968 2536:2.3278196 2545:1.7476163 2551:4.4348936 2561:8.1498032 2563:3.5223634 2580:0.1692089 2592:3.1790938 2595:3.6119647 2598:0.39582151 2601:2.3798354 2602:0.16565819 2604:6.356916 2610:1.7833085 2620:4.3278589 2628:2.8423679 2636:10.455885 2639:2.2569602 2641:0.28390953 2642:3.2678201 2647:0.67185438 2655:5.2813392 2668:0.84582746 2678:1.4730437 2679:0.026023686 2681:1.63788 2690:1.9639357 2692:1.6079818 2694:0.22353944 2695:2.6772316 2698:2.8647747 2715:2.843483 2720:0.032549649 2721:0.098560274 2723:0.051561125 2735:0.3173092 2736:1.1852382 2738:1.9281442 2750:2.0156736 2751:4.03192 2753:2.1641974 2754:1.0417544 2760:3.4770517 2766:2.7826691 2771:0.55769044 2785:0.88711953 2786:1.3939345 2787:8.2800922 2788:1.6602219 2807:1.7839326 2819:2.9351096 2823:3.6144462 2825:0.99772048 2838:1.25385 2840:1.5532405 2843:5.5242386 2844:0.86521697 2851:1.1583039 2857:0.46042117 2867:2.096442 2872:4.171967 2874:0.48448417 2879:4.2326622 2898:1.4021575 2901:6.1519322 2903:0.03924343 2913:0.41944414 2917:1.8624136 2920:0.26531625 2928:3.3149562 2930:0.30023676 2932:3.9921341 2945:3.2603121 2948:0.55423737 2954:0.98189908 2958:3.6136301 2964:0.90367913 2966:3.0355444 2970:3.5349498 2974:1.5375381 2976:0.10736144 2982:1.3589624 2985:0.27429584 2995:1.7462201 3000:3.5830109 3003:2.3570163 3007:1.0133252 3010:1.2958864 3011:1.0704788 3019:1.8487442 3020:1.4999787 3021:4.0764971 3028:0.70876223 3032:0.069144562 3042:0.86592269 3043:1.3795553 3047:1.6437081 3048:6.2888532 3050:5.2909741 3052:12.334418 3059:0.65329385 3075:4.698493 3079:1.6496081 3085:1.7193612 3097:4.3130493 3104:0.68105161 3107:1.2423154 3110:1.8573283 3111:2.7900033 3114:1.8951402 3117:4.2431803 3127:0.42813933 3141:0.67080313 3143:1.7085199 3148:2.0707083 3149:0.22641785 3151:0.67644018 3152:1.7535777 3154:0.77935618 3163:0.81236601 3169:4.6243553 3172:0.76182568 3183:1.0549229 3184:2.4947913 3195:2.7986598 3199:2.8479936 3213:1.7897154 3235:7.0629277 3236:1.9615339 3237:5.0693793 3239:1.3987598 3253:0.75237823 3261:1.1454093 3269:3.4361842 3275:0.57396448 3307:2.1223762 3309:2.8736777 3314:4.102921 3321:3.8147438 3324:4.8193483 3327:5.7280459 3355:1.2256821 3364:1.60007 3375:2.1040676 3383:0.84553784 3387:0.40900725 3388:1.1155199 3390:5.9806886 3392:0.21362375 3394:0.29558709 3395:2.6184072 3404:2.5614312 3413:0.21324909 3418:2.4716573 3424:3.4194896 3425:1.5928366 3427:3.4244316 3431:3.5095339 3445:3.6806285 3451:2.6925428 3452:0.69143826 3457:0.84115726 3461:1.8170428 3465:2.0583839 3476:1.8690372 3481:0.66657418 3504:6.4311004 3505:0.25008139 3508:0.87482506 3511:6.1285295 3517:0.67076904 3519:3.9876187 3524:2.7271678 3528:0.31464028 3532:3.1416054 3538:2.4987733 3539:1.7869891 3540:2.1795428 3544:2.9020762 3548:1.0515947 3549:6.5466456 3561:0.11231098 3562:1.0106499 3564:6.9406052 3569:3.6689017 3570:1.2297876 3574:0.29548725 3576:2.0656657 3582:0.031878561 3589:0.15009958 3599:0.73945665 3603:5.1770167 3619:1.8386018 3621:0.12982553 3626:4.1378798 3629:0.55290306 3638:3.6159551 3650:2.5798538 3652:1.6592911 3666:0.067263335 3668:0.24011752 3669:1.3110371 3677:3.2853994 3680:3.1336341 3687:5.3698659 3688:0.0052472651 3690:4.0169272 3705:1.2580273 3710:1.9585181 3711:1.8181567 3712:3.9884169 3713:0.9976896 3722:3.3539317 3729:2.6319299 3731:1.022222 3732:3.6602664 3736:1.7862834 3742:3.0345383 3748:1.2592782 3757:1.6978573 3760:1.8282298 3763:3.2145557 3771:0.1475952 3777:3.0502996 3778:6.4754858 3785:7.8339314 3794:1.0846986 3795:3.991066 3797:0.27292413 3802:3.8668737 3804:0.052079082 3811:3.6366539 3813:0.63298976 3826:4.3098001 3836:2.9950538 3837:0.80314326 3841:1.1430205 3854:0.46740517 3855:0.40135577 3860:3.1637566 3876:3.7426195 3880:0.75926071 3888:0.73693407 3891:0.40092233 3892:3.8610067 3893:3.3535354 3903:2.7606893 3904:1.1394753 3912:1.1328946 3921:3.2604225 3922:1.7481086 3923:0.47067133 3926:1.9442798 3928:0.19693771 3941:3.5300133 3951:6.6197863 3960:0.36121792 3963:1.351836 3973:0.73780477 3984:0.21475834 3985:0.10912676 3988:2.9685571 3996:0.90147293 4016:3.7534809 4020:1.2798386 4021:0.11456347 4031:1.8170613 4032:2.9255414 4034:1.9716822 4036:4.260324 4043:1.7082087 4045:0.33779198 4059:0.75358665 4062:0.11430211 4089:2.4239278 4093:4.9209576 4096:3.6414685 
0.1629795087563799 12:1.8533473 18:1.6465714 19:3.4385557 21:3.5367589 26:0.73931777 27:2.3042536 44:1.0864588 60:3.078383 61:1.1373363 68:3.3288059 78:4.186996 89:6.0628276 101:3.8784494 105:5.5167794 108:3.1165941 113:5.4763498 115:0.050789893 128:2.2461877 129:1.3126359 131:1.0458168 132:1.3341522 136:6.1675029 140:2.4667995 147:2.3195701 148:4.6102991 153:0.42092943 154:1.3788878 159:1.6721277 167:2.7274303 170:2.2001476 180:3.5355594 185:0.97864664 195:4.0968599 215:3.6975422 217:1.5700961 221:1.6245843 222:0.54353583 225:2.9570854 228:3.3581369 232:2.1719325 234:0.776658 235:1.7701219 238:3.4921172 248:1.503817 258:4.7224908 269:0.88801241 282:1.8809035 285:0.91761088 288:3.3300295 293:1.1414723 300:0.95726967 301:5.4011297 302:0.1275503 319:2.1772945 323:5.7751918 346:0.64313519 348:5.8803186 362:0.95813197 363:2.3231683 365:4.6313801 367:2.6766675 372:1.5088134 382:0.75536728 387:2.7679114 413:0.018952489 429:0.53412592 431:4.1324844 449:0.4673138 451:4.6234708 452:0.53315544 455:2.3639588 458:0.59164298 475:1.9372938 488:4.8955717 499:0.77065688 500:1.9337409 501:3.9045339 508:1.9153889 515:0.37138543 526:0.39090091 539:0.8683064 544:0.97416538 555:0.84945369 559:4.1955037 560:0.010727704 563:0.50505388 564:0.74694514 570:1.536972 573:1.9507482 595:2.1646228 605:4.6683469 614:3.4175 616:0.99860334 619:1.6064892 620:0.9814772 625:0.20247769 627:0.23978482 628:0.15897092 631:3.3238099 635:1.1702197 639:1.2736942 652:1.333286 662:0.87373114 663:2.6860695 671:1.5750697 679:0.61672902 682:0.9845171 694:1.426072 696:0.58760005 711:4.7103682 720:1.7097239 738:2.1477504 748:2.3917868 749:1.6597383 750:0.74941015 754:6.4145594 763:6.4744477 764:0.023011595 780:0.96707803 782:1.8683861 785:1.9755752 788:1.8242328 791:0.27709004 793:0.05689314 795:3.6046546 811:0.94673723 814:0.44228271 817:5.1452031 820:2.5212421 826:4.6122427 837:2.2887092 854:0.75423998 885:3.9859962 886:0.12034523 892:4.4968505 894:0.30069607 903:0.096619129 908:4.4203563 918:0.34797284 922:1.1338999 932:3.0507936 938:1.1228846 945:1.1729287 956:0.40100217 968:3.0231342 979:2.1154151 995:1.748929 1006:1.1311795 1013:1.4901794 1016:3.1782742 1020:0.7610653 1021:2.2808752 1022:4.458323 1023:1.4455549 1045:0.37166202 1047:7.1325669 1054:0.11917147 1059:0.64816141 1067:1.239621 1080:1.3904014 1092:0.80287218 1093:4.4600091 1095:3.3233645 1110:1.4487609 1111:0.75520819 1114:2.1611609 1120:2.0424426 1130:0.003932938 1133:3.9278507 1136:3.258657 1138:4.6208057 1146:2.1211431 1149:1.5059229 1157:1.5265863 1164:0.54994643 1167:0.50143397 1170:5.1294341 1180:1.5523059 1187:5.3167758 1188:2.5243866 1191:4.3404107 1203:6.4712081 1218:0.63700503 1219:2.2542031 1220:0.2187587 1226:2.037657 1227:0.93702722 1234:0.02608224 1236:4.4810758 1242:1.3300518 1254:2.6255784 1261:0.68050766 1272:1.5103861 1273:6.4284768 1274:1.088407 1279:0.42014012 1281:2.0154338 1284:1.6912458 1297:2.7584965 1298:0.022587001 1302:2.4239447 1308:0.95341825 1310:0.71738857 1311:0.51610279 1314:1.2502592 1319:1.0941044 1326:0.28115809 1335:6.2660556 1337:5.0521984 1342:0.5248282 1346:1.0186205 1355:2.0937562 1364:9.0322685 1369:1.479063 1374:0.23075099 1375:1.4388931 1378:1.0952152 1399:3.5947587 1401:0.93601513 1411:4.5116196 1415:0.17204702 1416:5.6160626 1429:5.0115786 1430:1.6988366 1438:5.3481736 1447:1.8275665 1450:4.8925824 1452:4.7371182 1453:0.22263965 1466:5.5940876 1468:2.5343254 1470:1.5042415 1484:5.8093958 1495:0.70413291 1514:1.7505897 1520:3.1656561 1523:0.75932002 1525:5.2398148 1531:0.48317397 1538:1.2565815 1543:1.9544257 1565:2.6200545 1568:2.377224 1571:6.6907663 1582:1.9033034 1590:0.57246971 1593:0.98620021 1596:1.5719538 1597:2.2160299 1602:3.1727266 1613:0.87874788 1615:2.2818546 1617:3.739208 1621:0.98846352 1634:3.4240944 1636:4.0277977 1645:1.8237109 1661:8.1697912 1668:4.2176089 1675:0.19757535 1683:2.5025761 1690:2.962501 1691:0.81129253 1698:2.1881518 1703:0.57674301 1723:2.0946121 1727:1.4110632 1738:3.7740762 1768:5.335948 1771:4.7038083 1772:4.0831256 1778:0.11615658 1782:1.4752051 1804:4.6088529 1806:0.20877692 1813:1.3447627 1824:1.7793002 1852:0.22110009 1854:0.26049855 1856:2.2367735 1860:5.5951252 1868:0.551175 1871:2.1703501 1917:0.81062704 1930:1.7243843 1940:6.3071089 1941:0.032504499 1942:0.22277921 1959:2.1951346 1960:0.57252198 1967:1.6672025 1968:1.350565 1972:1.9943112 1987:0.57472521 1990:5.0604987 1992:2.4298368 2004:6.0904579 2005:0.54758668 2013:0.29370406 2016:3.1952362 2021:1.934612 2032:6.0728846 2038:0.65181673 2042:0.15825969 2044:2.6134279 2053:0.47865877 2065:3.144202 2076:3.1505485 2077:1.2259258 2083:9.6348 2085:5.0535116 2086:2.3549068 2089:0.10349375 2090:1.485989 2096:2.8976128 2110:0.57815009 2120:1.0767119 2137:0.5614897 2138:2.7620463 2159:1.5698774 2174:0.81586277 2190:1.6654667 2197:1.5772738 2199:2.7604322 2202:3.9530976 2216:1.1608564 2226:0.11034426 2241:0.36506158 2253:1.7828619 2271:3.6392345 2284:1.4869852 2286:2.3197827 2288:0.07311549 2300:1.193387 2303:1.0129161 2305:4.3417859 2311:3.2026157 2313:1.3990444 2317:1.0284835 2320:2.549726 2328:3.12888 2329:5.9445629 2343:2.4377537 2344:3.6146672 2351:1.8744357 2355:0.55801058 2356:6.1669097 2365:0.15326747 2384:3.4787571 2395:0.017377153 2404:1.1861804 2408:0.20536834 2409:3.398998 2416:3.3389637 2423:2.1626549 2434:6.4141865 2435:3.3006661 2437:0.95523715 2450:1.3978959 2466:3.8680096 2470:1.7798548 2473:0.4314537 2486:0.66564012 2487:2.3902392 2489:0.15798095 2493:0.98212618 2494:6.585566 2514:1.6636499 2516:3.827549 2526:2.0163264 2529:0.80799621 2531:1.1647559 2536:0.54589826 2551:2.4565139 2561:2.3435309 2563:4.4966354 2568:3.9294379 2569:0.011092111 2577:0.96401942 2590:1.5621386 2592:2.5008204 2594:0.11504209 2595:2.8055727 2601:3.6003394 2604:4.0712051 2611:1.9946635 2620:2.3661935 2623:0.54926777 2636:5.1021767 2639:4.5376072 2642:2.1315534 2652:0.18867826 2655:2.4590483 2665:1.7646804 2678:0.78100598 2679:2.7125154 2686:0.3417801 2690:1.1732211 2692:2.7897155 2694:0.39286143 2695:1.3700905 2698:4.2142868 2707:0.78354061 2715:3.1601713 2716:0.38336957 2731:4.7555785 2735:1.1176919 2743:4.1146736 2747:0.81178343 2749:2.9227505 2751:0.89052653 2753:0.40699664 2759:4.103816 2761:0.046791643 2766:0.56849456 2785:0.84215951 2786:1.2321248 2787:5.5426793 2795:0.58627313 2796:3.3418953 2807:2.5015452 2814:1.2651913 2821:2.2501855 2823:0.46248347 2825:2.9467757 2838:1.2691494 2843:7.6864266 2844:1.4962454 2867:0.97803402 2872:7.0111804 2874:1.8624454 2880:0.33199918 2898:0.69058692 2901:2.3051496 2903:0.60742515 2917:0.35723448 2920:0.11883222 2928:4.8447905 2930:2.6010745 2936:2.9487958 2945:5.7834673 2946:1.298825 2954:2.8819706 2964:1.4152648 2966:1.1622885 2970:5.8276997 2974:1.8893559 2981:1.8261461 2982:1.3417848 2985:0.19879848 2995:1.7329848 2996:3.0181472 3007:2.4440577 3010:6.1756916 3016:3.1805215 3017:0.92970592 3019:0.63916492 3020:4.4461598 3028:2.1754661 3043:1.3652272 3048:5.9291568 3050:3.0522573 3052:9.2378912 3065:3.5669153 3075:8.2645445 3085:1.152685 3089:0.77119344 3090:0.25144213 3097:4.2202358 3107:0.51560974 3117:3.4758911 3127:0.93776202 3143:2.8425441 3145:3.4597723 3148:1.4649816 3149:0.54982197 3153:1.1500686 3154:0.97971243 3159:1.7026364 3163:4.3026185 3167:0.083533794 3169:8.9234858 3172:2.0965075 3181:1.1112442 3183:0.78251106 3195:1.346128 3199:0.37853727 3200:0.39840898 3231:1.0821018 3232:1.1486362 3234:0.98301345 3235:4.4071474 3236:1.8380307 3237:2.6696758 3253:0.65047991 3259:0.9102369 3269:3.12168 3277:0.52448863 3290:0.58730465 3294:0.85580003 3306:1.1375184 3307:0.21694374 3309:0.47478747 3314:4.0068026 3324:5.099349 3327:1.6880603 3332:1.9650803 3341:0.023311317 3358:0.64198089 3364:3.2317355 3390:1.2852262 3395:0.17911075 3411:2.4466789 3413:0.81642318 3427:4.883162 3431:1.3928503 3452:4.4889407 3471:0.61833501 3487:1.5190866 3493:0.12180811 3504:2.0369895 3511:6.4148016 3517:1.7274183 3519:4.300992 3521:0.1493808 3533:3.4038973 3537:1.5551455 3538:0.24438751 3548:0.083747119 3549:1.2065001 3552:0.73429728 3562:6.8736496 3564:5.6346245 3569:0.32622647 3570:0.11192304 3582:1.4168438 3595:0.7823962 3596:1.053409 3599:0.29822642 3603:0.13044985 3621:1.9088217 3626:3.6360531 3638:8.4124584 3649:0.146267 3650:1.1309882 3660:1.6008714 3666:1.5488977 3677:5.3228064 3680:1.6161482 3681:0.43273014 3690:3.0180042 3691:0.36689174 3705:5.0530453 3706:3.4357772 3710:1.3478513 3711:2.7725065 3712:5.2026987 3722:0.8283385 3729:1.8629019 3731:0.95020747 3742:4.494741 3744:0.034972012 3749:0.15554467 3758:0.58627391 3763:1.3849046 3765:2.3267446 3766:0.98016846 3771:2.1795073 3774:1.4155217 3777:2.0749552 3778:0.65434635 3785:6.6411266 3794:4.4073038 3795:5.6378875 3797:5.2074065 3802:1.3690457 3810:2.5016243 3821:0.28922522 3831:1.9672636 3837:2.9060681 3841:4.3832378 3855:0.88429493 3856:1.7679459 3857:0.32907206 3860:3.239692 3876:0.74396384 3881:0.60169178 3886:1.1099685 3892:0.69266319 3893:5.5837936 3901:0.11756423 3903:0.43259105 3904:3.1820204 3906:0.085633457 3909:3.6677718 3912:6.6652431 3921:4.761714 3928:0.99350172 3929:2.0818501 3941:3.4244847 3948:0.7401045 3951:5.8706923 3959:2.0477147 3960:2.4729688 3963:1.523015 3966:0.78122526 3970:1.7266794 3973:0.21263579 3995:1.1724677 3996:1.5618925 4000:1.2655545 4009:1.3510456 4016:6.4246378 4020:2.2697566 4021:1.3881359 4034:4.7356453 4036:1.736912 4038:0.15181938 4040:2.1914108 4052:0.11133054 4064:1.3651934 4072:2.097297 4084:3.4252739 4089:4.6049943 4094:0.10940753 
0.7360094771602759 5:0.12702444 9:0.40433276 12:2.2245092 19:4.1045341 21:0.6449455 26:4.0818157 27:2.7081933 44:0.56232566 45:3.8808155 46:0.4891651 60:5.6373553 61:1.775598 66:0.71129131 68:5.9788375 72:0.64370728 78:3.299757 89:2.8296471 100:0.14108233 101:3.4529369 105:4.1886158 113:4.947 123:0.97775817 128:0.0086687803 132:1.3210886 135:0.34576061 136:1.4608819 140:1.5323869 147:2.4730544 153:2.733844 154:2.4263368 158:0.40245804 163:2.1584368 167:1.4633429 170:0.98650962 172:1.8075304 174:2.3712876 190:0.99425077 195:4.2822285 215:4.911356 218:0.089544833 219:1.3573321 222:0.11334829 225:0.9958598 232:0.59914201 234:1.1721603 235:0.93956292 238:3.1432426 242:1.3276296 252:0.36167294 258:3.7398734 259:2.5766339 269:2.2611122 285:3.9438913 288:2.6853013 293:5.5064712 301:2.2961867 302:1.1997752 309:0.063488752 323:5.6600523 334:2.9665945 346:3.2355621 348:5.0074768 349:3.8421588 362:2.8604898 365:2.4975183 372:0.20602208 382:1.7563701 384:0.48430967 406:1.5746464 419:0.78384149 429:1.3185326 431:5.3295231 432:1.0543314 434:0.49622208 435:1.0910527 449:0.40122244 450:0.7082178 451:4.1121078 452:1.6932719 455:1.1248193 475:6.603931 481:1.0757302 488:0.78501695 491:0.47240826 493:1.3777993 495:1.2495135 500:0.41160089 501:4.2478027 514:0.81848776 515:1.3840281 539:1.9589638 545:0.53892314 557:0.21706024 559:1.9133874 563:0.66667789 564:0.83505529 565:1.1336232 570:4.2750106 571:2.2644119 572:0.55369067 576:0.72597814 584:2.1557136 592:0.35389048 595:0.81786495 599:0.13762026 601:1.6157154 605:3.4550226 611:0.1998309 612:3.3794134 614:0.32679647 619:3.3047018 625:6.3143587 631:1.3829857 635:1.0811745 639:1.2481163 652:6.0995641 662:0.64420927 671:3.7227709 677:1.5490661 679:0.61133468 682:1.5719724 684:0.41138607 707:1.6871525 711:3.8223724 721:1.5891526 724:2.2513487 725:2.7959032 728:0.069368601 748:0.27075878 751:0.19458155 754:4.2667108 755:2.4665079 763:4.4048657 764:2.2847188 769:0.4970651 780:1.1380473 782:3.3895657 785:1.1177098 788:3.9948227 789:4.099328 791:0.46615681 793:0.90929651 795:0.032708406 804:1.5734959 814:4.3228989 820:1.6287047 826:2.1395285 839:1.7735124 842:1.1766994 854:0.68812299 865:0.85502648 879:1.4110804 885:3.6351931 886:0.2814413 908:4.2939343 916:1.9833329 917:0.31970328 918:1.6022418 928:1.703737 932:0.49477869 944:0.13625415 945:1.5060319 966:1.6322469 968:0.81214905 978:0.07562989 996:0.36647648 1004:1.2841256 1007:1.350312 1013:5.8010416 1014:3.9614277 1016:0.16951573 1021:0.83668303 1022:4.551621 1023:2.1230958 1036:0.078703985 1041:0.65186954 1047:7.5934758 1049:1.225445 1059:1.2275543 1067:2.6398401 1092:0.18833573 1093:0.60305142 1114:1.5555502 1120:0.50239539 1136:1.0831616 1138:0.50256628 1150:0.35232648 1157:1.95468 1164:1.7300014 1167:1.9235904 1170:4.7576981 1180:0.13061622 1181:2.5204728 1182:2.134851 1187:2.9204061 1188:7.1355724 1191:4.0751328 1203:0.93485987 1213:3.1740482 1217:0.60998535 1218:1.5153959 1219:4.3316612 1221:0.89833248 1224:0.078452408 1236:6.3067136 1239:0.4325732 1242:2.3399718 1244:2.0780394 1254:1.4892238 1260:0.52093399 1261:1.8050855 1274:1.9042269 1281:0.67736733 1287:1.2600501 1288:1.3370768 1290:2.9919004 1297:1.6921688 1298:0.78922504 1302:0.53171903 1308:1.6069531 1314:0.69527042 1319:3.4051745 1326:1.5382444 1328:1.8551675 1335:6.4121084 1337:2.6082106 1340:0.840442 1341:5.1408548 1342:1.0657071 1348:0.23033647 1355:0.83393037 1364:2.8554759 1375:0.49352247 1376:2.8966486 1378:5.5406365 1399:1.2948296 1403:1.2717361 1408:1.5518301 1409:3.0703607 1410:1.2299861 1411:3.2636554 1416:2.9571569 1424:2.7526097 1427:0.55652094 1429:1.4061847 1430:0.56872678 1438:1.3812639 1447:2.1712785 1450:0.85431677 1452:1.7770135 1466:2.2944338 1483:0.15295899 1484:4.2521334 1493:1.1044977 1495:1.4403429 1501:0.79187793 1502:0.66742009 1508:0.38335881 1514:2.6525805 1515:0.00047212839 1520:0.78444982 1523:1.4997799 1525:6.3970146 1538:0.30116266 1544:0.051610827 1568:1.6242852 1571:2.444716 1582:2.4816048 1593:1.914619 1596:2.6202123 1597:0.5411483 1598:0.26681909 1602:0.5732159 1617:1.3370688 1621:0.52650511 1622:1.1422818 1633:0.81190383 1634:0.51145965 1636:2.7348597 1637:2.3497534 1661:3.3068109 1668:3.1595886 1675:1.319199 1679:0.075179622 1683:1.4821897 1686:1.1519244 1687:0.14947408 1690:0.22060074 1703:0.72471917 1708:4.6907339 1725:1.5588098 1727:1.667475 1732:1.6906695 1738:0.56493753 1739:1.5349599 1749:3.5264792 1751:1.6959057 1764:0.63124084 1768:3.5223372 1771:2.2543755 1772:3.6907992 1781:0.87087816 1782:0.3601563 1799:5.3155971 1804:2.5509603 1806:1.5797073 1810:0.48129565 1812:0.69801927 1824:0.71342492 1833:3.2265894 1839:0.79540455 1845:0.79242724 1852:2.2940979 1856:0.33858418 1860:4.5604558 1871:1.1635536 1872:0.15458538 1874:0.90581906 1878:0.81858516 1880:2.9083676 1902:0.70436549 1905:0.53655499 1911:0.016888857 1912:1.4232402 1930:2.7886419 1940:1.8092582 1942:4.0994387 1943:2.4020355 1955:0.13495588 1959:0.44105759 1968:0.57626998 1972:2.179215 1973:0.010219917 1990:6.3961625 2000:1.7970688 2004:1.103711 2005:2.9744349 2006:0.021484286 2016:1.5451127 2021:2.0703893 2032:5.6824493 2036:0.38099113 2042:0.51604784 2044:4.0343499 2045:0.57599449 2048:3.5597191 2065:1.610991 2077:2.6108911 2081:0.21884163 2083:9.1200809 2085:7.2968221 2089:0.014035106 2096:0.39543402 2105:3.8383498 2110:4.6128044 2116:1.5287248 2120:1.38798 2125:4.1399388 2127:0.81005752 2138:4.1538968 2144:1.5041406 2151:0.73578048 2159:2.0312116 2164:0.035176918 2174:2.0978322 2178:0.044996828 2190:1.168852 2213:0.41463038 2229:2.8583069 2241:0.61264712 2242:0.1774523 2251:2.1975005 2259:1.2694334 2272:0.77573299 2288:1.1143589 2297:1.3405296 2303:1.169812 2305:5.9337864 2311:2.8123646 2313:5.0804062 2317:1.2578757 2320:1.9569426 2329:1.6316248 2343:1.9407948 2344:4.4159155 2351:3.113167 2356:5.7669282 2376:0.62250251 2379:1.730709 2384:2.1044102 2386:1.6437225 2395:1.5834492 2414:0.13757703 2416:3.2592385 2420:0.70122838 2423:3.5486526 2427:0.58116245 2434:7.7204666 2435:3.663393 2450:1.2443231 2466:0.1686749 2470:1.6139446 2473:2.9794104 2486:1.9091842 2487:1.1901848 2493:1.5389316 2494:5.741735 2514:2.1365948 2516:4.8752427 2520:1.1155024 2526:1.8747334 2531:0.55410945 2551:1.2940223 2561:4.3747582 2563:1.8480479 2568:0.80421042 2590:1.5578356 2592:1.8053143 2595:1.151443 2601:2.0561769 2602:0.96503419 2604:1.9440539 2611:0.26263833 2620:1.3045787 2625:0.21919212 2628:0.36580408 2636:8.0874662 2639:2.5183334 2642:3.2676709 2652:0.05097729 2655:1.2456056 2668:0.43967089 2681:1.9317998 2686:0.053731102 2690:2.9003644 2692:1.8506948 2698:2.8048987 2715:5.6338086 2721:0.51486319 2723:2.0247076 2731:6.1538935 2735:3.81199 2742:0.026293337 2747:0.16720708 2749:1.7844654 2751:5.347239 2753:1.1116041 2760:1.3180459 2766:3.1918974 2769:0.51160002 2771:0.11110467 2774:0.3333379 2785:0.38381603 2787:6.4777641 2796:0.013930649 2807:3.6820357 2814:0.52574778 2819:0.84597051 2821:0.57332981 2825:3.126668 2838:3.2795591 2840:1.2024596 2843:4.375371 2851:0.31269467 2867:0.57692814 2872:3.3143706 2873:1.2694098 2874:0.15386039 2888:0.7555204 2895:0.27753055 2898:2.1298707 2900:0.6266197 2928:2.9521742 2932:1.5102973 2942:0.38250709 2945:2.908468 2946:0.54674923 2950:2.7154117 2958:1.0702256 2964:1.4582947 2966:0.043296814 2970:3.2921834 2974:0.728585 2982:3.8475158 2985:0.62086844 2995:1.9129839 2996:2.6067138 3000:1.1656563 3006:0.79323572 3007:1.3237548 3008:0.61631095 3010:2.9510489 3016:0.29632318 3019:2.257185 3020:3.4667609 3021:2.0726037 3028:1.3115592 3048:1.1469439 3050:5.0227661 3052:9.2539415 3059:0.64386415 3065:3.4224782 3075:7.3532653 3085:1.9409046 3097:4.5466166 3104:0.14217311 3110:3.4143813 3111:0.83393657 3114:1.6670547 3117:2.9432716 3118:1.1331837 3120:0.31947252 3124:1.3632101 3133:0.27750048 3141:0.38628042 3145:0.40480301 3148:3.1053247 3151:1.0984905 3154:3.2646406 3163:1.7417464 3169:4.8627234 3172:0.52151525 3181:0.23669608 3183:1.7394502 3199:0.41892651 3200:1.6814806 3210:0.50523043 3226:1.7096281 3232:0.052497119 3233:0.28539768 3235:3.0538983 3237:2.3687727 3239:0.41414517 3252:0.35316771 3259:0.98893088 3290:2.1741393 3291:0.47122145 3309:1.8256814 3314:3.4749022 3324:3.4660549 3327:5.6183963 3332:2.1239481 3355:3.7656126 3364:1.8456148 3365:0.41466689 3375:4.1064019 3376:0.60931343 3390:4.1466951 3395:2.1747391 3404:4.387785 3411:0.27968568 3413:1.7039535 3418:1.7640635 3424:0.36250845 3425:2.2013924 3427:6.3386359 3447:0.42265078 3457:0.053029194 3465:2.3641353 3476:1.3088611 3504:4.7312517 3508:3.4739444 3511:6.246954 3516:1.1214664 3517:0.4725849 3519:4.5413566 3520:0.095350564 3524:2.2394261 3532:1.9471041 3533:0.16584562 3538:1.8386393 3544:6.5427456 3549:5.0441909 3552:0.89466763 3561:1.1952813 3562:3.4125683 3564:4.2656517 3569:1.0962201 3580:1.3223948 3582:2.3349245 3589:0.02697131 3595:1.8915091 3603:4.2261615 3614:3.442034 3619:0.20383847 3626:2.8607259 3638:5.0701432 3650:1.3353961 3657:0.20760828 3666:0.37962615 3677:3.6116202 3680:1.7397701 3687:1.2818605 3689:1.6163945 3690:0.70673543 3705:2.2055404 3706:4.8605485 3710:0.39533362 3711:1.0170971 3712:4.8593211 3713:0.56146729 3722:0.24905303 3729:2.5093479 3731:4.633215 3732:3.5963616 3736:2.6670244 3742:2.3873079 3744:0.11780363 3751:0.29542631 3757:1.2989526 3760:1.2005204 3766:2.9914298 3769:0.15370107 3774:0.22796172 3777:0.81282705 3778:2.7320743 3785:5.8215089 3794:0.6889565 3795:4.6320753 3797:3.8320794 3802:3.7579806 3803:0.90736461 3811:0.1548675 3813:1.6898925 3815:0.078601435 3821:0.21455617 3836:0.01082769 3856:2.1511278 3860:4.6077309 3876:0.58837819 3880:1.4109907 3886:2.3847923 3888:2.1552317 3892:2.9814827 3893:5.2999897 3903:1.8619535 3904:1.4337928 3906:0.25517288 3909:1.5144854 3912:3.2883143 3917:0.096921891 3921:4.4025722 3922:2.1359336 3928:2.3719468 3937:0.67247909 3941:1.5306436 3951:2.1291981 3960:0.73364598 3963:2.1500449 3976:0.099728748 3984:1.2420506 3985:1.0424399 3988:1.9601785 3995:2.6792977 4000:0.38670114 4016:1.9544793 4020:0.5441736 4029:0.62370193 4031:1.6731924 4032:0.073330797 4034:1.6198331 4036:3.6100183 4040:1.1086853 4052:2.7551124 4084:2.6797271 4089:5.0336881 4093:3.0306659 
0.180151509824764 5:1.2901664 9:1.6064497 12:2.7397583 13:0.027305007 19:5.6060386 21:2.6375279 26:2.2777975 27:2.6482437 43:0.48450172 44:1.0223117 45:1.9836285 60:5.0727258 61:0.97876406 66:0.62208515 68:8.1152935 72:0.70145452 78:4.0414934 89:2.8200598 100:2.5558925 101:2.5753703 105:4.5046673 109:0.54022098 113:4.3991785 131:1.5344034 132:1.1694278 135:0.28684536 136:3.6919763 140:2.2757058 147:3.8671856 148:2.0370722 153:2.5661955 154:0.34637189 158:0.51173967 163:1.3338792 167:2.42242 170:0.01455716 172:2.8285828 174:1.4439168 190:0.46058255 195:3.6284881 215:4.5076494 222:0.56792367 224:0.50910729 225:3.1241546 232:0.64294511 234:1.6376523 238:4.558392 242:1.3110585 252:1.970814 258:4.1223092 259:5.1577573 260:0.18865505 269:2.8496413 276:1.1268207 282:0.55074573 285:2.6409967 288:3.8884668 293:3.9118848 302:2.443023 309:0.92070293 319:1.2219719 323:4.7936616 334:3.4928288 346:3.4098628 348:4.0796194 349:4.2456732 362:3.1787999 365:3.371819 366:1.2387776 372:2.0249183 382:2.4320543 384:0.69619203 404:0.32700226 406:1.8633891 419:1.2667061 431:5.8934054 432:0.47634241 435:1.2580256 449:0.32539728 451:4.7313828 452:0.36324236 455:0.69113624 466:0.63733393 475:4.1042886 488:1.1606892 493:0.74946988 495:0.51260287 500:0.11706695 501:3.2903767 514:1.9849222 515:0.91066748 539:3.2784517 555:0.07116133 559:2.8459949 564:1.0718737 565:0.81666046 570:2.1206632 571:2.8363481 584:2.4258165 592:0.85732114 595:1.3968306 601:4.097887 605:2.9784107 606:0.090931818 611:1.2011031 612:2.0573711 614:0.3382712 615:0.13512141 619:1.9737393 625:7.8776512 631:1.3234236 635:1.2044108 639:0.65807223 652:4.7082915 657:1.7581367 662:0.5084306 671:1.1895671 677:2.4465206 679:1.3329785 687:0.071312085 694:0.30629885 707:0.64055669 711:4.0982251 720:1.9614086 721:1.4154363 724:2.5309908 725:2.0468791 738:0.036469102 748:0.24508595 751:0.69908923 753:0.026557177 754:5.007813 755:1.7135856 763:3.6690722 764:1.1085701 780:2.5534155 781:1.5422882 782:4.5541091 785:1.3715887 788:4.8594699 789:2.025578 793:1.5369402 795:1.1930783 804:3.1018813 811:0.37294286 814:2.9182973 817:1.1471652 820:3.7122068 826:2.7500386 839:1.3435496 842:2.4809041 844:0.35171831 854:1.6002901 865:0.70513004 879:0.5689798 885:3.3565426 886:0.0056040883 899:0.37902904 908:2.4021301 916:0.52060634 918:3.2069521 922:1.1058738 928:1.8682843 932:1.8941668 944:0.65236938 945:0.83208108 951:0.56825125 956:0.5750562 966:0.056826591 968:0.5940392 978:0.64848018 979:0.12245882 994:2.6392541 996:1.1621414 1004:2.2183061 1007:0.61566883 1013:4.0030761 1014:3.3659103 1016:0.76859587 1020:0.55752432 1021:1.1415544 1022:4.3402719 1023:0.72063482 1047:6.8895984 1048:0.095208839 1049:1.1647997 1058:1.1915562 1059:1.4240313 1067:1.3750231 1076:0.33195284 1092:0.20571516 1093:1.9692481 1095:0.66064596 1110:1.9844329 1114:0.29945785 1120:1.6684465 1126:0.62087363 1130:0.0056798086 1136:1.6029793 1138:1.7176507 1150:1.1250852 1157:2.1665773 1159:0.28713211 1164:0.87571847 1170:5.0539327 1180:1.1757041 1181:1.8094252 1182:2.0077739 1187:3.2120984 1188:8.0070648 1191:6.0279942 1203:1.954373 1213:1.9232974 1217:1.1500204 1218:0.033301152 1219:5.7582102 1221:2.1766508 1226:1.8851138 1236:8.4504232 1237:0.1165123 1242:3.0327787 1244:1.7785618 1254:1.4556512 1260:2.0390964 1261:3.4340703 1272:1.1614434 1274:2.8423696 1276:0.12631498 1277:0.14172241 1281:0.52486187 1287:1.3242379 1288:1.5838811 1290:2.9241428 1297:0.67722881 1308:1.6319226 1314:0.13581851 1319:4.5708566 1326:1.3107299 1328:1.9224924 1333:0.068053171 1335:7.2443957 1337:3.428062 1340:1.6184204 1341:6.159255 1342:0.70146829 1355:0.59830332 1364:3.3434525 1369:0.88982677 1375:1.8391843 1376:1.9787377 1378:3.5857575 1408:2.2030973 1409:3.9053965 1410:0.81155533 1411:4.4099331 1416:4.0556278 1424:3.7721679 1427:0.85475415 1429:1.5751711 1430:0.30181995 1438:1.1309946 1447:2.3742852 1452:1.5104361 1466:2.4516888 1484:4.778192 1495:1.969969 1502:0.82230872 1507:0.027532429 1513:1.9361298 1514:2.0003912 1520:1.5819454 1523:1.6931777 1525:4.9694214 1526:0.081530452 1530:0.18993415 1544:0.92935288 1545:0.48547399 1565:1.307853 1568:1.5191348 1571:2.1913564 1582:1.7831354 1593:1.3989426 1596:1.4397995 1597:1.6123799 1602:3.8468301 1613:0.46678257 1617:1.2527726 1620:0.60569006 1621:2.4864886 1622:1.7178857 1627:0.20588197 1633:0.28705287 1634:0.35533321 1636:1.4718938 1637:0.36193484 1645:0.20527062 1661:5.2484202 1668:1.3536742 1679:0.49680626 1683:2.1750808 1703:0.73041093 1708:2.8062217 1712:0.43358499 1720:1.8614066 1725:0.13096631 1727:2.1003683 1728:0.94536138 1732:3.3993561 1738:1.2985389 1749:1.5420763 1751:2.9063756 1764:2.4572139 1768:5.4220872 1771:1.8446867 1772:4.7597294 1781:0.76581252 1782:0.75481504 1799:4.4833217 1804:2.0517406 1806:1.8209903 1824:0.78327417 1833:3.4921961 1839:1.5278497 1852:0.62989563 1856:0.95449334 1860:5.4909134 1871:1.6166643 1874:1.4109375 1880:1.9530315 1902:1.4306805 1912:0.28145015 1930:3.8316693 1940:2.2998574 1941:0.88287854 1942:4.773787 1943:2.8345134 1955:0.66044492 1968:1.340879 1972:0.98538601 1973:1.4123945 1987:0.1696831 1990:6.3828936 1999:1.3178115 2004:3.1110232 2005:1.5502408 2016:0.80240047 2021:1.0192604 2032:4.947403 2036:1.4150727 2042:0.17172143 2044:2.866101 2048:1.8837366 2077:1.4196188 2083:8.1328058 2085:8.260911 2086:0.19681916 2089:1.2168159 2096:0.6744011 2105:1.1531167 2106:0.57062066 2110:2.9515359 2116:0.75595462 2125:3.111202 2127:0.94274378 2138:2.2255394 2144:0.68751085 2151:1.02257 2158:0.36543539 2159:1.5334941 2164:1.6445493 2166:0.34992829 2174:3.4716156 2190:4.0265527 2202:0.090738267 2213:0.92288822 2229:2.7370439 2242:0.35993114 2249:1.1404086 2259:2.4186289 2272:1.1679031 2288:1.1034254 2297:0.91988695 2303:1.2345465 2305:5.1558313 2311:2.4070253 2313:5.1179738 2317:1.4198003 2320:1.7665663 2329:1.7022817 2343:2.9409478 2344:3.4627695 2351:2.6367121 2356:4.3470716 2358:0.85647577 2365:0.61216986 2376:0.74618804 2379:1.4686919 2384:1.9845201 2395:0.59440225 2409:0.085831329 2416:3.3760164 2420:0.89862126 2423:3.8697803 2427:2.8257861 2434:7.2582068 2435:5.0676975 2450:2.0432951 2459:0.098312199 2470:2.5334978 2473:1.0245842 2486:1.7910975 2487:0.72349632 2493:0.18083006 2494:4.2114577 2507:0.76231241 2514:1.0014921 2516:3.6873484 2520:1.0019543 2526:0.7200501 2529:0.41823798 2531:1.7182455 2534:0.26274073 2537:0.49050954 2551:2.5607796 2561:4.3120332 2563:3.6783512 2590:1.1012728 2592:1.8139133 2595:2.408793 2601:1.7537571 2602:0.3814874 2604:2.8194366 2611:0.57369214 2620:3.5949435 2628:1.6971486 2636:10.720009 2639:1.5535496 2642:4.2350826 2655:2.7785969 2668:1.3039374 2674:0.22148803 2681:0.034387797 2686:1.6947696 2690:3.4322286 2692:2.0182974 2698:3.8377929 2708:0.16995989 2715:3.9253159 2721:1.6324008 2723:1.1528817 2731:2.9070473 2735:2.2220685 2736:0.56715548 2738:1.0427144 2742:0.13476685 2751:5.8191738 2753:0.13757996 2759:0.18517202 2760:2.2812536 2766:2.3923931 2771:1.1995256 2774:1.1412966 2785:0.32931277 2787:6.786634 2795:1.0951208 2807:3.2156153 2814:1.0274122 2819:1.1301481 2821:0.27111813 2823:0.478798 2825:3.5047584 2838:2.6155171 2840:0.34056926 2843:4.7001686 2844:0.15959477 2867:0.96581507 2872:4.328033 2873:0.59786749 2879:1.8420656 2895:0.19152972 2898:0.95671612 2901:1.6050192 2917:0.13822649 2928:4.9855042 2945:3.8169618 2946:1.0307337 2950:2.3652477 2958:1.669531 2964:0.95157927 2966:0.53544539 2970:3.7454998 2974:0.48897648 2976:0.096373379 2982:2.177139 2985:0.99012613 2995:0.90394253 2996:2.3243408 3000:1.1372839 3006:1.2387078 3007:1.3647784 3008:1.6220447 3010:2.5331602 3016:0.7046423 3019:2.5396953 3020:2.8467276 3021:3.522687 3028:0.41922021 3032:0.43431413 3043:0.40191191 3048:2.8084111 3050:5.1359539 3052:8.8212509 3059:0.86072338 3065:1.110419 3067:0.041978233 3075:5.5246253 3085:1.9382945 3097:3.9615917 3104:1.1289026 3110:3.574369 3111:1.5097668 3114:3.510345 3117:4.1487813 3118:1.661716 3120:1.8744359 3124:1.7605525 3130:0.31951576 3141:0.51449233 3143:0.92177594 3145:0.28809547 3148:1.7313234 3151:0.056863695 3154:3.1861539 3163:0.73550844 3168:1.081946 3169:4.9400539 3170:0.70700628 3172:1.8347217 3183:0.34055126 3184:0.17660061 3195:1.0829682 3199:1.7844137 3200:0.86045307 3226:1.1408801 3233:1.1548475 3235:5.6070437 3236:0.57149267 3237:3.827296 3239:1.1706188 3253:0.29161003 3261:0.21172799 3290:3.2384174 3309:1.2507329 3310:0.015111096 3314:4.7331462 3321:2.2869146 3324:3.53685 3327:6.4967222 3332:0.94087958 3355:2.6251564 3364:2.951612 3375:4.4940529 3390:4.3274693 3395:2.9516306 3404:2.9368477 3413:1.0451475 3417:0.48334378 3418:1.6399255 3424:0.43531486 3425:2.5749779 3427:5.8281827 3431:0.74318576 3445:0.84310424 3447:0.86762363 3451:0.29261371 3452:1.3237995 3457:0.53786576 3461:0.2938295 3465:4.1607256 3476:1.2091697 3481:0.66224933 3504:5.1947098 3508:1.5120509 3511:6.4204836 3516:0.61753672 3517:0.93533111 3519:5.3361764 3520:0.79602408 3524:2.1691606 3528:0.69815338 3532:3.1500819 3533:0.21828622 3538:2.4976842 3540:1.7622242 3544:4.2841225 3549:5.887291 3562:3.5318165 3564:4.8762217 3569:1.4670861 3570:1.7942066 3580:0.59922981 3582:0.76145983 3583:0.07726416 3595:0.92690015 3603:2.8969414 3614:1.7943469 3619:0.084692568 3621:0.12408334 3626:4.5229464 3630:1.0389032 3638:5.293191 3650:2.1640539 3652:0.62347859 3666:0.68126476 3677:3.2696004 3680:4.0247259 3687:2.4235618 3688:0.64086926 3689:0.49990493 3690:1.4064534 3705:1.9600639 3706:3.6667137 3710:1.1382455 3711:0.57237697 3712:5.3630505 3713:1.3654962 3722:1.7975107 3729:2.090312 3731:3.3016615 3732:3.1178775 3736:2.5549676 3742:1.3503511 3743:0.20174032 3751:1.7354006 3757:1.7857167 3760:2.0206037 3774:0.0061613917 3777:2.7532265 3778:4.5968533 3785:5.1399436 3794:1.0028419 3795:4.1904082 3797:3.1555834 3802:3.4655023 3811:1.9738898 3821:0.63742512 3826:0.43859896 3855:0.49060261 3856:0.38494456 3860:4.7466831 3876:1.7250003 3880:0.93649995 3886:1.7085334 3888:0.98334396 3892:4.4566822 3893:4.8732262 3901:0.31180483 3903:2.4717112 3904:1.4340558 3909:1.0982245 3912:3.097168 3917:0.28898937 3921:3.412636 3922:0.71479958 3928:0.77599382 3941:1.7398918 3951:3.9814527 3960:1.535743 3963:0.3218098 3984:0.49146813 3985:0.11503206 3988:3.137212 3995:2.4355128 3996:0.27862334 4000:0.5935244 4011:0.28050059 4016:2.0527864 4020:1.7072654 4031:0.92032623 4032:1.7988203 4034:2.4599302 4036:3.2360346 4040:0.14894223 4052:1.6527696 4059:0.09708903 4064:0.035850585 4084:2.2341423 4089:4.2529016 4093:3.7321379 
0.1105469708512106 12:2.2999427 18:0.0058909357 19:1.5574821 21:0.98048639 26:3.891387 27:1.6595111 45:1.3136419 60:4.5925317 68:5.6166334 78:6.2363477 79:0.7099483 80:1.7634413 89:6.0991526 101:4.6168332 105:4.4691224 108:3.9023881 113:5.6613612 128:1.3637635 136:1.5473025 140:3.2878387 153:1.7500253 154:2.1184425 163:1.3688623 167:0.90735453 170:3.3232923 180:0.12695706 183:0.2856122 195:2.9038558 215:2.704073 225:1.4848107 228:0.37417012 232:0.58774656 238:2.0842845 258:3.427398 282:0.40855396 288:3.1731007 290:0.52281797 301:2.9392128 302:1.975072 309:0.69491422 319:0.65401471 323:4.3911061 346:1.3885053 348:4.1630712 349:0.013224095 362:1.8168943 365:2.7135792 374:0.14258432 406:0.46950942 421:1.5742786 429:0.42444718 431:3.0748634 432:0.76292104 433:1.0191327 435:1.3139137 451:3.423583 452:0.13575685 475:6.1013169 476:1.3138278 481:0.035236344 488:3.8090267 499:2.8314898 500:1.888391 501:2.4784062 513:0.2805329 515:0.64502192 526:0.098560378 545:1.7143359 555:0.71604139 557:0.51455891 559:3.2143445 560:0.88566005 564:1.4548962 570:0.075024247 571:2.3013744 572:0.40320164 573:1.5665524 599:0.80094486 601:1.4638556 605:5.263032 614:3.1166754 619:1.1869345 620:0.66581517 631:1.7807438 639:2.3575349 642:0.16463956 652:3.3249526 671:3.9083018 682:0.35108459 700:0.55057156 711:3.1948912 714:0.21637776 720:1.957128 721:0.14558534 738:0.29501995 748:2.8513238 749:0.87454116 754:5.226099 763:3.8031323 764:1.0299269 778:1.0052786 780:1.1753378 782:0.23000574 788:2.0969839 789:0.94171602 791:0.71082938 795:1.2277539 801:0.97437119 811:0.23305951 814:1.8668572 817:3.8581247 826:4.1522517 837:0.10095006 885:2.9373913 894:3.0522962 896:0.20197041 908:4.5893006 932:3.0684321 938:0.76692051 944:0.23045528 945:1.3179146 956:0.77631474 966:1.1825825 968:4.0336246 982:2.1742921 994:0.24413976 995:0.50140792 1004:0.022193283 1013:5.9233494 1020:1.8106894 1021:5.0857897 1022:3.7032468 1045:1.205899 1047:8.224699 1067:1.1501706 1080:2.4236016 1081:0.85885024 1090:0.19996479 1092:0.97910058 1093:1.2168469 1095:0.23068264 1114:1.20025 1120:4.5319853 1133:0.24070412 1136:2.1921833 1138:0.90910119 1146:0.19561632 1149:0.64621794 1164:0.2854805 1167:0.62363017 1170:4.9021773 1181:2.4426603 1182:0.41871259 1187:6.4353814 1191:3.7794855 1203:4.407877 1218:0.83328432 1219:3.2173769 1227:0.072595909 1231:0.43345669 1234:0.019860588 1236:5.2572141 1242:1.5294183 1261:0.56087095 1273:2.673774 1274:1.7029557 1281:1.032202 1283:0.13646676 1284:0.38248226 1290:2.5127568 1302:2.3637462 1308:0.1741834 1314:0.63655984 1316:0.16166905 1326:0.46032423 1335:7.3824334 1337:2.7684891 1341:3.1271112 1342:0.92690706 1355:1.6862043 1364:4.7194262 1365:0.48153725 1369:4.0235686 1375:1.2746987 1378:2.1374259 1399:0.16117921 1403:0.52872694 1409:0.31780624 1415:1.4602139 1416:6.3780642 1429:1.8947188 1430:0.2700915 1438:4.7973747 1447:1.7530584 1450:4.281857 1452:6.8716183 1464:0.29277363 1466:3.8030453 1469:3.3997607 1470:2.8630946 1484:2.5535028 1508:0.35491455 1514:1.9179065 1520:2.3444262 1523:0.80230236 1525:5.3249054 1526:0.29727527 1538:0.53559214 1543:2.7275963 1545:1.5472788 1555:0.74301523 1565:1.0586932 1568:0.93538833 1571:4.2462845 1582:1.6631474 1593:1.7463177 1597:0.26791456 1602:2.6000659 1613:0.73911774 1617:1.099658 1634:2.7817507 1636:2.8308692 1645:2.1117389 1661:3.547344 1668:3.7095592 1675:0.57012105 1679:0.77542228 1683:0.68550354 1690:1.7892746 1703:0.88884544 1723:1.3587439 1738:3.4930229 1739:1.4294853 1748:0.0083729168 1749:0.039382458 1768:1.8684351 1771:2.651386 1772:6.1320868 1782:2.8930857 1791:1.8134234 1804:4.8480377 1806:0.85819948 1810:2.4351761 1812:0.063196748 1824:1.6363457 1828:1.7869035 1833:0.20312726 1856:1.8473749 1860:4.9930277 1871:2.0575533 1902:0.34221095 1930:2.3551848 1940:3.1216683 1941:4.5072365 1942:0.96617281 1959:3.1652715 1978:0.1591073 1990:3.3370216 1992:0.029877841 2000:0.59750414 2004:4.8171387 2005:1.1368984 2016:0.9597981 2021:0.82743084 2026:1.003544 2032:3.3595695 2036:0.73112071 2042:0.72986758 2044:4.9562979 2048:0.39858389 2065:1.2072372 2076:2.7839587 2077:1.0352855 2083:8.5832586 2085:6.2696509 2086:0.73634911 2096:1.3628757 2099:1.3010825 2105:1.948107 2110:3.8826509 2120:3.7897222 2125:3.9245167 2137:1.2285253 2138:5.6256247 2156:0.36405963 2158:0.30459657 2159:0.80498242 2170:0.26997373 2199:1.0695002 2202:4.9636841 2216:0.71996379 2226:0.15418842 2229:1.5594561 2241:0.71579856 2253:1.1527447 2259:4.1619081 2271:2.2068336 2272:1.6322744 2288:2.5477536 2305:5.8781614 2308:1.5089269 2311:0.73792398 2313:2.4492035 2317:0.40402773 2320:1.2676342 2328:1.6402969 2329:4.9367533 2344:4.0610271 2346:0.69545364 2348:1.0117074 2351:2.304945 2356:3.5930982 2376:0.010755479 2384:1.3949878 2395:2.8206925 2407:0.32292247 2409:3.2529197 2414:1.0830941 2416:3.0443993 2418:0.8556509 2423:1.966777 2424:0.41140035 2427:0.065644056 2434:6.6513453 2435:0.50096083 2443:0.40786111 2450:2.3720098 2466:0.17770346 2486:0.15196493 2487:1.0491892 2493:1.4554977 2494:8.172863 2514:0.65530157 2516:3.7005432 2526:2.2170391 2551:2.6782184 2561:3.323283 2563:1.3904096 2568:2.8809702 2590:1.6466441 2592:2.0919206 2595:4.4087911 2602:2.8715801 2604:0.65607238 2605:0.01192525 2610:0.43202069 2611:0.51300788 2620:3.130971 2636:2.7358625 2639:3.1539538 2642:1.166394 2655:3.4315205 2678:2.4352992 2679:2.289912 2681:0.18222743 2686:1.4214778 2690:1.6811813 2692:3.2179379 2694:0.75336373 2695:1.7473409 2698:5.5427275 2707:1.1216413 2715:3.6427202 2731:1.8370086 2735:0.78607821 2738:1.2154056 2743:2.4915097 2749:1.1269892 2751:3.1310527 2753:2.4747829 2759:2.0690362 2760:0.23330021 2769:0.67437011 2775:0.66505551 2785:0.090079099 2786:0.024104029 2787:3.4529228 2796:2.8076048 2807:1.3235046 2819:1.9712396 2823:1.9535338 2831:0.10626024 2838:3.3193431 2840:3.1137168 2843:4.6527758 2857:0.51157981 2867:0.53494161 2872:5.5368996 2892:0.24931186 2901:3.7257409 2917:0.3747023 2928:2.0309117 2930:3.5394335 2932:1.3712704 2936:0.72411972 2945:2.1930642 2946:0.51914132 2948:2.4747248 2954:2.7602835 2958:0.21944527 2966:0.38628224 2970:3.8286421 2974:2.1377342 2982:2.744118 2995:2.7824779 2996:1.2972879 2998:0.073276721 3000:2.0098846 3007:3.5148034 3010:2.5268769 3017:0.44262123 3019:2.27916 3020:1.7318918 3028:1.7449208 3043:0.22107291 3048:5.3079352 3050:4.2262936 3052:9.7958555 3065:1.4266685 3075:7.3017421 3097:4.7768645 3107:0.065956056 3109:0.6300779 3110:1.2984897 3114:0.66793203 3117:1.2700849 3127:1.88252 3130:0.037833601 3143:2.684952 3148:1.0812495 3149:0.61747801 3154:0.03898868 3159:0.20724794 3163:2.986413 3169:9.183651 3172:0.93924809 3181:0.44458631 3183:0.92927694 3226:0.41307122 3231:0.40720674 3234:0.39042974 3235:5.2721467 3237:4.5842867 3253:1.08103 3259:2.6190009 3309:3.0897999 3310:0.096446082 3314:4.5377841 3324:0.71797472 3327:1.8987379 3332:2.3349891 3358:3.2430046 3364:0.8314594 3375:0.89456737 3383:0.10705054 3388:0.063764796 3390:3.7333436 3395:1.6115766 3404:2.5279763 3411:3.1024001 3425:0.59551191 3427:3.0631974 3468:1.3315737 3486:0.97763634 3487:0.4589867 3493:0.40426737 3504:3.5015988 3506:1.5778062 3511:4.873795 3517:1.0260192 3519:4.6974163 3524:0.45777145 3532:0.27492312 3533:0.4541983 3544:1.146107 3548:0.61854869 3549:1.8031043 3552:1.2365052 3562:3.9909148 3564:5.6253324 3569:2.1472154 3576:0.51797235 3583:1.6690021 3603:0.81651241 3619:2.6803987 3626:3.9428775 3638:5.7636981 3652:1.088177 3668:3.2288146 3677:4.9646044 3680:0.35766163 3690:4.5990448 3705:2.5377383 3706:1.6511555 3710:0.57692021 3711:2.624541 3712:4.5220714 3713:0.87787354 3722:1.1124117 3729:1.8127201 3731:2.5333776 3742:4.414351 3744:0.08471036 3757:0.75178307 3765:2.3394501 3767:1.5126296 3771:1.0975933 3778:1.9356296 3785:10.300834 3794:2.9369955 3795:3.6310229 3797:0.28331453 3802:2.1738315 3813:0.11023968 3831:0.49372828 3837:0.58534193 3841:3.2267706 3844:0.62286437 3856:0.40997651 3860:2.9688046 3876:0.40433639 3881:1.4257272 3886:0.84660363 3888:4.6412339 3892:0.97305596 3893:2.8623133 3903:0.25270492 3904:2.3788879 3909:4.5348692 3912:1.8369794 3921:4.0321708 3928:2.3202398 3929:1.0032381 3935:0.70528865 3937:1.0468982 3951:4.0861063 3959:2.2338181 3963:2.0934234 3966:1.9770623 3973:1.0484518 3995:1.885245 3996:2.368613 4009:1.5543842 4011:0.17313787 4016:2.8465538 4020:1.8433356 4034:4.3868032 4036:2.5475225 4040:2.0078626 4052:0.5716067 4084:2.1012607 4089:4.2581463 
0.6360160089085179 4:1.0165811 9:1.6999514 12:6.1703773 19:3.2956729 21:1.4474822 26:0.06949982 27:0.15622172 29:0.58599734 39:0.080967411 44:1.1540073 61:1.7930622 64:0.78170127 68:7.5268927 73:0.66409522 78:7.6361609 80:1.4672778 81:1.008244 87:0.10233453 89:6.3715606 96:3.0380576 99:0.60784465 101:2.7725308 108:2.9783721 110:3.5154288 113:7.5221505 123:1.6332155 127:2.0010629 132:1.6643839 136:2.1281183 140:2.3239954 147:0.094762176 153:4.2318897 158:3.78617 159:1.2808322 163:0.62589556 166:0.051258951 173:1.1021636 180:1.2644113 186:0.2172409 195:2.2036216 203:0.29525304 214:0.3894912 215:2.8800626 217:2.243938 222:0.43655878 225:1.9039388 234:0.66332221 235:3.5901265 238:7.2843056 241:2.1811149 252:1.9076545 258:1.955502 262:0.96035016 267:0.29080495 269:1.810973 272:0.12350854 282:0.86601377 288:2.889607 293:2.1191168 295:0.31144038 301:3.2562404 302:7.4577041 311:1.0853286 314:2.7814984 323:5.8846831 335:0.89069319 341:0.89716727 346:0.71220958 348:2.0850842 349:1.758759 365:3.0730257 387:5.2790651 398:0.68852186 399:1.6644557 406:0.51860082 419:0.68369007 421:4.4038377 429:0.085348904 431:2.9561007 432:0.38920209 433:0.88677108 434:0.68677771 435:0.47794104 446:0.45537126 449:2.9553034 451:2.6401005 458:1.1267719 475:5.4370446 488:5.8469248 493:2.4037485 499:3.5269775 500:2.5670712 501:1.980845 505:1.5449426 508:0.34054023 514:3.4496188 515:2.0152364 527:0.56101662 543:2.5377853 545:3.1752539 559:4.2499509 570:0.40488076 571:1.4785832 572:2.2407315 573:1.390505 584:0.51467657 595:1.061242 596:0.9388057 605:2.08832 607:1.4475255 611:0.82906127 616:0.87078738 639:1.6735992 641:3.4616177 642:1.9265149 650:2.6431479 652:0.88258445 663:0.46062964 671:9.8482885 672:1.1095819 673:2.357234 678:1.1719129 679:0.45834073 682:0.36594522 700:4.7749982 705:3.2724361 709:1.1955409 711:0.59647495 712:0.27030879 713:0.077771604 714:0.16365251 720:3.9241886 721:1.2512088 725:0.64142174 730:1.711439 734:0.28746164 743:1.9139419 749:2.1559882 754:7.0336785 763:6.1915569 764:3.2115805 772:0.44949138 780:2.0293493 782:1.8326248 784:1.1640747 793:2.3039687 795:0.76356179 811:3.3556035 816:1.7798824 817:1.7424581 826:7.1125755 831:1.3041098 832:0.45965561 833:0.75058508 839:3.4793129 841:0.40372062 842:1.2594702 846:0.21322471 853:0.76554024 858:0.38094658 859:0.89011866 865:0.43881336 866:1.6174116 869:1.8032511 871:1.2883632 877:1.2160653 885:4.0378366 894:2.6617887 896:1.7124674 908:5.060122 922:1.4169202 928:1.6003331 932:3.5214128 935:0.97952735 938:0.87201214 944:0.69667912 947:2.6299717 956:0.72114158 966:0.008250922 968:5.8696556 978:1.7314036 994:0.2287081 995:2.0949268 997:1.1871585 1007:2.5836504 1013:5.001503 1015:0.76974326 1020:4.1431789 1021:3.4965172 1022:4.8348112 1034:0.90519118 1036:2.0370657 1038:0.37508732 1039:0.43283522 1041:0.87655008 1045:1.7001586 1047:5.3371043 1075:1.3240181 1076:0.74599248 1077:2.2113826 1080:1.641016 1092:2.7678614 1093:0.64717525 1095:3.0615187 1100:2.2845185 1110:0.68811953 1111:0.55795455 1114:0.5611279 1120:3.6509035 1125:1.2316186 1130:1.6509758 1136:1.8477874 1138:3.1194258 1146:1.5266094 1149:6.0123863 1153:0.15809307 1159:0.85794228 1170:2.9923837 1175:1.0412896 1182:0.32735038 1191:1.9535449 1193:0.11109442 1199:1.2473569 1201:0.29802257 1203:3.0216255 1213:0.15441281 1218:2.238822 1219:3.9982755 1220:1.4774529 1228:0.30322346 1234:0.98078912 1236:3.5806558 1239:2.6807315 1252:0.14596075 1257:2.1413023 1261:2.4239309 1263:1.3675808 1271:2.0379696 1290:2.1260524 1298:1.8489451 1302:2.2258599 1314:0.95243335 1319:0.18822426 1320:1.4191035 1326:2.4731622 1328:2.3867314 1332:1.7621107 1335:6.5004354 1340:0.68954587 1341:2.6716063 1364:4.5504193 1369:4.3635554 1378:0.20380104 1386:1.1396346 1407:1.1294625 1409:3.3088694 1415:1.2858829 1416:7.1119256 1423:1.340176 1430:0.015038282 1438:5.4703045 1447:3.0349092 1450:2.9168119 1452:7.3687634 1462:1.2868025 1466:2.9729073 1469:3.7609732 1470:1.9348329 1472:0.31652269 1480:0.39807573 1484:6.1336789 1493:2.742851 1495:2.2988052 1500:0.23219325 1511:1.070812 1514:3.4975061 1519:1.2526891 1520:3.639925 1523:4.7006483 1525:1.0468507 1526:0.049076259 1543:0.029711649 1544:1.579231 1552:0.23575008 1562:0.38231856 1565:0.094824851 1566:2.2214437 1568:0.8385554 1571:4.6396484 1582:1.1641424 1590:3.3917422 1596:2.559442 1598:0.88897562 1602:0.78695416 1615:1.1630616 1617:1.962477 1618:0.089936078 1627:0.00083550345 1630:2.6026435 1633:1.1344212 1634:2.0573699 1636:0.94125009 1637:0.34086761 1638:3.5220809 1645:1.0246058 1652:1.7675774 1662:2.0230956 1667:0.9040001 1668:1.0827551 1669:0.17620227 1675:0.56864405 1677:1.4418716 1679:1.905185 1690:5.1678486 1692:0.18895078 1698:0.70015043 1708:1.0564735 1710:1.029951 1712:0.39897245 1716:0.22361076 1723:4.7775645 1732:0.80962282 1738:2.2183449 1747:0.64217353 1749:0.50998241 1764:0.37726176 1765:1.0348957 1771:1.7211866 1772:7.3927665 1782:3.1486807 1791:1.3816969 1794:1.0059621 1795:0.46055326 1800:3.8534267 1804:3.6970353 1807:0.20609225 1810:2.6660264 1814:1.6018674 1824:1.5649498 1828:1.8626627 1834:0.31215078 1837:2.9080095 1840:1.3371488 1847:0.87479991 1855:1.5209767 1856:2.9904704 1860:8.5390263 1863:2.8994865 1868:2.2376935 1871:4.4184995 1873:3.0726004 1874:0.1595487 1902:1.9522893 1906:0.36486638 1911:0.56398547 1912:0.1895819 1930:2.0023868 1940:0.064245403 1941:3.0628006 1942:2.953289 1955:0.68185306 1956:1.0010794 1959:2.0354769 1968:0.8808127 1972:4.3208561 1974:1.1806855 1978:0.28636399 1990:0.093200326 2004:4.3971152 2032:0.38628766 2038:1.777712 2044:1.7908376 2047:0.11522567 2053:0.6810202 2061:0.2997252 2065:2.82708 2069:1.6158023 2076:1.6583757 2077:1.1219971 2083:7.5129361 2085:4.8867574 2095:1.5113431 2120:2.5331187 2127:2.7604692 2130:1.3338752 2134:2.0563924 2137:0.17692873 2138:1.6093752 2156:1.4496558 2157:1.0309525 2159:2.6688735 2164:2.9677081 2166:2.1501627 2170:1.0299315 2194:0.098168552 2196:1.9783779 2199:2.2323453 2202:5.411243 2216:3.8140631 2226:1.4721154 2229:4.8096089 2237:0.20378995 2241:2.7870245 2249:2.7036304 2251:0.59512389 2253:2.441716 2259:2.2293177 2264:0.74143934 2271:2.1509717 2278:0.84997165 2286:4.8786459 2288:3.5947897 2293:0.33989513 2299:0.24366951 2300:3.3846381 2305:2.028744 2308:0.83352149 2313:3.6589267 2317:2.792609 2320:2.9159102 2328:0.048795342 2329:5.5102921 2332:4.557796 2344:1.4154203 2346:2.3728945 2348:0.37618858 2355:1.717116 2356:5.0608516 2357:1.065289 2358:0.44516814 2369:0.53912783 2376:1.4677975 2395:1.542047 2409:3.1113434 2414:0.41787037 2416:3.9797707 2420:0.04069978 2423:4.4444041 2424:0.045595646 2434:5.3150587 2435:1.3781261 2443:1.6279683 2450:1.8902836 2452:1.1093972 2461:1.5764579 2466:2.4865403 2487:0.89869457 2493:1.6139138 2494:9.044549 2501:3.6835222 2504:2.1114912 2514:0.31252435 2526:0.51060873 2537:2.5431554 2551:2.9095135 2561:0.16007091 2566:0.62653589 2568:1.2702953 2569:0.33303222 2575:0.1909896 2576:2.0400546 2580:2.0822265 2583:2.3203321 2592:3.1689014 2594:1.2410522 2595:4.1333776 2602:2.53054 2604:1.8833309 2610:0.48832217 2611:2.9298048 2633:0.069024935 2636:2.2084317 2639:2.9278371 2642:1.4016263 2644:0.49858242 2647:2.4175818 2650:3.4418988 2651:1.0554419 2655:3.6902552 2656:0.63116401 2665:2.8520417 2679:0.91484046 2686:0.35861576 2688:1.2644517 2690:3.6029866 2692:4.511682 2694:0.91410756 2695:2.1332638 2698:3.0221 2702:1.7536883 2703:0.47213113 2706:0.49048659 2707:1.8975928 2715:0.5913232 2731:2.8277574 2732:1.9262536 2736:0.95798343 2738:3.3956616 2740:1.639039 2743:2.806561 2744:0.46326339 2753:1.7621429 2759:1.8974222 2760:0.6937077 2761:0.29330686 2766:0.3180927 2770:1.4407483 2775:4.7496395 2786:4.4065094 2787:1.6070927 2788:0.10195497 2790:0.35795504 2792:0.18960676 2795:2.4250801 2796:2.5059116 2798:2.8110161 2805:1.267211 2819:0.4869464 2821:2.5966604 2823:1.4697413 2825:1.3536848 2831:1.4619761 2838:1.526895 2840:2.5309925 2843:2.4042871 2856:1.3836496 2864:2.6154983 2867:5.7622347 2872:3.7999732 2873:0.49162179 2874:0.3208217 2879:1.7126192 2880:4.3111825 2892:3.0480697 2898:3.0595753 2901:0.66276067 2903:1.3375303 2912:2.2300406 2913:1.9969131 2917:1.873955 2920:6.5961366 2929:0.17825648 2930:1.7191648 2932:3.1973519 2936:5.2101722 2941:0.12702116 2945:1.0295497 2948:1.3313075 2950:0.80344677 2954:0.070551932 2958:3.7043588 2962:0.8096692 2970:0.034223638 2977:0.21049213 2979:0.90763342 2982:0.46926594 2985:0.052773267 2995:2.0141964 2996:2.3439012 2998:0.62206447 3000:0.57436925 3007:5.2051554 3011:0.27794558 3019:3.9251838 3020:1.997303 3024:0.69531059 3028:0.34872365 3042:0.14306876 3043:0.5440498 3048:3.909297 3050:4.1927519 3052:4.783134 3059:0.47174793 3065:0.7752161 3075:5.3105597 3097:4.5311127 3109:0.16935976 3110:1.7328066 3114:2.4719393 3117:3.5508702 3124:0.33099991 3127:1.2216896 3130:0.9206661 3143:4.2278109 3148:2.0268178 3149:4.5711513 3154:0.20727515 3163:4.0995922 3167:0.53576285 3169:4.2075753 3172:0.23487696 3181:1.385452 3182:1.8079042 3183:0.57634741 3184:5.1047921 3186:0.1591616 3188:0.44458157 3195:3.21735 3199:2.1904116 3210:0.36375865 3217:2.2155373 3220:1.6447812 3226:1.3075984 3235:2.9235034 3236:2.5707254 3237:2.8295958 3246:1.108744 3252:1.5459318 3253:2.1472898 3255:0.19495293 3269:2.5622401 3271:0.30063626 3272:0.32315537 3274:0.03038308 3275:1.4295138 3277:3.4710271 3281:0.25598365 3289:0.15004215 3307:3.9173398 3309:1.0612746 3310:0.041805595 3314:3.9890857 3327:4.2786846 3332:1.0228148 3358:3.5130422 3365:0.3528823 3366:1.8029795 3369:1.3200483 3383:0.80644619 3388:3.1659036 3390:1.6017276 3396:2.9848027 3411:0.087174177 3418:0.030170918 3425:1.3292425 3427:0.83704543 3431:1.3815287 3437:2.033252 3442:1.0189648 3451:2.2894917 3465:0.49072197 3467:0.085974246 3468:0.027123749 3486:2.1519675 3492:1.5821158 3506:2.3463199 3507:1.1660466 3511:4.224215 3513:1.636775 3516:0.70868868 3519:1.9393567 3520:0.087718189 3521:1.2844982 3528:0.015965492 3532:3.5454233 3533:1.8728354 3535:0.45110959 3538:0.015151858 3542:1.8842927 3548:0.5158723 3549:0.50019407 3557:0.60520917 3562:2.4851279 3564:1.6025199 3569:1.5633476 3570:0.14379817 3571:1.5510437 3573:1.5576824 3574:0.54733634 3576:1.1473562 3583:1.0479827 3586:2.0895596 3593:1.5908296 3598:1.1154915 3599:1.1282427 3603:2.1343379 3616:0.15858424 3619:2.2647951 3620:1.25234 3621:3.6991401 3623:1.3658843 3626:4.1515689 3627:0.52604854 3629:0.94820058 3630:0.68550068 3632:0.029477641 3638:6.615355 3650:0.74974728 3652:0.50193369 3654:1.3925009 3662:1.1838566 3666:1.3461798 3677:0.26911932 3678:1.4914399 3680:1.1169806 3681:1.1938926 3686:1.7084239 3689:0.12804781 3690:1.4874215 3705:1.6492219 3706:2.7447424 3711:1.6788721 3712:0.70899951 3722:0.38993114 3729:0.21856232 3731:0.48503238 3736:0.027889505 3742:3.0031672 3748:0.39493388 3751:1.3618551 3757:0.095801756 3765:1.5953377 3767:0.81231511 3771:0.98505569 3773:0.075236171 3774:2.5359371 3778:3.379847 3780:1.2130578 3785:6.5600867 3794:3.5092402 3795:3.0315394 3802:0.17274386 3804:0.25767374 3810:0.84623277 3813:0.98428071 3815:0.79843295 3818:1.6414057 3826:0.89947355 3836:0.88344514 3837:3.4054146 3841:3.6198387 3854:0.77030349 3860:0.083474457 3876:1.5636655 3888:3.0084705 3893:0.082946509 3903:3.3318315 3909:6.5721302 3912:0.85108447 3921:2.6331232 3922:1.5685152 3928:0.81652755 3935:0.96829575 3937:0.13024384 3951:2.103054 3960:1.8185279 3963:3.4792035 3966:5.3898582 3973:3.2010107 3976:0.54986095 3984:1.4118379 3985:0.293603 3988:0.56132835 3994:2.0267024 3995:1.7352893 3996:6.5308399 4009:3.1906238 4011:6.2221298 4012:0.063294053 4013:2.4629078 4016:1.53364 4020:2.9730921 4029:0.5007143 4034:3.131464 4036:8.0419283 4045:0.74016821 4052:2.8527586 4062:0.92153978 4067:1.2370733 4072:0.68526638 4084:3.6395462 4085:1.7359877 4089:1.026895 
