svm_type c_svc
kernel_type rbf
gamma 0.000244141
nr_class 2
total_sv 85
rho 0.35132
label 1 0
probA -4.98724
probB -0.0908556
nr_sv 33 52
SV
0.231883938634516 7:0.51107901 12:3.9916751 15:0.012100101 19:4.9914317 22:9.7041864 23:1.9823933 26:4.6026487 27:1.2503076 28:10.462834 29:1.0742953 30:1.0039678 31:1.3210925 46:1.796845 61:3.6627169 70:0.47748017 75:0.14117843 89:6.2054873 102:0.93031764 105:6.9161954 108:8.8626938 117:3.1432409 126:0.6404227 136:7.2901139 148:1.0209565 153:2.5208185 174:1.897151 179:2.051466 185:1.211937 200:9.5221844 217:0.41210455 229:1.9963791 234:5.3924046 235:2.9978886 239:3.2041736 240:1.3594127 252:0.40207231 258:11.663217 265:2.4832819 274:2.9632757 279:0.44607347 280:0.4094432 288:7.8404222 295:0.46305615 301:6.2155409 303:0.33990008 311:3.2671847 334:0.61219138 335:0.51061767 340:1.2902274 350:0.0047999322 351:0.72157121 353:5.8194523 362:0.84723425 364:0.064853549 375:2.3979919 398:0.22840701 414:0.69315422 418:0.5844959 419:0.803877 427:3.6395004 431:3.9083273 432:1.2078602 444:0.66782141 451:5.7255797 463:3.8680801 477:2.9808264 482:2.4080193 493:2.9859943 499:3.8734434 502:4.8161931 509:6.8443942 512:2.7934976 514:1.3873603 515:5.8268332 530:1.2335296 535:2.3487012 544:1.0596899 548:0.27876985 549:5.4713335 562:0.84817612 569:1.6556337 576:4.2681088 583:3.1458364 599:6.4281859 600:0.56996191 607:0.6488722 612:0.26569796 615:0.38539273 625:0.32572803 639:7.8379169 641:1.1224647 642:1.8048463 657:4.6105022 662:0.47987667 664:1.247557 672:4.5424385 673:3.0027227 674:1.1391801 679:4.8265972 681:6.1897297 682:0.042658538 711:0.43719062 720:6.3852701 724:0.8380239 728:2.6977544 736:2.3117218 748:3.0515478 774:4.4312978 775:5.7540522 782:4.2568583 789:3.2501891 796:0.62413985 798:8.4135771 804:1.4754916 817:3.1233225 821:0.48164394 830:3.2050941 833:2.5165577 842:1.0698559 850:0.17218421 857:0.51619279 867:2.9452581 869:3.0968442 871:0.41666478 886:1.1929871 890:2.4223588 894:0.30614865 904:2.2605846 908:5.1666155 912:4.5704856 915:0.45671564 918:2.3679552 922:3.5767934 924:0.74630952 932:1.9575566 941:8.5603647 945:0.9222939 953:1.9161062 968:10.524451 970:3.0665359 995:3.8000159 1010:0.45895466 1014:0.045298517 1018:12.915079 1023:0.23055011 1037:1.7521119 1045:4.5059314 1053:7.4625363 1064:2.1535728 1076:3.6575015 1081:1.9514921 1095:11.406798 1108:0.48677188 1111:2.1115601 1119:1.1179323 1125:3.6974304 1130:0.13068154 1133:1.2044286 1149:1.3836612 1164:2.9564586 1170:1.7930305 1176:4.9581561 1177:2.0278609 1178:2.6561582 1180:3.7960281 1183:1.1000592 1184:1.2812042 1188:0.99195009 1190:0.45017949 1193:1.8708179 1215:4.2890611 1228:9.4907932 1252:5.2268224 1263:4.2148952 1274:3.2582014 1275:1.6332122 1277:3.0628405 1288:1.2265902 1291:5.8194132 1298:1.5927255 1302:3.808857 1314:5.1854143 1317:4.0827456 1319:7.8441272 1331:0.29483917 1333:3.005964 1335:3.6911864 1337:4.0901241 1345:2.3543363 1347:2.3171978 1348:0.89816821 1360:3.9634466 1369:5.524096 1376:2.3485851 1401:1.2582668 1405:1.0407472 1416:0.09170936 1426:2.0439789 1437:2.5420325 1438:1.8463912 1442:2.4259241 1448:0.14610583 1466:2.783102 1468:1.3372893 1474:0.22324897 1484:7.4273095 1485:1.1472734 1488:4.3986139 1495:2.7183418 1511:6.2832804 1513:3.2539663 1539:2.3156202 1543:2.0296636 1544:1.902564 1550:11.398361 1552:1.3774099 1558:1.8669119 1582:0.1847426 1590:0.099773347 1593:2.1317263 1596:1.6139293 1600:2.1496737 1605:1.6171767 1613:1.7303252 1615:4.6863976 1636:4.6336193 1638:0.89300251 1675:4.4097681 1686:2.9292896 1698:10.946851 1703:6.313333 1706:8.6434727 1708:3.5225687 1710:3.7510407 1718:5.6908426 1721:0.18135926 1722:3.0015206 1729:4.1828623 1732:2.2073972 1733:1.7207563 1736:1.0122596 1737:5.5829411 1751:0.46315828 1752:0.27570888 1756:4.3126688 1762:5.3991241 1767:0.36569887 1771:1.4489479 1772:5.633677 1778:6.6399655 1798:0.29293597 1800:5.2363577 1804:4.2344575 1805:2.6537004 1818:0.92469525 1833:1.2736642 1848:9.121254 1856:2.8865013 1858:3.6786501 1860:3.6062148 1871:0.73911673 1874:4.652884 1875:0.76577157 1882:1.5170817 1890:5.3066573 1894:2.4659581 1909:3.8070881 1916:0.51382864 1922:1.1880344 1928:13.198365 1935:0.19575897 1936:7.0963411 1943:1.4635307 1947:2.2397692 1953:1.7803925 1955:5.7886734 1963:1.6665348 1964:2.7158077 1975:1.4447529 1992:1.2098068 1993:0.79804862 1996:0.020536199 2016:1.4653369 2019:4.8202777 2024:3.0351114 2028:3.7281518 2035:2.6619496 2038:4.597496 2041:1.8201209 2042:2.2669015 2045:0.30694687 2065:3.128051 2070:0.033336103 2076:8.2583027 2085:7.2727513 2096:2.6123054 2105:0.18772052 2106:0.075639069 2108:0.76133442 2114:1.17431 2125:1.3034933 2135:1.0147321 2139:1.2860645 2146:6.2083516 2151:2.3160448 2153:3.8558004 2156:1.1102214 2164:2.4707725 2172:0.492194 2174:0.24226612 2195:0.92887497 2202:9.2083225 2210:2.0362003 2211:0.20648831 2216:0.93503726 2217:2.9904525 2223:4.8829002 2237:0.92967463 2242:0.50201273 2249:3.2251735 2281:1.1228694 2286:1.1251996 2290:5.7721071 2303:3.8055446 2313:2.8926954 2322:1.2003572 2329:2.8389449 2332:7.0965519 2336:3.5847409 2343:0.85372466 2352:2.8292139 2353:0.68169981 2357:6.242095 2358:2.1450722 2367:1.2072419 2375:1.3619614 2401:0.24819443 2407:1.3662059 2408:2.0778341 2416:3.4160528 2420:1.5317727 2431:2.6636355 2434:1.0942402 2435:3.73561 2470:5.0536051 2475:2.2718811 2479:9.5336876 2486:2.3115425 2489:4.4362111 2491:1.5965593 2501:3.2632134 2516:1.5447099 2523:0.019345254 2526:2.868557 2536:6.9632397 2537:1.8113109 2543:3.2077703 2553:4.9645085 2558:0.53297931 2563:0.17106023 2583:1.7621635 2592:5.6184959 2594:2.4759324 2596:1.4488904 2603:0.97130501 2619:2.7964177 2636:1.7264125 2639:0.74008679 2641:7.6550846 2642:0.7647385 2647:3.2017832 2653:1.8676423 2660:5.4604654 2668:1.3283719 2675:2.6283579 2677:0.071684882 2679:1.322809 2680:5.034266 2686:0.80246627 2690:0.1896826 2695:1.3182459 2707:1.9561577 2714:5.6845279 2718:8.4732809 2723:2.9629421 2726:3.0186753 2731:1.1572732 2738:7.9009032 2740:0.17234078 2741:1.8792953 2745:0.30234033 2747:3.1109176 2750:0.10761443 2751:4.0171204 2754:4.5760059 2766:5.0687017 2771:2.074919 2774:0.029471084 2777:7.5917969 2784:1.1476972 2786:9.8240223 2790:1.325106 2793:2.0703313 2795:4.8858008 2803:4.1752157 2819:1.386966 2821:0.25725138 2823:4.6058307 2825:2.3989224 2829:0.44858977 2844:10.395209 2851:6.5551915 2864:4.6547384 2865:2.019907 2867:5.0938296 2876:1.514784 2882:4.01337 2883:0.99190015 2887:0.30539653 2891:1.2854632 2903:7.9044662 2907:0.066485673 2917:1.4584627 2920:0.85854679 2928:1.4517647 2929:0.21671546 2937:0.82107401 2958:0.98071718 2976:4.1231742 2977:6.7847657 2981:7.6137929 3000:3.3416247 3010:0.43834525 3019:5.4842362 3021:6.0138321 3044:0.15908048 3048:6.1192732 3050:7.005228 3051:0.94621599 3072:3.4269433 3081:7.7568994 3102:0.20740442 3139:4.6063504 3143:4.0041118 3144:1.5261334 3152:6.904079 3153:5.6901951 3154:3.2233517 3162:1.9252799 3169:1.4626247 3183:0.46154642 3184:0.24004747 3228:2.951808 3231:7.1074653 3236:3.2699618 3246:2.7521474 3260:8.3625555 3265:2.8551364 3269:2.2970085 3272:0.53806508 3273:0.92447883 3274:1.7003183 3275:4.0306311 3277:1.8502839 3284:1.8243383 3285:0.95018697 3293:2.4231548 3299:6.6742959 3302:0.89460123 3307:4.3252735 3309:0.30813339 3310:5.2580318 3314:0.96008933 3349:1.2290516 3355:3.3152051 3386:0.12768739 3387:1.0090431 3390:4.0177317 3394:2.3008223 3399:2.0508795 3405:2.9010262 3413:1.3354003 3422:2.0927806 3451:2.4195457 3461:3.1548193 3467:0.67460454 3468:0.24985924 3489:4.356492 3491:0.063773096 3493:2.19068 3501:4.8973494 3539:7.3710203 3544:0.20982787 3549:0.40210664 3562:0.66009986 3565:0.7038309 3566:0.36416435 3577:3.795434 3582:3.329844 3589:0.85138029 3591:0.53561401 3596:6.6373401 3598:1.1557498 3599:6.7350645 3601:1.441949 3603:1.0032357 3604:2.0768414 3606:0.68146372 3608:2.2222199 3616:3.5631478 3621:4.6099882 3630:0.52002507 3636:0.80476004 3640:1.2230421 3642:3.8946004 3645:0.54946619 3649:2.8682394 3652:0.072761327 3666:4.0702634 3669:3.967968 3677:1.8369145 3679:0.030838855 3682:1.6457101 3683:0.76504183 3684:0.74316812 3690:2.4569201 3703:0.23875108 3709:3.6350551 3710:4.9692092 3711:5.7597013 3729:2.8666196 3732:0.14070727 3735:1.073765 3741:4.9642711 3744:0.3284052 3753:5.1121087 3758:5.7717652 3763:7.42484 3765:0.72713435 3766:7.3348145 3767:1.9015057 3774:1.5393039 3778:0.47832662 3793:1.3777618 3803:0.64957035 3811:4.3555207 3829:2.9527049 3833:4.7660084 3835:1.7304239 3837:0.74816883 3844:2.7097361 3846:0.033021867 3855:2.0244272 3869:0.77848929 3872:3.755856 3876:0.93027341 3881:0.29721695 3884:0.80638564 3886:0.25478366 3888:1.9632092 3893:2.7984354 3903:3.9602828 3906:2.4514074 3912:1.9730349 3917:0.73229879 3922:3.155303 3923:6.1034346 3926:9.7925787 3956:1.293011 3957:3.0344841 3974:0.0012086034 3984:0.7622512 3995:1.6868508 4010:5.4164438 4011:0.14884765 4014:3.1002123 4016:3.1069303 4036:5.6068487 4042:0.23577236 4045:1.1037662 4059:0.1420393 4074:8.6323395 4075:5.9734368 4078:1.1006892 4084:5.72721 4091:0.19835517 4095:0.38935804 4096:0.21473551 
0.05874304608734039 12:1.7284318 19:5.5255051 22:6.1647916 23:0.65799439 26:1.939325 28:7.4737287 29:1.8692441 49:4.6523976 58:1.2029752 60:0.70182061 61:2.0317259 68:0.36281389 70:1.5010576 89:2.2722518 102:2.6040914 105:4.8640876 108:6.1471891 136:6.964294 153:3.4948595 174:1.9831414 181:1.3723485 184:1.2251027 200:10.097971 218:1.3972553 223:4.3168159 234:3.0607421 239:4.3563461 258:6.6080651 262:1.4637797 274:3.6815166 288:9.0923958 301:6.9277124 311:5.1266665 317:0.58776599 335:0.1200166 340:1.7396725 342:0.80997741 351:3.4347751 353:2.8776155 365:0.19771916 372:0.20875961 373:0.15832305 393:0.9293353 398:2.4554849 404:1.4246194 427:3.2340417 431:4.4653854 432:1.4893967 451:1.6524787 452:1.5195003 457:1.3430997 463:3.218246 466:0.7445097 472:1.3760737 474:0.74710798 477:1.4070351 482:1.5112417 493:1.6676381 495:0.96026528 499:4.1526847 502:3.5613678 509:2.3896213 512:1.991474 514:6.7092628 515:2.1627295 517:1.6745236 526:1.0023117 530:2.19068 532:0.13852212 549:3.5262597 562:2.3263004 576:3.5423315 583:0.10301656 586:0.032887608 593:0.37181881 599:1.8613218 607:5.2597151 615:0.57893634 625:1.5145806 639:5.2155104 640:0.57049763 642:1.7543714 657:2.5311756 662:0.89955997 671:1.7154907 672:5.1960406 673:0.4600907 674:0.80012888 679:1.988108 681:8.5897608 682:1.539624 694:2.2546692 720:3.6246467 724:6.5989285 725:0.3599568 727:1.0333297 728:5.2433887 736:3.5655546 748:1.6185507 753:0.047607064 768:0.043869376 774:0.14621881 775:3.8733943 782:1.3930204 789:2.6823049 796:1.5031493 798:5.5748901 802:4.9075294 821:2.6716371 842:2.4277728 850:3.2290475 857:1.7370749 865:0.056394875 869:2.963254 872:0.68420124 882:0.76038706 889:0.58006859 894:0.90398258 895:1.9582534 904:2.1349854 908:7.599494 912:9.4724693 915:1.4855049 922:1.9189909 924:3.1176107 941:5.6737628 945:0.40710154 966:0.37383109 968:7.8283935 970:3.0247309 974:0.85112524 985:1.0825983 995:2.2316248 1016:1.3592484 1018:9.1754198 1019:1.0363661 1023:0.74057633 1045:6.9440002 1053:7.4067979 1064:0.79056168 1076:3.0401115 1081:1.727711 1095:11.947248 1102:0.015128791 1108:5.0345087 1125:0.44364631 1133:0.00067046285 1149:4.2631226 1170:4.9236155 1176:4.0153527 1177:1.4942627 1180:3.5966613 1181:0.5139932 1183:2.8937185 1188:2.0009747 1193:1.9427164 1206:0.96534765 1215:2.2295616 1221:0.034292653 1228:11.552978 1242:3.3982196 1251:0.084733434 1252:2.5721691 1258:0.26044896 1260:0.9095819 1263:4.5868158 1274:6.2209024 1277:0.74363768 1288:3.2974272 1291:6.174408 1292:1.9493568 1294:1.5384843 1295:2.2185249 1298:1.5545089 1302:2.1422791 1314:4.4204254 1317:4.2584648 1319:7.7233448 1329:0.42985806 1333:0.32236031 1335:0.27134541 1337:3.4942377 1345:2.7820234 1347:2.1999383 1357:2.3294954 1360:2.2302656 1369:3.8607488 1372:0.80217063 1376:1.9945139 1401:0.69883114 1405:0.43951786 1426:0.32904482 1431:1.7937747 1438:2.9158516 1450:2.40464 1458:0.092111677 1466:3.3257921 1474:0.89890128 1484:5.2088504 1485:2.3279698 1488:5.5632429 1495:6.0706663 1506:1.8127959 1511:2.4898288 1520:1.2375379 1530:0.52766299 1543:3.8294411 1544:1.0798922 1550:4.4437041 1551:1.5040271 1552:3.2577929 1569:1.8221389 1582:4.6290784 1583:0.45374456 1596:0.92970222 1600:1.1149873 1613:3.6730554 1615:6.6379757 1636:4.486464 1638:1.4165099 1661:0.28615612 1668:3.5770433 1675:2.3427849 1681:1.8912274 1686:2.3550708 1687:0.11464691 1698:4.239552 1703:3.5463648 1706:12.188041 1708:2.6434329 1710:2.093209 1718:1.2320242 1721:1.5470622 1722:1.9532694 1729:3.3139262 1732:2.8686082 1736:3.7934647 1737:4.5980635 1752:1.4769346 1756:3.3004949 1762:4.203723 1764:0.26025015 1767:0.23938249 1772:4.3372865 1778:6.28931 1784:2.8497248 1800:3.173095 1804:0.82800508 1805:4.9581437 1833:3.6010499 1840:3.7417574 1848:8.5365648 1856:3.335062 1859:2.6408718 1860:0.98588204 1869:1.2850833 1870:0.33291852 1874:1.4613624 1882:2.845314 1890:5.5708256 1894:7.0764599 1909:3.2414865 1916:2.3102963 1928:6.9521341 1935:0.48373604 1936:5.1927366 1943:5.6583462 1947:1.2521945 1951:3.6597986 1955:3.5386493 1961:0.96014911 1964:1.3622644 1974:0.2878598 1975:2.0536001 1996:1.2754824 1997:2.2331376 2021:1.578721 2028:3.136112 2035:2.3855691 2038:4.1756968 2041:1.2784849 2042:2.3019381 2055:0.30385059 2058:1.3089315 2062:0.93559301 2065:2.0174043 2076:3.9215276 2080:0.094677404 2083:0.31325257 2085:3.9997547 2088:0.021816358 2096:1.6397257 2105:2.4483609 2108:1.0435884 2125:1.1161175 2146:4.748487 2151:3.3804958 2153:2.9919949 2156:1.1314064 2164:0.59343344 2166:0.93719536 2170:2.523685 2172:0.065064877 2187:0.9636237 2195:1.1717924 2199:2.7972755 2202:9.4588585 2210:3.327776 2216:1.727376 2217:2.3013926 2223:5.6063423 2242:0.66451621 2249:0.66018462 2264:0.73818773 2281:4.654942 2290:6.6736283 2303:0.59167814 2313:4.3825336 2317:1.6090293 2322:9.6092882 2329:4.293314 2332:3.5877762 2336:6.0563164 2343:1.8938682 2352:0.12168318 2353:2.531534 2355:0.06572929 2356:3.7336414 2357:3.7745779 2358:1.5388306 2360:0.33181077 2375:2.4890954 2401:1.4672318 2402:2.3831999 2408:2.8780775 2416:3.0643437 2418:1.0856798 2420:3.9628034 2431:3.3436437 2434:0.6782515 2435:4.1928773 2449:0.95228434 2457:1.3982732 2466:0.95312721 2479:7.2776237 2486:0.37038395 2487:0.080056459 2501:4.274106 2504:0.12132189 2514:1.2277889 2516:0.85654682 2523:0.64332664 2526:4.8008337 2527:0.10364657 2536:6.6984639 2537:1.048174 2543:3.9655516 2553:2.0072019 2561:0.71819037 2568:1.0176425 2578:2.604619 2583:0.94363737 2592:4.7031136 2594:1.2709873 2601:1.5527701 2603:1.9939859 2629:0.2732369 2636:3.0090718 2639:2.709866 2641:4.8442669 2642:1.3762592 2658:0.38411063 2660:2.634409 2668:3.0599046 2675:1.5067815 2686:3.319659 2690:2.273545 2695:2.1907215 2706:1.3351496 2708:3.6882217 2710:0.75251204 2714:5.8225007 2718:6.8274436 2723:6.3562679 2726:2.7724748 2738:4.5558414 2739:1.1087224 2740:0.17355949 2741:1.9961716 2745:1.4672382 2747:1.7934732 2750:0.036844671 2751:1.0476855 2754:2.117044 2766:5.1220837 2774:0.765697 2777:5.2054758 2778:0.84677231 2784:1.3617878 2785:0.012304127 2786:7.9178767 2790:3.1243193 2793:2.81496 2795:3.3274274 2796:2.1443629 2803:4.8736711 2805:0.17665729 2807:0.55285931 2814:3.9632816 2819:0.46961242 2821:3.40782 2823:2.6646283 2825:2.7503836 2834:1.0720572 2844:7.6879158 2848:0.98502094 2851:6.7733526 2864:7.1834664 2867:2.4649949 2876:5.0841265 2882:5.0629215 2883:2.8349063 2891:3.4456131 2903:7.0723615 2907:1.3432517 2917:2.843822 2919:1.8872474 2931:0.85530281 2937:1.0340405 2940:0.094275162 2942:0.59403306 2977:5.0824895 2981:6.5767384 3006:1.9517151 3019:5.7692814 3021:4.7111096 3033:0.23148423 3048:2.1013525 3050:4.5085468 3052:1.4473963 3067:1.5342202 3069:1.9612893 3075:2.6993201 3081:5.6161137 3087:2.0942609 3102:1.9285942 3114:1.8361388 3117:0.47501343 3139:6.5637321 3144:0.76679552 3152:3.8237941 3153:4.0323071 3154:1.2698448 3163:1.7888315 3167:2.8387666 3184:0.0324568 3206:0.45695397 3213:0.48143724 3216:1.8245097 3231:5.5772595 3233:0.34139818 3236:3.6108305 3246:1.266771 3247:1.7661544 3260:3.4066536 3272:0.67791742 3274:0.63235587 3275:2.0195732 3285:3.341778 3291:5.1991215 3299:6.2504039 3302:1.7411625 3307:2.7699065 3310:8.2879858 3354:2.8659613 3355:2.7330501 3363:1.475463 3365:0.048925519 3390:2.0546708 3394:2.3034167 3405:4.2780857 3410:0.64936113 3413:5.7438369 3431:1.5176812 3451:1.6691726 3481:0.17285356 3489:5.5923815 3494:2.9934244 3500:3.6146646 3501:5.1053143 3508:0.016106844 3521:0.91556406 3531:0.29767612 3534:0.84687018 3539:5.7126899 3544:4.288528 3545:0.034000471 3565:2.165448 3566:2.5065148 3569:1.7858341 3577:5.0698318 3580:0.40627921 3582:2.4760077 3589:0.54678714 3596:5.01934 3598:1.1165272 3599:6.2233863 3603:1.0615625 3604:4.9729557 3608:1.6212893 3615:0.11624986 3616:1.9703535 3621:4.3163919 3627:0.62100565 3636:1.9899827 3638:0.97158617 3640:2.3702791 3642:6.3587513 3645:1.7584119 3653:1.6392397 3666:3.413584 3677:3.6336572 3679:0.49580556 3690:0.37484083 3691:0.29927883 3709:3.0279438 3710:3.0953605 3711:5.6332884 3729:1.2715713 3734:0.4742173 3735:1.4850826 3741:4.8945341 3744:0.66465962 3749:1.8656716 3752:1.0968956 3753:3.8015091 3758:6.5549388 3763:3.365937 3765:2.0206084 3766:10.128064 3767:0.21047373 3769:1.4878292 3774:1.598805 3793:1.7120913 3803:5.2237711 3806:1.1341747 3811:1.9015298 3814:2.6254487 3829:2.3175642 3833:2.7942283 3844:1.6459032 3855:2.1453016 3860:3.6586072 3872:6.5622792 3888:5.0344663 3891:2.7903936 3893:2.2388916 3903:3.9624479 3906:3.3015804 3917:0.68826944 3923:0.79424417 3926:6.4531198 3927:1.4153707 3929:1.2008619 3938:0.577806 3941:1.4809642 3956:1.3539102 3957:2.2397838 3984:2.0606806 3995:4.5515652 3996:0.43744981 4010:5.7944055 4013:0.48411733 4014:3.9242465 4016:1.2166308 4036:6.9903378 4042:1.69813 4052:2.3164344 4071:0.048768848 4074:5.1653481 4075:4.7042418 4084:5.2698393 
0.3154681600711084 5:0.5786317 12:1.6809244 19:5.602397 22:4.8257365 26:3.4538262 28:2.867389 29:1.9719782 31:1.2087801 45:0.94941139 49:2.6730676 58:1.992195 60:1.8968338 61:0.77290785 70:0.72771335 73:0.19304784 86:1.7036564 89:2.3713036 102:1.3379236 105:7.0501413 112:0.87128568 125:0.14016564 130:0.58648771 136:4.1412954 150:1.0586307 153:1.9386739 169:0.61511016 181:1.2874229 185:2.9614229 191:0.88566422 197:0.2822684 200:8.4461298 204:0.072821915 218:3.4896464 221:1.6528834 223:5.2125106 229:0.28724763 232:0.37596378 234:0.20608987 235:1.0792892 239:2.5135429 240:1.4695711 252:1.6274185 258:5.1275764 262:5.3690233 265:0.33205402 274:0.87062794 279:0.1512205 288:9.6797619 301:6.7984753 303:0.53117257 311:4.9297371 313:0.12043008 317:1.7065402 340:0.18161973 342:0.59601313 350:3.1571555 351:5.4032917 353:1.4927886 359:0.15210509 362:2.0553005 367:0.0087590097 373:2.4704065 375:2.7054803 376:0.044633269 386:0.40138409 392:1.241889 393:1.6465447 398:3.2882476 402:0.066597581 421:1.5737927 427:1.2814299 432:3.4350729 444:1.5479532 453:0.90922666 457:0.85067791 463:3.9382315 472:0.9178704 482:2.2696486 487:2.3379872 499:5.6354847 502:3.8115222 509:0.46553367 512:3.0721657 514:0.3993113 515:3.767416 517:4.1772652 519:0.87371635 524:0.84532148 530:1.0954398 532:0.83067322 540:2.0773311 544:0.26574916 549:3.3511176 569:1.2773854 575:1.0312843 576:3.9903812 584:4.2706461 586:1.7010704 593:1.7193395 598:0.16032618 605:2.2153254 607:3.2190082 615:0.36912835 616:0.18823501 618:0.11962621 625:3.5008421 639:5.9181042 640:0.39345932 642:6.998219 657:2.6103485 662:0.66698623 664:0.35207221 669:0.23088308 671:0.89123994 672:3.6617756 681:4.6767573 682:2.6483979 684:0.64142013 706:1.1889353 711:0.30727535 717:0.39814663 720:3.6908724 723:2.2854791 724:8.2942543 725:1.4375325 726:0.35274002 727:2.7163973 728:2.2502265 737:0.5659318 748:1.5170656 753:0.75327587 774:3.3894372 775:2.7801549 778:0.32891756 785:3.7712433 786:0.91913235 789:2.0570297 796:3.8072412 798:3.8277864 801:1.6393582 802:4.7264071 804:0.63610291 821:0.94212472 850:3.0691464 865:3.0064034 871:2.1585336 872:0.60985446 878:0.096978307 882:0.69769323 884:0.36660063 886:0.15867257 889:1.3915737 890:2.7037034 891:0.12420082 895:0.44799155 904:0.94990033 908:10.422527 912:6.5044832 918:2.2952821 923:2.3615837 924:2.1412635 941:3.8456161 945:3.9438848 948:0.15011932 966:0.880885 968:4.383389 970:1.8059026 974:4.0512948 979:0.079095423 985:0.32132807 993:2.4011879 995:3.2512867 996:0.19971299 1004:4.4293785 1013:0.082225442 1018:8.65172 1022:2.4234345 1027:0.99891782 1041:0.88690174 1045:4.2602372 1053:8.7007704 1064:1.4983387 1076:0.77386034 1077:2.8910947 1094:2.5837147 1095:8.0853806 1100:1.8208172 1105:0.059747577 1108:2.8188815 1125:1.6401865 1128:1.4289016 1136:1.5557886 1149:1.6415097 1153:0.47720739 1157:0.013315618 1163:0.28751272 1170:3.1514804 1176:6.1239343 1177:0.62553805 1180:2.6487958 1181:2.4163303 1183:1.8393531 1188:0.78506601 1193:3.127624 1195:0.40493232 1206:1.8532424 1220:0.59468126 1221:0.92993152 1228:8.95994 1234:0.51918834 1239:0.16860563 1240:1.0901893 1242:4.9582257 1249:4.8277855 1252:2.5417781 1257:0.84839886 1258:2.185482 1260:0.55012554 1263:1.0284488 1274:1.8652127 1288:4.8535604 1291:6.1752672 1292:1.7304523 1295:2.7680104 1302:2.6846111 1307:3.2303188 1314:2.8688357 1317:3.0751812 1319:7.7645979 1320:0.13953358 1330:0.14989576 1337:3.6587942 1347:1.8198873 1356:0.55767787 1357:1.6913741 1368:0.68525279 1369:4.4058299 1372:2.6460848 1373:1.563931 1376:2.6469948 1377:1.2723843 1385:1.5853031 1401:1.9937819 1402:0.79649019 1404:2.9206533 1405:0.087597102 1406:2.9511068 1416:1.0448385 1424:0.786493 1426:1.6881818 1432:0.12275827 1435:1.004652 1438:2.0062954 1441:0.53239906 1442:1.681284 1443:2.8486331 1448:0.28138888 1450:4.0804281 1454:0.62008399 1458:1.0436265 1466:1.2603123 1474:1.2257097 1484:5.007719 1485:3.2057183 1486:2.3616309 1487:0.085145265 1488:4.8876143 1495:3.6512167 1511:2.495255 1530:0.91687077 1539:0.28476712 1543:1.2502339 1544:0.46574542 1550:1.2061523 1551:0.99033064 1552:5.4622402 1555:0.65883023 1558:0.82696599 1568:1.5328798 1569:1.6409992 1582:4.012013 1583:2.0835836 1590:0.49461311 1600:3.5427356 1613:2.4933424 1615:4.9539614 1636:3.7664354 1664:1.6399682 1668:2.9767611 1675:5.2518187 1677:0.18983519 1681:1.64206 1697:1.4013579 1698:1.7363961 1703:2.7395437 1706:8.0358057 1710:0.033177279 1720:0.34978428 1722:0.53713918 1727:2.7938323 1729:2.1469676 1730:1.3054416 1736:1.752967 1737:2.7414441 1752:0.51086736 1756:6.4094977 1762:2.3554726 1764:0.56561887 1767:1.9021186 1771:0.90200025 1772:4.6537871 1774:0.53603685 1778:6.4274588 1779:0.2667844 1781:0.40515333 1784:5.5184617 1785:0.10005973 1805:3.5637636 1818:2.2696652 1822:1.2154461 1833:1.454284 1842:1.3670218 1845:0.2311202 1848:6.4954796 1856:3.516206 1857:0.57173675 1858:0.96647292 1859:0.46741179 1872:0.4309811 1874:1.8989803 1881:0.83899629 1882:4.5097198 1890:5.0213618 1894:5.2310796 1897:2.3708525 1898:0.32043004 1909:0.64841866 1916:5.7089329 1928:4.0424623 1935:0.69582707 1936:1.808354 1943:4.2382555 1947:0.59408259 1951:1.530527 1952:0.49041378 1955:0.63676542 1964:0.29022333 1974:0.11400846 1975:1.3483896 1991:1.3143922 1997:3.9573612 2021:0.85311496 2024:0.87126601 2028:2.1142356 2032:2.315872 2035:2.0891078 2038:2.7162921 2042:1.6826494 2048:0.2855958 2062:1.3868529 2065:0.63004768 2066:0.085152581 2067:0.15703923 2078:1.0447693 2080:0.23833525 2084:0.28642645 2085:4.5906162 2088:0.60705054 2096:2.2914217 2097:0.72002697 2105:4.6872725 2125:0.26672274 2138:1.7105845 2146:0.99971402 2151:3.4235945 2153:6.4795928 2155:1.8657763 2159:0.19421446 2164:0.11754578 2166:5.8282309 2170:1.9315794 2172:0.88917732 2187:2.4445896 2188:1.6406678 2195:2.0540524 2202:6.9236217 2210:2.6952651 2217:3.3981833 2223:2.1060312 2229:0.27557433 2240:3.2311435 2242:1.2898285 2246:1.6232395 2250:2.1837003 2251:1.5782478 2264:0.086481452 2267:0.22184691 2281:5.4929981 2290:8.4772806 2298:0.25907081 2303:0.49945799 2311:0.98087209 2313:1.4658191 2320:0.24012133 2322:8.2126274 2329:1.9211558 2332:2.1826835 2333:2.7733502 2336:6.4595933 2343:5.0597706 2344:3.4682736 2346:1.2275119 2348:1.613005 2353:2.6689749 2355:1.3314533 2356:3.0869803 2357:0.84274358 2360:1.6834482 2367:0.15511481 2402:3.2323048 2408:1.2768948 2416:1.7868578 2418:1.2383248 2420:1.1735005 2421:0.094754279 2431:2.1268163 2435:4.3042583 2438:0.58935797 2441:2.101717 2446:1.7924571 2449:0.89203835 2450:0.01955279 2455:0.37257421 2456:1.4693646 2457:1.3740848 2466:0.32192791 2470:0.24213979 2479:6.4395518 2487:0.1932807 2490:0.028864622 2491:1.2906871 2501:2.0862122 2507:2.0786927 2509:1.9420857 2514:3.443213 2516:4.3489366 2523:0.89403987 2526:3.7223344 2536:2.3793404 2537:3.0235379 2543:0.86586422 2553:1.3274338 2561:0.032151561 2577:1.3541602 2583:1.990573 2589:1.7460332 2592:5.421751 2594:2.4576399 2595:0.95883477 2601:0.96981597 2603:0.19292957 2618:0.079330251 2628:0.35031927 2636:4.8082113 2639:4.1292105 2641:5.1996317 2642:0.049466684 2651:1.0750269 2658:0.77396095 2660:1.9883063 2668:0.75486636 2675:2.5833447 2686:0.70623469 2689:0.58124447 2690:1.968532 2697:0.10815078 2706:1.1120864 2708:3.5554187 2710:1.1331589 2714:3.7534347 2718:6.3290443 2723:3.4834499 2738:3.547888 2739:2.5286717 2740:1.9278954 2741:0.86168563 2745:0.75582957 2747:1.9689647 2750:0.78290212 2751:1.1320385 2754:3.7640674 2766:3.9747908 2771:0.29023218 2774:1.4266888 2777:4.6616011 2778:3.1786532 2784:2.4691613 2785:0.39564565 2786:4.4291306 2790:0.71573704 2792:0.35207066 2793:3.890404 2795:4.7128954 2796:0.079451054 2803:1.7999806 2805:0.40821415 2807:0.45283598 2811:1.0967782 2814:1.433409 2819:2.4232926 2821:0.4576948 2823:0.40510648 2825:2.8789594 2829:0.76389325 2834:0.49330044 2840:1.1796702 2844:6.2327237 2851:5.0848145 2859:1.3951416 2864:3.586786 2867:2.2210214 2882:4.4455519 2887:0.20168561 2891:7.3840175 2895:2.7444725 2896:0.81456745 2903:6.8588581 2913:0.42148304 2917:1.5315826 2919:0.023492631 2937:2.3885841 2965:1.5048672 2966:0.088359356 2973:2.8462358 2977:4.7527642 2981:4.1794648 3006:0.30898425 3010:0.81212807 3019:4.4943275 3021:2.1028695 3033:5.4885864 3040:0.29661739 3048:0.14422825 3050:5.2564573 3051:0.62607193 3052:2.648679 3060:1.5504528 3067:1.8115852 3069:0.55988789 3075:2.1163752 3077:0.25368702 3081:2.1077213 3087:0.032450527 3108:0.27208158 3133:2.3559856 3139:2.8489237 3145:0.95621383 3152:3.3396404 3153:4.2575421 3159:2.284807 3163:5.2894249 3169:0.37904656 3170:1.6698542 3180:0.3160308 3198:1.41957 3206:3.7319508 3214:0.30685666 3215:0.76294851 3220:1.6345788 3231:6.5808558 3232:0.8496747 3233:1.1569974 3242:0.061070025 3246:0.15912291 3248:0.16411468 3265:1.093743 3267:0.68083411 3269:1.953537 3270:0.039261401 3272:0.83734369 3274:0.78982896 3275:2.8593171 3285:1.7725452 3291:4.7058306 3293:2.967051 3298:0.5093047 3299:6.3459911 3302:1.0810909 3307:2.8627641 3310:7.3418775 3327:2.5328851 3332:2.0961928 3338:0.37998748 3349:1.0393987 3354:3.0744007 3355:0.81229413 3363:0.68163103 3365:1.4930271 3384:1.9716227 3390:2.7408144 3394:2.2560647 3402:2.5638728 3405:1.9638777 3410:2.6517076 3413:3.2325928 3418:1.9364495 3422:0.70965385 3423:0.52637041 3431:0.46077621 3451:2.5724826 3452:0.72637492 3485:0.4298293 3489:0.31301793 3491:0.49019539 3492:0.24204642 3494:3.6630125 3500:2.997416 3501:5.6825695 3508:1.7530298 3521:0.46433014 3528:0.70038259 3535:0.31671816 3539:3.7731366 3540:1.8858887 3544:2.5824738 3549:2.1563218 3569:2.652199 3577:0.80796432 3580:0.13636404 3582:7.3295774 3589:0.086730629 3596:0.66524374 3598:0.032444008 3599:0.36350209 3604:3.6913645 3608:4.5749569 3621:4.338408 3636:6.0136156 3640:2.5697451 3642:3.3338685 3653:0.32178682 3666:2.110009 3677:1.8734066 3687:1.4643177 3690:0.81089658 3700:1.0357465 3703:0.5368976 3710:2.3668444 3711:3.0318587 3729:0.42715797 3732:0.71301246 3737:0.66981363 3741:4.2971888 3742:0.052575134 3744:0.59488106 3749:1.6489656 3752:0.2388714 3753:6.519659 3758:2.3251581 3763:2.7890756 3765:0.018840849 3766:9.3959484 3769:3.1165166 3774:0.67954671 3777:0.38240972 3793:3.9654396 3797:0.86648065 3803:1.6779124 3806:3.7521937 3807:1.2602973 3811:2.7826409 3818:0.21035284 3835:2.4515805 3836:0.23832971 3844:2.5727286 3855:0.69001961 3860:6.5614357 3861:1.1583726 3872:5.8867149 3884:0.28781062 3886:4.3637338 3888:2.5398321 3891:2.2968936 3893:3.5504694 3903:0.18392636 3923:1.3344988 3926:2.8727336 3927:1.1802996 3933:0.60048789 3941:3.5448513 3945:0.73147982 3947:0.32302803 3948:0.23664473 3950:1.1474421 3951:0.79767555 3956:0.62201238 3970:0.96272975 3984:0.71083307 3988:0.38566899 3995:1.6859266 4000:2.2010958 4008:1.5089216 4010:1.7501121 4013:0.66397238 4014:3.410341 4016:1.3432245 4032:0.89541221 4036:2.8630812 4042:0.083036564 4063:1.4450587 4074:4.4091563 4075:3.2227235 4082:0.19514388 4084:5.4749031 4095:2.4487407 4096:0.46001375 
0.1962412174648563 12:2.6734767 19:3.610898 22:6.2583089 26:1.9700114 28:6.4875722 29:0.064997062 31:0.29305968 49:3.0971272 58:0.52747375 60:1.1388414 61:1.4608624 70:0.28105211 75:1.4437783 89:2.0610042 102:3.7889218 105:6.8688045 108:4.9428186 136:7.4389448 153:3.3970745 174:3.1006539 181:2.5887613 184:1.6876553 185:0.18801929 197:0.57246429 200:8.8332996 218:0.32410419 223:1.5633124 234:1.8429366 239:6.782155 252:0.44135866 258:5.7950602 262:0.72390234 265:0.033554584 274:2.8292863 282:0.411111 288:7.4519668 301:8.5003109 311:5.1904683 317:1.658968 334:1.4320512 340:1.5479527 342:0.1275382 351:1.0633459 353:3.4197245 375:1.8599215 389:0.36580312 393:0.64017862 398:1.9181156 404:2.6415768 427:3.0421937 431:2.9242659 432:1.0468111 434:1.2703831 451:2.1279349 452:0.23648293 457:2.4360373 463:3.8075628 472:3.470557 474:0.057821661 482:2.6077609 487:0.81493306 493:1.6960955 495:1.5698795 499:2.9001331 502:5.4507432 509:0.78376287 512:2.0327001 514:4.808567 515:3.8348591 517:1.9369546 524:0.028216109 526:1.112949 530:1.3324432 549:3.0208709 562:2.3854253 569:0.57525939 576:3.9444973 593:1.7567016 599:1.4486349 603:1.2750354 607:3.8863912 615:0.029035389 639:7.0293131 642:4.7703514 657:1.9452188 662:1.6511602 671:2.4562137 672:4.540947 674:0.9864918 679:1.4942218 681:9.5679665 682:2.9697456 694:1.1335075 711:0.38229379 720:4.86236 724:4.8173361 725:1.0990031 727:2.107209 728:3.5961649 736:4.3507562 748:7.5909719 750:0.40058553 764:0.18505393 768:0.42693484 775:4.8324952 789:4.6625423 796:1.9023119 798:7.9326057 802:5.0897417 830:3.6480267 842:2.6265655 850:3.2502666 857:0.95715761 865:1.0315986 869:2.2856202 872:1.1596043 889:0.33546755 894:1.3682128 895:0.65401363 904:5.7162204 908:8.3338108 912:7.8517828 918:2.4696119 924:0.77124536 932:1.038352 941:6.1851783 945:1.6880453 968:8.0899677 970:0.21281362 985:0.74777472 995:0.99894035 1004:2.8465755 1018:10.99928 1019:0.66157001 1045:7.6729774 1053:6.8925109 1064:0.95273924 1076:6.17662 1081:1.0931509 1095:9.6794662 1100:0.44240582 1108:4.1537867 1149:4.3910618 1170:4.3794236 1176:2.641602 1177:2.0963197 1180:1.4832815 1183:2.6006784 1188:1.6096458 1193:0.99281633 1215:0.56462878 1228:11.319859 1242:1.6346091 1252:3.2083702 1263:4.0473294 1273:0.35697651 1274:7.064692 1286:0.75975472 1288:5.8849225 1291:4.8873758 1292:4.3030171 1294:1.560123 1295:2.6698561 1298:0.69547349 1302:1.8551979 1314:4.1364727 1317:4.0603065 1319:8.4195518 1337:3.9164758 1345:3.046207 1347:3.8151941 1357:1.1976948 1360:0.62743926 1369:5.0260525 1373:0.75706619 1376:1.4382902 1378:0.73110825 1401:0.51361626 1438:2.1316454 1441:1.5722442 1450:2.7664902 1458:2.3112464 1466:2.448715 1474:3.286515 1484:4.9955182 1485:1.8175151 1488:5.3523388 1495:5.0245137 1506:0.57971179 1511:4.4983554 1520:0.94765735 1530:0.20882395 1543:5.4328327 1544:1.3564816 1550:7.8291245 1551:0.85789037 1552:4.6539283 1569:2.0872107 1582:5.9794459 1596:1.0887738 1600:2.3226659 1613:3.0301869 1615:6.3685017 1636:4.8183627 1661:0.34866577 1668:3.7116649 1675:4.8913703 1681:1.9456033 1686:3.0437446 1697:2.5536935 1698:4.1364584 1703:7.0410814 1706:13.606715 1708:2.3270059 1718:0.39858055 1720:0.27031988 1721:0.076196387 1722:1.9681343 1729:4.7478919 1732:0.50918841 1736:1.3060303 1737:5.9001794 1751:1.3978114 1752:2.6388443 1756:1.9624252 1762:1.3705342 1764:0.4911055 1767:0.30099428 1771:1.0148239 1772:4.5077181 1778:3.6634228 1784:3.0410273 1800:4.1015282 1804:1.9679694 1805:3.8166397 1822:0.8340652 1833:2.5167625 1848:9.7616901 1856:4.201622 1859:0.92329073 1860:1.3855163 1869:0.01171428 1872:2.8008354 1874:1.6172789 1882:2.8007064 1890:4.6166945 1894:6.5675836 1909:1.3545876 1912:0.25421104 1916:1.0463686 1917:0.45450395 1928:9.7400808 1935:1.9923724 1936:5.1944857 1943:8.2052946 1947:2.0865619 1951:2.59863 1952:0.80796498 1955:3.9491129 1964:2.0713937 1996:1.0920457 1997:0.88510948 2019:1.1732188 2023:0.64747357 2024:1.1784689 2028:3.7847238 2035:1.2682695 2038:4.1128778 2041:1.9884652 2042:2.4898639 2065:2.6340415 2076:5.3632221 2081:0.70780313 2085:2.900713 2096:0.15882403 2100:1.9051526 2105:4.49613 2125:1.8835495 2129:0.14295435 2134:0.00062960386 2138:0.70563418 2146:1.2637532 2151:0.77160913 2153:2.6805007 2163:0.083453298 2164:0.78984052 2166:1.951252 2170:2.1169791 2172:1.1535622 2188:1.3582517 2195:2.3191872 2202:8.1151743 2210:4.1666727 2216:1.1703287 2217:1.0164245 2223:4.4745464 2237:0.84655696 2240:1.1641179 2249:0.5097273 2258:0.044720635 2264:1.9194889 2281:4.0798984 2286:1.7919642 2290:11.882667 2303:1.4400897 2313:4.1514812 2317:2.603822 2322:6.659286 2329:1.9341989 2332:2.2025619 2333:0.16642928 2336:5.0967698 2343:1.2230235 2348:0.51208633 2352:1.8683693 2353:1.5446298 2356:2.3331387 2357:5.055831 2358:3.3118918 2375:1.3262751 2401:1.1439195 2402:2.8804188 2408:2.3772063 2416:5.0463433 2420:1.6792389 2431:3.7692561 2435:2.8073509 2449:0.18597904 2456:0.21552789 2457:1.5059549 2470:3.3566318 2479:9.0690784 2480:0.77950424 2486:0.91874814 2491:0.34157753 2501:4.2153292 2504:0.10004085 2516:2.4072332 2526:4.6530662 2536:6.3041873 2537:2.3107781 2543:2.1677277 2568:0.84436035 2578:4.0733342 2583:1.679419 2592:5.4309988 2594:0.19980508 2601:0.087708965 2603:0.12571532 2636:3.9746275 2639:2.8785884 2641:1.8616575 2642:1.4365153 2658:0.040219501 2660:4.0966425 2668:3.0873401 2675:0.40716645 2686:1.122666 2690:0.96986359 2695:0.065711506 2708:4.8589625 2714:4.9710846 2718:8.5059357 2723:7.8429875 2738:4.0431414 2739:0.43836784 2745:2.421382 2754:2.5204604 2766:6.2003679 2771:0.061204106 2774:0.36439234 2777:7.2319288 2778:3.6007063 2784:2.1895018 2786:7.1498933 2790:1.8123561 2793:4.2850232 2795:4.5183706 2803:6.3465781 2805:2.1566303 2814:2.6967335 2821:0.91290617 2823:1.5948472 2825:2.1903646 2834:0.72251296 2838:2.3125296 2844:7.6460958 2848:0.48017007 2849:0.46084458 2851:5.0147991 2857:0.80399036 2864:8.1141148 2867:2.8520224 2876:5.744153 2882:4.4471507 2883:3.8104291 2891:3.6691482 2903:7.6369977 2907:0.56805837 2913:2.5022919 2917:2.870415 2919:1.1070853 2937:0.56220084 2940:1.2221454 2942:0.47927421 2976:0.32619977 2977:3.5928476 2981:6.5837245 3019:6.7979722 3021:2.9499969 3033:1.4230891 3048:3.9836919 3050:6.967381 3051:0.70696962 3052:0.9096061 3069:0.45821029 3075:1.1399882 3081:2.7774169 3087:2.1206391 3114:0.29310861 3133:0.64469725 3139:5.6178207 3152:6.1578226 3153:4.8766804 3154:1.7826779 3159:0.90456986 3183:0.84131151 3184:2.5194392 3200:0.21084505 3228:3.1473088 3231:6.4681134 3233:0.018270733 3236:1.984058 3260:3.3771777 3272:1.2694876 3273:2.9731097 3274:0.74684513 3275:4.530549 3279:0.67789149 3285:4.3120413 3291:5.3799372 3293:1.3789612 3299:4.8713593 3302:3.5682948 3307:3.6024005 3310:9.8002234 3327:0.70291638 3332:0.33178794 3354:1.3856301 3355:6.1597714 3363:0.82892358 3365:1.1571368 3382:0.18098795 3388:2.2757025 3390:0.80872321 3394:0.85369837 3402:2.3415902 3405:1.3201966 3413:4.6869779 3422:2.0605423 3451:3.1595521 3461:0.20944598 3489:2.6428998 3494:3.1286278 3500:4.0011744 3501:5.4009843 3508:1.435226 3534:0.44471627 3535:0.68586862 3539:5.5270219 3544:4.8275108 3565:1.0408925 3566:1.8755349 3569:0.55681229 3577:4.6764088 3582:2.950989 3589:0.44173914 3596:5.5899673 3598:1.3672904 3599:3.8173103 3603:0.15975736 3604:3.4309459 3621:4.33571 3636:2.6717386 3640:2.3666377 3642:3.2356312 3645:0.076072931 3666:2.1455586 3677:2.8861294 3689:0.77464151 3690:0.6053707 3691:0.42224085 3703:0.45506239 3709:2.9804926 3710:3.9529746 3711:6.4638586 3729:1.4007671 3732:2.9777091 3735:0.83276653 3741:3.814393 3742:0.89160293 3748:0.68693852 3749:1.3620296 3753:5.3889842 3758:3.7599378 3763:3.7643344 3765:3.8978908 3766:9.4567919 3769:3.6409183 3774:3.1704483 3793:3.3202071 3803:3.2642667 3806:1.7256746 3811:1.7838167 3829:0.83497453 3833:3.5952168 3844:2.2783487 3860:2.6700501 3872:4.8388586 3888:1.5672457 3891:5.0377641 3893:4.0816984 3903:1.8504678 3906:3.7241848 3917:1.5897661 3923:1.2173058 3926:6.723021 3941:1.2520808 3945:1.4095745 3957:1.045791 3984:2.5215797 3995:1.3572896 4010:3.4397628 4011:0.055697121 4013:1.6854299 4014:2.6958129 4016:1.0017576 4036:6.587285 4038:0.28847834 4042:2.3875153 4052:0.46007806 4074:3.4207406 4075:2.8146336 4084:7.8331718 4085:0.35080746 
0.2546852255779464 5:2.5390821 12:0.16926157 19:8.7905178 22:9.5313406 23:0.61482155 26:7.4061694 27:2.3515947 28:10.35513 29:1.8352761 31:2.8851888 46:0.72686541 49:0.70201349 61:3.0592697 89:9.3128366 90:0.69589311 105:5.7061687 108:5.4787273 117:2.3146341 136:5.8539472 146:2.3837907 153:2.5749791 166:0.26688814 174:1.4697447 179:3.2353969 185:1.6588607 200:6.9365602 217:0.14550316 229:4.4791746 232:0.30869359 234:5.4730201 235:4.1962504 239:3.9325407 240:1.451369 252:0.23175031 258:11.688776 265:4.2979679 274:0.84914196 279:3.3068724 280:1.8204875 283:0.06480673 288:6.8536849 292:3.3963001 293:0.31695759 301:5.4135017 303:0.038532197 311:0.75611019 315:0.94293988 334:1.9434079 335:3.3659027 340:0.25788611 350:3.3985698 351:4.2557149 353:2.4911416 364:0.23316589 365:0.11478442 373:0.075457245 375:1.3651239 398:3.589061 413:1.3146617 414:2.8610823 427:2.2433028 431:2.8291051 432:3.4111438 444:6.6761546 451:1.5276217 463:2.4386196 477:2.6703596 478:0.23327562 479:0.48813522 482:3.8213785 486:1.3095078 499:2.5043728 500:0.14860462 502:2.6098857 509:4.5146451 512:7.6385431 514:2.7631407 515:3.3587399 523:1.452152 530:2.5143766 532:0.76548004 540:1.7750667 544:4.1725578 546:0.90536499 548:1.7362543 549:5.4613972 551:0.10182776 576:5.6323519 583:2.4675519 584:0.82249641 599:1.5285633 600:0.30844522 601:0.60876572 607:0.095595255 612:1.7521362 639:8.1041241 641:1.328867 646:1.8302813 657:5.6930947 664:0.48594356 672:2.5869756 673:5.0582094 679:2.7943292 682:2.2735503 694:1.2572669 720:5.9775658 724:3.1444194 728:3.3686144 774:5.3462424 775:5.1629834 781:3.3356879 782:5.0917444 785:0.59674621 789:6.467855 796:5.2990294 798:8.2084417 802:2.6846192 804:1.1538781 821:2.9529433 830:0.37159696 833:3.2322872 852:1.8052862 857:3.5663166 867:4.3122854 869:1.2290292 871:2.6712685 882:0.88209766 884:0.75314605 886:2.0236526 889:0.92329407 890:3.4661191 891:4.0625291 904:3.3840566 908:6.517489 912:4.8032904 915:0.38086241 918:3.1171067 922:3.9245572 923:0.38917628 925:2.0667555 931:1.0716767 934:0.46890911 941:9.563139 945:0.92643559 953:2.2911494 968:7.3523746 970:2.5451262 971:1.9683583 979:0.84735 995:3.8579721 996:0.74372011 1010:1.3405876 1018:9.3359642 1045:1.7324295 1053:10.949541 1077:0.23485827 1081:2.0496387 1095:10.168952 1119:0.89998543 1125:1.2659535 1129:2.0773525 1130:0.64622301 1133:0.8587091 1136:2.3194089 1153:1.9117022 1164:2.9483128 1169:0.72449791 1170:2.2006285 1176:6.3348718 1177:2.3154716 1178:0.15665291 1180:2.6439178 1183:1.7307158 1184:2.150368 1188:0.51035887 1193:3.8909876 1200:0.58471012 1206:1.1147579 1215:0.098395586 1228:6.2237744 1239:0.38206428 1252:4.2240539 1254:0.053884782 1263:6.108407 1274:1.6873735 1275:0.9717384 1277:3.6323767 1288:4.0417509 1291:5.2295423 1298:0.0043432713 1302:2.8632548 1307:1.5581976 1314:4.9054794 1315:3.0903485 1317:3.2786725 1319:6.4187393 1331:3.4038713 1333:2.8289661 1335:0.12240297 1337:2.4957368 1345:2.7324512 1347:0.027772736 1360:2.7670739 1369:3.0586858 1373:0.05240503 1376:3.1804631 1377:0.8358463 1380:0.66479474 1401:1.6641525 1402:0.32782131 1405:0.32372126 1406:3.8762019 1426:2.5725093 1427:0.39019677 1437:3.7348917 1442:2.479738 1448:0.46207672 1466:1.2448256 1468:0.3631939 1474:2.9742529 1484:5.2439804 1485:1.3722417 1486:1.1242748 1488:5.480979 1495:1.3861849 1507:0.8926608 1511:7.07373 1522:1.6260736 1531:1.96004 1539:6.2696977 1544:3.539567 1550:7.7598648 1552:1.0229784 1555:2.0744195 1558:0.35977146 1590:1.8020432 1593:1.962333 1596:1.1724793 1600:0.90226078 1613:2.2260489 1615:4.4150872 1625:0.31924731 1627:1.7320942 1630:5.1439381 1636:2.2927186 1664:2.526654 1675:0.7893858 1681:2.4985163 1686:1.8004326 1698:10.049917 1703:2.9813297 1706:5.1764088 1710:2.7856688 1718:2.6558242 1720:1.2908173 1721:0.48161715 1722:0.82922184 1729:2.6921368 1730:1.2054014 1732:0.2870037 1737:3.1249814 1742:0.5062198 1751:0.061790287 1756:6.5953975 1762:6.3118825 1764:0.49131447 1771:3.2837007 1772:5.2266765 1778:4.9226027 1781:0.80302262 1798:0.59543669 1800:3.4965746 1804:2.4069965 1805:1.783452 1815:2.3444157 1818:1.3245691 1848:10.7988 1856:2.5884273 1858:4.9808908 1860:5.4838614 1872:0.64817947 1874:3.1739593 1875:0.84496033 1882:1.2883203 1890:7.9153566 1894:1.1401085 1909:4.671 1916:4.0422883 1922:0.56465453 1928:8.8465614 1930:1.5000013 1935:0.94303375 1936:7.2895079 1943:0.14194877 1947:0.53652316 1953:0.81325817 1955:8.0974989 1963:0.14641598 1965:1.6182655 1996:1.1624893 2016:1.2699172 2019:4.4440184 2024:2.4866927 2028:1.935357 2032:1.1260085 2035:3.5766501 2038:2.828968 2041:1.331885 2052:0.0038499236 2055:0.39900035 2065:1.3463398 2076:3.5917027 2085:5.917417 2096:3.1109343 2105:1.7716939 2108:0.14459191 2114:1.7371049 2125:1.7447762 2138:1.0737683 2139:0.36775559 2146:6.3584719 2151:2.9024198 2153:2.907881 2156:4.1844258 2164:3.4084945 2170:0.93438667 2187:1.9959245 2195:3.345516 2202:11.042351 2210:2.0042858 2211:3.2185779 2217:3.9608891 2223:3.1163659 2242:5.0863776 2249:0.91201192 2263:0.91786659 2290:5.2781844 2302:0.88947511 2303:1.5445342 2313:4.3507433 2322:1.3190355 2328:0.87787282 2329:1.6491058 2331:1.0417044 2332:6.4609938 2336:3.3576479 2343:4.1128206 2344:1.4036701 2352:1.7084559 2355:1.8284466 2356:2.3306162 2357:6.2609282 2359:2.3636277 2360:4.3139243 2364:0.45872772 2367:0.3929835 2402:1.1181431 2408:1.8545927 2414:1.3532307 2416:7.0510192 2420:4.4148035 2431:2.1747711 2435:1.332545 2450:2.0783348 2452:1.3358314 2470:2.5466743 2475:3.3550658 2479:11.17027 2486:2.9148579 2488:2.2541215 2489:5.5870609 2491:2.2985344 2501:2.9223518 2516:2.944731 2526:4.3838663 2536:1.894886 2537:3.0903664 2553:0.074308403 2561:1.051761 2583:2.4536805 2592:3.2005768 2594:3.0193624 2595:1.1611468 2603:0.45765346 2619:2.3878884 2636:1.0736573 2639:0.23392111 2641:7.5366035 2647:0.85099864 2653:0.010387093 2660:4.7526913 2668:2.2432237 2675:5.6083846 2679:2.4130757 2680:1.9868263 2681:0.3915191 2686:1.5828385 2690:3.2950053 2695:1.5221763 2708:0.12609071 2714:4.7864566 2718:10.200734 2723:3.2719951 2726:1.6201781 2738:9.226305 2741:1.6970991 2745:0.74916142 2747:2.8020418 2751:6.3060303 2754:7.5465622 2766:6.6485176 2774:0.3321059 2777:8.2383528 2784:0.71274829 2786:8.680007 2792:2.569891 2793:0.11832798 2795:1.6958697 2811:0.79153728 2819:2.3450701 2823:2.9703126 2824:1.4236519 2829:1.1041787 2844:12.203315 2848:0.18291107 2851:11.342665 2859:1.9575689 2864:2.7784104 2865:0.55327708 2867:5.8075223 2882:3.3799071 2891:1.6420609 2896:4.3169408 2903:6.8361359 2912:1.2327142 2913:1.1766121 2917:2.8177269 2958:0.37830698 2962:0.66163236 2976:2.4581008 2977:9.4164457 2980:0.67830771 2981:1.7778101 2996:0.78562462 3000:3.145797 3018:0.26236695 3019:3.5761638 3021:1.8460796 3033:0.75068092 3048:0.086496823 3050:6.9916396 3051:1.4345584 3072:0.33681318 3081:9.3482218 3090:0.630597 3102:3.6334658 3108:0.64586383 3139:6.2314148 3143:2.3383129 3144:1.3437772 3152:8.505434 3153:2.8101034 3154:2.0616131 3170:1.6089382 3178:0.3164283 3181:0.69185519 3182:0.24736267 3190:3.1138015 3228:1.6092649 3231:6.6837931 3236:1.8673391 3246:2.1217291 3260:7.0790701 3265:0.75851226 3269:3.884644 3272:1.8382084 3274:3.0159371 3275:3.5012522 3277:0.2960766 3285:0.15064111 3293:1.5132849 3299:9.1980085 3302:0.81516755 3307:4.9527559 3309:3.7628465 3310:9.125453 3314:2.8414893 3327:2.8668325 3349:0.73639977 3355:0.78808194 3366:0.96301901 3387:2.7417488 3390:4.5513501 3394:4.0516443 3405:0.24761379 3413:0.85131454 3422:3.8542154 3431:2.0057759 3445:0.7135486 3451:2.3451042 3458:1.0965859 3461:4.8427768 3468:0.4082436 3492:1.8307182 3501:7.6428604 3515:0.66250551 3528:0.13302293 3539:4.5600243 3544:1.576717 3549:3.1725371 3562:1.376636 3566:2.9764814 3577:1.3753839 3581:0.42766476 3582:6.468637 3586:1.1757829 3589:0.55427593 3596:6.6725254 3598:0.12918392 3599:5.0773234 3601:4.4120059 3606:0.72272605 3608:2.1617653 3616:0.80614603 3621:4.7053671 3630:1.4328794 3636:0.50320774 3645:1.5718848 3649:5.8821044 3666:1.667362 3669:0.51987135 3672:0.049661845 3677:1.255916 3684:0.56329942 3690:2.5502768 3700:1.4538039 3709:0.39276987 3710:3.4562652 3711:5.1734557 3715:1.5052677 3717:2.2342651 3729:2.3257115 3737:1.5750231 3741:4.0491943 3753:3.0261769 3758:4.9652648 3761:0.47910136 3763:6.6369338 3766:6.9360323 3767:1.8525273 3774:0.74566686 3778:3.6474838 3793:2.459729 3806:2.4070301 3811:4.4116755 3819:1.3827393 3829:9.0795393 3833:6.9351778 3835:3.5210729 3840:0.22176787 3844:0.62859142 3846:1.7138119 3855:1.5074799 3859:1.2090094 3869:2.1152921 3872:4.8673429 3876:2.1260221 3881:1.43968 3884:1.3666961 3886:3.5862906 3888:0.51404142 3893:2.9905047 3903:1.6397213 3906:1.9768362 3912:0.11756775 3922:1.7914371 3923:3.5033293 3926:9.0305624 3956:0.11784463 3957:3.6282861 3962:2.8151283 3970:2.1007626 3981:0.47514075 3984:0.81879169 3996:2.1018384 4010:1.0431494 4011:2.1143305 4014:2.4483852 4016:2.3188043 4024:0.034457862 4025:1.54331 4029:2.5400963 4033:0.49863762 4034:1.0682917 4036:4.3293676 4063:2.0119858 4067:1.6439801 4074:5.9711809 4075:4.5654211 4084:4.9826012 4095:0.047607139 4096:1.8887991 
0.6312520041426438 12:1.1041167 15:2.6322484 19:6.0636358 22:6.1956325 23:0.060245916 24:0.43897802 27:1.006404 28:10.728954 30:0.12743351 37:1.9130836 60:1.7886987 75:0.64673012 79:0.84609365 89:7.6621904 90:4.4268737 102:2.4564834 105:5.3402915 108:4.336875 117:4.6659455 136:3.9891269 138:2.085989 140:2.4913435 149:0.038853824 154:2.5714524 159:0.16713926 169:0.8557452 185:1.5581173 200:1.0511857 212:0.2399902 217:1.9142545 218:0.44394892 221:0.93866885 227:0.28134236 228:0.43001014 229:1.6740577 232:3.1264026 234:1.4858993 235:2.8973117 239:7.2679615 240:1.9731058 252:0.52780235 253:0.45985931 258:9.8603563 261:0.012437642 262:1.482259 265:1.7064421 269:1.3572463 275:5.0877371 276:4.3063607 279:5.8265595 283:3.1596642 287:0.51705235 288:3.833806 301:0.043623447 315:5.9133348 324:6.3587494 335:1.709008 339:2.8701136 342:1.1980495 346:1.4399171 348:0.27464586 353:3.8359721 359:0.11006927 360:0.83147252 364:8.8402872 365:2.3472023 374:1.3619272 377:6.9997659 387:0.80129337 398:0.93453383 399:0.32283252 406:1.4849821 411:1.3023351 419:1.9874308 427:1.5109718 430:0.25843853 432:3.3587294 438:2.8385966 444:3.5433865 447:1.6178969 451:4.3686719 462:3.7978086 463:2.851511 479:5.2795715 485:2.3305192 486:3.8084955 491:1.2364192 500:3.2939844 502:3.6440737 509:0.42293894 512:0.15151753 514:0.47636735 524:0.93325824 526:0.13881977 532:2.2393382 537:0.62155402 541:1.6718159 544:4.194561 548:4.0473809 549:5.5120344 552:5.9668689 559:0.28220254 569:1.2834378 571:3.0138445 572:0.064035326 583:0.80814427 585:0.87091255 588:0.93935186 599:0.7735498 600:3.3384788 601:2.2305534 614:1.4021051 618:0.86973262 627:0.92078173 639:2.3169618 642:2.1485538 652:2.3119144 672:1.4141145 673:4.465693 674:0.87719804 679:3.0289388 681:0.41521361 682:1.9111526 685:2.8162374 688:1.324958 694:0.039950341 695:2.643502 705:1.4010881 706:0.39418828 720:3.1334379 724:0.34012634 774:0.60867143 775:6.7553406 781:1.999014 785:0.95815748 788:3.0375371 791:0.26829001 795:2.5993593 796:2.391495 798:3.3584943 802:0.40123686 809:2.2283034 810:2.583461 817:2.9015276 821:3.518676 833:3.2667959 839:5.6938944 850:0.91266525 857:2.3065796 865:1.1333323 866:0.66784894 867:2.6990051 882:2.9298036 889:3.8339639 890:1.5503039 891:6.3188043 892:0.45401478 894:0.50256902 895:2.0700467 908:4.7512531 912:0.46163005 913:5.2695665 918:0.40737027 922:5.0215211 929:1.2533436 932:2.0555866 941:5.9492259 942:1.3596094 943:0.056562603 945:1.7207642 953:2.9259984 960:0.036712795 961:1.2485424 962:0.14214975 968:2.2944455 971:1.292779 973:0.50758439 976:0.29812646 979:4.3880291 995:3.4040775 997:4.58916 998:0.094503105 999:2.8916621 1010:1.1734581 1014:0.90741432 1016:1.6493695 1028:3.396961 1039:1.1658106 1043:2.6600015 1053:1.7391734 1071:2.3442333 1073:0.46174175 1076:0.16624123 1084:1.8488598 1085:1.2887276 1094:2.1697576 1095:2.3344576 1111:3.641634 1138:3.9898157 1147:0.27843365 1158:0.98493993 1166:0.36421853 1169:2.0188587 1170:2.346637 1176:1.8309397 1177:1.7431496 1180:4.7492208 1184:5.9044318 1187:2.8853676 1189:1.8736439 1208:1.5213671 1215:1.5931127 1217:1.5272944 1224:1.5169197 1226:5.3506136 1228:1.7900778 1238:1.3903136 1252:5.5907841 1259:1.8342645 1263:2.422616 1270:1.4563431 1272:2.8980596 1273:4.3141165 1274:1.4148743 1275:2.1450517 1287:1.7513654 1288:0.67146695 1304:1.0042768 1305:0.52650595 1314:1.4004841 1315:3.2988832 1319:1.7556107 1331:4.6191382 1332:1.3771017 1337:0.69836128 1345:2.2093694 1375:1.2754579 1379:2.2239132 1380:0.47220016 1385:0.11364236 1386:6.6348734 1398:3.7181227 1401:2.168416 1405:2.9803264 1406:2.2354312 1411:3.1197164 1419:0.68266612 1426:5.7473364 1437:2.9521875 1438:0.31204608 1465:1.3620069 1468:6.1083641 1473:1.5113419 1481:0.45890832 1485:5.31989 1511:0.56672007 1515:2.1026089 1520:0.044334054 1522:2.1554279 1531:3.417057 1536:0.57502246 1539:1.8320843 1544:3.6371348 1550:9.0086699 1555:1.7538781 1558:2.4055119 1565:0.95787632 1593:0.52300107 1597:1.1231517 1600:3.6297612 1602:2.122241 1613:3.4627674 1615:2.5842731 1618:2.2430453 1624:0.10036713 1625:0.45819095 1627:0.36612985 1630:2.127264 1649:2.4654346 1661:0.61095107 1676:1.5394886 1678:0.89379787 1681:0.025836438 1686:3.041995 1698:8.3140745 1703:3.4833977 1708:1.1715326 1709:0.41782111 1710:3.4852214 1713:1.3589568 1718:3.8238692 1720:0.031792521 1722:2.6874986 1734:0.44552189 1735:0.63164586 1737:2.6963642 1742:2.8179162 1756:1.7266306 1760:2.9396491 1761:1.2742069 1762:2.5244846 1766:1.5635712 1770:2.218554 1771:1.5472262 1774:1.0513921 1778:3.7434149 1804:0.53906363 1811:0.58887744 1813:0.30139792 1815:0.53965944 1817:4.9982829 1818:0.83619344 1824:2.5298755 1832:4.5438991 1848:5.9746256 1849:3.5413375 1851:0.31118372 1855:0.089380845 1856:6.5213175 1858:6.6296139 1860:2.0751863 1867:2.2560868 1868:0.40166554 1872:3.6031854 1875:0.64543355 1879:0.31268215 1890:7.6333408 1912:1.2725439 1922:1.1317717 1928:3.5944426 1930:2.3283069 1935:0.56681269 1936:3.3087716 1940:0.62516445 1943:1.5163825 1951:1.3604537 1956:2.9800849 1958:1.0633991 1961:1.5224375 1974:4.8129921 1990:0.84776318 2007:1.2392867 2009:0.17095312 2014:1.4839888 2016:5.3483272 2019:2.7681615 2024:1.7979546 2026:1.9674444 2030:0.047800213 2032:2.2680264 2038:1.5743917 2045:3.3733966 2055:1.1859471 2065:2.2448988 2067:1.3957379 2069:0.72350621 2071:1.1976504 2073:0.9422332 2082:0.98455846 2096:0.71815938 2108:1.5902455 2114:1.9397717 2117:2.4900703 2128:0.35658491 2137:3.3298984 2138:0.066198573 2146:1.9859563 2153:1.1435956 2164:1.3363988 2189:0.23533002 2199:1.796679 2202:7.980917 2210:3.9907792 2217:0.78872156 2219:1.5276878 2222:2.1215546 2238:3.2737889 2239:4.3894529 2242:2.6422503 2255:1.7766985 2259:0.27631298 2274:3.1974077 2280:2.4085774 2297:1.4429994 2299:0.39433315 2302:3.9078379 2303:1.5695542 2311:0.19094247 2320:0.050643384 2322:0.55271029 2323:1.4043789 2328:0.72808862 2329:0.37632892 2331:0.64157015 2332:3.6672893 2343:2.6005578 2344:1.4645948 2352:0.71338487 2357:4.2020559 2359:3.2444446 2360:4.1864557 2386:2.426167 2399:0.090435788 2408:1.5316219 2409:4.1329169 2414:3.5961597 2416:0.34516332 2419:0.90879983 2429:0.33839065 2434:1.1959952 2440:0.49657473 2444:1.7771727 2445:0.56625235 2452:1.3657308 2458:2.8148108 2475:0.83149695 2479:0.56752878 2486:2.5342536 2489:5.4753222 2491:1.6513374 2501:0.9091233 2514:0.70333022 2526:4.3466616 2528:0.077213183 2536:3.1169417 2558:0.36366126 2563:2.1768003 2585:0.49031013 2594:2.2351701 2595:2.310951 2600:0.74147737 2610:1.2545991 2626:1.7174124 2636:3.8299792 2639:2.2861326 2642:0.18740463 2653:0.76423562 2660:0.67453402 2661:0.17481571 2662:5.2137785 2668:1.1241212 2675:3.8043754 2686:3.6906941 2692:0.642483 2708:1.0620345 2718:3.8167 2719:2.0669363 2725:0.1040007 2732:0.50364769 2741:2.1652327 2747:3.6819134 2751:4.81777 2753:1.9846122 2754:2.2266397 2763:1.4638174 2766:1.5748217 2777:0.43680274 2784:0.33343878 2785:2.4908521 2786:2.8814402 2788:2.4082084 2789:1.0046124 2791:1.1719723 2802:0.3344276 2811:1.5563693 2819:0.42495704 2823:2.1363113 2829:2.7920797 2836:0.95387036 2838:2.681541 2844:0.8557502 2851:0.24806008 2865:6.9065409 2867:6.4482594 2879:2.1613979 2882:2.1193414 2887:0.52914762 2889:1.1648941 2891:1.5926217 2894:2.2471247 2896:5.1125607 2904:1.3011851 2907:2.6343293 2914:0.16161624 2916:6.2693191 2917:0.14951928 2918:3.8161974 2929:1.9838506 2930:2.4057019 2938:3.1076212 2940:1.040725 2944:0.19014829 2945:3.3403552 2962:6.114964 2976:6.5970569 2977:5.9868941 2996:0.73652613 2997:1.9563315 3010:0.65186775 3017:0.059674799 3018:1.1233054 3019:0.91990972 3034:0.24804598 3042:0.32258922 3043:1.4168353 3050:1.0513794 3067:0.52544498 3074:1.3282864 3081:4.3552847 3089:0.29456186 3094:2.1789103 3102:1.7946911 3139:1.1442902 3143:3.3049705 3144:1.5416298 3145:0.52252054 3152:5.0941505 3153:0.60336959 3159:0.24489298 3170:1.4473269 3181:5.2327585 3182:0.8706969 3190:3.68838 3194:1.5049555 3195:1.435444 3196:1.9649482 3207:0.41104102 3216:0.51729941 3228:3.2790103 3229:0.91339636 3232:2.9728251 3237:1.8673301 3242:0.84091038 3246:0.11724113 3260:2.9850078 3279:0.44783705 3284:4.2109561 3285:2.4305634 3286:0.74099064 3287:0.29224789 3289:2.4498589 3290:2.1441097 3293:1.6161336 3299:7.5510235 3302:0.66629148 3307:6.8092413 3309:1.314904 3310:0.67217827 3344:0.30662757 3347:0.94234985 3354:0.05213654 3370:2.0003834 3379:0.58880448 3386:3.3432007 3387:1.8897697 3390:5.0068107 3394:1.0587237 3395:0.25760582 3399:0.030786216 3422:1.7372173 3424:3.9451377 3436:3.8379068 3441:0.03967306 3444:1.1145909 3452:0.20753512 3461:2.4015751 3465:1.460488 3467:0.51388055 3468:3.4214284 3471:2.2933066 3488:0.98810238 3491:3.3358173 3501:1.4730686 3503:0.55091089 3504:2.5676746 3515:2.2033207 3535:1.0958433 3537:0.32217857 3539:4.7791061 3548:0.63386357 3562:3.0512466 3568:2.869627 3577:0.015449733 3580:0.64504123 3582:3.7678621 3590:1.4170855 3596:3.7912755 3598:1.1246883 3599:2.7324977 3601:2.5238519 3611:1.9848814 3621:5.8378305 3636:5.9826727 3649:6.0361366 3652:0.21534163 3653:1.49158 3666:2.0160749 3677:5.2748351 3690:3.5377324 3708:2.1520801 3710:2.7432022 3711:2.9247189 3714:1.1266011 3715:5.0192757 3717:4.8665767 3722:0.67547095 3733:0.28614306 3734:0.074952304 3739:3.0719378 3741:0.35271052 3742:0.55673307 3744:4.1521816 3751:0.76202154 3753:1.8702962 3758:1.5638419 3760:0.5555616 3763:4.375257 3766:0.29794258 3767:2.3519349 3771:1.4510682 3774:1.052568 3793:1.9963572 3803:0.33532676 3810:1.8973849 3816:0.51180875 3826:2.1662433 3829:7.0217724 3833:4.2733946 3834:1.7559599 3837:0.69285583 3848:0.81586206 3859:1.5481937 3861:1.6004237 3865:0.20682392 3869:2.9488835 3872:5.3463011 3878:0.39491102 3881:0.53263289 3886:1.8884302 3888:4.6482859 3892:1.7366405 3893:9.8961525 3912:1.9698027 3913:4.6307292 3918:0.41844079 3922:1.3737135 3926:5.3598251 3951:0.03006959 3954:0.50511998 3957:0.97667891 3962:6.1833096 3970:7.6539984 3975:1.7756104 3981:0.68293536 3995:0.88841659 4006:0.93349063 4010:2.5925503 4011:0.68772829 4016:0.35838944 4033:2.261728 4034:4.9304342 4036:2.0560076 4041:1.5809447 4045:1.2609468 4048:1.1121118 4051:0.73511708 4055:4.3663144 4057:0.59136927 4063:4.5916038 4074:6.4203458 4075:3.9029901 4084:2.847836 4085:0.77399659 4091:5.4328341 4096:3.5428991 
0.634247798574878 5:0.93555772 15:2.1390183 19:3.596127 21:0.26173753 22:5.2108412 23:1.024415 27:2.1577973 28:5.708632 37:1.2101076 43:0.11422002 46:0.031450387 60:0.074620932 68:2.4777229 88:0.56995034 89:3.5718648 90:1.1231251 95:0.9384408 102:0.90587163 104:1.1847528 105:4.320435 108:1.1100408 117:1.2911229 129:0.60820174 136:3.5943029 140:2.3354654 147:1.0819597 154:4.1915741 163:2.638494 169:1.455359 185:2.4564829 194:0.68498188 195:1.5865601 200:1.3081728 217:2.7826035 218:0.66978121 221:1.7273245 227:0.59174478 228:2.2624593 232:4.3554525 234:0.81081194 239:5.9986773 240:1.0211476 252:3.6412692 253:0.94459647 258:9.683197 261:0.69945043 265:1.3647406 269:2.4359357 275:4.9771733 276:4.5913935 278:1.4971917 279:4.5808587 283:1.8384376 288:1.5192754 301:1.9430535 311:1.5919785 315:1.9210863 321:0.55178356 324:3.6474061 334:0.76403737 339:1.8322946 342:2.8257864 346:2.4619339 350:1.9652014 353:3.2459278 359:0.50757003 360:1.8030207 364:2.1690838 365:1.4958413 370:0.25222474 377:5.0354276 387:1.3437883 398:2.3829672 411:0.50927544 422:0.18880433 427:0.072898239 432:3.2857347 435:0.62622607 438:1.1680158 442:0.21612135 444:3.625428 451:3.3381777 452:0.84127533 462:3.0110202 463:1.0869586 473:1.4513817 479:3.6626997 485:4.114202 486:2.6539021 491:2.9095919 500:3.3930171 502:4.7311363 509:1.3852845 512:0.74269903 514:0.56047606 526:0.26355001 532:1.9728885 537:2.1075652 544:3.0100117 548:2.9711528 549:4.1578913 552:5.0585713 560:0.64290494 564:0.0076368451 571:0.25500885 572:2.0631061 589:0.39665484 596:0.38959342 599:0.78564113 600:0.45911139 601:5.4230599 612:1.4581574 614:0.52363992 639:2.1444349 642:4.326345 652:1.0728915 664:0.33574283 672:2.7664816 673:2.1629231 681:0.25456095 682:3.2433145 688:0.63176644 694:2.2236159 695:0.86596924 705:1.484623 706:0.42035145 712:1.7660059 717:0.3340036 720:3.8726442 724:2.9332652 755:0.49984485 771:0.5475176 774:1.918514 775:4.5565443 781:2.3506091 788:1.1724528 791:1.2432613 795:1.3951337 796:0.25914302 798:4.6564951 802:2.0507157 805:0.10026884 810:2.3404913 817:1.1664416 820:0.83310848 821:3.0352869 833:2.2532625 839:5.2239089 842:0.98971009 857:1.4203048 865:4.0315523 866:1.0039074 868:0.70224911 882:2.3160574 886:0.025849402 889:0.52312869 891:4.4801097 894:0.88805515 895:0.75560254 904:0.097116634 908:2.7406752 912:0.53833842 913:2.8622289 918:0.14555261 922:4.7001295 929:0.23374102 932:0.36519581 934:0.57508975 941:2.3618426 943:0.5152604 945:3.360503 953:1.6388347 961:1.4400539 968:2.4463477 971:0.85647833 973:0.89061296 979:2.3545728 995:1.2857604 997:2.4801574 998:0.1905809 1014:2.0189497 1018:0.44222575 1022:0.19973361 1023:2.12181 1028:0.55614102 1043:2.6511531 1053:3.2828903 1064:0.2564005 1071:3.1940746 1082:1.0204197 1085:0.23019454 1094:2.1237483 1095:0.70179093 1111:1.4302859 1147:0.44257593 1150:1.3008789 1158:0.49089938 1170:1.0018046 1177:2.7435765 1180:1.8253608 1184:3.3617525 1187:1.3899748 1188:0.193977 1196:0.63259155 1208:1.6586077 1217:3.2816894 1226:0.96057898 1228:2.4335284 1252:1.9304754 1270:0.23751515 1272:0.38341963 1274:0.23778544 1275:2.9620063 1279:2.028286 1285:0.73176616 1287:2.0115561 1288:2.5691564 1291:1.1568153 1302:0.85528207 1304:0.60601389 1310:0.25151259 1313:0.56946397 1314:0.63897794 1315:4.1689777 1319:1.804141 1329:0.86321348 1331:4.3268328 1337:2.0943415 1345:0.77094531 1360:0.53362739 1375:2.1299114 1376:0.3625288 1378:0.48911184 1386:5.9570045 1398:3.8029351 1401:0.97855604 1402:1.6135085 1405:0.99897635 1406:3.0163183 1411:3.503839 1419:0.41969448 1426:2.644207 1437:0.3423501 1452:0.7629838 1468:4.6888356 1471:0.98260456 1485:4.6842308 1508:0.43467155 1511:0.41068766 1520:0.68571866 1522:1.1569487 1523:0.70292938 1531:0.64702803 1536:1.6511433 1539:2.575973 1544:0.031898826 1550:4.7355614 1558:2.4061852 1590:1.5053954 1593:0.58294868 1597:0.82200873 1600:3.0438852 1602:1.9619148 1613:3.9526641 1618:2.8179171 1622:0.1649227 1625:1.1706771 1626:0.022865519 1630:0.5590567 1649:0.89105165 1653:0.66623139 1661:2.6933446 1675:1.0929425 1676:2.6064982 1678:1.2366852 1681:0.85134447 1686:1.8192532 1687:0.87246764 1698:3.4027624 1703:3.7249377 1708:1.3347621 1710:2.3794765 1713:0.29296136 1718:4.0215201 1720:1.8242755 1722:1.1384509 1725:0.00064432621 1727:0.22634785 1730:0.22132078 1737:3.8917239 1742:3.1635978 1752:0.53392875 1756:1.4111786 1760:2.40011 1762:3.0179608 1766:3.3697493 1770:0.28333288 1771:1.5937552 1774:2.0899539 1777:1.3715779 1778:0.58169436 1798:1.8261389 1804:1.1222122 1812:0.92069095 1817:4.1915402 1825:0.7844578 1833:0.79053545 1844:0.25959185 1848:6.4687519 1849:0.41809413 1851:0.659006 1856:4.1267772 1858:1.8784696 1860:0.25331199 1864:0.84036851 1867:0.95827943 1872:4.1553507 1874:0.54548168 1890:4.818861 1893:2.3228693 1909:0.031739421 1912:1.3375362 1918:1.1419629 1928:4.5672846 1930:0.8727113 1936:0.47678214 1943:1.5659844 1951:0.91964185 1955:0.87426704 1956:1.7600427 1958:0.14325875 1961:2.0561543 1963:2.3697529 1974:1.9564247 1990:0.60550445 2009:0.66372597 2014:2.2097042 2016:4.4404974 2019:1.5039053 2024:1.5320892 2030:0.17249641 2032:3.0394604 2038:1.5583293 2041:0.34300584 2045:1.0600667 2048:1.2249789 2065:1.4762806 2066:0.60501307 2067:3.616152 2069:1.1133361 2073:0.23271172 2096:1.1170942 2108:1.2220554 2117:1.4329827 2137:2.7482665 2153:1.409743 2166:0.61200392 2187:0.74302369 2189:2.0705504 2199:1.4921808 2202:6.1618466 2203:0.10787006 2210:2.4281218 2213:0.37806141 2219:0.99127835 2239:3.2168446 2242:2.2740195 2255:2.1625946 2258:2.1557727 2267:0.1683211 2278:1.0782038 2282:0.35858846 2297:3.197597 2299:0.76836216 2302:2.5579388 2303:0.01236093 2304:0.2698507 2325:0.51786214 2328:2.1907494 2331:2.8410373 2332:1.7047787 2343:2.7894049 2344:1.4684677 2353:0.15105093 2357:0.45678484 2359:2.5161047 2360:2.8352644 2364:1.0970861 2367:0.31895787 2376:0.89179504 2386:2.646605 2407:1.0252206 2408:1.0270085 2409:4.6821394 2414:1.6835457 2419:1.1213145 2434:0.40670291 2436:0.49841598 2443:1.0194774 2444:0.44838664 2452:1.8630862 2473:0.33231902 2475:2.4908552 2477:0.0061356723 2479:0.90418035 2486:0.99967515 2489:0.71229112 2491:0.79864466 2501:0.53238136 2504:0.49944183 2513:0.27190319 2514:1.7808331 2520:1.0635468 2526:4.2916093 2536:1.5334163 2594:2.7196913 2625:1.2971818 2626:1.1644194 2636:4.8830891 2639:2.5057955 2641:0.33236733 2653:1.753634 2662:2.8655567 2667:0.3753022 2675:1.4897083 2680:1.4406458 2681:0.42403063 2690:0.024132714 2692:1.258499 2718:1.1026103 2719:0.95589983 2731:1.7588593 2732:1.1304983 2738:0.56536949 2741:2.1693954 2747:2.0608757 2751:3.0134628 2753:2.9261298 2754:2.7296362 2763:0.074984118 2766:2.466763 2771:0.89802825 2785:0.12139051 2786:0.49701577 2788:0.42148212 2789:3.4208791 2807:1.7079628 2819:0.1094811 2823:0.34025943 2838:1.7087045 2842:0.47157484 2844:2.8614693 2851:0.22578932 2860:0.0095143802 2864:0.69837153 2865:5.1983156 2867:6.9180703 2879:3.2441752 2882:3.961412 2887:1.681856 2894:1.4058168 2896:0.45922008 2904:0.14664708 2907:0.16999179 2916:3.1361537 2917:0.020017028 2918:2.2691295 2929:3.6322756 2930:3.1812241 2932:1.6908352 2938:0.7179383 2945:0.65773779 2962:6.9276123 2976:7.2071862 2977:4.7183704 2996:1.1833973 3010:2.5292351 3017:0.26392549 3018:3.5843616 3032:0.44563669 3033:1.4239808 3034:0.40382814 3042:2.313941 3050:2.3608773 3051:1.410743 3059:1.926976 3070:1.0885979 3081:5.8142118 3089:0.94431639 3094:0.018897414 3101:0.61244142 3104:0.48373142 3120:1.8515317 3144:1.4897693 3152:6.3941913 3169:0.12039688 3170:2.4327221 3181:1.0479071 3182:0.38841039 3195:1.0673913 3196:0.038607478 3228:4.4554524 3232:3.378628 3233:0.75277305 3236:0.907938 3237:0.72005463 3260:3.4044058 3265:0.80968034 3267:0.78684378 3270:0.70238882 3273:0.17073047 3284:0.57323182 3285:1.9803282 3289:0.96705556 3290:0.97101569 3293:1.2273947 3294:2.3989427 3299:4.0515199 3302:0.62213773 3307:2.0276709 3310:2.6071429 3327:1.2020288 3334:0.17980064 3340:0.25569004 3355:0.050049603 3381:0.23924094 3387:0.78449047 3390:7.0046897 3394:1.0069644 3399:0.38364756 3424:4.5434942 3436:1.150633 3461:3.2698872 3465:1.1617076 3467:1.7859439 3468:7.3368917 3471:3.1635911 3491:1.2706454 3504:1.5316405 3508:0.79137981 3514:0.82502222 3515:1.0786111 3525:0.010112047 3535:0.58547878 3539:3.8094175 3544:0.44771469 3548:1.2107632 3549:2.006496 3562:0.65422869 3564:1.1253973 3568:2.2433915 3581:0.46211159 3582:5.2730975 3590:0.99283713 3596:0.79245287 3599:0.91737103 3601:0.76980704 3608:1.6081835 3616:0.37791985 3621:2.2117839 3636:4.4961052 3640:1.5333914 3649:2.514997 3653:0.80397123 3666:3.0120659 3667:0.26031837 3677:2.7040074 3690:1.6169479 3708:1.8775976 3710:4.2765183 3711:1.8376981 3713:0.52526748 3715:1.5888802 3717:3.000217 3739:0.34360269 3741:0.17786355 3752:0.6815232 3753:2.8149102 3758:3.1975672 3763:2.7946343 3766:1.7826041 3767:1.1917918 3771:0.66485095 3774:0.86637521 3779:0.4573648 3792:0.50150996 3793:2.5915112 3797:0.77904308 3803:1.0964347 3810:1.2758477 3811:0.20068389 3826:1.0794476 3829:2.0599179 3833:0.13687497 3834:2.3094561 3836:0.24897057 3837:0.020736039 3860:0.065453798 3861:1.4578693 3869:2.0510757 3872:1.876487 3876:1.592229 3878:1.8710865 3881:1.2408483 3883:0.46592379 3886:1.9998102 3888:4.3908515 3892:0.67579895 3893:8.1054792 3906:1.0487653 3913:2.7829616 3918:1.114625 3922:1.0984589 3925:0.48174751 3926:3.9385748 3949:0.052071676 3954:3.3401132 3962:4.1028428 3966:0.84152216 3970:5.7909026 3974:0.01564914 3981:3.9362149 3988:2.4758615 3995:0.28371418 4000:3.7657061 4010:2.0361514 4016:0.7385031 4021:0.17460743 4033:1.2607508 4034:4.9300308 4036:2.8818228 4039:0.65241504 4045:0.71584761 4051:0.92373228 4055:6.7632418 4063:2.0128174 4067:2.6190431 4074:3.4718375 4084:2.9266143 4085:0.4276002 4091:1.1443458 4096:4.9015341 
0.7767797801239195 5:1.70109 12:1.1472764 15:3.6612988 19:5.1523604 21:0.48082232 22:1.4881686 23:1.0519054 26:1.0382614 27:1.3553333 28:4.0546684 43:1.108636 44:0.44872037 60:0.23647812 68:0.53087431 79:1.6223791 89:2.3446665 103:0.86792982 105:2.0538757 108:2.6824908 116:1.4794109 123:3.8188295 129:1.0882745 136:2.3467445 140:4.1501513 147:0.59166199 148:2.0718372 154:3.3474679 155:0.64413047 156:1.8718539 161:2.3199604 162:0.75099415 163:5.1368871 165:0.20482895 169:1.6327841 170:2.393013 178:0.090017498 179:2.0088162 192:0.77046061 194:2.5566864 195:3.0260112 200:0.016478345 216:2.1683657 217:4.7117128 228:1.5292081 232:6.1931744 239:1.5354041 245:0.75786996 252:0.74426585 253:0.20122248 256:1.3619757 258:10.047503 269:2.8940897 276:1.3334373 283:0.64837718 288:6.4167304 301:2.1822858 307:1.2561936 317:0.57523072 324:1.6839519 339:4.6955934 342:1.4217671 349:0.29640284 358:1.2355317 359:0.54097629 381:1.9945009 393:0.53707993 398:1.7883754 412:3.0823529 422:2.4234593 427:0.41898727 432:6.1453724 435:0.16963863 438:0.86776257 439:0.10014585 442:0.46975058 444:1.9793172 449:2.8242514 451:1.581365 452:1.8138802 462:0.86815083 474:0.057917207 475:1.6914735 479:4.8997035 485:6.3372245 486:0.78066719 491:1.5743335 495:2.4185374 499:0.43656224 500:2.899895 502:0.39707991 509:4.7655725 512:0.4296205 514:1.8201786 521:0.079820365 537:0.67156363 544:2.2818587 548:1.8944206 549:1.1144602 552:1.3189969 560:0.89778304 564:0.070242345 571:4.0858746 572:1.2368039 576:1.2393275 583:2.5530934 594:1.0068434 596:0.84957701 599:4.0969801 601:5.0996423 612:0.61145002 616:0.98359215 619:0.71261871 639:4.9537973 641:1.5493345 642:0.63781166 648:0.42465019 653:0.28264365 657:0.67606318 659:2.1286776 669:1.184145 672:2.3361413 673:2.9733655 674:0.75389999 677:0.18856588 681:0.28077769 682:3.4583256 694:2.0031443 705:2.8396947 706:0.98079252 709:0.20068714 721:0.40479153 724:4.5590582 728:0.29692832 740:0.4089902 742:0.39785856 748:1.1597723 751:1.9009566 755:0.78881729 760:1.9562461 771:0.88858306 774:7.1651998 775:0.64395273 778:0.13342926 791:2.1234491 795:4.4542031 796:0.76593113 798:2.8373401 802:0.1740419 803:0.76825315 810:1.6237926 817:2.1435373 820:0.42134267 821:1.4070386 828:3.1783204 832:2.2784894 833:1.6971076 863:1.8798881 865:3.69491 866:1.7463579 868:0.9667446 879:2.0142806 882:3.6360788 886:1.1916581 891:1.5501903 895:0.99201393 908:6.6317058 912:0.012075871 913:0.5045054 922:2.7926507 933:0.028028786 934:4.2928767 938:0.43005908 945:4.9148412 953:1.8275975 966:2.5072806 968:2.8024459 970:1.0379137 973:3.0497739 979:3.6991732 982:0.17117605 991:1.4301926 997:5.9610133 1004:1.1708337 1006:0.4296408 1010:3.3564467 1011:1.0384232 1013:0.60873282 1014:2.0103252 1023:0.73309332 1030:1.7488798 1043:4.5835814 1053:4.8087101 1067:1.8794916 1080:2.3691144 1082:0.067920953 1085:1.9113967 1094:0.53257966 1096:0.81330848 1097:1.6102366 1098:1.4688532 1100:1.8421447 1105:0.3573471 1125:0.39607042 1126:0.1484147 1136:0.66460973 1138:2.0056703 1147:0.47961077 1149:2.860678 1150:5.209517 1158:2.3078256 1169:0.53597116 1170:1.8216051 1180:2.4676781 1184:2.9842832 1187:1.1586752 1188:5.5456305 1196:1.2173119 1203:1.1501294 1208:0.13057217 1213:1.7871563 1217:3.0505664 1226:0.23048058 1238:0.49392223 1239:3.1898293 1240:0.99685794 1242:2.1678939 1249:1.5054755 1250:2.0068052 1257:0.60124451 1260:0.64352715 1272:2.3244975 1274:1.9481221 1275:2.6515117 1277:0.75295037 1279:3.3843665 1285:2.5970712 1288:0.0080915093 1291:4.6847968 1295:1.40783 1302:3.0202692 1304:2.5813019 1314:0.68326044 1315:1.3866382 1319:3.9334662 1329:2.7483313 1331:0.84895635 1333:1.709514 1335:0.5878799 1337:2.8331051 1341:2.2988143 1345:2.5505571 1360:5.049396 1368:1.6008295 1375:0.29814062 1376:2.1345775 1386:5.1144471 1401:4.2649422 1402:1.8768415 1405:1.0259349 1406:1.0712838 1409:1.4673686 1410:1.8533592 1411:6.2490821 1416:3.0939155 1419:0.6376887 1426:2.2252569 1427:1.9736366 1435:0.4597238 1438:4.109683 1446:1.1058912 1450:2.2942078 1452:8.2047129 1463:1.8402767 1467:0.15225741 1468:3.6534569 1471:0.37570029 1497:1.8777568 1507:1.1722018 1511:1.8719975 1519:0.76562786 1522:0.5428918 1523:3.7687802 1530:1.8046261 1531:1.4375813 1545:2.0229573 1550:2.6466074 1558:2.3630648 1562:2.5652409 1580:0.69481504 1595:2.6682711 1597:5.5794735 1599:0.52996278 1602:5.2295833 1607:0.64915711 1613:7.293612 1625:2.8025575 1626:3.3115385 1630:1.2509356 1640:1.6662951 1653:2.1616976 1661:1.1228492 1668:2.770396 1671:3.1637375 1675:2.6948018 1678:1.9505374 1681:3.3685462 1687:0.041708618 1690:1.3934019 1703:4.0679364 1708:0.48068991 1709:0.48501211 1710:2.7424798 1718:3.4472091 1726:0.078879282 1727:1.4206363 1729:0.69211602 1730:0.91353822 1733:0.6457634 1737:0.31509173 1742:0.06308867 1749:0.89751709 1756:0.31668153 1760:1.0489689 1762:1.066695 1763:0.70220631 1764:1.9060947 1766:4.284832 1770:1.9720229 1771:0.75381768 1775:0.044133633 1778:4.8101721 1779:2.7978024 1780:0.16077241 1781:0.89772099 1798:1.9151657 1806:0.35927293 1812:0.17758556 1813:1.3817633 1814:0.54425073 1817:2.4986012 1825:4.8772364 1833:5.0494847 1840:1.0951047 1843:1.1338859 1844:0.84728968 1848:6.1984377 1860:0.23423265 1864:0.54763597 1871:3.7987947 1872:3.3451066 1874:2.6721115 1890:0.30864179 1894:1.5371548 1895:3.9195313 1897:0.58227497 1912:2.656213 1914:0.22395161 1918:1.7244344 1928:2.7440646 1930:0.26680005 1943:2.1206419 1955:0.21428671 1958:0.99684322 1961:4.1773496 1963:6.5737534 1967:0.55474877 1968:4.2825742 1972:0.24022785 1975:3.4715207 1995:0.67869633 2009:1.2799798 2014:2.908144 2019:1.7043743 2031:0.020129517 2032:1.987357 2041:0.23853737 2043:0.13955086 2048:1.9220598 2055:2.2587614 2065:1.7454128 2067:0.31669027 2069:1.6377647 2082:1.8941923 2085:0.82809407 2096:0.94311029 2102:1.2406893 2108:4.1129937 2110:1.2125027 2116:0.58361143 2117:2.4576278 2120:3.3399146 2138:0.75124353 2154:1.1456895 2156:0.5581668 2159:1.0531052 2163:0.80525899 2168:1.0538145 2187:1.3876715 2189:0.36731994 2199:3.9563613 2202:9.208746 2209:2.1985829 2216:1.0742466 2226:2.6578205 2239:1.6100802 2242:4.0290632 2279:1.1050987 2281:1.4602145 2282:0.56799316 2288:1.2292774 2297:1.953789 2304:2.1522543 2308:2.5682352 2311:0.82540894 2322:4.595274 2325:2.6117396 2328:3.0554996 2343:4.5347772 2344:4.8492699 2353:2.4116509 2360:2.1143289 2367:2.1331282 2375:0.27246481 2381:0.25672168 2382:0.58195674 2393:2.2151318 2403:1.8884544 2407:2.4668179 2409:6.2875214 2414:2.0281396 2415:0.78457463 2420:1.0269854 2429:1.3032019 2433:0.30703455 2434:2.4782345 2436:1.7577336 2443:0.38569474 2446:0.49241889 2452:2.5865529 2475:1.9029826 2487:0.097930908 2489:0.61884397 2491:0.47558376 2504:0.12739635 2514:2.2164009 2516:0.80440617 2520:0.73235953 2525:0.96609914 2526:9.3143597 2528:0.49875617 2535:0.4235605 2537:0.9624995 2549:1.1993461 2558:0.34573022 2563:0.90037334 2580:0.096031003 2585:0.35619381 2595:3.4273887 2596:1.1266419 2598:1.0894268 2601:2.3289907 2602:0.19895898 2604:0.68198287 2611:0.77316165 2620:0.86618006 2636:5.9389691 2637:1.1180038 2639:2.8011739 2641:3.188561 2648:0.03649956 2652:3.3297391 2653:4.2975817 2668:2.0148003 2675:2.4564264 2677:2.2859049 2679:2.7661147 2681:0.7589941 2690:0.1883418 2692:0.70195228 2695:0.083620027 2697:1.8338244 2698:1.267698 2704:1.0058113 2707:0.88349259 2708:2.1764543 2715:1.0681248 2727:1.3265458 2731:4.3253684 2740:5.3876667 2741:0.48507881 2747:3.4356456 2750:1.4462578 2751:7.0821924 2753:4.5738463 2754:2.3009453 2763:5.9239516 2766:5.3861046 2786:0.59491634 2788:0.48724139 2795:3.8908138 2796:0.014225125 2807:0.43738371 2811:1.0587577 2823:1.5692068 2840:0.31657276 2844:2.5891235 2845:1.7317134 2864:1.4695044 2867:5.4115219 2882:2.0622449 2886:0.38442916 2887:0.61716509 2903:0.47590476 2912:1.3361883 2916:3.3957243 2917:0.83978617 2929:4.0040679 2930:7.0653329 2932:2.9655144 2946:0.11921403 2950:4.3884687 2954:0.1940736 2958:1.5822927 2962:4.6105671 2964:0.82037318 2976:1.5317914 2977:2.3367419 2981:0.1588133 2994:2.1366262 2996:2.9999249 3009:1.1521282 3010:2.5846286 3012:0.57814211 3017:3.8094113 3018:6.6185775 3019:1.8631704 3027:2.0379772 3032:1.5143813 3042:3.4836605 3046:0.88283181 3048:2.0483375 3050:5.4974003 3052:0.22846425 3053:0.37207234 3059:4.1492162 3061:0.28903615 3067:3.2581387 3069:0.86148262 3070:4.032516 3074:0.85273945 3075:1.1236913 3078:0.13256225 3081:4.3741493 3084:0.37294143 3085:0.46188769 3088:0.80570114 3089:0.15580094 3104:1.9194283 3107:1.7745955 3120:4.174334 3130:0.55234545 3152:5.6842041 3170:4.9774117 3178:0.25556335 3180:0.76519555 3181:0.45336798 3195:0.057892084 3200:3.8377161 3220:2.4353888 3226:2.6290517 3228:4.0700316 3231:3.2674592 3233:4.0152936 3237:0.058285572 3260:2.4796791 3265:0.41994584 3267:2.6868021 3289:0.51040888 3294:3.3113582 3299:4.5094085 3309:3.0187454 3310:1.2239989 3327:2.0773704 3334:1.0938674 3355:0.081113584 3358:0.76950753 3361:3.1000674 3369:3.1886275 3370:3.4670839 3371:0.43920222 3387:3.4295444 3390:6.4817228 3399:0.4021025 3419:0.52855402 3461:2.8529086 3462:0.57739657 3465:2.095201 3468:4.2334695 3471:0.7531532 3492:1.5483373 3495:4.4159775 3508:1.5253665 3515:2.7431221 3536:0.11381716 3549:0.63509005 3552:0.49456146 3554:0.30247647 3574:0.42705283 3581:0.74034667 3582:3.7834826 3590:1.0475364 3591:1.9329188 3599:0.65863466 3603:1.5159013 3604:0.47459829 3608:2.3293741 3630:0.40873891 3636:0.70144445 3640:5.3971786 3643:3.2029369 3658:0.23447388 3666:5.0746961 3667:0.88369501 3669:0.11462644 3677:2.8290377 3684:0.58069718 3689:0.16817477 3710:5.4767752 3711:3.5845559 3712:4.1476612 3713:2.9175327 3714:0.33860877 3717:3.1893518 3737:1.0216136 3738:0.41395256 3749:0.00069963932 3752:0.4139232 3753:1.8044717 3758:3.8359997 3760:0.1335744 3761:0.059714586 3763:1.7603836 3766:1.5350701 3769:0.80913681 3779:1.6577606 3785:0.51281691 3793:1.8130538 3795:0.17951363 3797:4.5503364 3803:1.6614482 3808:1.5229999 3811:0.27570388 3813:0.8770647 3814:1.979044 3815:1.6424001 3818:1.2189912 3826:0.027212232 3831:2.9805355 3834:3.431843 3836:0.58615029 3844:1.1831242 3848:1.3658862 3855:0.82139117 3860:1.8493557 3869:1.0539688 3876:1.7625573 3878:3.0061312 3880:0.079046488 3881:2.2555375 3883:3.2925284 3886:4.2225065 3888:5.8062339 3893:1.8075392 3902:1.0862074 3906:2.3594456 3909:3.1878548 3912:1.3252801 3914:0.81660235 3918:1.2055061 3921:3.1923974 3922:0.71315724 3925:0.06116654 3926:2.2450483 3949:0.85589361 3951:0.50854015 3954:5.5492558 3962:4.4705315 3963:2.9167073 3966:0.63248163 3970:2.3936126 3975:0.37809056 3981:2.3884921 3988:4.2575574 3995:1.4527154 4000:2.2219753 4008:1.4296443 4011:2.1426547 4014:1.0749303 4016:2.6084261 4022:0.43235067 4034:3.2032502 4036:3.3896041 4045:1.9104376 4051:1.9568346 4055:1.7957242 4059:1.5830644 4067:2.341805 4072:3.2409599 4074:1.4482454 4075:0.032467812 4084:0.14732918 4085:0.33447737 4089:3.0799365 4090:1.2367491 4091:0.74951196 4096:0.57982361 
0.2766351007145137 5:2.2100544 12:0.98781741 19:5.9624934 22:3.2560706 25:0.34142929 26:8.4464207 28:3.7969275 29:2.1823421 31:2.4095721 34:0.30641532 39:2.5267184 45:2.7776139 60:1.9700271 61:3.1181915 68:1.7700503 89:3.669333 105:4.0357308 108:1.386592 112:0.20042965 113:2.8934641 123:1.9759891 136:0.72164279 146:0.76451087 148:0.26513666 153:1.9072222 156:3.4010334 159:0.44143391 163:0.89024985 180:0.88456744 190:0.032472968 194:0.65439504 195:2.5879343 197:1.5114926 218:2.5898705 223:0.30295068 229:1.1449586 232:3.1291203 234:1.8260829 235:3.1413293 239:2.3886502 240:1.3055366 245:2.7178602 252:1.8259863 258:5.5949759 259:0.33700466 262:1.5322258 275:2.5096564 279:2.0961297 280:3.2665248 283:0.25234008 288:8.5749102 293:0.25268543 301:6.325469 302:2.1068087 311:4.5039573 317:0.74882108 335:1.0822637 339:1.3273637 342:1.1055745 346:1.1591823 350:2.9450259 351:2.1024704 372:0.026434019 373:0.82289761 375:1.1481533 376:3.2851174 393:1.9968302 398:1.9891324 414:1.1790184 427:2.4839642 432:1.870575 449:1.2227385 450:0.45956272 452:1.0938201 453:0.295551 472:0.60533839 477:1.4614843 482:0.14779218 483:1.3833671 493:0.52733856 499:2.3025146 500:3.3052723 502:1.4228857 509:1.2956084 512:3.3744032 513:0.27238134 514:1.5349094 523:0.61738521 527:0.56528509 530:3.6696072 540:2.8294127 544:3.0510266 549:2.0230138 552:1.3790262 572:0.48345587 576:4.1023273 583:0.49267045 584:2.8037047 586:0.6121096 598:0.12047559 599:2.8213243 605:0.18413273 607:0.11402113 612:1.2602895 625:3.1196079 639:3.1738069 642:1.0015367 671:1.8640447 672:2.0209992 673:1.4646802 674:0.28355587 682:8.3981781 699:1.3888515 705:0.76293153 706:0.11152187 717:1.0978061 720:2.1028922 723:0.35125053 724:5.9828148 727:2.1816576 728:3.030601 735:2.4348321 740:1.0342841 753:1.2174006 754:0.89386737 764:3.0124395 774:4.2066574 775:1.1681409 778:0.60903072 782:2.8931754 785:3.7419417 786:0.59044731 787:0.19425403 789:4.0598354 791:3.2321534 796:3.7194333 798:2.0718288 802:0.25711977 821:3.7811685 826:0.50016236 839:0.21059127 865:2.6173215 866:0.45907217 869:1.6814697 871:5.8302469 878:0.91086447 879:0.40543091 884:0.82255238 886:0.58004981 890:1.6673533 891:2.8020544 904:3.0051723 908:6.3585782 912:0.75263399 915:1.1916543 918:0.14594942 922:0.024690419 923:2.8116765 941:3.1263413 945:3.871202 966:2.3056197 968:6.0502558 970:1.4845856 979:1.5377588 995:5.4140759 997:1.7338792 1003:0.42658266 1004:1.1815641 1013:1.4034057 1015:1.0422647 1018:6.723269 1022:2.4422047 1023:1.3490232 1045:2.3068371 1053:10.533465 1075:1.2667804 1077:5.5312414 1095:3.401 1097:0.39827481 1100:2.2083077 1108:1.2886124 1118:0.81239957 1128:0.30739126 1129:3.0074391 1136:1.0105721 1139:0.59412408 1149:1.7925328 1153:0.48409608 1170:1.2241573 1176:2.1622961 1177:4.3049164 1180:0.93272728 1181:3.2514491 1183:2.1863737 1184:2.8263652 1188:4.2793822 1189:1.0085957 1193:1.9604082 1206:5.3136168 1228:2.5589061 1239:3.3619688 1242:5.3152962 1243:0.71614701 1249:0.77548897 1257:0.77442336 1258:1.4719551 1263:0.47076833 1274:3.0424683 1275:0.073757738 1285:0.45212922 1287:0.65710294 1288:3.1250291 1291:4.8981791 1295:1.5956259 1296:0.77385771 1298:0.68395603 1302:2.6175778 1305:0.27183038 1313:1.9852142 1315:2.5328 1319:2.4338858 1329:0.3618778 1331:5.7230577 1333:0.18050593 1337:4.2346663 1338:0.070287645 1348:0.35603726 1352:0.67720741 1356:2.7424288 1357:1.3654699 1359:1.6275319 1360:2.4054365 1369:2.1024783 1372:0.072205439 1373:1.6116102 1376:3.2251153 1377:1.4933341 1399:0.70150566 1401:4.2441978 1404:1.3076822 1405:2.122766 1406:3.1059654 1416:0.91026539 1424:0.074739382 1426:2.1466818 1429:0.62488914 1438:4.0676627 1442:1.8924737 1450:4.4261446 1458:4.2209058 1484:2.9880636 1486:2.4809675 1487:1.5331651 1488:1.6379182 1495:2.4144845 1500:1.5112964 1507:0.84143215 1530:0.76229972 1539:0.45660818 1544:1.4896731 1550:1.8027762 1552:3.8215654 1555:0.43554962 1558:1.2020869 1583:1.6170714 1590:3.1695702 1595:0.71183038 1596:1.7277007 1600:0.19586961 1613:3.3926923 1615:2.4133215 1618:1.243484 1625:3.0217459 1636:2.3771958 1661:1.1666179 1664:4.8615117 1668:0.1424064 1675:3.1028705 1677:0.67641753 1678:0.64402115 1681:3.7614744 1687:0.16882706 1690:2.5332351 1698:3.9223905 1706:5.0402198 1707:0.37896687 1708:0.56011993 1718:3.2740557 1725:0.32020068 1727:2.2875664 1729:0.95772952 1730:1.7737942 1736:0.34436989 1737:2.4533658 1749:0.83314216 1752:1.0785999 1756:5.4101424 1762:3.307723 1764:3.5193686 1771:1.9330668 1772:6.2843127 1773:2.5644479 1778:4.2083292 1779:1.6388192 1781:4.1149511 1784:1.234187 1798:0.60138065 1812:2.3737106 1814:0.57233483 1818:0.27779299 1819:0.15175648 1822:1.0038599 1823:1.0479444 1833:1.2668452 1840:0.72762692 1848:7.6054544 1851:1.5685468 1856:2.0439928 1858:0.52977806 1860:1.7344587 1872:3.9498389 1874:4.4317856 1881:1.9960706 1882:1.6251577 1890:1.9512439 1897:3.3868945 1909:3.0066664 1916:1.0130076 1928:0.83183151 1930:1.1855565 1935:1.7071476 1943:2.0533502 1952:0.62249017 1955:4.4824409 1958:0.99847442 1959:2.0762675 1961:1.1306766 1963:0.1967909 1968:2.5362713 1972:1.4217221 2015:0.52179664 2017:2.9360735 2021:1.6705334 2023:0.53111863 2024:3.0371332 2031:0.46718711 2032:3.2496281 2035:1.9147884 2038:0.47248271 2042:0.52621657 2045:0.96316063 2052:1.596133 2055:2.3881738 2065:3.663595 2067:0.58255482 2082:0.31119475 2085:4.6133103 2096:1.5800813 2105:5.6447983 2115:0.96048331 2116:2.0030549 2125:1.6236296 2132:0.060326822 2137:1.7844365 2138:2.6701083 2146:3.0816665 2151:2.9871037 2153:1.4285003 2155:4.4830227 2156:3.6160591 2159:1.1356976 2166:2.191855 2170:3.7188282 2172:0.22559808 2187:1.7840552 2199:0.55991465 2202:8.5172367 2210:2.7666864 2211:0.14163478 2217:0.12779889 2223:2.8373907 2229:2.8701248 2237:1.1823883 2242:1.9382038 2249:0.0069708973 2250:1.8628987 2251:1.6936735 2267:3.4727085 2277:0.4354049 2278:0.95638764 2279:2.7512891 2281:3.7260015 2290:1.7566904 2303:1.0171421 2313:4.0959797 2320:0.81334597 2322:5.0770221 2328:0.52571267 2331:3.3275931 2332:3.753139 2333:0.48915118 2343:3.3142655 2344:1.1226801 2346:1.0737238 2355:1.5389231 2356:4.3683662 2357:1.2771865 2360:3.9793761 2361:3.3861995 2364:1.0018393 2375:1.4058058 2401:1.1644928 2407:0.51428044 2408:1.7537175 2409:1.3514935 2420:2.8985612 2431:0.03492564 2433:1.6575931 2434:1.6496735 2441:3.6576805 2446:0.062320456 2452:1.4852731 2473:0.04979676 2479:2.0145745 2487:0.22391102 2488:0.16022895 2489:1.694185 2501:1.9638166 2507:1.0951806 2514:5.3145924 2516:0.064967752 2523:0.32765844 2526:1.6201264 2527:0.28981569 2537:2.3015859 2568:1.988914 2575:0.17158101 2577:0.67160594 2578:1.0153891 2580:1.9149011 2583:3.4357271 2589:2.4273162 2592:1.7683213 2594:2.8913755 2595:1.0898921 2621:1.1501524 2636:1.4434514 2639:4.2947025 2641:4.5085325 2642:0.37946874 2652:2.9766774 2658:1.7789644 2668:1.1166179 2675:0.44017524 2679:0.28923506 2686:2.8237686 2688:0.63825774 2690:3.7009952 2692:2.5415514 2695:2.8507612 2697:2.1064153 2707:0.058518529 2710:0.84923279 2714:1.6248262 2718:2.7520168 2732:1.7212825 2738:5.2210612 2740:2.0933893 2747:3.2019904 2750:1.0286965 2751:4.6309142 2754:3.9013608 2756:0.83309174 2759:0.66754228 2760:2.1850305 2766:5.0897751 2771:0.067067444 2774:3.6208665 2785:0.95525253 2786:3.8071482 2790:0.32292673 2795:3.9818716 2796:2.8913753 2807:0.70378852 2811:0.69691616 2825:1.0125883 2829:1.6267216 2844:1.8211668 2845:0.27153474 2851:2.7239788 2864:0.05720662 2867:2.6108353 2891:3.9233558 2903:6.9265389 2917:3.208847 2935:0.39824978 2950:0.6658054 2962:1.1343952 2964:0.42614681 2965:0.036003292 2976:2.703495 2977:5.3722568 2981:1.2512978 3000:1.233212 3006:0.59982395 3010:0.17368504 3012:1.3740561 3017:1.4079347 3018:1.777679 3019:2.9943309 3046:1.7818624 3050:5.435926 3052:1.4873617 3059:1.1136873 3060:1.6106337 3075:2.1783648 3081:5.7034798 3084:1.0983057 3089:0.061543673 3091:0.44888002 3102:1.9655098 3117:0.34206623 3120:1.4613061 3132:0.6241051 3139:2.1772935 3144:1.52669 3145:2.0822406 3152:5.0723195 3169:0.92077565 3170:4.6367688 3182:0.43006253 3206:2.0970004 3220:4.689136 3231:4.5004578 3232:1.4827777 3233:2.3770447 3236:0.98609889 3246:2.8719912 3248:0.091105275 3267:0.32246333 3268:0.42570579 3272:1.5438216 3274:2.5051532 3275:3.5652816 3285:1.2484192 3289:0.15207493 3291:2.2543032 3293:0.62859398 3299:3.1281059 3307:4.3426085 3310:5.0235243 3314:1.025887 3327:5.231153 3334:0.86258948 3349:1.6995322 3354:0.3984642 3355:0.61486942 3363:0.33604705 3365:1.3689401 3370:0.4020825 3390:5.3348336 3395:0.19511017 3410:2.3178771 3413:2.4087348 3418:0.91735297 3431:0.054839283 3458:0.33853683 3468:0.1404672 3481:0.31620893 3492:5.7280779 3500:0.94381487 3501:2.9314227 3504:0.43376446 3505:0.17375895 3508:2.0836353 3515:2.1438718 3528:0.051590204 3539:1.0503514 3544:1.9710023 3545:1.3580619 3548:0.033281028 3549:2.5306561 3554:0.36721626 3566:1.4964874 3569:2.069469 3574:0.50321072 3577:1.0575908 3582:5.1445942 3592:0.62490183 3595:1.2789731 3596:3.9964113 3599:0.07053864 3608:3.722126 3615:1.4599806 3616:3.4079213 3621:2.9236007 3630:1.9066243 3636:1.4374511 3640:1.8400989 3657:0.36505315 3666:2.5426688 3668:0.90121883 3669:1.4428061 3682:3.3073082 3687:0.68923461 3700:1.2387973 3708:0.068223655 3710:0.034124941 3711:3.1935129 3717:4.3356204 3722:0.3645162 3737:1.0807499 3741:3.7169757 3749:0.91643286 3752:2.0896273 3753:4.2507882 3758:3.4511943 3761:0.42842272 3763:0.010959208 3766:8.1959076 3771:0.16954577 3774:1.4590009 3778:0.10797503 3779:0.18898565 3793:1.9710594 3803:1.6414138 3806:1.7448874 3811:4.2674007 3818:3.5929232 3829:3.4595127 3833:1.1214894 3835:4.1764536 3836:1.6275431 3840:2.196332 3844:1.6413326 3860:2.6298308 3861:0.046789557 3872:1.534923 3881:2.8387849 3884:2.3284836 3886:5.4381747 3888:1.686753 3891:0.0094838217 3893:1.9618227 3903:0.083321914 3906:1.9011598 3909:0.29941276 3912:2.112282 3921:0.55543226 3923:2.6243513 3926:3.4829702 3933:1.9035317 3941:1.4721898 3948:1.2125213 3951:2.5553589 3954:0.33839422 3962:0.04015366 3966:2.6696947 3969:1.4513164 3970:2.4274893 3981:1.6780368 3995:1.8406032 3996:3.4789009 4000:2.5096614 4011:2.1608846 4013:3.1144054 4014:2.1426148 4016:0.34258091 4029:1.8945009 4034:0.72021431 4036:5.3087668 4055:2.205097 4063:3.5791602 4067:2.368027 4074:1.6000917 4084:2.884783 4094:1.5699713 
0.1019726802589811 5:2.8870568 19:10.199687 22:1.8067787 25:0.19105688 26:4.5968375 27:0.68267512 28:5.7553177 29:0.043446422 31:0.92756861 39:4.2732515 45:3.8411758 48:0.79743934 60:1.7197623 61:1.5495234 73:0.64470112 89:3.8505504 105:3.3976467 108:1.9491504 112:0.47769058 113:2.3550482 123:1.4871696 129:0.6796037 136:0.31099385 146:1.0405827 151:1.3139195 153:4.0460839 156:2.6362197 163:1.7412196 166:2.0627079 169:0.69983274 174:0.11157578 180:1.4123697 190:1.207922 194:0.19060916 197:1.7525907 223:1.6200187 229:0.56609589 232:2.443332 234:0.28027979 235:0.80451357 239:0.73215801 240:1.8887732 245:1.9190277 258:2.09989 259:2.8992975 262:1.5116038 265:1.0963074 279:1.8886806 280:2.1088767 283:0.44675237 288:9.7256136 292:0.58607984 301:4.9188843 302:4.841485 311:4.1340346 339:0.79438913 346:2.3130784 350:2.5616248 351:2.9501693 358:1.0383399 375:1.6169958 376:3.4432087 391:0.59527957 393:3.1901367 398:0.13814494 427:3.4387982 432:0.33002257 449:0.91363251 463:0.87738621 472:2.5826354 477:2.5406959 482:2.6336582 485:0.71425331 495:1.9817569 497:0.95947677 499:0.70955122 500:1.3508294 512:5.6805682 514:2.3051245 523:1.3413415 530:3.551106 536:0.14648905 540:1.6996772 544:0.6382854 549:3.9085448 552:0.52214104 553:0.077099293 559:0.32611138 576:5.7102532 583:0.019297216 584:4.2402678 599:2.3014054 605:1.372125 611:1.6038201 625:4.7376604 638:0.38254413 639:2.6956038 641:1.0243567 664:0.82845408 672:1.1193728 675:1.2605112 682:10.581279 717:0.36023438 720:2.4752254 724:7.5453606 727:1.9070148 728:2.6365139 740:3.7230098 754:1.1737201 764:2.6077302 768:0.83298475 774:5.6068349 778:2.5389786 782:3.0195489 785:6.0149851 786:0.56268466 789:3.5989461 791:3.1401391 796:2.9061708 798:2.7803757 802:1.0822155 821:5.2312651 839:0.27232799 865:1.6141354 866:1.130023 869:0.3888475 871:2.9743493 878:0.45406035 890:3.8976431 891:3.2979791 892:0.15129238 894:0.15297553 904:4.3479762 908:6.3076673 910:1.8455441 912:0.54828858 923:4.009563 924:0.88074446 933:0.14596549 938:0.82462835 941:3.5834723 945:3.2022283 947:0.10073733 953:1.7439827 966:1.1265347 968:6.3656201 970:4.4269876 971:0.058725566 979:2.8544891 982:0.14439939 995:5.1322308 997:1.2832102 1004:1.617281 1013:0.51258326 1015:0.88808125 1018:3.3078799 1023:0.36980394 1027:0.57224065 1037:0.3962982 1045:4.0758576 1048:0.56157649 1053:10.427503 1077:4.0910225 1095:1.9109411 1097:0.3899633 1100:3.0628767 1108:2.1122344 1118:0.93023932 1125:1.4734445 1128:0.47620735 1136:0.37276185 1140:2.4145589 1149:2.9111397 1152:0.58287287 1170:0.80684227 1176:1.4111693 1177:2.3838754 1180:1.8258836 1181:1.1856575 1183:0.76722193 1184:2.3111916 1188:0.98092967 1190:0.88414091 1206:2.1988702 1209:0.52027279 1213:0.29745919 1217:0.057589799 1228:1.8358352 1239:2.1564085 1242:5.0734901 1243:0.13500917 1249:0.17503858 1257:1.1161761 1258:1.2173222 1274:3.1374114 1277:0.93420535 1288:3.6466079 1291:4.2140408 1292:1.6219116 1294:0.53610021 1295:3.4750118 1302:4.2476473 1305:2.3059342 1307:0.9367125 1315:0.77176511 1331:3.8117733 1337:1.1471362 1341:0.076907806 1345:0.26012501 1356:1.3414985 1359:1.1948733 1360:1.834673 1369:2.7422395 1373:2.2600651 1375:0.01534301 1376:2.0538228 1401:5.0398788 1402:0.51876724 1405:0.91226912 1406:4.9663644 1416:0.13232668 1424:2.6256142 1426:1.573477 1438:4.8229184 1442:1.8431077 1446:0.24006256 1450:2.4908152 1458:2.6551192 1473:0.33530319 1474:1.6467967 1484:2.6383049 1486:1.9469658 1487:1.3511417 1488:4.6924086 1495:3.4270339 1500:0.5011428 1507:1.6556897 1530:0.26358032 1541:1.3784313 1543:0.053706601 1544:1.0458837 1550:1.4387112 1551:0.66278076 1552:3.444207 1555:1.3003598 1558:0.49884078 1583:0.62038463 1595:0.75842559 1596:0.91593444 1602:1.0074172 1613:3.8230636 1615:2.4916806 1617:0.47684139 1625:1.9205124 1627:1.2758455 1630:0.12407867 1636:0.89976025 1654:2.1809793 1664:4.1276588 1668:0.98967832 1675:2.4744852 1681:2.7972391 1690:5.3649726 1698:2.4190304 1703:0.92318588 1706:6.6055474 1707:0.51263911 1710:0.084912769 1714:1.5420541 1718:3.0550146 1725:1.4984186 1727:1.0081813 1729:0.40409207 1730:5.9500847 1737:4.4468431 1749:2.1081164 1756:4.1089616 1762:1.3578854 1764:5.0881658 1771:1.0229921 1772:5.1125097 1773:0.81395876 1778:6.1256881 1779:1.0306653 1781:3.0347166 1784:4.402369 1812:2.7169445 1814:1.1340201 1815:1.4821649 1819:3.1053789 1823:2.0940554 1833:1.2213595 1837:0.92286992 1840:1.8736224 1848:7.6657934 1851:0.55364317 1856:1.7802614 1860:2.1007719 1871:1.7377619 1872:6.7097349 1874:3.9403327 1881:0.95032442 1882:2.2577472 1890:3.2033226 1894:0.73601902 1897:1.6038885 1909:1.2986345 1916:0.0085459352 1930:0.18253337 1935:0.39650679 1943:2.4019804 1952:0.089825481 1955:4.3842826 1958:0.32084343 1961:2.0333898 1963:2.3799429 1965:1.5444894 1967:0.24438475 1968:0.75147438 1972:0.45572093 1996:0.75937283 2010:1.1070905 2017:0.38810092 2021:0.6701194 2023:2.7478583 2024:2.1831143 2031:1.6836272 2032:0.84883046 2035:2.7032368 2041:0.51996332 2042:1.15266 2055:1.6117369 2056:0.21196301 2067:0.15928775 2085:8.1836739 2096:2.17295 2105:3.8638933 2115:1.2181467 2116:2.2713027 2125:0.18381381 2138:5.9175048 2146:0.7353462 2151:4.9203262 2155:4.5220776 2156:4.7779021 2159:0.23830689 2166:3.9437685 2170:2.1723299 2187:3.4873807 2202:8.6283722 2210:0.51329809 2216:1.3050267 2223:2.0810051 2229:0.84880257 2237:2.7627954 2238:0.024042979 2242:1.7514138 2250:2.469594 2251:0.40291637 2259:0.1730974 2264:0.35224617 2267:1.7074867 2271:0.42465287 2279:3.1456788 2281:4.796104 2282:0.88207698 2290:4.8897038 2307:0.34427646 2313:3.9930017 2322:6.4424214 2328:1.1312832 2331:1.7896085 2332:3.9316506 2333:1.3932803 2336:0.77262747 2343:1.3158214 2344:4.1091509 2346:1.8709897 2353:0.52674472 2355:3.4743154 2356:5.6995425 2357:4.7567677 2360:2.1321139 2361:1.3827401 2363:0.19646285 2372:0.27714548 2388:0.041790605 2401:1.988005 2402:1.7318255 2408:0.78855979 2409:0.24645638 2420:4.1012669 2431:0.40109023 2433:4.3503284 2434:0.43649015 2435:1.3750193 2441:2.7715099 2446:0.18514106 2452:0.68091983 2456:0.51603317 2473:2.0814207 2489:0.44994619 2514:5.8316536 2516:1.8143306 2521:0.53656614 2523:0.10505575 2526:4.6181884 2527:3.1336501 2537:2.7470415 2553:1.6126546 2568:2.1894846 2577:0.8703838 2578:4.3785 2580:1.6719694 2583:2.4008684 2589:2.1127086 2594:1.4306576 2595:4.96138 2603:0.22190917 2621:0.024673581 2636:2.3085239 2639:5.3562098 2641:4.1913095 2652:2.9271679 2668:1.8805983 2675:2.9167242 2679:0.46794355 2686:2.4864645 2689:1.854807 2690:1.6829728 2692:2.3564405 2695:2.7672241 2707:1.5512689 2710:3.0177848 2714:2.6127408 2718:2.1661608 2723:1.9787101 2732:0.85555851 2738:5.3597655 2739:0.33038968 2741:0.59010941 2747:0.96582758 2750:0.94195086 2751:3.543937 2754:4.9550915 2760:3.1921751 2766:5.9048042 2774:3.4255247 2776:1.2047282 2778:1.0032953 2783:0.084449172 2784:0.74270719 2785:1.089853 2786:2.240427 2789:0.9951874 2792:1.1631433 2795:1.4101344 2796:4.6105175 2805:0.8460139 2806:0.8147791 2807:0.97335339 2825:2.2674148 2829:0.51311958 2844:4.7850642 2845:0.63435215 2851:3.1596379 2864:1.1122715 2867:1.3727649 2891:2.0050383 2903:8.9827614 2913:1.0724132 2917:3.0811818 2930:0.1744279 2942:0.0028980672 2962:0.25248027 2973:0.38795274 2976:1.9167941 2977:5.0626659 2981:0.35388571 2986:0.026771471 2994:0.24554086 2996:0.61397249 3000:1.6581461 3006:0.45866162 3010:2.2232091 3012:2.4933133 3017:1.4217162 3018:4.2370086 3019:1.8774217 3033:1.4608514 3044:0.17991444 3046:0.74905562 3050:5.947566 3052:0.73457587 3067:1.2188996 3075:2.3540409 3081:2.5298226 3084:1.5905014 3091:1.4395614 3102:2.1194272 3111:0.084534973 3117:0.613253 3120:1.1724876 3129:0.18177983 3132:0.51872206 3139:5.4828501 3144:0.54151988 3145:0.25253767 3152:2.0987866 3170:4.9616904 3178:1.6658536 3182:1.0099417 3198:1.2504992 3206:0.79692334 3215:0.93234122 3220:3.4198346 3231:5.6157541 3233:3.0707793 3246:6.0312371 3248:2.1720142 3265:0.8176707 3267:1.9128085 3272:2.0667205 3274:4.6016884 3275:4.2880177 3291:3.0531161 3299:1.1281154 3307:3.62836 3309:3.272814 3310:1.9788239 3314:3.0684299 3327:2.5714231 3332:1.9822162 3334:0.81321108 3338:1.4049467 3354:1.2601874 3355:1.17586 3363:1.060216 3365:1.1274977 3370:2.015703 3376:1.6157382 3385:0.86034918 3390:1.6324531 3410:3.6267018 3413:3.3492861 3418:0.32004791 3431:0.47926581 3451:1.6597493 3457:0.11701958 3458:1.0306699 3461:1.3550613 3492:4.1499462 3495:2.5583315 3500:2.1840937 3501:2.3481517 3508:1.3894067 3515:0.61188841 3528:1.3755027 3539:2.0848265 3544:3.0813088 3549:1.1102797 3554:0.4733789 3569:0.72913218 3574:1.9921914 3582:2.3785861 3592:3.4551239 3596:2.5727179 3599:0.24063338 3603:0.42701846 3604:1.3917702 3608:1.5041226 3616:3.3490906 3621:4.0084963 3630:1.2903628 3636:1.0332499 3640:0.85405093 3645:0.22510102 3666:3.0230093 3669:0.93873805 3677:0.15343009 3682:1.6028296 3687:2.6080985 3691:1.1570542 3700:0.28166461 3710:0.19696781 3711:4.7844658 3717:6.6689167 3737:1.466772 3741:3.1656818 3742:1.2657915 3744:0.64670056 3749:1.4774488 3751:1.3168727 3752:1.2186517 3753:5.2113943 3758:2.5725608 3761:3.9986062 3765:3.6374254 3766:5.7438202 3771:0.25317994 3774:0.9697355 3779:1.6761618 3803:2.5325849 3806:4.1603894 3811:0.39336801 3818:3.7218475 3829:2.4432058 3833:2.7049093 3835:5.0612659 3840:1.408378 3844:2.7265143 3860:2.1483326 3884:1.3179681 3886:4.4024606 3888:1.8450547 3891:1.2030683 3903:1.7139899 3906:1.3453685 3909:2.0162399 3912:1.8978783 3917:0.17407314 3921:0.44711393 3923:2.524991 3925:0.096039772 3927:0.16318363 3929:0.43704554 3933:3.3649817 3935:0.30824411 3937:0.84502435 3941:3.6049356 3942:0.51191705 3951:1.3722286 3954:0.32951841 3962:0.6099382 3966:0.87093836 3970:3.6024005 3981:0.58326876 3995:2.2602956 3996:6.6183605 4000:0.19391744 4011:4.1171126 4013:2.0189788 4014:2.1439085 4034:0.10892431 4036:5.0627928 4049:0.94264263 4055:0.82177198 4063:0.91199231 4072:2.0016029 4074:1.9981385 4075:0.73226535 4082:0.22634596 4084:4.0328503 4094:0.52477813 4095:1.0765651 
