svm_type c_svc
kernel_type rbf
gamma 0.000244141
nr_class 2
total_sv 82
rho 0.371517
label 1 0
probA -4.90916
probB 0.00482523
nr_sv 34 48
SV
0.2199798545748402 3:0.49963701 9:1.4014473 19:2.777441 39:1.3909488 44:2.1047523 68:0.56190711 94:4.0652537 105:2.5844021 110:0.79817021 128:1.5535445 136:0.15809664 139:0.689448 140:0.61519611 145:0.3486217 148:0.6373685 152:0.61005914 153:0.8488453 169:1.5958909 172:1.5217377 174:3.1473989 181:1.2672987 214:1.2320111 217:2.0348408 241:5.026536 256:3.1287532 258:0.98531365 265:1.9872093 266:2.4176505 267:0.084349096 269:0.25232637 285:0.9588114 288:1.7652643 302:2.8422251 303:0.70820975 309:3.3000546 324:1.6900694 326:0.592466 335:2.831959 346:0.48360932 348:2.4591761 349:0.54396379 359:1.9787123 365:0.90499693 379:1.6392114 381:2.7237504 387:0.93164289 393:0.74712312 412:1.2242727 414:2.3887563 432:2.3259864 434:3.6240904 438:0.46342379 454:2.7427044 473:0.76080376 482:0.37214488 485:1.4781613 486:1.249087 499:0.09785375 509:0.98296869 512:1.3575815 514:2.849791 521:0.086536437 526:1.9014603 541:1.727404 552:0.34205043 562:10.706613 572:1.1424884 595:0.36048007 601:0.7895155 618:1.0256035 635:0.23460826 637:0.0051107407 639:2.9527216 644:1.7821169 645:0.0084195547 657:0.20670286 659:3.3945301 672:3.8143337 675:1.5679331 681:0.085773557 682:0.47159064 684:0.14485243 691:0.12743813 702:3.5391419 705:1.6141638 711:1.7333881 725:0.32944298 736:0.62249523 750:3.640451 751:1.1683073 754:0.37590745 771:0.42637944 773:0.16951376 775:0.51663041 787:1.3097199 788:4.2338343 789:4.250844 791:0.63772953 795:0.1265761 796:1.3245167 798:3.0296524 802:0.34666643 817:1.0237179 825:0.88450116 830:2.3235707 832:0.074635118 833:4.7314034 839:0.89190769 841:0.17940956 842:3.316009 853:4.9616446 854:0.22246736 857:0.74855149 859:0.90137571 865:1.961875 868:0.87203985 882:0.34841999 891:0.42001545 895:2.7452214 904:4.056613 908:1.740965 912:2.66891 916:0.64853364 918:0.023394197 943:3.3403411 945:3.666141 953:0.80666173 968:0.27715793 982:1.6017566 1001:0.62189758 1004:2.036516 1016:1.4450719 1034:0.078373164 1041:3.5635056 1042:0.17879143 1059:0.39027539 1065:0.70656228 1067:3.7758961 1075:1.0584954 1077:1.4245471 1078:2.7333894 1081:0.15374732 1095:2.7785878 1096:3.5975528 1103:4.7805624 1105:0.31152087 1106:0.5868454 1117:1.570146 1125:0.21187916 1169:3.4830005 1176:0.46344703 1179:0.53143418 1180:5.167912 1182:0.095212221 1184:2.1130788 1186:2.4546793 1188:2.1760895 1206:0.50977683 1211:0.87241703 1220:0.35215837 1227:3.520083 1234:0.73483491 1236:4.8227854 1249:1.7081394 1255:2.6320999 1258:4.0378637 1272:2.205914 1274:1.3681518 1291:4.2769318 1297:1.6074705 1299:0.37037063 1304:1.8500253 1309:4.3482695 1327:0.94013619 1329:0.27982026 1332:1.8356394 1333:1.3777754 1335:4.4345307 1336:0.85933065 1339:0.25804397 1341:1.737187 1342:0.30776215 1357:1.6340177 1368:0.89677268 1369:5.8636341 1383:1.0880126 1386:3.2268939 1396:1.5398356 1397:0.31391597 1401:6.9878912 1402:1.8969136 1409:0.061976969 1410:1.2202806 1411:1.7276143 1414:1.4251297 1419:3.7796988 1426:1.4937888 1444:1.2529051 1452:5.1062312 1457:4.2301874 1458:1.3113236 1466:1.9550502 1470:1.622552 1479:1.1074787 1503:3.4744573 1511:2.2922881 1518:0.73602259 1520:3.1867957 1523:5.0400758 1531:0.68995363 1550:1.5245408 1552:1.2427217 1554:3.1112783 1562:4.7775998 1580:3.8641474 1586:3.0317597 1597:0.18654405 1600:4.1822143 1601:0.2278785 1606:0.85874772 1613:3.5396831 1615:6.1971359 1618:0.10187048 1625:0.24594115 1627:2.3895276 1636:0.55854452 1661:0.72194779 1667:2.7185488 1668:1.7198637 1675:1.9316238 1681:1.0629147 1690:0.39141458 1695:0.29809171 1699:0.11279511 1703:1.0447779 1704:1.3822587 1708:0.9666186 1710:0.70714319 1713:0.85095072 1726:1.5822146 1734:0.037318811 1737:1.3983147 1742:0.89161479 1758:3.3850749 1760:0.0060395002 1763:1.1293833 1775:0.37934208 1778:0.32511556 1782:1.1770955 1813:2.3904738 1817:0.067121968 1822:4.1488919 1832:0.63675535 1837:2.9784105 1846:5.0931139 1848:0.97745705 1854:1.0253128 1860:3.0126495 1883:0.031940416 1894:1.4192431 1918:3.0542479 1926:1.1046181 1940:0.30281839 1943:1.7959633 1950:0.27870923 1964:0.4061442 1974:0.80846179 1980:1.0329343 1984:3.5260324 1990:0.060951158 1995:1.5715538 2004:0.31354323 2009:3.2424195 2011:2.674386 2012:1.4818976 2028:3.9219208 2043:0.35910791 2048:0.38840508 2055:1.1705251 2057:0.46012786 2068:0.74944681 2102:0.92969304 2107:1.5860711 2113:3.4361527 2154:3.1066735 2160:0.48940197 2163:0.14151508 2164:3.3677642 2168:2.2438612 2177:2.7942591 2196:1.1338739 2199:2.459904 2202:3.923733 2204:1.8823721 2206:2.8936419 2211:1.0414822 2223:2.9339767 2235:1.7692337 2236:0.71342587 2238:0.15859611 2241:0.32026997 2253:1.9293149 2254:0.43234465 2255:5.5339632 2259:1.9594948 2272:0.071397617 2311:6.5049839 2317:1.6380043 2322:0.60405195 2324:3.948257 2329:1.5215043 2337:0.27770621 2340:0.097579062 2343:4.9056377 2344:5.8874497 2349:3.3164179 2358:0.43479657 2360:3.4444058 2375:4.2348948 2376:0.78456992 2393:2.0877383 2396:0.61244857 2400:1.9241285 2402:0.40227652 2404:0.86343503 2416:4.2907853 2423:0.74036455 2425:2.7053652 2431:1.2774997 2435:2.2402813 2436:1.5467422 2443:1.3665053 2445:0.33805937 2459:1.2357159 2471:0.76297569 2479:1.0954909 2487:1.7173684 2508:0.62065178 2520:0.005287379 2521:0.62822914 2526:0.77281809 2528:4.5639267 2535:2.4500997 2537:1.403459 2563:2.6102657 2579:1.6280872 2591:0.32445404 2595:0.68688643 2601:0.51541585 2604:6.1233835 2636:3.9549227 2639:3.8526359 2642:0.096258491 2647:1.7767482 2649:1.6148555 2655:1.4164643 2658:2.1224325 2675:0.079932496 2688:0.11316863 2704:7.7023373 2705:0.90345097 2708:1.5939319 2715:5.4489369 2718:1.9492495 2719:1.3390409 2720:0.94304425 2723:3.6458993 2726:0.034812804 2727:0.948084 2740:2.2328732 2743:4.5533533 2763:3.0150185 2766:1.829066 2779:0.69171095 2792:3.9451437 2811:1.7401645 2814:0.62758118 2816:3.6592591 2821:0.98757541 2834:1.6573641 2836:0.089588255 2840:1.2634075 2842:5.5157952 2844:1.7635667 2845:1.5059268 2864:4.2091513 2866:0.60439348 2867:4.1870418 2878:1.0539706 2880:0.31975126 2893:2.5001523 2895:3.435869 2896:0.0069936812 2901:1.7031375 2903:1.9369237 2912:0.079580307 2913:3.4182332 2920:6.7016258 2929:2.2626128 2950:1.3853443 2958:1.6505542 2994:3.1101313 3012:1.1030806 3018:4.9768071 3021:1.8179219 3046:0.11310355 3048:0.61662459 3050:3.5263278 3059:3.937722 3075:2.7344246 3081:0.36247402 3139:0.71089798 3148:1.2370607 3149:0.13405749 3152:1.5580599 3154:0.6888054 3163:6.5574183 3170:0.5981009 3172:0.16788417 3179:2.5890501 3183:0.4893375 3184:0.15246226 3199:0.22873925 3214:0.55073839 3216:0.57275063 3240:3.955379 3242:0.55252391 3247:4.8547859 3252:1.8601284 3253:0.91396868 3256:1.5837827 3260:2.5478985 3287:0.20285463 3294:1.5722816 3299:0.89019394 3310:0.14381553 3334:3.1711369 3348:0.19406694 3349:0.98016012 3354:2.9682817 3381:1.0993756 3387:3.6202948 3390:1.8581856 3404:0.24891998 3411:0.43606111 3418:0.66274178 3426:3.0492566 3438:0.21954358 3445:2.658442 3459:2.511163 3478:2.4955714 3508:1.2832723 3534:1.4955342 3535:1.6944491 3536:3.6599078 3537:1.2914888 3552:3.947721 3554:1.392748 3562:1.7079062 3576:0.77796715 3582:1.8618854 3583:1.2684932 3593:3.32214 3604:1.0320746 3608:2.634351 3614:2.1600728 3615:0.52732664 3629:0.47565582 3632:2.8068962 3633:2.5201674 3635:0.75592244 3650:5.1140718 3653:3.9366755 3677:1.8020949 3681:1.914366 3690:0.17202705 3732:1.3971986 3751:2.9885468 3752:1.0083722 3767:2.5606017 3769:6.9317636 3785:5.6763773 3789:5.9663196 3797:0.088564098 3808:0.27391875 3813:0.64466763 3824:4.1442218 3826:0.80263531 3831:2.0409184 3836:4.4867806 3860:1.9049871 3865:0.45312241 3869:3.2298448 3871:0.49974939 3876:0.16174242 3882:0.37701255 3888:2.6063383 3889:0.10003945 3891:2.0851614 3918:1.0887965 3962:1.7611028 3966:2.5782743 3972:0.42182639 3981:4.6390543 3984:3.2239938 3988:4.088944 3990:2.5480714 4001:3.3772097 4004:4.339303 4014:0.63968807 4016:1.3023907 4021:1.3253402 4032:0.30055833 4036:5.5708089 4038:1.008358 4065:1.0994442 4067:0.63735092 4072:2.1076105 4084:5.0900116 4085:2.1664469 4090:3.8787024 4091:1.5883433 
0.1530339001808968 3:0.18123989 19:2.4882667 26:0.086990461 27:1.4977534 31:0.16151871 39:6.5970926 44:2.1946797 68:3.736079 78:0.48200405 80:0.0065110251 83:0.62759823 88:1.2630732 94:2.990135 105:2.1137736 110:4.184268 118:0.26875192 123:0.18669766 128:2.0980787 140:1.1136116 145:3.1327291 147:2.84887 152:1.3658857 154:1.4426733 162:0.59817636 163:0.40778485 169:0.028225452 170:0.55724615 172:3.0009274 174:3.6184094 178:0.014540941 180:0.10606086 190:0.51021516 196:0.50482452 210:3.4915936 214:0.87994605 216:0.26151261 218:1.6910566 223:0.34657353 225:0.33043116 237:2.6981902 241:2.9110909 256:1.0091498 258:2.6411917 265:1.655284 274:0.016924409 288:1.5713602 302:3.9812837 303:0.99195725 309:2.7408116 312:1.105377 317:0.1423828 318:0.58789897 324:1.5717716 335:0.68386608 337:0.6890226 347:1.2622819 348:3.553544 358:1.7780631 371:0.1299029 376:0.075782478 381:1.3214183 382:0.63992178 387:3.6297133 391:0.68732589 412:1.0484319 414:3.685113 432:2.8468819 434:0.76127118 435:0.078466281 442:0.17212117 450:1.3330778 454:1.9243042 460:0.99858427 473:1.8625791 475:1.0837159 486:0.37704805 493:0.31028655 499:1.0613459 500:0.21617197 526:3.0403481 527:1.2722373 536:0.76895106 541:1.7145241 542:1.3396264 552:0.91338664 562:3.8405473 563:0.67335349 570:2.5790985 572:3.1454134 583:1.4389526 601:2.161366 618:0.27204388 635:0.2959719 639:2.7553885 641:0.46464989 654:2.2576187 657:0.74429154 659:2.48844 671:0.2851088 672:4.8753285 682:1.1633828 684:0.048380613 702:2.9652061 705:4.4012218 709:0.064344063 711:3.0917161 717:0.84937823 723:0.67285317 724:2.2704065 726:0.16011107 731:0.009960115 738:0.33941382 749:2.0067863 750:2.7381618 751:3.1545393 754:2.5018139 755:2.2901738 760:1.0008602 764:0.78626788 771:1.7584038 785:2.4587753 788:7.0580297 789:2.6849751 791:1.20432 796:2.3142641 798:0.14715201 802:1.1704358 814:4.439291 820:0.99511236 830:2.542053 833:6.443202 836:0.90945864 839:3.2763968 841:2.5391662 853:1.6842624 859:1.8827714 865:2.6240778 866:0.92999101 868:4.7067213 886:0.89615107 896:0.48134536 904:2.8266978 908:2.7356172 913:0.23301685 918:2.7085087 943:1.9057201 945:4.6410966 978:0.58430755 982:2.3850176 997:0.52475309 1001:1.1379251 1004:1.7693412 1013:2.9965434 1015:1.3557642 1018:0.95878428 1041:3.1019082 1042:0.26999521 1044:0.70681417 1053:1.8960195 1067:6.5736008 1070:0.4936353 1075:2.8693178 1077:3.2984068 1078:0.66096467 1080:0.56794071 1093:0.49818486 1096:4.5675116 1103:6.9498019 1105:1.8923875 1106:0.97848284 1111:0.19813241 1117:2.8333292 1159:0.88411456 1169:1.2205063 1170:1.8012569 1180:4.3642244 1182:1.6095933 1186:2.6410799 1188:5.0766635 1191:0.15308562 1206:2.6974502 1211:1.3079861 1219:0.011149228 1227:4.3707514 1236:6.9546442 1240:1.061499 1249:3.446353 1255:4.1561003 1257:2.6862986 1258:1.9730363 1260:0.94036901 1272:0.8238343 1274:2.970309 1277:0.4068881 1281:4.2279549 1295:0.19814201 1297:2.7856667 1309:2.9128103 1313:1.4745628 1328:0.633645 1335:2.924495 1342:0.38063848 1347:0.88793433 1352:0.69049776 1354:2.2621617 1360:1.0623555 1365:1.0843403 1368:3.2407169 1369:2.5972824 1376:2.9144228 1377:1.8085783 1378:0.23247793 1385:1.1271882 1386:3.430779 1396:1.8919921 1397:0.24664551 1401:5.4486976 1406:1.7008753 1409:3.0209742 1410:0.48913446 1412:0.071332157 1414:2.1117523 1416:0.39223957 1419:3.3606782 1424:1.9969027 1426:1.058521 1430:0.39823362 1433:0.75864601 1444:0.21993732 1447:0.7163074 1450:0.50665069 1452:6.9092102 1458:2.4937224 1466:1.2239516 1470:5.6131902 1471:1.854924 1484:0.39578617 1487:0.084228903 1495:1.0804257 1513:0.95437843 1514:1.671753 1515:1.4239497 1519:1.0763943 1520:2.7497983 1523:5.6698427 1526:0.52009469 1552:0.035079569 1554:2.239903 1556:0.42391789 1562:5.0374694 1582:0.3052212 1586:2.1448772 1590:0.77360988 1600:2.8066807 1605:0.40571779 1606:2.0193968 1613:3.0212581 1615:0.64181435 1618:2.0144966 1624:2.6138191 1625:1.1457381 1627:0.12483878 1629:0.96360415 1636:1.5901068 1661:4.0104194 1667:4.310039 1668:5.1054878 1675:1.3714194 1677:0.93813485 1678:1.1261063 1681:3.4200008 1683:3.0532529 1690:0.89432967 1695:0.34456444 1699:0.88290703 1703:2.395643 1708:2.4689136 1712:1.0246242 1713:0.53036523 1726:1.1270074 1758:3.7220576 1760:0.99982584 1763:1.1728364 1768:0.89707136 1782:0.15278447 1785:0.39956036 1804:1.5900357 1811:0.20517625 1817:4.8124924 1822:1.0988531 1825:1.6902711 1830:0.60985994 1832:2.1075408 1833:3.190829 1835:1.5934048 1837:2.4999268 1844:1.8210819 1846:4.0872903 1848:1.7918657 1860:2.4237669 1862:2.0224936 1870:3.3436267 1881:0.69056588 1890:0.7505551 1895:0.84769267 1912:1.9622691 1918:1.9438657 1936:0.20879598 1938:2.9671099 1943:0.54597199 1950:1.2581664 1955:1.6796852 1963:3.07004 1968:1.0955769 1990:3.6433721 1995:1.4057907 2000:0.38992694 2004:2.5813169 2009:3.0503438 2011:2.7016339 2012:1.0415564 2019:1.7359672 2028:0.27888492 2030:3.310679 2032:1.3475308 2041:0.18679669 2044:0.57163155 2048:0.22284898 2055:1.2069418 2068:1.8026216 2074:0.73342967 2079:1.4901199 2089:0.27271947 2102:0.3668516 2107:2.1294649 2113:0.8291617 2117:0.54234719 2130:0.04405123 2132:2.4876902 2138:2.8140237 2144:0.23213379 2154:2.6147094 2159:0.21250834 2164:0.19788969 2166:0.11932698 2168:0.79787648 2186:0.65361238 2188:1.7041794 2202:4.9713764 2206:2.1342068 2210:0.098507479 2223:0.37696809 2229:3.2640278 2241:1.182328 2253:1.607179 2254:0.92718506 2255:3.2056422 2257:0.61490482 2259:1.2264409 2263:0.58777601 2275:1.0171856 2278:1.2722919 2288:0.76888227 2302:1.1088454 2304:1.9221939 2311:4.9075742 2313:0.43677318 2314:0.025979966 2316:0.58587354 2324:3.3113987 2328:0.63734627 2329:1.3551216 2337:0.089686751 2343:7.7696414 2344:4.9289851 2348:1.7444024 2349:3.5070181 2358:1.1807836 2360:2.3994827 2375:2.2150371 2392:0.075896434 2393:3.211005 2396:2.2032611 2400:0.76569825 2402:2.1332555 2413:0.17642352 2416:3.1620584 2425:2.7352848 2431:0.99004066 2435:4.7912331 2443:2.0963943 2459:0.92512834 2470:0.38963729 2471:3.3759804 2477:3.4064331 2487:1.1355194 2503:2.4148264 2508:3.4590783 2509:1.3543382 2520:1.0961945 2526:0.19711377 2528:2.3903627 2531:1.2633547 2537:0.67787915 2559:1.2499499 2562:1.3846787 2570:2.0803146 2574:1.3504658 2589:0.56161493 2604:3.5469565 2620:1.3716249 2634:2.4412456 2636:5.0572667 2637:3.5568326 2639:4.6298485 2642:4.2123256 2647:0.47082713 2649:2.499975 2655:0.72519314 2656:2.9865415 2658:0.77011979 2669:0.62131512 2674:0.28775895 2688:3.526237 2692:1.1081938 2697:0.5528909 2704:5.2176638 2705:0.33111989 2715:4.7475019 2718:0.95897985 2719:1.4699483 2723:3.724966 2727:2.0230129 2738:0.57297683 2740:3.920017 2743:0.74000967 2744:0.067872941 2747:2.1518013 2751:2.2164917 2753:1.2145836 2759:1.3987286 2763:0.43263578 2766:4.6562243 2792:3.624522 2795:0.46740651 2796:0.42847934 2811:2.0434315 2816:4.7018137 2820:1.7529086 2821:1.3510723 2836:1.2530327 2838:0.36011577 2840:1.328871 2842:2.6935482 2860:1.3798213 2864:6.976902 2867:4.4069424 2878:0.3026191 2879:0.68701404 2882:1.131604 2893:0.42341822 2895:3.2692354 2903:1.4949224 2912:1.4693068 2913:3.3747029 2917:0.8463068 2920:0.86843371 2929:1.9154017 2931:0.0047180951 2932:0.48575187 2946:0.98889732 2950:5.7935901 2958:2.6571519 2962:0.076701373 2977:0.21297514 2979:0.91811252 2981:0.36362916 2986:0.051170409 2994:0.41269177 2995:2.016881 3011:1.4932127 3012:1.553064 3018:2.9418926 3019:0.28249502 3020:0.035966657 3033:0.30755162 3048:1.1783984 3050:1.2146747 3051:0.2294856 3059:4.8227644 3061:1.9110453 3065:3.2741146 3075:0.46021813 3081:0.6507529 3130:0.12539357 3135:0.3384901 3145:1.3344667 3148:1.0119359 3152:1.5285022 3154:2.5612881 3163:7.0189414 3164:2.2752628 3169:0.72646523 3170:5.7428036 3172:0.16675739 3175:0.87404644 3179:0.18097012 3183:1.221671 3195:0.73464817 3198:1.0345317 3200:1.962464 3210:1.5625278 3214:0.48989481 3235:0.020803094 3240:2.479758 3247:2.138803 3249:0.59427708 3252:5.2589903 3253:6.9118843 3256:3.142312 3260:2.1485589 3278:1.032993 3287:1.1179247 3291:1.9853815 3294:0.73867345 3298:1.2984154 3299:3.6207407 3300:0.21278882 3310:1.496639 3321:0.41440856 3327:3.7541549 3334:6.7860446 3348:0.089181334 3349:0.12932266 3351:0.54116672 3354:3.6082656 3361:1.7891345 3364:0.65728468 3387:0.82161653 3404:4.4164085 3413:0.51514447 3418:4.6924047 3437:1.9014909 3438:2.3206418 3446:0.67812675 3451:0.83421767 3457:1.7700799 3459:1.3421899 3468:0.57004899 3470:0.77501488 3471:2.7712429 3478:1.9349297 3491:1.5454173 3494:1.9581269 3508:1.6732852 3535:2.6838899 3536:2.812078 3548:0.12210494 3549:1.0956475 3552:3.694011 3554:0.43575004 3560:1.279304 3562:1.6588976 3568:0.25627589 3569:4.5372138 3576:0.71111315 3582:4.9008541 3593:2.7803159 3595:0.45575601 3603:0.72105306 3608:1.6327465 3614:4.6895976 3623:0.5499717 3626:2.5497994 3627:1.1724408 3629:3.684047 3650:5.6268487 3654:0.40903747 3668:1.9430304 3681:0.93015236 3687:0.070610009 3690:3.1767371 3711:0.03596434 3717:0.21962677 3719:1.1045276 3732:4.3447852 3737:1.4165338 3751:1.6468784 3752:4.5892034 3767:2.9460366 3769:3.5859823 3783:0.74579489 3789:2.8735228 3795:0.86807305 3797:0.950068 3802:4.9914436 3808:3.1111016 3813:2.4050059 3815:1.5131603 3824:5.1963739 3831:5.0872655 3836:5.3125844 3844:1.6235778 3845:1.6830221 3860:2.8531036 3869:3.1418667 3871:2.4270825 3876:1.7722701 3881:1.5077696 3882:0.65654504 3885:0.87263072 3888:0.41371334 3891:0.22844785 3892:0.28544033 3893:1.4145778 3907:2.9120793 3912:1.4929152 3918:2.5653002 3926:1.9747564 3962:1.3805935 3963:1.8850949 3966:4.0846243 3969:0.3972396 3972:3.6264777 3981:4.3094368 3984:1.3922794 3988:4.2005138 3990:1.2405405 4000:0.70981717 4001:2.0635135 4004:3.5770173 4011:0.18400332 4013:1.5467734 4016:0.64992237 4021:1.5450552 4031:2.7220583 4032:0.27514648 4036:0.66013348 4038:1.6665803 4051:0.72133803 4059:0.07956285 4072:0.60189784 4076:0.30520061 4084:2.5280433 4085:1.4076607 4090:4.4198093 4096:0.26557317 
0.4383572930533445 3:0.71539021 19:2.3581529 26:0.63063139 27:2.3591678 39:5.7834845 44:3.0845966 68:4.7910862 78:1.0289705 80:1.9331713 94:2.1891835 105:2.6329365 110:1.1836138 118:0.083680809 140:1.178933 147:1.7745602 153:1.9084216 154:1.2722384 159:0.67098975 163:0.68163425 165:2.974165 172:3.555186 174:3.1792262 178:2.26367 180:3.2364588 190:2.2816274 196:1.3288748 210:3.6325567 217:1.8888041 221:2.2710752 232:0.92269039 237:1.0953757 241:1.0872333 256:0.97033316 259:1.8900762 265:0.1772577 288:1.6130958 301:2.4810317 302:5.5249772 312:0.2741107 317:1.1661156 335:0.23612241 347:0.93414468 348:1.7649809 350:0.16689952 358:1.511044 359:2.1687007 363:2.1348846 365:2.3421853 367:0.11561053 374:1.4879156 378:0.76150751 379:0.16443697 391:1.309742 397:0.50658607 412:0.19095108 414:3.0386066 432:2.1079655 434:1.8966311 442:2.1057701 454:2.0911007 460:1.7624497 473:1.3072333 482:2.6549797 485:0.66080195 499:0.55222601 517:0.20356849 521:0.43835378 526:1.776078 527:4.3897204 552:3.4846561 562:5.5760736 563:0.41873491 564:1.2269534 572:1.6009694 601:2.4617302 618:0.37063566 639:0.029536843 642:0.83495247 654:0.90282619 657:0.52965385 659:2.1809611 671:1.6545261 672:4.7056923 675:2.3507366 682:3.0835593 702:2.9846823 705:4.7322512 711:3.0073063 717:0.5576362 720:1.954952 723:1.0364625 724:1.124068 726:0.86958861 728:1.0076779 738:2.0536118 749:7.0469761 750:3.8569891 751:0.87219656 754:4.5735745 755:0.9422043 759:0.020018876 760:2.0705283 764:1.7034776 771:0.6831407 773:3.7453811 787:0.76126558 788:7.0250511 789:3.3408756 791:1.4276687 796:2.5415189 798:1.8375379 814:0.72503114 820:0.98401141 826:1.0497645 829:1.6754169 833:3.9417417 839:3.5123937 841:5.3847065 857:2.3634531 865:1.103693 866:0.25875708 868:0.55616051 895:1.4311444 899:1.1219071 904:3.449228 908:3.1568506 916:2.4926245 918:0.18311813 928:2.0348277 935:0.061115891 943:1.6319202 944:0.74408078 945:3.3782408 958:0.13141012 982:2.3959293 997:0.0349565 1004:2.6575108 1013:0.40418646 1015:0.15900442 1018:0.70418316 1028:0.16247571 1034:1.2735779 1041:2.248596 1053:0.29934818 1065:0.3636508 1067:0.75581455 1070:0.85340953 1075:0.11827448 1077:2.7978888 1096:3.8821542 1102:0.041591018 1103:4.6782231 1113:0.041330308 1139:1.7308706 1159:0.47885162 1165:0.93603802 1170:6.6737456 1179:1.2593995 1180:4.2490168 1181:1.265988 1182:0.74776292 1188:2.9357848 1201:2.4572668 1206:3.082027 1219:3.7279007 1221:0.086006373 1224:0.2244243 1235:0.6482532 1236:4.4865918 1249:0.889229 1251:0.41960281 1255:0.94887966 1258:0.13889281 1260:0.14576496 1272:2.1023345 1274:3.3404925 1281:2.8218162 1288:0.89281845 1302:0.66302282 1309:2.5032296 1335:2.9393983 1337:1.9906793 1341:2.6768413 1342:1.3756151 1357:0.64578378 1359:0.41211656 1368:1.5321934 1369:2.9987726 1376:3.2439187 1379:0.51224047 1385:0.52410793 1386:3.2030787 1397:1.9061605 1400:1.5304494 1401:5.3904829 1406:0.59296197 1409:0.36121365 1419:7.6053405 1424:0.14018065 1426:1.1682806 1429:0.82641238 1430:1.9085882 1435:0.9486655 1444:1.5138133 1450:0.96228069 1452:2.8415461 1457:1.3944814 1458:3.5478268 1466:0.36195427 1470:7.2329979 1503:0.23437026 1513:0.079319477 1515:2.7268753 1518:0.47218078 1520:5.6393709 1522:0.19076842 1523:3.187283 1526:0.13512477 1552:4.4846773 1554:0.52633631 1560:2.9392364 1562:4.903553 1568:0.74660563 1582:2.8531778 1590:1.6353707 1600:2.7663896 1605:0.38829038 1606:2.54339 1613:3.1690817 1615:4.3474317 1616:1.0397381 1618:1.1293397 1624:2.6612787 1629:0.19189766 1636:5.938343 1654:0.53224999 1661:2.7725458 1663:1.4017538 1667:3.7277706 1668:2.9794855 1675:0.78690666 1677:4.2497501 1678:0.61673439 1681:1.3142369 1690:0.37913465 1695:1.8358314 1701:0.71184945 1703:0.31378913 1710:0.43240666 1726:3.201968 1730:0.91955012 1733:0.30176896 1737:0.18675424 1758:5.1410761 1762:0.62559783 1766:0.13562316 1799:0.57891035 1804:2.429919 1811:0.57948267 1814:1.9993143 1817:0.50217992 1822:4.0723214 1824:0.13287631 1825:0.13468966 1832:4.2560859 1833:2.600369 1837:3.5519202 1843:1.342634 1846:3.972836 1848:0.68416309 1854:2.1432786 1860:1.6264151 1881:0.63767606 1890:1.1573188 1902:0.056293942 1912:2.1589084 1918:0.16591504 1938:2.4907846 1943:2.2273259 1950:3.392689 1951:0.52269119 1955:0.80305481 1959:0.88565892 1990:1.6301469 2004:1.5437033 2011:1.9302505 2022:1.649425 2030:0.60175377 2032:2.7165797 2055:1.5294583 2065:0.75547421 2068:3.8302605 2085:0.539455 2105:0.71871507 2107:0.98325491 2113:1.5503879 2117:0.1621322 2132:1.861944 2137:0.41637608 2138:1.6192057 2156:1.6833252 2159:0.96933055 2160:1.6824982 2163:0.35305935 2166:0.98669732 2186:1.1594765 2187:1.5503651 2188:1.7936908 2199:0.34041998 2202:7.341023 2203:0.89816785 2206:2.4692402 2210:0.078169361 2214:0.056489766 2223:2.9940379 2229:2.3865004 2238:0.66008604 2241:2.4996862 2253:1.39343 2255:1.1887935 2259:0.41602969 2263:1.8683349 2275:0.44693571 2282:0.38706237 2286:0.91502774 2288:2.3789887 2307:0.6477744 2311:3.5422721 2313:0.84648025 2314:1.4646704 2318:0.71845865 2322:2.5680079 2324:0.60890818 2328:0.356511 2329:3.2522159 2337:0.94056028 2343:7.1048207 2344:3.8570087 2348:2.0144095 2349:1.2568516 2360:1.7687898 2361:0.6335296 2375:2.4457924 2392:0.82285023 2393:4.8889027 2400:2.5317516 2413:0.78580439 2416:2.9367552 2420:1.0728626 2425:0.19842392 2431:0.18630823 2435:4.3946733 2443:0.39601111 2453:0.29829097 2458:2.4113219 2459:0.52494615 2471:3.831316 2477:0.73012578 2487:0.74035674 2503:2.191499 2508:1.3598818 2520:2.6342885 2528:2.4332874 2537:1.8205777 2545:0.43717965 2559:0.39533746 2561:1.4285213 2562:1.6296673 2563:0.18374372 2570:3.3792253 2574:1.2256589 2578:0.50073445 2591:3.5842175 2595:0.56052417 2604:3.3545997 2620:2.3504229 2625:0.90008277 2628:0.073624305 2634:0.62154424 2636:4.1575294 2637:1.174823 2639:4.7437754 2642:3.1615207 2646:0.57375228 2649:2.4774508 2652:1.2035331 2655:1.2829571 2656:1.2395015 2658:2.1383719 2667:1.308887 2674:0.57299119 2676:2.22999 2688:3.6508551 2695:0.27080795 2704:1.8597672 2705:1.1881959 2708:0.24769795 2715:5.2349405 2718:3.5140193 2719:0.35140133 2723:3.8375657 2727:2.5435548 2736:2.1204898 2743:1.386103 2744:0.88633716 2745:0.19422586 2753:1.1150362 2759:0.21058609 2763:0.069359288 2765:0.77338928 2766:1.7427573 2792:4.9303603 2795:1.9758658 2796:0.52370447 2802:0.40042663 2805:5.5596914 2811:1.7140598 2816:3.3975234 2820:2.2651699 2821:3.7266729 2838:0.7685113 2840:0.90918911 2842:4.4874272 2857:0.0010000933 2864:6.3998141 2867:1.8322438 2878:1.7619168 2879:1.142411 2882:0.97576618 2892:2.2703955 2893:0.26186422 2896:0.88500595 2901:0.89594495 2912:2.9122512 2913:3.6844521 2917:0.36070311 2929:1.0892305 2936:1.5184541 2958:0.22051744 2964:3.6621623 2971:2.5583336 2974:1.741997 2977:0.1904324 2978:2.116864 2981:0.030214131 2982:0.70178318 2994:2.2690055 3011:1.3243778 3012:1.8229115 3018:2.6179218 3046:1.3045605 3050:0.24225846 3059:3.899523 3075:0.71943182 3087:0.1188549 3148:1.4993348 3152:2.6544635 3154:2.3335555 3163:6.0178013 3164:0.29330191 3170:2.6864772 3172:1.0644983 3179:1.9556711 3182:1.9349988 3183:3.0366759 3198:0.42651302 3200:1.3912928 3226:0.4040553 3247:0.55527884 3252:1.0015231 3253:3.0464208 3256:2.6749313 3260:1.5430663 3291:1.5085465 3294:2.7962279 3298:3.5387299 3299:2.1963847 3307:0.3965866 3310:3.6067407 3321:0.41075397 3334:3.7078359 3348:0.6696198 3349:3.3847747 3351:1.1029032 3354:2.7750223 3381:0.7524035 3387:2.5664318 3390:1.779146 3404:0.66379333 3411:0.85977674 3418:4.2405677 3437:4.2244291 3438:1.6863642 3445:1.9289602 3457:0.1594353 3458:0.24962395 3468:0.98560214 3471:3.3395007 3475:0.057756662 3491:2.5210378 3494:3.6541405 3496:0.023581758 3508:0.54825485 3526:0.15478957 3534:0.029136121 3535:5.5995569 3536:2.2727749 3537:2.5080676 3544:0.25035095 3548:0.19746116 3554:0.40163529 3562:0.99853975 3569:3.7832026 3576:5.0327229 3582:7.9562235 3593:1.0013573 3598:1.3279643 3608:5.0793505 3619:3.2055311 3621:0.068580508 3626:4.8273644 3627:5.7979259 3629:1.0213654 3632:3.3024273 3633:1.9725292 3635:0.47665098 3650:4.9103312 3654:1.8801057 3668:2.0515079 3681:2.5819893 3690:3.9565959 3697:0.26016638 3711:1.520272 3717:2.145138 3719:1.5712891 3728:0.15185958 3732:2.2062223 3752:3.8434114 3756:0.31175068 3767:3.6833427 3769:0.48588341 3783:1.2309635 3785:0.96046817 3789:1.6486653 3795:0.55515152 3802:4.7304301 3808:2.6933753 3811:0.52106267 3815:0.11427617 3824:5.5193963 3828:0.21131337 3831:0.6097303 3836:3.3431444 3845:0.49727753 3849:0.7165972 3860:3.8209467 3864:0.021041602 3869:1.9484751 3871:3.4788804 3881:0.67336786 3885:0.71059227 3888:3.6579804 3889:0.74321353 3891:1.4515544 3893:0.78661549 3901:0.18216479 3907:1.8007245 3910:0.28295943 3918:1.8105949 3926:0.63587725 3929:0.50150943 3957:0.12770616 3962:0.98610705 3966:3.1554911 3969:0.26299396 3972:3.5202403 3981:5.1095872 3984:1.3562481 3988:3.2867966 3990:0.70057279 4000:0.65716791 4001:0.82019514 4004:3.4066219 4006:0.57699192 4011:0.62280309 4013:0.92953789 4016:1.7465588 4021:5.5575252 4031:0.054334849 4032:3.6077745 4036:1.8813169 4072:0.44769016 4076:1.3675047 4081:0.94352728 4084:2.7756093 4085:1.3127184 4088:1.1428735 4089:1.2081745 4090:4.041791 4091:0.81273913 
0.4221766396960915 14:0.89447856 16:0.80451566 19:0.0245784 26:0.44836712 27:1.8702084 39:4.309145 44:2.2314687 45:0.64714718 68:3.6381691 78:0.96420908 80:0.368332 94:0.91769683 105:1.8003834 110:0.39423394 140:2.1511133 152:0.61044043 153:2.1927667 159:0.87487346 163:0.62001258 165:1.3544649 172:1.5334036 174:1.9253285 178:2.8186917 180:4.3828583 190:0.65697938 210:1.3600352 217:0.66200864 221:3.3365533 223:1.1757677 232:2.7458632 237:2.0304861 241:1.329676 256:1.4161744 259:1.2029183 267:0.39181343 288:0.58709621 301:0.10258928 302:4.7437372 315:0.49733999 317:2.0527225 335:1.7150245 347:2.7029271 348:0.85192394 359:3.125459 363:2.7534778 365:1.4142182 374:2.0442359 378:1.8366399 391:1.1071541 397:1.6086638 414:3.8048484 416:0.25048512 432:2.9443212 434:0.52870828 436:0.20168278 442:0.85466844 454:2.7274456 460:1.4551592 473:0.10208195 482:1.5972517 514:0.40441081 521:0.44282067 526:1.3520373 527:4.4703197 552:2.0273213 562:3.5766003 563:2.8791392 572:0.15769471 601:0.46019578 618:0.098963633 642:1.9121982 659:4.0183558 671:1.8145072 672:3.7977703 675:1.7035289 682:0.50432473 702:3.4058027 705:3.6033661 711:0.94021761 720:2.2945521 723:0.54271883 724:0.43112791 735:0.74589491 738:3.3209567 749:6.7899351 750:2.4214261 751:1.1309954 754:5.1936774 759:0.32784283 760:1.9456327 764:0.62612987 773:1.993746 780:0.86127484 788:4.1901202 789:3.4128911 796:1.4178038 798:2.7890644 826:0.16214596 829:1.8948896 833:2.4399676 839:3.0569186 841:4.4964519 857:2.2825894 865:0.69289196 868:0.588148 869:0.30745286 895:1.233434 904:3.621845 908:3.9221144 912:0.022039622 916:0.91292393 944:1.9611852 945:3.2194848 968:0.43261269 978:0.059153765 982:3.1912777 985:1.5599024 1004:1.8194804 1034:1.8562446 1041:0.76913226 1042:0.53579217 1047:0.45126051 1053:1.2415686 1077:1.518914 1078:0.027938604 1095:0.0067178011 1096:2.5626509 1102:0.46707499 1103:0.3197034 1139:0.95381784 1165:1.9054651 1170:5.3938985 1176:1.2403848 1179:4.2745118 1180:4.3406754 1181:3.5478954 1184:0.32477301 1188:0.082114287 1201:2.470027 1206:2.2746673 1219:2.9402759 1224:0.041191548 1235:0.8063767 1236:1.5436108 1255:0.050322831 1260:0.18578261 1272:0.093023539 1274:2.6924946 1281:2.9626126 1291:0.32417786 1302:1.4277387 1305:0.22819653 1309:3.427247 1313:2.0395656 1332:0.39430761 1335:1.1047103 1337:3.5638013 1341:0.98297369 1342:0.30735683 1357:0.88544035 1359:1.2875854 1369:3.9195485 1376:1.7160923 1385:0.79704118 1386:3.1020448 1397:1.2075286 1400:0.77335691 1401:5.0237088 1406:1.4493035 1419:5.4978337 1426:0.98492986 1429:0.18145454 1430:0.23342371 1435:3.8655062 1444:6.0902724 1452:2.6969211 1457:0.81315827 1458:6.1724858 1469:0.42901921 1470:9.5126209 1480:0.23669527 1515:2.8542871 1520:4.5504289 1523:1.938555 1552:2.7832603 1554:1.5692753 1555:0.57931685 1560:2.985019 1562:3.9040809 1568:1.5976031 1571:0.31007153 1580:1.0017755 1582:0.89797527 1588:1.3862876 1590:2.178535 1595:1.8160819 1600:2.5083463 1606:2.9472229 1613:3.239177 1615:4.4234438 1618:1.9009869 1624:1.0405166 1636:6.3068771 1654:0.76447427 1661:1.3591865 1663:0.63609201 1667:2.9088435 1668:1.6610162 1675:3.2410996 1677:4.8966136 1681:1.5584922 1690:0.33766875 1695:1.4816829 1701:0.97626972 1710:0.36829445 1726:2.8811042 1730:2.0448842 1737:0.25863785 1756:2.2816885 1758:2.5414133 1761:0.38419026 1766:1.7081468 1768:1.1790045 1794:0.17587474 1804:0.14858976 1812:1.530407 1814:2.7965932 1817:0.27168044 1822:3.9826114 1830:0.085272461 1832:2.1572406 1835:0.11688662 1837:1.7347112 1846:2.55831 1847:0.96389306 1854:0.78773463 1856:0.56889349 1860:3.5441508 1865:0.29689837 1881:1.7062671 1894:0.50756812 1902:0.086424224 1938:0.017830849 1943:0.31722629 1950:2.4792483 1959:0.86639345 1974:0.76711619 2004:1.1165293 2011:1.2972653 2021:0.24814197 2022:0.18895368 2030:0.16084838 2032:1.1770301 2042:0.15270084 2065:1.0171195 2068:2.0680037 2079:0.82801414 2083:0.3950125 2105:0.01440277 2113:0.85168332 2120:1.2344297 2137:2.8822107 2153:1.3593159 2156:1.7016559 2160:2.0092361 2166:1.403429 2187:3.3582318 2188:1.2633305 2199:0.51731777 2202:6.4360957 2203:0.50227708 2206:2.2630632 2210:0.010148332 2223:1.8621585 2229:1.4289533 2239:2.0168288 2241:0.64311111 2250:1.8810736 2255:0.80660272 2263:0.22486909 2286:0.16506702 2288:0.97690505 2311:2.4920774 2314:1.6177323 2316:0.63937593 2322:3.6247666 2329:3.8139496 2343:3.4462423 2344:3.644098 2348:2.7005689 2360:2.53707 2361:0.70617294 2375:0.40889335 2393:3.9464817 2400:0.58747566 2413:1.480638 2420:1.7363887 2431:1.0139034 2435:1.7691796 2446:0.4493188 2453:0.65555435 2458:6.496253 2459:0.51045406 2471:2.3852577 2479:0.34044704 2487:0.18011215 2503:3.7877319 2509:0.60343844 2520:2.6150272 2528:2.2585521 2537:1.6992292 2558:0.79099739 2559:0.39340663 2561:1.431401 2562:0.77847731 2570:4.4303241 2574:0.16208267 2576:0.36462206 2578:1.1443732 2591:5.8633327 2601:0.92989051 2604:2.9836469 2620:2.8479195 2630:0.58299965 2636:2.1786048 2639:5.0717592 2642:1.0404552 2649:3.3174498 2652:1.2587892 2655:0.86386847 2656:1.6326565 2667:0.011390865 2676:2.1936712 2688:3.1103952 2695:1.9201849 2697:0.6376847 2704:1.2783344 2705:0.30445582 2715:5.3861432 2718:3.7487242 2719:0.84845638 2722:0.18929519 2723:0.80852515 2727:1.6003057 2732:0.056504458 2736:2.1313415 2743:1.956225 2745:0.68241388 2753:0.078911126 2759:2.4634218 2763:0.073406026 2765:1.3481956 2766:2.5468831 2768:1.3215257 2792:3.8586838 2795:0.36421573 2796:0.57052857 2805:6.10045 2811:2.1993511 2816:4.7063837 2820:0.60585129 2821:3.767931 2840:3.5358036 2842:5.1142807 2857:0.58461672 2860:0.080965772 2864:4.6123724 2867:1.9141282 2878:0.22234127 2879:0.36885902 2888:1.2986784 2892:0.66758567 2893:2.0313973 2896:3.7486269 2901:2.4207344 2912:2.3871858 2913:1.6344562 2917:0.34209314 2957:0.46723628 2958:0.96031046 2964:4.3931246 2974:1.0475609 2978:2.7280183 2979:1.4076936 2994:2.0862203 3018:2.2429743 3033:2.3345306 3046:0.56587648 3059:2.5033658 3065:1.1048722 3075:0.024029553 3087:0.97856498 3152:3.3439481 3154:0.82167262 3162:0.10292792 3163:4.9262834 3164:0.12135208 3170:2.2251399 3179:4.2459974 3183:2.3132067 3200:0.15486711 3226:0.94165349 3242:1.0104592 3246:0.16311671 3247:0.60891247 3251:1.0247548 3253:3.1446435 3256:2.6029718 3260:0.90848613 3291:0.7903527 3294:2.6012859 3298:2.3661275 3299:0.75373626 3310:2.7812028 3334:2.9146376 3349:4.1592093 3354:4.158072 3377:0.94808716 3381:1.0189328 3382:0.28528455 3387:2.3269355 3404:1.0847094 3413:0.12249588 3418:2.054723 3437:5.6406646 3438:0.12620157 3445:2.7611418 3471:1.6045432 3491:2.6536198 3494:1.912469 3496:0.49921378 3526:1.2113476 3535:4.5581951 3536:3.2200313 3537:1.7512611 3554:0.55423611 3569:5.4676113 3576:5.2674084 3582:7.7435617 3586:1.5998379 3593:0.22721742 3598:0.44216952 3608:1.800794 3619:4.5207453 3621:2.4843118 3623:0.21733555 3626:1.0236094 3627:4.2648244 3629:1.9729183 3632:2.2040977 3633:1.1242218 3650:4.1603303 3654:1.0881199 3668:1.9626412 3678:1.5183873 3681:2.2630394 3690:2.4731259 3711:1.9493968 3715:1.1440946 3717:2.1396821 3719:0.68867773 3732:0.92119783 3752:3.6950245 3756:0.78860736 3757:0.27505016 3767:3.1560028 3785:0.19843394 3789:0.68122339 3802:4.2714367 3803:1.12094 3808:2.6956606 3810:0.47725895 3824:6.5397525 3828:0.91466665 3836:2.079165 3849:1.6828055 3860:0.1385442 3864:0.44471627 3869:1.8143306 3871:1.9681623 3881:0.50564814 3883:0.42312145 3888:5.1672158 3891:0.21538708 3901:1.5652742 3907:2.8699892 3910:0.10605633 3929:0.60566294 3962:0.33710474 3963:0.50851309 3966:3.9196138 3972:1.2140273 3981:5.0786214 3988:3.0331917 3996:0.30434585 4001:0.34028649 4004:1.1869456 4006:1.5311376 4013:3.7376475 4014:0.46198267 4016:0.24012353 4020:0.42174345 4021:3.8585806 4032:1.4023063 4034:0.99383807 4036:2.4741032 4050:0.25317913 4063:0.29493001 4067:2.4770157 4076:2.7626629 4084:3.1598554 4085:0.93534994 4090:1.6441479 
0.5051258461278382 16:0.1925105 19:7.1665654 26:0.97721732 39:5.3336048 44:3.5054641 68:3.0733223 94:0.085300505 105:0.31209677 108:0.92666548 128:3.5307202 140:1.9903479 147:2.2064352 153:0.17480597 155:0.50681078 157:2.0756083 159:1.1659118 163:1.8372295 166:0.77153635 178:3.1293144 190:4.3442168 199:0.040152252 214:0.83627456 217:4.1149135 223:1.3627449 232:3.6350996 237:1.6361632 258:6.2640481 259:6.6073041 276:1.8871135 283:0.77471232 288:4.9877462 290:0.49183902 302:0.34361607 317:0.90056628 323:1.2640542 326:2.6470284 342:3.125828 347:2.3883626 348:4.4594774 349:0.85663211 359:1.2868472 363:1.3858171 365:0.85572636 372:6.3209834 381:1.3293499 388:0.15674667 391:3.8483665 393:0.71694249 397:1.9677396 414:3.4697204 421:4.4714561 432:5.498498 434:1.6155394 436:1.9634898 442:1.5076076 454:3.8350906 460:4.209363 473:2.3239584 482:7.3853197 485:0.33004856 493:0.48509976 504:0.87084079 509:0.23543179 514:2.9922035 517:1.4370981 518:0.25949338 521:0.68772972 541:2.472095 543:1.426152 560:0.12367049 562:7.5173693 563:1.4440789 593:2.5088212 607:0.73831511 637:0.063823342 639:3.1528437 640:1.9226301 644:3.154711 646:0.30503795 648:1.2126336 671:6.7118387 675:1.0637145 676:0.27460179 681:3.1891301 682:0.81219321 684:1.5801238 698:0.47067213 702:0.56074035 705:0.85533899 711:0.97451937 717:0.74148977 723:0.046464622 724:2.8865836 728:0.94465852 731:0.18815358 735:0.0061092973 736:1.7438598 739:0.94329715 748:0.23045708 749:0.59855562 750:5.8580933 751:3.588208 754:2.1754725 771:0.67743093 780:1.2156112 788:2.8550265 789:3.020771 791:0.3802872 796:1.7595606 798:2.1676717 802:0.44939607 813:2.1219959 816:0.47755763 819:0.50789928 830:0.49566916 833:0.54932946 839:2.2266502 841:2.0154197 857:1.3533975 878:1.6358467 886:0.87585044 895:6.1768398 902:0.79026365 904:3.2625756 908:4.2052817 912:3.034399 916:1.8632501 922:0.61751306 933:0.19622752 943:0.32625276 945:5.7123551 966:3.0546887 982:5.0816913 985:0.67676497 993:1.8000232 998:0.33744904 1004:3.7147651 1013:0.869129 1034:0.9220317 1041:2.6783948 1053:1.8076155 1059:0.6507206 1067:0.66535628 1070:1.3034689 1078:2.9757192 1095:0.72019321 1096:1.1971912 1139:0.74370247 1159:0.58443922 1163:0.11197737 1169:1.310109 1170:1.5807174 1180:3.3103321 1181:0.2831696 1184:2.2948668 1186:1.7216786 1194:0.5375632 1211:0.58862823 1234:1.4282926 1235:1.2263124 1236:1.1412836 1240:2.8422267 1242:4.4484758 1249:1.0769541 1250:2.166244 1251:3.0220666 1260:3.4036436 1272:2.2133589 1274:1.4532259 1281:4.6157017 1288:0.8525039 1291:7.9860468 1295:0.74928141 1299:0.47513935 1302:4.881639 1309:9.3991327 1329:2.9592352 1332:2.445302 1339:1.7399087 1341:0.70606458 1342:0.76520312 1356:1.9112804 1357:1.8505533 1369:1.0311078 1374:0.011755854 1376:1.0989628 1385:0.97389913 1386:4.5082564 1400:1.8607521 1401:2.3327179 1406:1.4168577 1408:0.47212666 1409:1.6210417 1411:0.1948662 1414:0.95293742 1415:0.11238131 1419:4.2129126 1426:1.9364935 1430:0.99515182 1435:1.692273 1438:4.9992929 1444:3.6098554 1452:6.1104336 1458:2.6717579 1463:0.32715333 1469:1.304463 1470:5.2760143 1472:2.4543161 1479:3.3114948 1486:0.20582916 1487:0.61415648 1515:3.2050488 1520:0.30163905 1523:3.6473291 1554:5.8387299 1555:1.5602837 1556:0.65329051 1560:0.10622811 1562:2.9217138 1563:0.40630263 1568:1.6283896 1580:4.4695983 1582:0.49510694 1586:2.381398 1590:1.548944 1597:0.70643556 1600:1.8766299 1606:2.2838283 1613:4.4293075 1615:5.3504725 1617:1.0922731 1629:2.3043358 1633:1.1454281 1636:2.4797206 1663:1.3975221 1667:4.6954641 1668:3.6631682 1675:8.8137255 1677:0.75588214 1686:0.34156066 1690:1.8654146 1699:1.907088 1701:0.35058799 1704:2.6276758 1718:0.63824069 1726:0.19527204 1727:2.7069259 1730:3.7080691 1742:0.37493449 1753:0.064439237 1756:1.1223456 1758:0.97030514 1764:2.25441 1766:0.67657959 1768:0.61792696 1781:0.68583888 1782:1.3887459 1784:3.2535574 1795:1.2939805 1805:1.5859432 1822:5.3141236 1823:0.651564 1833:3.01759 1835:2.1760867 1836:2.5689633 1840:2.2113314 1846:2.3433549 1847:0.25486934 1848:2.5170965 1852:0.091691732 1854:3.0686159 1855:0.076698631 1860:5.4994783 1865:1.9805915 1881:0.45895457 1882:0.55478537 1891:1.2172732 1894:4.0301418 1895:0.84285033 1902:0.8873207 1904:0.94348454 1918:0.35900486 1926:1.6893237 1943:4.0468869 1948:3.9693344 1950:2.6666403 1972:1.2026925 1978:3.9309113 1995:1.7669649 2000:1.3159342 2006:3.4753325 2011:2.6027339 2012:3.193929 2021:3.3493063 2028:0.09303119 2034:0.32117045 2042:3.1592453 2055:1.3870111 2074:2.3663538 2075:1.7651728 2083:0.58297271 2102:0.49530208 2107:5.7644501 2113:2.9580173 2120:1.8566556 2125:2.537925 2137:1.932893 2153:1.3396175 2159:0.55152416 2164:0.70122123 2168:4.2547226 2177:4.020874 2187:5.2498465 2199:2.9360008 2202:11.270993 2206:3.3740275 2216:0.81585151 2223:3.1493392 2229:3.6156776 2236:0.80947626 2238:0.12309872 2241:0.92881137 2253:1.6718625 2254:2.1324213 2255:4.7183409 2286:1.2757056 2298:2.1477075 2311:5.7009349 2313:5.7031007 2322:5.4453263 2329:1.0263782 2343:0.96014893 2349:3.8315973 2353:2.0228224 2355:2.1655457 2360:2.1404254 2375:3.5657747 2378:1.0025973 2379:0.48159266 2392:1.0896027 2393:2.4728372 2413:0.25346693 2415:0.048365444 2420:0.27264202 2435:2.1476994 2442:1.9770378 2443:2.6256676 2459:1.982517 2471:1.563749 2487:0.81089723 2493:1.2030702 2494:1.5367665 2498:1.6311212 2503:0.7724458 2516:0.88521576 2520:1.476786 2521:1.4576081 2526:0.67358935 2527:1.698789 2528:0.011263356 2532:0.62191784 2537:1.1752688 2562:2.3783131 2563:0.6849581 2566:0.090168536 2568:1.4443504 2574:2.3152432 2576:2.5790961 2583:1.4991345 2591:1.8566623 2598:3.0388646 2601:5.1993661 2604:4.0809908 2608:0.30302873 2611:1.0343974 2620:0.90275872 2630:0.97729164 2636:5.2316756 2639:4.1285601 2649:2.8833208 2651:1.3614397 2658:2.8533287 2667:0.16081464 2679:0.23562172 2687:1.9176538 2688:1.2089645 2689:3.742878 2690:1.4881239 2695:2.1868782 2697:4.3196049 2704:4.0590534 2705:3.6675625 2707:0.64821988 2708:2.6570864 2715:5.0248733 2720:1.3309641 2722:3.1504893 2723:2.9802544 2727:3.000421 2743:3.623385 2753:0.50039947 2765:1.8618124 2766:0.40000743 2778:0.29510784 2792:2.898227 2795:1.1229339 2796:1.3076308 2811:1.0895398 2820:2.4018157 2821:0.5425204 2833:1.6096431 2840:6.8716931 2842:4.3497233 2864:9.0714474 2867:3.1109719 2880:1.9976945 2888:2.3023195 2893:7.0463796 2903:1.6706697 2910:0.97530973 2912:0.71811533 2913:2.2094805 2917:0.16434555 2920:0.83082801 2957:0.032554895 2964:4.9823594 2978:0.57557523 2979:0.21506524 2986:0.89502239 2994:6.4988923 3010:0.46126071 3012:7.3660045 3019:2.1294012 3027:2.4490106 3033:0.29869136 3046:3.0779724 3049:0.36833209 3052:3.4232304 3059:0.30420378 3061:1.3163967 3076:0.069036245 3087:0.26447713 3094:0.2521303 3119:1.7655635 3129:3.8190022 3133:1.3013726 3139:2.0051887 3149:4.2785859 3152:5.5059266 3163:4.7757797 3164:1.3739259 3170:0.7222181 3179:8.5774078 3183:0.83403212 3200:3.1911671 3210:1.6709574 3220:3.2125285 3231:0.11897966 3233:0.65036011 3246:0.44450644 3247:4.172946 3252:5.0697947 3253:0.22199774 3275:0.31858394 3291:2.7340059 3298:0.55930901 3310:5.8737926 3319:0.80986178 3327:0.29195821 3334:6.6659803 3348:2.0657473 3349:0.67842782 3354:6.4270844 3358:2.9122057 3359:0.20600379 3371:0.67317587 3381:1.672765 3382:2.7624235 3387:4.0216942 3388:1.2841604 3394:0.028627262 3397:1.3128059 3402:2.1344533 3404:3.4537513 3413:2.7295299 3418:0.82584542 3437:3.8367283 3438:3.2402146 3444:0.081948817 3457:2.0352902 3458:3.211422 3471:6.2452002 3478:0.81577587 3484:1.0413331 3493:1.6363772 3494:4.6603284 3496:5.139009 3507:0.074608162 3520:0.17529282 3526:2.4865923 3531:1.221297 3534:2.9508758 3536:0.46973106 3537:2.4850523 3544:1.0564412 3554:3.0012641 3569:5.4259253 3578:1.6872571 3582:3.7163727 3583:0.42353889 3586:0.013900816 3593:0.27373737 3595:5.018681 3598:1.9573354 3608:1.4859797 3627:3.6153815 3635:1.3085451 3650:9.0711002 3711:3.378669 3732:0.81869161 3734:1.9341611 3752:2.2558627 3756:3.9158366 3766:2.4404259 3769:7.5179129 3777:1.9986116 3778:0.79871106 3785:5.5063548 3789:1.7363926 3795:4.0857801 3797:1.3028325 3802:0.34528455 3810:0.48107919 3824:2.700032 3831:3.2489262 3836:4.0400128 3844:2.3113332 3860:5.0038857 3864:0.62491119 3881:0.90927267 3883:3.4408004 3888:2.5609517 3889:0.62596291 3891:0.3949686 3901:3.3856089 3907:3.535912 3912:4.8540211 3913:0.077561527 3927:0.31889665 3929:3.7691808 3933:0.44029775 3936:5.165 3941:1.7355613 3950:1.5877709 3962:2.2035148 3963:3.5496998 3966:1.3841736 3972:2.5226207 3981:6.552587 3984:1.9169791 3988:2.4353442 3995:0.92759615 4004:3.8854804 4013:0.38208216 4014:1.6199739 4018:1.921454 4021:5.0469885 4032:4.3064804 4034:0.81050044 4036:3.5985591 4051:0.51758909 4072:1.3135478 4076:4.6173234 4084:2.3768282 4085:1.006135 4090:1.2845173 
0.5514307002541049 3:0.4414016 9:1.551668 19:7.1850672 27:0.11812392 34:0.24359196 37:0.61859715 39:1.7940569 44:4.5028815 68:3.8344274 74:0.22282982 83:0.50782073 94:0.30878645 105:0.97012711 110:0.38719559 123:0.014742747 128:1.3124257 140:1.4511055 145:0.21566296 153:2.318012 157:3.5308785 163:0.074188054 166:0.6332289 171:0.22287364 174:2.6919653 178:1.6131623 180:1.868149 181:1.5683244 184:0.9698177 190:1.0671834 199:1.7421508 214:0.76332849 217:0.6869241 230:0.51842433 232:4.621799 237:1.2130671 241:1.2974254 256:1.1908014 257:0.15238804 258:7.9385672 259:4.8515334 276:1.102612 283:1.4559639 288:6.5303588 303:2.1866498 326:2.9207873 340:2.5426407 342:2.6969588 348:3.8329628 349:2.0951188 365:0.89666212 371:0.23884077 372:3.294745 374:0.67616391 376:0.59818208 378:0.601969 379:0.39899814 393:3.6387129 397:2.9258392 414:4.2630358 416:0.41949919 421:1.9413872 431:2.2689066 432:5.5329089 434:0.68555868 435:0.65082747 436:0.60022664 454:0.80243039 460:5.0151887 473:1.5291407 476:0.50640768 482:5.5839944 486:0.072540939 509:0.44724655 512:0.28076708 514:6.3314972 521:4.4242029 526:1.8213966 553:0.09661302 555:1.6943773 562:5.5398388 571:0.11114174 574:0.76251078 593:2.4507818 607:1.3829051 635:1.0050907 637:0.22189526 639:4.6430311 640:0.70921367 641:0.31434819 644:1.7111783 646:2.9918704 671:1.7827282 675:1.2622123 676:3.9376636 681:2.188663 682:1.5845802 684:1.8473983 690:0.32432166 702:0.37273651 705:0.45996216 709:0.28456396 711:3.1163485 713:1.0262353 717:1.1755606 724:0.22630548 728:0.4270665 736:0.55663109 742:1.3260325 748:1.5181775 749:1.6670883 750:7.1467986 751:1.7349184 775:1.3823242 780:2.9133654 789:5.3532062 791:1.1173043 798:2.6631212 800:1.4959288 802:2.2594385 810:0.083910719 813:1.5232401 817:2.3063321 819:1.3909172 820:0.59521914 825:1.4394598 830:1.7336235 839:4.1375299 863:0.99876243 880:0.14565688 882:0.13866317 886:1.2677562 895:9.1387739 904:3.5856786 908:2.9314604 912:3.7763758 916:1.9393126 922:2.0274801 933:2.1876421 945:5.7314425 953:4.8271775 973:0.20910206 982:1.5257955 985:1.3580079 997:0.76067162 1004:0.15859753 1013:0.46324179 1014:0.58744669 1030:0.59960645 1041:0.99933362 1067:5.0811601 1069:0.82334459 1070:0.77465791 1078:2.1009266 1081:0.1913783 1095:2.0184753 1096:0.081487685 1105:0.9954083 1117:3.4523706 1169:4.2835793 1178:0.29661793 1184:1.3330438 1186:2.1913769 1211:0.58244354 1217:1.4911411 1240:0.86895078 1249:2.3532922 1250:0.69614422 1251:2.0221999 1260:4.0143261 1274:4.9399972 1281:2.220556 1288:0.67420232 1291:8.2088194 1295:0.65658247 1299:1.2610528 1302:4.0985184 1304:0.26789322 1309:6.4311552 1314:4.981802 1327:0.76411867 1332:0.45790631 1341:1.8961061 1342:2.4057035 1374:0.70635867 1386:2.8487418 1397:2.1426747 1400:4.1537828 1406:0.70824456 1409:0.88364553 1411:2.5403283 1414:3.9253018 1419:6.1566596 1426:4.1589184 1428:0.24820411 1435:0.73720896 1438:6.0276995 1444:2.834244 1449:0.067701541 1452:6.4020605 1458:5.4092603 1465:0.96755451 1472:0.27896643 1479:2.2345169 1512:0.17110173 1523:1.421078 1550:3.2148845 1554:3.9548647 1555:1.4122032 1556:0.64852971 1562:2.8699126 1576:3.2137742 1577:0.5976609 1580:4.2140598 1582:4.3033457 1586:1.8669614 1590:0.28159779 1593:0.13456644 1597:4.7225223 1600:0.83018327 1601:0.41806272 1606:0.95431429 1613:5.1083183 1615:2.4873257 1617:4.4615984 1626:0.94117004 1627:0.76551396 1628:1.2685537 1629:4.2275577 1633:0.6584366 1663:0.11046533 1667:3.8519664 1668:4.5398445 1672:2.2356312 1675:5.0168204 1682:2.4777188 1686:4.5403175 1690:3.5554867 1699:1.220675 1710:1.2670654 1718:1.1892545 1723:0.18871215 1727:1.5242907 1730:0.97158051 1752:1.3989849 1753:0.32557458 1755:1.1194735 1758:1.4697683 1763:0.289729 1775:1.0905035 1780:2.8097944 1782:1.953226 1784:1.8954207 1791:2.8984041 1805:1.1178542 1823:0.19261613 1825:2.4415884 1832:2.1818783 1833:2.4392819 1836:4.4372745 1846:0.27212593 1852:1.3950412 1854:2.4394774 1860:0.0029252172 1870:1.2373841 1891:4.8619857 1894:2.2743018 1895:0.10076804 1918:1.4328125 1926:3.6066573 1943:1.4879147 1948:2.8432932 1950:1.753188 1955:0.11042716 1978:0.57545954 1988:1.0643094 1995:2.6333606 1997:0.13044615 2002:0.38933787 2006:1.1319385 2011:2.976686 2021:0.98748875 2028:0.39931479 2042:1.9192191 2043:0.6840688 2057:3.744411 2074:2.9694049 2075:0.65257627 2102:0.057954043 2107:6.1066403 2113:2.3127518 2120:0.2370251 2125:7.4185281 2137:0.10387558 2138:1.3636228 2144:0.41432106 2148:0.85428429 2156:1.3488591 2162:0.189385 2164:4.3902864 2168:2.5758295 2177:4.6772337 2187:2.2454391 2202:5.1702943 2206:1.1737387 2223:3.1008053 2227:0.11272466 2229:0.61489034 2236:2.9617722 2253:0.60060835 2254:1.9695354 2255:8.5484781 2257:0.037527531 2262:2.3407323 2272:2.3286505 2280:0.49805796 2281:2.2473767 2286:1.3615873 2311:3.3558843 2312:2.2619655 2313:4.8035021 2322:4.2723665 2343:1.1642474 2349:1.6537906 2353:2.1176643 2375:6.6230006 2378:3.1917849 2380:0.41288933 2408:0.0725393 2415:2.3742509 2420:0.41361016 2435:1.4175637 2442:0.33420417 2443:1.9080646 2445:0.1116012 2459:1.4241927 2468:0.18056929 2471:2.7295814 2481:0.8326385 2487:2.1862705 2493:2.5848384 2494:0.37310001 2503:0.74814689 2508:0.93644047 2512:1.4489247 2521:0.14245483 2526:1.5622046 2527:0.60222983 2537:0.092355818 2562:4.0195704 2563:0.91798651 2566:5.1840014 2568:3.5020735 2570:0.2103723 2574:2.2845647 2576:4.1051278 2577:1.6500224 2583:3.3385932 2591:0.74740332 2598:2.8006306 2604:6.7567358 2617:1.5900966 2630:0.73219043 2636:6.3758368 2639:2.6621037 2649:5.0644717 2651:0.5044803 2656:0.10477522 2658:0.44495714 2667:0.85363555 2687:2.5082455 2688:0.47458839 2689:4.1891642 2695:3.0436294 2697:1.958133 2704:2.495374 2705:2.9546194 2708:5.0631313 2713:0.40482974 2714:0.0069837421 2715:0.32780141 2723:2.1538572 2724:1.0271277 2727:4.6246352 2733:0.66088319 2738:0.66009235 2743:4.7473836 2754:1.6293478 2761:2.6735651 2765:2.3074377 2792:0.70384753 2796:0.90148091 2810:0.83164018 2825:0.097511947 2833:3.0475242 2836:0.47342193 2840:5.9029646 2842:2.60431 2844:1.537653 2851:1.1356856 2864:5.8727841 2866:0.082324699 2867:2.4535363 2873:0.048389971 2880:0.40945607 2893:6.5528097 2910:1.6914331 2912:1.6183114 2913:3.022404 2917:1.4533327 2922:0.1555216 2930:2.6295338 2937:1.0039169 2964:6.0494194 2994:3.8310266 3012:5.7378621 3019:1.2339113 3027:0.38496315 3028:0.056832016 3036:0.13682306 3042:0.18721443 3061:0.37047827 3085:4.8929396 3087:2.4373107 3095:2.1619184 3119:3.8277931 3127:0.64435226 3129:1.7230903 3139:0.079950958 3149:2.9055638 3152:4.8111105 3163:1.4403169 3170:3.495945 3172:0.22939704 3178:0.34578687 3179:7.2624097 3184:0.90797698 3200:3.1303654 3220:1.8051188 3233:1.3906032 3247:3.7466879 3252:5.1405573 3259:2.596921 3275:0.058150791 3291:3.8626864 3294:1.2409927 3298:2.8838797 3310:5.8520355 3334:6.1371665 3354:5.413631 3358:2.505625 3359:4.4161015 3361:0.8880173 3371:1.3451016 3381:1.4618469 3382:2.0055535 3387:2.7060554 3388:0.24420847 3390:0.393199 3394:1.2264705 3397:2.7686357e-05 3404:1.3315483 3413:0.30129433 3416:0.29946733 3422:0.60561067 3424:0.32757175 3437:0.91394222 3438:1.3078415 3444:2.4654906 3458:1.4537815 3460:0.77762747 3465:0.32124296 3471:4.3228593 3479:0.2627978 3484:1.932253 3493:5.3738356 3494:4.2362986 3496:3.9601786 3502:0.99540508 3534:1.0719612 3537:1.0141935 3538:0.03295026 3552:0.13567147 3554:4.1871371 3578:0.065209404 3582:3.0846181 3595:3.6895452 3598:0.44355667 3602:3.3193378 3627:0.16000374 3630:0.30519065 3631:1.1175207 3635:2.3253648 3643:3.032887 3650:9.97052 3677:0.089307293 3710:0.7186954 3711:2.3443532 3732:1.1831896 3745:0.18308951 3752:1.6420181 3756:2.8440588 3766:0.11008006 3769:8.603693 3773:2.5017192 3777:0.75478727 3778:4.6818008 3785:4.3506532 3789:2.5455446 3796:2.5653467 3810:0.11421984 3824:2.0344102 3831:2.9960179 3844:2.8617048 3845:1.4046115 3859:2.268523 3860:2.9488952 3864:3.4930918 3876:2.1136599 3881:1.2383244 3883:4.9665651 3888:2.0448315 3889:0.18010245 3906:0.32486081 3907:1.7665873 3909:1.6105897 3912:1.3163021 3917:2.332166 3936:4.9654746 3947:0.5334788 3950:4.6152554 3957:0.97759181 3962:3.3398135 3963:2.3658266 3970:1.1921777 3981:5.3452392 3984:0.5910576 3995:3.2155385 3996:0.40670484 3997:2.7167847 4001:4.302743 4004:3.3441873 4005:2.5505302 4014:1.1052192 4018:5.4159236 4021:3.4220736 4032:2.0478683 4034:1.3188274 4036:6.2878418 4037:1.0314475 4065:1.3247159 4068:0.083535604 4076:4.2724514 4081:1.2145555 4084:0.72791159 4085:0.68693078 4090:1.5942588 
0.2845638865546168 9:3.4745967 16:0.97766554 19:6.314671 37:0.68083954 39:0.44922298 44:4.5224662 68:4.4409957 75:0.27178222 94:0.7685349 108:3.1004224 123:0.59580445 128:0.041956633 140:0.9265939 145:1.4625375 153:2.4530883 157:1.4265125 166:0.70912755 174:2.9896114 178:3.9366019 180:1.4227917 181:1.6490738 184:0.13730618 190:2.3623722 199:2.5142055 214:0.64697826 217:0.11751202 230:0.25222921 232:4.3960848 241:0.37163353 256:0.67350125 258:7.1086168 259:4.9030294 276:0.76359928 283:2.4616885 288:4.6129208 290:0.4834187 303:1.1240386 306:0.25246453 326:3.1954498 340:2.3774033 342:1.9997152 347:0.23932022 348:3.1516969 349:2.1877999 361:0.12859449 372:3.496124 374:0.24742869 379:0.54874307 381:0.16496462 388:1.5152011 391:1.4880841 393:2.3563979 397:3.2735548 401:1.4381877 414:4.9572821 421:1.8416519 432:7.3902931 434:1.1062567 435:1.7928424 448:0.18008056 454:2.1241627 460:5.5378065 473:2.0552895 476:0.113388 482:5.527154 509:0.78220975 512:2.1195953 514:7.3226643 518:1.0700467 521:2.8763208 524:0.80568904 526:1.7504251 553:1.388519 559:0.69014156 562:7.284832 571:0.074618757 593:0.9410181 595:0.36266699 635:1.0323336 637:1.7236394 639:1.9860874 640:0.36563769 641:2.321305 644:3.484962 646:3.1893511 671:3.8444066 675:1.0569577 676:2.7694712 681:2.5735888 682:1.9059913 705:1.6299415 709:0.28875834 711:3.3456471 713:0.88575017 717:0.15457925 728:0.075617373 736:3.2126966 738:0.4445689 748:1.687808 749:0.78016007 750:6.360806 751:1.2546722 772:1.1908017 780:5.0299511 789:6.343339 791:0.80998439 798:2.3512499 800:1.5835209 802:1.5193206 813:2.5375676 817:2.8445287 819:0.5837208 825:1.0055625 830:2.6445439 839:1.7443476 851:0.16047746 853:0.51567721 880:0.72929883 886:0.49780139 895:7.7279215 902:1.1987796 904:6.248611 908:2.4173882 912:3.2809911 916:2.3548121 919:0.066656038 922:3.4670138 933:0.14480624 943:0.11041945 945:6.9504948 953:4.6710043 973:0.08831057 982:1.1754578 985:0.58143747 997:0.078723639 1004:2.8387051 1032:0.57096434 1034:0.39102203 1041:1.3216321 1059:1.324018 1067:3.0920458 1078:3.4116654 1095:1.3875955 1105:1.2438254 1117:2.9481726 1169:3.2560406 1178:0.22347155 1184:2.6560605 1186:2.2977567 1194:0.25959027 1217:1.339432 1240:2.7854271 1249:1.901262 1250:3.3202584 1251:3.3743563 1257:0.70392925 1260:2.4707093 1272:0.79512572 1274:1.1117611 1281:2.8282051 1288:0.84825087 1291:8.1673689 1299:0.28926086 1302:2.8243003 1309:7.5573802 1314:4.5760994 1327:0.80139816 1332:1.4364582 1335:0.13113314 1336:1.0963532 1341:1.9751401 1342:1.0552641 1359:0.99934947 1369:0.56132698 1374:0.70773643 1376:0.09420757 1386:4.3921299 1397:2.1375067 1400:2.3116617 1401:1.3058958 1411:1.5438689 1414:4.4003854 1419:5.872869 1426:3.6040869 1435:0.82076699 1438:5.5551791 1444:0.93684095 1452:7.6347537 1458:3.0239329 1465:0.23305821 1469:0.41256651 1472:1.4804007 1479:2.1854098 1487:0.95952141 1515:0.25351265 1523:0.15780091 1550:2.5801115 1554:4.1844153 1555:1.4502394 1556:0.058306575 1560:0.9005065 1562:4.7690964 1563:0.30798119 1576:2.1908422 1577:2.2086158 1580:6.7598276 1582:2.0484793 1586:1.5691555 1597:3.0789683 1600:1.694543 1601:0.99624133 1606:1.8557596 1613:4.6315107 1615:2.670217 1617:3.2208695 1625:0.93692499 1627:1.6782355 1629:2.7975938 1633:0.60915792 1663:0.36699748 1667:4.5756884 1668:5.3194199 1672:0.8714276 1675:5.8162084 1682:0.023039639 1686:5.4655113 1690:3.1748099 1704:2.3118782 1710:0.90713561 1718:1.381209 1723:0.46730259 1727:1.0516034 1730:1.1189525 1752:0.1090132 1753:0.11977914 1755:1.724622 1756:0.17291903 1758:0.3947655 1764:0.011406854 1780:2.2343087 1781:0.76584947 1782:1.9166737 1784:0.11981617 1791:4.9874926 1800:2.3047874 1822:0.52329564 1823:0.70445341 1825:2.1845529 1829:0.29242244 1832:0.25718445 1833:0.35378569 1836:5.4958363 1840:0.26805055 1846:0.18157697 1847:1.0842698 1848:1.1959054 1852:0.87906015 1854:4.027575 1860:3.5311563 1870:0.90079629 1891:3.9710569 1894:2.1453428 1900:1.481813 1902:0.46195522 1904:0.36889023 1918:3.3518658 1926:5.6909094 1943:2.0865116 1948:4.732955 1950:0.9368614 1978:2.679245 1984:0.094194949 1995:1.5961286 2006:0.50993592 2011:2.6061268 2012:0.29427433 2026:2.2967086 2028:0.67395949 2038:0.68594331 2042:2.8995531 2043:0.66808063 2057:1.6698406 2074:3.3038716 2075:0.68276638 2102:1.7303133 2107:4.7956228 2113:2.1625929 2115:0.11543973 2120:0.37417459 2125:5.8103886 2137:1.3682194 2138:0.60299122 2144:0.5397709 2156:2.3678591 2162:1.3172795 2164:3.8354845 2168:3.454248 2177:3.8292878 2187:4.2558217 2199:1.463161 2202:5.5221767 2206:3.0150461 2223:4.808948 2226:0.36428571 2227:0.45412856 2229:1.102337 2236:5.8408074 2253:1.3389177 2254:1.5219957 2255:8.9679155 2262:4.0105977 2272:1.6022507 2281:1.1420532 2286:0.4515419 2311:4.5515127 2312:1.8778217 2313:3.6828349 2322:4.7274055 2338:0.95675242 2349:2.1441851 2353:1.540235 2355:3.6356478 2360:1.9408818 2375:5.4657001 2376:0.25921708 2378:3.0947337 2381:0.82651544 2415:1.823154 2417:0.61066425 2420:0.87084454 2435:1.2187436 2442:1.0048425 2443:1.6766901 2459:2.5299811 2468:1.0487391 2479:0.036411405 2487:2.7082124 2493:3.343416 2494:1.7589849 2503:0.52952379 2516:0.098815829 2520:0.15575154 2521:1.9941461 2526:1.3553942 2527:1.9298654 2528:0.049105752 2537:1.0104591 2562:0.94389737 2563:0.59430063 2566:2.6900964 2568:4.7952752 2570:0.14645886 2574:1.5997474 2576:3.8842423 2577:0.70296228 2583:3.275342 2591:2.1184289 2598:2.3407118 2601:0.72864377 2604:7.3837447 2611:0.24221866 2617:1.1936723 2636:5.246716 2639:3.4636488 2649:3.1734483 2656:0.13469058 2667:0.98110127 2687:2.2095165 2688:1.3917038 2689:4.0088716 2690:1.8314942 2693:0.49376702 2695:2.9017179 2697:1.7145303 2699:0.74229878 2704:3.1493828 2705:2.2810009 2708:3.6263294 2713:0.030591667 2714:0.36289352 2715:3.2662845 2720:0.9878186 2723:1.7414721 2724:1.4843129 2727:3.7433124 2733:1.1433917 2738:1.4520422 2743:4.9052072 2754:0.47597754 2761:1.756737 2765:2.660537 2792:1.4373055 2796:1.2882413 2810:2.4027362 2825:0.1042414 2833:1.5532677 2840:5.0390973 2842:5.3758326 2844:2.3047309 2851:1.3523781 2864:5.279469 2867:3.7691665 2880:0.8082003 2893:7.616158 2898:0.10643457 2910:1.8046025 2912:0.91319579 2913:3.8424642 2917:1.9478455 2920:0.85578007 2922:0.064776875 2930:2.0927441 2964:7.6083426 2986:1.0306545 2994:3.3956411 3012:8.1036625 3027:1.550629 3028:1.1783183 3052:1.3644543 3061:1.0279899 3085:3.8016119 3087:2.2464426 3094:0.085128754 3119:3.7946811 3127:0.84735429 3129:2.7152934 3139:1.4876158 3149:5.5662332 3152:5.8955059 3163:2.696059 3170:1.0948637 3179:6.311368 3184:2.9345813 3200:3.2203445 3220:2.6834128 3233:0.039490543 3247:2.608058 3252:6.686058 3259:2.8243837 3275:2.8138869 3291:2.4666669 3298:1.8588959 3310:3.9932096 3319:1.7529074 3334:5.7580848 3349:0.80106008 3354:5.7407994 3358:2.2569637 3359:3.3114343 3366:0.48672339 3372:1.7041959 3381:1.4693066 3382:2.666342 3387:3.3653328 3388:0.11946617 3402:1.3099471 3404:1.1773553 3413:0.13754576 3437:0.51722419 3438:1.8696439 3444:1.9769638 3458:1.8064284 3460:0.17723912 3465:0.88135958 3471:2.7159731 3479:0.077615142 3484:0.99884832 3493:5.3372536 3494:2.44347 3496:3.889642 3507:0.22124106 3529:1.0657488 3537:3.7333264 3552:1.0818789 3554:4.5219808 3578:1.3959191 3595:3.8869457 3598:0.43302909 3602:1.3550215 3630:0.55346316 3631:0.48532104 3635:1.0495172 3643:3.672545 3650:9.2045841 3677:0.13636202 3689:0.082870528 3711:3.2992926 3715:1.279259 3732:0.75377482 3734:1.0696965 3748:0.17094199 3751:0.77709359 3752:0.55000746 3756:1.5949223 3766:0.82356524 3769:8.3693266 3773:2.2298884 3777:0.49029627 3778:7.7516394 3785:3.8448212 3789:2.4106967 3795:0.60934871 3796:0.22154416 3824:2.0295999 3826:0.010102093 3831:1.544253 3836:1.6554202 3844:2.3521194 3845:0.073586881 3859:0.72591192 3860:0.3627767 3864:3.4499917 3876:2.4807773 3883:5.580296 3888:1.4190392 3889:1.9516897 3901:0.68079758 3906:0.097816899 3907:2.3192227 3909:1.1257136 3917:2.5804641 3936:6.2744765 3950:3.3690422 3957:1.2302387 3962:2.7160525 3963:1.8459973 3966:0.74349391 3981:6.1648331 3984:2.1370473 3995:1.1400657 3996:0.71686423 3997:2.8508217 4001:3.4764264 4004:2.9838579 4005:1.2911268 4014:2.0002935 4018:3.9307809 4021:3.2519262 4032:1.5755751 4034:0.99939346 4036:7.7935472 4037:1.2428952 4067:0.62286693 4072:0.4633387 4076:3.9960346 4084:2.0185325 4085:1.5995417 4090:2.5058675 
0.3415349546668129 4:0.75823987 10:2.4645097 16:0.91424364 39:4.7219639 44:6.9431453 68:5.9528551 78:0.34731799 94:2.1208901 110:0.11182275 128:1.1258161 136:0.18016276 140:1.2369393 148:0.62279397 153:1.340583 159:2.5798814 165:1.3109645 172:5.8015332 174:3.9527395 178:0.80190861 180:3.0245852 190:0.89241201 192:0.13224554 196:2.1721578 210:4.0766182 214:3.3781133 217:4.4978523 221:3.7014182 223:4.1798582 232:1.6797674 241:0.50526458 256:1.0081327 258:1.1315088 259:0.90762389 267:3.4306226 271:1.5860124 301:4.1790385 302:1.8215265 321:0.14868733 323:0.45426169 335:2.9140038 342:1.2868849 359:1.0924751 363:4.769279 365:1.5345335 378:0.88405836 379:0.11772022 381:1.9613211 390:0.67532504 397:1.3585627 412:1.7298706 414:4.7078056 421:0.2065987 432:1.0540105 434:3.9806044 454:5.7899747 474:0.12783337 475:0.31190783 482:3.1688802 491:0.43127862 499:3.6377361 509:0.96873164 514:4.8699341 517:3.5352097 521:3.1449873 526:0.86065865 552:0.46278 562:7.1208315 563:0.93584836 578:0.67043495 583:0.77021891 589:1.0540752 601:3.3024011 618:1.4916543 635:0.3404305 637:2.155653 642:2.9954708 659:2.0860529 670:1.1636786 671:0.17844298 672:3.324388 674:0.2618919 675:4.4777236 676:1.5254302 681:3.3956285 682:0.85063428 684:0.23372519 702:0.25774837 705:2.7050247 711:0.36173719 724:0.52329856 728:3.5060709 730:0.066117391 736:0.92337632 738:0.22816101 749:4.5670834 750:3.0773013 751:1.9808434 754:7.825048 760:1.3789003 771:1.2965226 773:3.776057 780:1.9269791 787:7.6509838 788:1.4629409 789:4.2207594 796:2.9637392 798:3.7777586 802:1.4624344 816:0.55097502 829:1.2240174 833:0.94182229 839:4.2673359 841:7.2951622 842:2.0420678 848:0.50026977 853:2.5731525 857:4.9986062 858:1.5463254 865:0.51403356 869:0.058633808 873:1.1068984 878:1.1115922 895:2.1707983 902:0.20544794 904:3.4451704 908:5.8691802 912:2.7726932 916:3.2474995 922:0.076618165 943:0.59907883 945:3.8317175 956:0.038996547 976:0.07534045 988:0.42609784 991:1.3571432 994:0.055194557 1001:0.83693558 1004:0.83157587 1016:1.7803286 1029:2.63518 1034:2.1020596 1041:0.17264941 1042:3.0676558 1057:1.7518398 1077:0.55665439 1078:3.0091681 1081:1.289978 1096:5.408083 1097:1.1193416 1102:0.65301931 1103:5.0419993 1113:1.5589821 1159:0.63944012 1165:4.1011505 1170:4.6701326 1176:0.35286319 1179:2.4229109 1180:2.2510328 1181:0.45616013 1182:1.9241059 1184:0.085567623 1188:1.3547579 1201:0.12311792 1206:1.9242069 1219:4.1798553 1220:0.19828454 1223:0.2658273 1234:0.58522046 1236:3.6599202 1249:1.4153836 1251:4.693099 1258:1.8348714 1260:1.9219679 1261:0.80541474 1272:3.8496091 1274:1.484723 1277:1.5181105 1293:0.85048044 1297:2.8017037 1302:5.0960636 1309:3.2080817 1329:0.44544816 1335:1.8093107 1337:3.2384574 1341:3.9654295 1342:0.22094609 1345:0.42895561 1357:3.0553768 1369:7.1848545 1374:0.92181093 1376:5.1870623 1383:0.075319469 1386:0.029222488 1397:1.3647075 1400:0.97062844 1401:6.1191139 1419:8.0795841 1431:0.38887367 1444:4.1579099 1452:1.5682719 1457:5.2283711 1458:4.5064292 1466:1.5684197 1469:1.9542058 1470:3.3995535 1479:3.0329909 1502:1.519542 1503:3.4286222 1511:0.092779361 1515:0.96289068 1518:1.3127861 1520:4.7131104 1523:3.0205369 1552:1.9573723 1554:1.6926916 1556:0.092850477 1560:0.89689988 1562:4.907002 1566:0.10089377 1571:0.93787462 1588:0.51076651 1595:5.6509466 1600:1.8403084 1606:4.0216575 1613:1.4771023 1615:6.0804844 1618:1.8474835 1624:0.55350006 1636:5.4855857 1654:1.2183806 1663:0.68563193 1668:2.0460076 1675:0.76520425 1677:0.89725196 1681:1.1542199 1695:6.1323638 1704:1.2961255 1708:0.075181663 1710:0.49307311 1726:0.79402661 1730:1.8822927 1733:1.8268586 1734:1.9717618 1736:0.32525733 1737:2.5467029 1753:0.51032764 1758:3.5500996 1760:1.5020117 1761:1.512639 1767:0.70072556 1775:1.0917046 1777:0.22307907 1799:0.35046616 1800:3.2382667 1804:1.252008 1814:0.96707076 1822:9.0342321 1832:2.2712035 1833:0.8453815 1837:2.9515531 1840:2.1589959 1843:1.4832094 1846:7.2144246 1847:1.8681939 1848:1.6329139 1854:1.4754074 1883:0.71293223 1894:6.1883478 1900:1.797683 1902:1.7475801 1908:1.333118 1912:1.2345009 1918:0.41895843 1926:1.1378014 1943:2.3187654 1969:0.72718853 1974:2.1844387 1977:0.7241956 1980:1.3271844 1984:2.6119111 2004:0.37713403 2011:3.40413 2012:2.5847108 2021:1.2393652 2028:0.72359765 2055:4.2120929 2057:0.84540284 2065:2.9781482 2083:2.1985085 2107:1.806813 2113:3.2629879 2156:1.235689 2160:2.9806969 2163:0.21279606 2164:0.4409433 2177:1.2002887 2187:1.6910567 2196:0.29779842 2199:4.3809404 2202:6.8980794 2203:1.191528 2204:0.49788767 2206:2.9168551 2212:1.5905099 2218:0.29751492 2223:7.0972738 2230:0.13624513 2238:0.69761527 2241:2.4426808 2253:0.073371559 2255:1.3343502 2259:1.7086216 2272:1.3704375 2286:2.6694283 2288:1.5746853 2297:0.10895544 2311:3.6966 2314:0.71798348 2317:0.88163531 2322:1.5649942 2324:0.6331498 2329:2.3649082 2337:1.1367441 2343:3.8147876 2344:4.4871445 2349:5.0670824 2355:0.25203878 2360:3.2618763 2375:3.6586199 2393:3.5362713 2400:0.44831058 2416:1.5122412 2418:2.4852419 2419:0.14161105 2420:2.3988359 2423:0.61277127 2435:3.1960342 2458:4.7471819 2459:0.63321966 2471:1.1490847 2473:0.29718095 2479:2.2349455 2487:1.6925793 2503:2.57636 2520:1.4233049 2521:1.4259322 2527:0.29554844 2528:6.4388833 2532:0.48349386 2537:3.337568 2545:0.71218407 2558:2.0635569 2561:1.1094517 2570:0.56011748 2591:5.2544284 2598:2.0874836 2601:1.959928 2604:6.7220631 2610:0.77142286 2628:1.0504911 2636:5.7606301 2639:2.8319013 2642:1.1094315 2649:0.20028237 2655:1.7171614 2667:3.6571212 2688:1.0440716 2695:4.1494789 2697:0.82382154 2704:4.2192831 2705:1.7437067 2707:1.6647421 2708:1.2346857 2715:4.9289956 2718:4.4516006 2723:3.1406083 2736:2.9608772 2743:5.2198963 2745:0.34450388 2753:0.25189942 2759:0.69873631 2763:0.55435538 2765:0.68738413 2792:4.337513 2796:2.8425107 2805:6.9486732 2814:1.4748762 2820:2.4789319 2821:3.9314811 2840:0.83986282 2842:6.1967726 2843:0.03484042 2860:0.32022041 2864:4.9442258 2866:0.71412122 2867:2.7600949 2873:0.88570815 2878:3.3391671 2879:0.9748131 2880:1.5151637 2882:1.3952916 2893:2.4944408 2896:1.2115926 2901:3.2828131 2912:4.377727 2913:4.289125 2917:0.83747888 2920:1.7739289 2929:3.9551191 2948:0.60527951 2964:1.5895554 2971:1.5457089 2974:0.36273664 2978:3.1708677 2994:0.75299585 3011:2.1955025 3012:3.9426308 3027:0.61492068 3037:0.30793065 3046:6.149559 3052:2.5517375 3079:2.7191682 3087:1.8192973 3094:0.020147115 3117:0.10755076 3129:0.066049755 3148:0.070307009 3152:2.1277082 3154:1.5207324 3162:0.3047474 3163:6.8328648 3179:3.4665012 3183:2.7359891 3190:0.41361547 3216:1.4866241 3247:2.3701272 3253:1.1620184 3256:0.6865055 3260:0.81889641 3275:1.0934919 3294:4.4811463 3298:0.084416687 3299:0.35908639 3310:4.4955983 3321:0.82028347 3334:0.27804056 3348:0.84631574 3349:4.3127685 3352:2.0012877 3354:6.4386816 3382:1.5243691 3387:3.3213 3413:2.2088048 3418:2.4318163 3437:4.2291417 3444:1.1693237 3445:2.9758477 3458:1.7778252 3459:3.854969 3471:3.1697428 3494:5.1965456 3496:0.067743257 3508:0.30175903 3530:2.5606945 3531:0.79427904 3534:3.1729364 3535:8.0783024 3536:1.4881225 3537:4.6770396 3539:1.1384302 3544:0.1310102 3554:1.5929402 3556:2.7322206 3562:0.46029893 3569:2.3164639 3576:3.2792666 3582:3.9381709 3583:0.80556762 3586:0.39638397 3593:1.1610386 3598:0.71415997 3608:1.7586181 3616:0.97054625 3619:0.88750476 3621:6.9873428 3626:2.9372585 3627:5.5704637 3629:2.7789199 3632:6.2877483 3642:0.56569505 3644:3.3674142 3650:8.2486506 3653:2.388849 3654:7.6153531 3661:2.240149 3677:0.54856592 3681:2.4573691 3690:0.49950084 3711:1.0496923 3717:0.1193798 3719:0.79052866 3728:0.79155654 3732:1.2373048 3734:2.5497789 3748:1.291855 3751:2.6491568 3752:2.531487 3756:0.33579838 3758:0.71062255 3767:2.0438967 3769:4.3625693 3785:2.6213241 3789:1.0729891 3808:3.984153 3824:4.2639046 3826:3.3003728 3828:0.45204642 3836:4.4960151 3845:0.78894532 3852:0.011975855 3860:0.38119167 3871:0.81666774 3888:3.9508727 3889:1.736827 3891:0.61936414 3907:0.68384343 3909:0.13469648 3910:0.97496617 3926:0.55421907 3933:2.1501496 3941:0.21730146 3962:1.6533735 3966:2.2290983 3969:0.75324494 3972:1.3088877 3981:7.4442964 3984:0.64904892 3988:2.505296 3990:2.4993052 4001:0.011034727 4004:2.9636757 4007:0.50891238 4021:2.4536507 4032:0.8223412 4036:7.449461 4052:0.11479507 4059:2.6059933 4062:1.5749009 4067:2.5176425 4070:1.5240797 4072:1.3329246 4076:3.9098432 4084:5.4780817 4085:3.5572464 4090:1.2151277 4091:2.5804617 
0.1065802726045954 9:0.32102183 16:2.6153007 19:1.2527782 35:1.3661554 39:2.0749211 43:2.5256069 44:1.839242 63:0.01149112 68:3.1807613 78:0.84005594 84:0.55870277 88:1.8517015 94:2.628449 105:1.9321272 110:1.5683763 115:0.032499224 139:0.48444378 145:2.433094 147:3.4423175 154:0.14744572 157:1.8634382 168:1.2239904 170:3.2869415 172:2.6432068 178:4.3886414 180:2.0088408 181:0.070598304 190:0.8619833 192:2.0001101 199:1.0727947 214:1.1122625 217:2.2989407 222:0.6084764 237:2.7170708 241:3.8871703 242:0.11434036 254:0.13051528 256:4.6053638 258:3.4543602 269:0.55871046 271:0.89255488 288:3.0600846 290:0.46905908 295:0.03937906 309:1.4814563 317:1.0170627 319:1.0044856 321:1.882602 324:2.3669398 326:0.86938012 342:3.8452227 348:4.543108 349:1.0690454 358:0.66375887 359:2.1882615 365:2.923784 372:2.0348048 379:1.6043394 381:2.9621351 387:4.4550638 391:0.60500282 397:0.71882546 398:0.75401556 399:0.41817048 411:2.9030759 412:1.9609883 432:5.2889304 434:2.0261281 438:1.0799528 451:0.56565928 452:3.1190939 454:0.71259809 456:0.087823041 458:0.16306424 473:3.5512152 479:0.1471459 481:1.268849 485:2.0131929 492:0.0047668219 495:0.87138093 499:3.7119207 509:0.85759646 516:0.54121858 521:2.0081594 526:4.5125909 541:4.032506 548:0.47614744 560:1.6171129 562:6.1761618 567:3.6814785 583:2.246295 593:1.4777527 601:2.0900841 614:0.051138744 624:2.5475225 637:2.0800161 639:1.5875515 645:0.63859016 653:3.8835223 654:1.8400123 659:1.3929436 672:3.0939615 676:3.168891 681:0.12067501 684:2.6675448 692:2.6493158 698:1.4042954 705:4.0038996 709:1.5878478 712:0.19473037 717:1.1312881 749:1.8336513 750:3.8601389 751:1.8195591 754:1.8986335 765:0.32230407 771:1.7022133 773:0.29426572 777:1.4208038 788:4.5369 789:2.0911365 791:1.5404221 795:1.9254413 798:2.1134198 799:0.80514592 801:0.47987717 817:1.0123422 820:3.4544477 825:1.8740132 829:0.6869657 832:1.7448044 833:2.3719435 837:0.71495318 839:3.7089009 848:0.26895395 853:1.2199166 857:2.111232 865:2.2261343 866:1.1484444 868:1.3170753 874:1.1080753 882:2.5825188 891:0.34961742 895:2.6556005 896:1.6683549 902:2.5267737 908:4.5118456 916:5.9614773 922:1.5450289 932:1.7940906 943:1.4251174 945:6.2466764 953:0.29967275 957:0.95474982 974:0.29815 978:1.9965576 982:1.2988912 985:1.6317097 988:1.3741596 997:1.1081442 1001:0.57636428 1004:2.4467583 1013:1.4027665 1016:1.4902899 1041:2.9530625 1043:2.6869204 1049:0.016655721 1057:0.45678937 1067:3.8038659 1070:3.7002921 1071:2.1253538 1077:0.61161923 1078:0.4791041 1080:0.58644313 1095:0.28552136 1096:5.3958912 1103:3.9036899 1105:2.3992925 1130:0.34011802 1138:0.56902146 1150:1.6004118 1152:0.00086866319 1165:2.5261979 1169:0.21712528 1170:0.084166288 1175:0.91773933 1186:1.2312975 1188:2.3100007 1201:1.8628142 1208:3.3160353 1219:0.55885625 1220:1.8386303 1223:2.3597443 1227:0.0032178611 1236:5.3111119 1240:3.0762982 1242:0.89717007 1249:2.2074652 1250:1.3213868 1251:1.5107285 1255:0.15741087 1257:1.2021012 1258:1.9048111 1260:3.8037748 1261:0.94438577 1272:2.1252055 1273:0.13975962 1274:5.0331659 1279:3.6814675 1291:3.4119484 1293:2.0708041 1297:2.6045804 1299:1.4517004 1304:1.5611346 1306:2.0442674 1309:3.3367167 1317:1.5590754 1329:2.4769044 1332:1.5850854 1335:5.4075208 1341:1.8559169 1342:1.7635789 1356:1.0620884 1357:0.034661949 1368:4.365468 1369:3.3004351 1375:1.6435013 1386:8.8806925 1396:3.0630517 1397:0.35242406 1401:1.5799798 1406:0.96764517 1409:0.15302591 1411:2.3750443 1412:1.8004558 1414:3.2231269 1419:8.5583696 1426:0.83748597 1430:1.7357509 1435:0.2904321 1438:0.19537275 1439:1.0098448 1444:2.2677817 1449:0.38963351 1452:6.9265385 1457:0.48610049 1458:0.38336325 1465:2.6830344 1468:2.2532511 1470:1.1587825 1471:0.4842636 1472:0.27669203 1475:0.038295507 1476:0.24514452 1479:1.0994172 1503:2.0008929 1512:1.1571069 1519:0.24403259 1520:1.8134563 1523:5.2956424 1526:1.0147576 1550:3.2190363 1554:2.8243954 1556:0.50433129 1562:6.037499 1580:2.497719 1586:1.6121349 1597:5.380373 1600:5.9100571 1601:0.084372699 1602:0.24191122 1606:4.8459649 1613:3.152807 1623:2.9505565 1624:0.085161984 1625:0.34224185 1626:3.0804088 1628:2.2790296 1629:0.75292492 1645:1.2898052 1654:3.4824321 1657:1.1019671 1661:5.2408485 1667:0.7409364 1668:4.1433902 1675:0.23095675 1677:2.6423831 1681:0.10898358 1683:0.36793405 1686:0.89716065 1688:2.8204618 1690:2.0041456 1695:1.4857204 1699:3.9478221 1703:2.0231357 1710:1.525779 1712:1.5293361 1713:0.74120653 1726:2.345818 1737:1.5829051 1748:1.5249158 1750:0.48795211 1758:1.3447218 1761:0.39005116 1763:0.99593353 1768:1.6675935 1775:5.7631378 1777:2.7406723 1780:1.371518 1791:0.19019505 1792:0.25713521 1795:1.5249962 1800:0.78679079 1804:1.1618953 1811:1.0181435 1813:4.3729692 1817:3.4403398 1822:0.6609723 1825:1.8104626 1829:0.4449172 1832:0.95100331 1833:1.6922245 1837:0.017885298 1840:0.0292584 1843:2.7796187 1846:3.7599983 1849:4.4644561 1854:2.6887443 1870:1.3833086 1877:0.44864637 1889:1.4081086 1891:1.0778295 1893:2.1135883 1895:3.626878 1912:4.7915583 1918:4.6089578 1943:0.0670297 1963:2.3943169 1968:0.36552465 1974:3.8618908 1980:0.66026688 1984:1.1308497 1990:1.1459792 1995:4.1169438 2000:2.4237075 2002:0.33678854 2004:1.6422565 2009:1.8186401 2011:2.0893605 2012:3.7571859 2014:0.96793127 2022:1.0227809 2028:1.0989935 2034:1.0640328 2043:1.5306773 2048:0.56075704 2049:0.27926993 2055:1.3012297 2057:4.241951 2068:0.19072312 2073:0.28916419 2086:0.61542439 2102:0.30238348 2107:4.463954 2113:1.087664 2117:0.19646576 2120:0.38512596 2138:1.4264616 2144:2.5980661 2153:2.0410905 2164:3.174938 2166:1.1039693 2168:4.1123962 2177:2.6120701 2184:0.19340354 2186:0.12212858 2187:2.7550259 2188:1.0241961 2197:1.4180987 2199:4.7770967 2202:5.667964 2206:2.5132294 2212:0.41849247 2216:0.33318889 2223:1.096418 2226:2.4673142 2228:2.2088294 2229:1.1037109 2230:0.12334117 2239:1.3927932 2241:0.33804962 2253:3.9766362 2254:0.85890871 2255:3.2999604 2257:2.4452319 2259:0.25791097 2267:0.73743594 2269:0.48053369 2278:0.80840814 2284:0.66422522 2286:2.0131326 2288:3.6027765 2311:3.631242 2312:0.0017899051 2316:2.4214408 2317:2.6528556 2322:1.090855 2324:3.8562911 2328:4.3591943 2343:3.7007854 2344:2.3764312 2346:1.5611383 2349:4.4678783 2353:2.6231239 2360:2.6566937 2370:0.27839819 2375:3.6325526 2390:1.8339305 2392:0.2602565 2393:3.5737901 2400:0.50828427 2404:3.4681222 2409:0.040776491 2413:1.4657648 2415:0.84050071 2416:0.08035396 2418:1.2186557 2422:0.77690446 2423:0.62676197 2425:2.2385526 2435:2.4440303 2436:1.2011436 2442:0.4512668 2443:4.5267296 2458:3.1583502 2459:3.021251 2476:3.0056961 2481:0.98452908 2487:1.4008507 2493:2.1250417 2512:0.29077801 2520:0.94371998 2521:1.9644709 2526:3.5238891 2528:5.3526864 2537:1.5584542 2562:3.2990422 2563:0.62468922 2566:3.2735806 2574:0.49076697 2576:1.3736649 2579:2.7579226 2583:0.74851382 2591:0.86302269 2595:1.5554043 2598:3.3693669 2604:7.1210928 2610:0.46869114 2620:0.71724665 2625:0.24054906 2626:0.29363132 2634:0.62566483 2636:5.3765202 2639:3.6387362 2649:3.4994876 2655:1.7173454 2656:4.0766225 2658:1.7289343 2676:0.018404037 2688:2.2705169 2689:0.95685858 2693:0.81800199 2697:1.1874088 2699:0.77391928 2704:5.8496933 2705:1.599664 2708:4.5573697 2715:3.2636907 2719:1.2243986 2720:1.8842453 2721:2.043246 2722:1.3351228 2723:1.3913645 2727:1.1853101 2740:2.6491122 2743:2.7778385 2746:0.19768271 2763:3.799181 2765:1.8665593 2766:1.1652907 2790:0.023546904 2792:2.3620136 2796:2.300611 2802:0.79115218 2811:1.8066452 2816:0.56519043 2821:3.8059485 2828:1.2800943 2833:0.79635704 2834:0.76467717 2838:0.18418658 2840:0.96598119 2842:5.06741 2844:1.1115029 2864:5.022306 2865:1.011158 2866:1.2439606 2867:6.9259157 2873:1.2843603 2879:1.7249514 2893:4.025547 2894:1.531934 2895:1.607075 2901:1.8482674 2903:0.0018647611 2910:1.7531793 2913:0.79096055 2918:0.11745735 2920:3.1218109 2929:3.4354839 2932:1.1474125 2945:0.01016289 2950:2.4212461 2953:1.2186857 2958:1.4040537 2980:0.97560245 2982:0.53036731 2994:1.9000185 2998:1.4889607 3010:1.7394016 3012:1.0392058 3015:1.2340974 3018:1.5803486 3019:1.4964473 3033:1.7276247 3036:1.1773577 3041:2.8524499 3046:1.3701913 3048:1.595158 3050:1.4903092 3057:0.63761008 3059:5.3635902 3061:3.0817206 3066:0.087290317 3075:3.4932375 3105:2.3952143 3107:0.58800161 3116:0.014165521 3119:1.5613463 3121:0.30827698 3135:0.27533051 3145:1.3985896 3152:4.8401322 3160:1.4292465 3163:5.6557307 3179:1.9156034 3183:2.0229869 3184:1.6124285 3195:2.3231344 3200:0.93700361 3216:0.02772544 3235:0.35326356 3240:2.6417751 3247:5.0286365 3252:2.5270197 3253:0.12916835 3256:1.7881637 3259:0.45944688 3287:1.5062007 3294:1.7548805 3310:0.26585522 3311:0.038921237 3334:3.314692 3348:0.57918841 3354:1.1122787 3359:0.97832251 3361:0.6685515 3364:0.53811616 3371:0.55946565 3373:0.33338374 3381:2.6122303 3387:6.3522444 3388:1.6376061 3390:0.84772754 3402:0.20882806 3444:0.60079521 3457:1.3677928 3459:0.24944091 3465:1.1173868 3468:1.3337576 3471:3.9820807 3478:5.0805945 3494:0.23731691 3496:4.3017302 3504:0.84298849 3514:1.1923938 3521:0.37701744 3534:3.2348204 3535:0.42845055 3536:3.7363586 3537:0.086520553 3548:0.068341196 3552:1.9184721 3554:0.55607152 3559:0.7575084 3562:2.2400093 3568:0.58504641 3569:1.5847162 3576:2.2710643 3578:1.556042 3582:1.1229339 3583:0.33657947 3593:1.6676452 3608:1.3643655 3610:0.81262881 3615:1.1051335 3617:0.4103274 3619:0.33675581 3620:2.6283426 3629:0.073426634 3635:1.0120667 3636:1.7029243 3643:4.3980784 3650:2.9757347 3653:0.8202402 3654:1.1994221 3666:0.35619965 3681:0.046892941 3690:0.37000105 3705:0.082654268 3711:2.293432 3715:0.61554265 3719:2.8311398 3732:0.29039407 3734:2.4343953 3738:2.0221033 3746:1.0400261 3752:3.6279974 3756:0.64773625 3757:0.35001856 3769:3.5747957 3783:0.44891196 3785:5.771884 3789:3.6290977 3793:0.51401031 3796:0.36168075 3797:3.2021766 3808:5.24125 3810:0.26966739 3813:2.2057767 3815:3.5772173 3816:1.5112302 3824:2.5020878 3826:0.82781577 3831:6.002048 3836:3.1711383 3837:3.5748138 3852:0.18179888 3857:1.1045609 3860:3.7972658 3865:2.0399826 3869:1.020455 3871:0.15559179 3876:0.12115352 3881:0.60004181 3882:0.6699748 3888:0.78166062 3889:3.1950593 3891:1.6387991 3907:0.14185795 3912:4.4467158 3917:0.47977892 3918:0.66964579 3926:0.66159266 3929:0.53482723 3936:0.31562698 3962:1.8340386 3966:4.1841378 3970:0.60821313 3972:3.9198346 3981:7.2551918 3984:1.2123892 3986:1.918424 3988:4.6735578 3990:2.2634127 3995:0.99256951 3997:2.5293162 4001:3.581476 4004:1.6334207 4011:0.37411091 4016:4.0233378 4021:2.2327323 4031:2.4780407 4032:1.1260649 4034:3.0592828 4036:0.63173711 4043:0.24586333 4051:1.888023 4067:2.0942221 4071:1.4286224 4072:6.2694674 4073:0.4246664 4077:1.9692061 4084:1.0372765 4085:0.98979807 4089:0.4206706 4090:6.8788223 4092:0.59273469 
0.1229650165499228 9:0.16800323 16:0.29040805 19:1.9444232 39:3.4955084 43:2.694159 44:2.0086648 68:3.4671609 78:1.8384416 88:3.8146064 94:2.8029809 105:0.99421775 110:0.12108389 111:0.13217863 128:1.44266 140:0.82347083 145:0.69155645 147:3.7275901 157:1.9422175 159:0.25038475 163:0.094316483 167:0.96035534 168:0.50882387 170:0.27746269 178:5.7633877 180:0.13117763 181:0.38999709 190:0.52775186 192:3.0367272 199:0.922153 214:0.78357154 217:2.1746039 237:3.1892052 241:3.8098209 256:1.8400929 258:2.8016229 288:2.3864591 290:0.78702956 306:0.39751768 309:0.2284925 315:0.718261 317:0.54129535 319:0.52522278 321:2.1039145 324:1.5958953 326:1.123713 342:4.0666523 347:0.69619137 348:5.1447382 358:0.2135452 359:1.5741996 365:2.8386574 372:1.0775379 378:0.043667495 379:1.7997615 381:0.20470202 387:2.9856753 391:2.0950172 397:2.3671079 398:0.38257664 399:0.08342851 410:0.27722123 411:1.4083439 412:0.28213477 432:2.4184248 435:0.74755335 442:0.047045209 452:2.2863731 454:0.22675218 460:0.85204494 462:0.14508763 473:3.0148561 485:1.5673561 492:0.60128051 499:2.6168962 509:0.10398855 514:0.93515182 526:3.1250486 536:0.76826406 541:3.215507 548:0.41638988 553:0.55213845 560:1.9165606 562:4.5041227 567:1.8432186 570:0.1259796 583:2.8862507 593:0.8656919 605:1.0855247 624:1.1012137 637:0.33922938 653:0.86239779 654:0.46130529 672:2.3419323 676:1.4881988 682:0.85189444 684:1.3631607 692:1.2197733 705:3.6073725 709:1.4845383 711:0.30233151 712:0.010707915 713:0.16508034 717:0.61271036 728:0.055154681 738:1.1238199 749:3.4542396 750:1.0829351 751:1.9755749 754:1.9459298 771:1.2790027 772:0.48219335 777:0.85648131 780:0.69925159 788:4.556345 789:0.64995235 791:1.165644 795:1.2359271 798:1.8060305 801:0.63519484 816:0.078174651 820:2.9117966 825:0.69655192 829:0.70635492 832:1.0928535 833:2.0285702 839:3.6946831 841:2.532444 842:0.61256099 853:1.6121117 857:1.500742 858:0.6503278 865:0.71688801 868:1.8572814 874:0.70514208 882:1.7982824 891:1.3748536 895:2.2853613 896:2.4565613 902:3.2706003 904:1.21981 908:3.8983068 916:5.1152406 922:0.31243026 927:0.88814849 932:0.025615454 943:1.7921885 945:5.3942695 953:0.42935294 966:1.2746265 978:1.5150779 982:2.3125088 985:0.93851149 988:0.1161015 997:1.3847077 1001:0.3692514 1004:1.5773678 1013:0.70030308 1016:0.20168279 1022:0.26518801 1029:0.17701986 1041:3.8954492 1043:1.1148638 1067:2.0566392 1070:3.8288751 1071:2.1853511 1077:1.9619379 1078:0.48572367 1095:0.33034876 1096:3.3213034 1103:4.0109396 1105:1.536931 1130:1.5807749 1155:0.64786452 1165:1.5650905 1170:0.63966161 1175:2.0223644 1179:0.27427426 1180:0.40334082 1186:0.97446775 1188:2.5878682 1201:2.9758286 1206:0.41513509 1208:3.3463161 1217:0.745767 1219:2.3683763 1235:0.52151942 1236:5.6004634 1240:2.8486462 1242:2.3455846 1249:2.7077649 1250:0.47623694 1251:2.1843233 1257:2.1767862 1258:1.2405708 1260:3.3070257 1272:1.9877157 1274:3.0319595 1279:2.6914344 1291:3.7361858 1293:2.2129033 1297:0.17762187 1299:1.9587921 1306:1.1664565 1309:3.6211424 1313:0.86130702 1329:1.1861547 1332:3.1298349 1335:2.3831806 1341:0.9151094 1342:1.3193122 1356:2.616277 1357:1.9294758 1368:1.77273 1369:3.082479 1375:0.64267123 1376:0.29077309 1386:9.6321878 1396:0.53253818 1408:0.1994493 1411:0.2629647 1412:0.46894056 1414:2.9113703 1419:7.649168 1430:2.7093239 1435:0.69055724 1444:3.2054644 1452:3.9609277 1457:1.6380688 1465:1.7936057 1468:0.35262591 1470:0.94374251 1472:2.2205198 1476:0.59076071 1479:1.8180624 1487:2.6526711 1503:3.3138235 1512:0.54285038 1519:0.37684354 1520:2.1236782 1523:4.2064466 1526:1.0424695 1550:1.6061009 1554:3.9713268 1556:0.65093619 1562:6.5138273 1580:0.46623766 1586:2.1996424 1590:1.4237201 1597:4.1961732 1600:5.8549137 1606:3.8219869 1613:1.7638664 1623:1.1386101 1624:0.70701462 1626:1.7114468 1628:0.34006706 1629:1.4314669 1645:1.7423272 1654:2.4175513 1657:2.0431318 1661:5.3373914 1663:0.57314932 1667:2.0482411 1668:4.3589134 1675:0.28106326 1677:2.9266326 1686:1.0980662 1688:0.96827424 1690:1.6681595 1695:0.62278235 1699:1.8322575 1703:0.6601789 1704:1.3610399 1710:0.49272603 1712:1.9419414 1726:2.0760188 1727:0.50428146 1748:0.5273912 1753:0.41373336 1758:1.6307812 1761:2.3069057 1763:1.6849215 1768:2.0138896 1775:2.9908903 1777:2.4882312 1780:0.34746104 1795:2.1301651 1800:1.2304838 1804:1.0675424 1811:0.79326737 1813:3.3981261 1817:2.0748565 1822:0.84553552 1825:0.097700983 1829:0.52441347 1832:0.96264768 1833:1.4219127 1837:1.3027408 1843:0.96739745 1846:0.98082495 1849:2.8065701 1854:2.368283 1860:2.5367565 1862:0.21577585 1870:2.1803639 1889:0.62895751 1891:1.2567601 1893:1.4312484 1895:2.793395 1902:0.15984257 1912:3.7048643 1918:4.3639607 1948:0.58901054 1963:0.93231875 1968:0.1850179 1974:3.1149356 1978:0.66383028 1984:1.4826205 1995:2.1141725 2000:2.7886682 2002:0.74840093 2004:1.5871536 2009:1.8825041 2011:1.6768795 2012:4.3905144 2014:0.20877618 2022:0.13782889 2030:0.40244514 2034:0.67312574 2042:0.081459284 2043:1.6242524 2057:1.4201264 2089:0.16804487 2101:0.74004674 2102:0.23507908 2107:3.5446081 2113:1.8188698 2117:0.090005547 2137:0.23948379 2138:1.9601477 2144:1.7259171 2153:1.1994485 2164:2.8553598 2166:1.6930023 2168:3.4947052 2177:2.2516234 2184:0.73107177 2187:3.987354 2188:1.3608004 2199:4.6494775 2202:3.963516 2204:0.028321147 2206:3.3262808 2226:1.7782569 2228:1.4506564 2229:0.31095928 2239:0.46968234 2241:1.0793047 2253:1.6024563 2254:0.048581243 2255:3.2086241 2257:0.36440751 2267:1.1401303 2284:1.171819 2286:2.0130925 2288:2.3886633 2305:0.34808177 2307:0.86431158 2311:2.3817389 2313:0.15928939 2316:0.98670983 2317:0.97855717 2322:0.12988046 2324:3.2759457 2328:3.6562195 2343:2.8465741 2344:0.54377401 2346:1.6717589 2348:0.61460048 2349:4.2143202 2353:2.5624244 2360:3.3436322 2370:1.6802537 2375:2.9366198 2390:1.9341817 2392:0.14641851 2393:3.6302471 2400:0.21066006 2404:3.2070327 2413:2.8778303 2415:0.56527466 2422:0.03433457 2425:2.0603096 2435:2.7329128 2443:3.7506919 2452:0.37264866 2458:1.806293 2459:2.1795087 2468:0.90510565 2476:4.0806651 2477:1.1823208 2481:0.23679258 2487:2.0251775 2493:0.62584203 2498:0.5932734 2503:0.14427292 2520:2.0941999 2521:1.8836081 2526:1.6723988 2528:3.5633254 2532:0.51771253 2537:1.8692327 2562:2.7310579 2563:1.0530399 2566:2.5315297 2574:1.434677 2576:1.8144636 2579:2.8413978 2583:0.43500614 2591:0.731094 2594:0.53596377 2595:0.82373983 2598:3.5879884 2604:5.6301961 2610:0.31279737 2620:0.21670076 2625:0.38316154 2634:0.57923794 2636:5.1167541 2639:3.3637841 2649:4.2472105 2656:3.1998572 2658:2.2505934 2676:0.4367969 2688:3.1160491 2697:1.848508 2704:5.6684251 2705:1.5101705 2708:2.2623723 2715:2.8919683 2719:1.3720676 2721:0.80329037 2722:3.215488 2723:0.56800437 2727:1.0232565 2736:1.0569091 2740:1.6025485 2743:2.4982152 2752:0.57575929 2763:0.49080324 2765:1.984973 2766:1.3674871 2778:0.090583041 2790:0.006154716 2792:1.3168565 2795:0.2389712 2796:0.79877198 2802:0.80582517 2811:1.1804119 2816:0.031333417 2821:2.617573 2840:1.163729 2842:4.5640707 2864:6.2334628 2865:0.67833012 2866:2.8841412 2867:6.3786998 2868:1.7392212 2873:0.50296575 2879:0.36213419 2893:4.1764822 2894:0.25110391 2895:0.85985422 2903:0.53981388 2910:2.5720274 2913:1.5586022 2920:3.9229312 2922:0.45354974 2929:0.88382542 2950:2.6444228 2953:2.3458142 2957:1.2455312 2978:0.40977296 2993:0.72822642 2994:5.1030421 2998:0.065393791 3010:0.1643565 3012:1.1045799 3015:1.9455482 3018:2.2361777 3019:1.3405683 3033:3.2587197 3041:2.858346 3051:0.32057303 3057:1.2928662 3059:4.5119419 3061:1.8165764 3075:2.7078543 3081:0.063906074 3117:0.30464384 3119:1.3641686 3121:0.66122735 3129:0.094076991 3130:0.37588841 3145:1.9853947 3149:0.20960928 3152:4.4428616 3160:1.0763915 3163:4.339992 3179:3.4237735 3183:2.3037152 3184:2.3076189 3195:1.5309198 3200:0.42975381 3216:0.29780781 3222:0.67652047 3235:0.77085364 3240:2.3889413 3247:3.8393283 3252:3.4663179 3256:2.3794525 3259:2.2322683 3278:0.33725101 3287:0.80135792 3294:0.29701823 3334:5.0174112 3348:0.1112386 3354:1.8544605 3359:0.964652 3381:2.0493236 3387:6.578836 3388:1.0658835 3390:0.4763875 3402:1.012484 3404:0.28461367 3437:0.80860114 3438:2.268764 3457:2.4916649 3468:0.87974119 3471:4.0816131 3478:3.4058867 3496:2.1400797 3514:1.0913305 3534:2.1483674 3535:1.7506449 3536:3.7601953 3537:0.63083422 3544:0.60949284 3552:1.0400594 3554:0.40487209 3562:2.0188401 3568:0.21565479 3569:3.0825338 3576:2.4284694 3578:2.8879793 3582:2.8868582 3590:0.059400767 3593:1.133321 3595:2.54175 3598:1.7089933 3602:0.95812547 3608:2.5206504 3620:0.97142434 3627:0.93630445 3629:1.0910088 3630:0.13806117 3635:1.3173754 3636:1.043756 3643:3.8545356 3650:2.5297551 3654:1.5235441 3666:0.0024804473 3690:1.168668 3711:2.5449071 3715:0.48974115 3719:3.5769327 3734:4.0758109 3746:0.81922239 3752:3.755517 3756:1.0636835 3757:0.84962177 3769:2.2656291 3783:0.082139537 3785:4.7402663 3789:2.7681756 3795:0.79318047 3797:2.6430259 3802:0.10731394 3808:3.6788502 3810:0.78366256 3811:1.075729 3813:1.0148321 3815:2.441921 3816:1.2191641 3824:0.83972406 3826:0.91825593 3831:4.5695376 3836:2.9946847 3837:2.4624448 3845:0.16161534 3849:0.36940944 3857:1.3868212 3860:2.8044198 3865:0.75038135 3869:0.76554978 3871:1.1725435 3876:0.41118759 3881:1.1883985 3888:0.79549432 3889:1.9309378 3891:0.7352221 3907:2.000572 3912:4.1360302 3918:1.1374506 3923:1.0035142 3925:0.56471145 3926:1.0520686 3929:1.9033161 3936:1.455894 3945:0.47338939 3962:0.34430739 3966:5.4553275 3970:0.78060567 3972:2.7820809 3981:7.613606 3984:0.73609859 3986:0.38103688 3988:4.2609754 3990:2.7600002 3995:0.18660446 3997:1.3624011 4001:2.7199545 4004:1.7968805 4016:3.5148368 4021:4.2280269 4031:1.5175983 4034:3.1879725 4036:0.26502356 4043:0.051937252 4067:2.6325998 4068:1.5370885 4071:1.2863585 4072:5.5878177 4073:0.42462921 4077:1.6708466 4080:0.2397652 4084:0.51244831 4085:1.7677093 4089:1.1231687 4090:7.5852337 
0.2795782291600196 3:2.8713248 4:0.71005762 19:2.6916316 25:0.11888811 39:1.8295243 44:0.98992682 51:1.5902828 60:0.44973677 65:6.5489249 78:2.6643357 80:3.2323427 88:5.3831825 94:0.12512393 113:6.2084165 128:5.2993536 130:1.6388515 139:5.6317744 144:4.0737333 147:2.0819263 152:0.72368294 153:3.2267606 166:1.5867157 170:2.2722707 178:1.5989445 180:4.2694101 182:0.070526697 193:3.4428737 205:0.59538031 209:0.34875923 210:2.5060356 225:1.7436656 241:2.9609578 248:1.0362942 256:0.5079149 259:1.8097166 262:0.33549821 286:0.22860767 288:0.11925557 293:0.5102247 302:2.6769395 303:0.94985795 309:0.66424847 314:0.2838991 319:1.8291149 326:0.77872622 329:0.39845964 346:0.5375343 348:3.403471 349:3.397716 358:0.33346051 366:1.2039458 367:1.7616429 377:3.3854821 379:5.3210578 382:2.2311666 387:1.9454274 388:2.0799079 414:0.3234297 416:1.8107122 431:1.376256 434:2.68612 459:5.2696671 472:0.49322957 475:2.2409987 487:1.3692123 514:1.6140659 517:0.44280559 519:0.080368139 520:0.31299755 523:1.8141141 547:0.65718615 553:1.6805382 558:0.77792811 561:2.605499 562:2.2708046 575:0.17595442 583:3.3479803 589:1.1961764 593:3.2212923 595:4.4830894 601:2.6414318 625:0.71425247 627:2.4865658 637:0.51762438 641:0.046291411 643:3.5735381 644:2.6428533 654:0.050103053 655:0.51670647 684:3.0242729 690:0.31535617 700:1.7780473 709:3.4799833 711:8.7221642 717:3.2898571 723:3.5070381 726:0.56289279 738:0.10528134 748:1.7115909 749:9.6024418 750:1.3003476 755:4.6348987 763:1.2333969 775:0.22784439 788:0.93709576 789:3.3173175 791:0.5982604 814:0.4853372 820:1.6072216 826:1.2927244 830:1.7635494 833:1.2967012 839:2.6329973 842:4.5576477 854:6.103857 857:2.7562516 859:2.1320541 865:0.36898762 868:4.935833 873:1.3389084 874:3.0921204 876:3.4608932 895:6.9416819 903:0.61088645 908:1.2320412 916:1.5053822 918:4.8770962 936:0.27094525 937:0.75763637 945:2.1774182 953:0.52614158 956:0.72510052 967:1.3093259 968:1.6006899 985:1.7721334 993:3.335521 1023:2.1337476 1035:3.6711316 1041:4.2416077 1050:7.0831032 1067:4.8951898 1070:0.54729968 1075:2.9848981 1080:0.57697856 1089:0.52869427 1096:2.0036278 1103:5.322876 1106:6.0057106 1111:1.0355544 1116:2.0421686 1117:2.3928177 1137:0.10663897 1139:2.5653539 1162:0.92162043 1170:3.8150897 1182:2.368947 1186:6.622756 1188:1.6283985 1208:0.90327454 1223:0.45823252 1224:0.69446594 1227:2.5145898 1236:2.1669729 1249:3.1755383 1251:2.4852312 1255:0.72410387 1257:4.1446924 1265:2.2010634 1272:1.7976581 1274:2.8777006 1286:2.4805703 1292:1.2105982 1293:2.1132519 1295:1.948652 1306:0.31570452 1307:2.887665 1309:1.2734374 1317:2.3806052 1330:0.057202458 1335:5.9846659 1336:0.41530386 1342:2.6807308 1345:0.41199565 1347:1.120496 1376:2.3192127 1383:3.8629439 1396:2.1559732 1403:5.5990715 1406:1.6621068 1409:1.405532 1412:1.725584 1414:1.4461113 1419:6.1888523 1425:0.097514004 1432:0.48574945 1440:2.7382512 1450:0.52462912 1458:4.7593727 1470:0.1937713 1471:0.55477035 1479:1.0582017 1487:0.48952979 1512:4.2693467 1513:2.4319985 1520:1.4908702 1529:2.7863512 1544:4.0138655 1552:0.26320648 1562:3.1053402 1569:2.1001551 1571:2.1850142 1574:1.2566738 1583:0.30009463 1586:4.2219872 1600:3.2145476 1604:1.014833 1606:1.6664643 1620:0.08468046 1628:2.0392737 1629:7.8760662 1645:0.60292065 1654:1.0379127 1661:7.1490512 1667:0.8906278 1668:7.7657628 1677:0.64870584 1683:4.48243 1690:0.22444077 1699:2.1146491 1708:2.7581921 1710:1.8787205 1712:1.170262 1713:0.84076095 1724:2.6699076 1726:0.34419134 1744:0.10735303 1748:2.1661456 1753:1.1649513 1758:1.1981516 1777:0.17204124 1782:0.96080214 1791:0.15392521 1794:5.5053611 1799:3.1868703 1800:0.6366753 1801:0.087123744 1825:0.81809247 1831:0.3904278 1832:2.821131 1833:1.108336 1837:3.8981583 1843:0.0481738 1846:2.4833226 1855:1.5201218 1860:5.4838719 1862:2.0324056 1870:0.27715489 1872:0.043295138 1880:5.107233 1883:1.4851171 1890:1.8743061 1893:1.767977 1895:2.8193052 1902:0.034984231 1904:1.1507605 1918:1.5332503 1928:1.2771108 1935:1.6318407 1939:1.4178697 1948:1.4024508 1963:7.6209273 1974:0.017259985 1989:0.52733284 1990:1.9992414 2000:2.0014753 2004:4.8234959 2007:1.5947556 2019:0.49045527 2028:0.12892492 2030:2.1963384 2032:2.2917356 2053:0.088887766 2076:3.211292 2101:3.3029637 2105:0.84554088 2113:1.4512113 2117:3.5570135 2120:0.3642022 2132:2.4447424 2136:3.9539981 2138:0.090116575 2166:0.35842758 2177:6.6658368 2178:10.733221 2188:0.95824254 2210:0.24783061 2212:2.405992 2244:2.4797292 2245:2.0633554 2249:7.025034 2250:1.0961913 2253:4.0017343 2254:0.11727768 2275:1.1656342 2280:1.3698647 2281:0.39801794 2282:0.022045195 2286:4.706027 2288:1.8331714 2298:0.024809122 2302:2.6194298 2309:1.4576151 2312:2.3906288 2317:1.1392205 2322:1.851727 2324:3.1125574 2328:0.24351519 2333:2.2386384 2343:6.6001811 2344:3.2756112 2349:5.126564 2358:3.5800314 2362:0.65407073 2367:0.40138406 2369:0.21987632 2374:0.43735927 2379:4.7202024 2393:2.4911962 2400:0.012010567 2402:1.0052288 2404:2.4351845 2416:1.7828935 2423:2.4917257 2435:8.2898903 2442:1.1676235 2443:0.80713826 2464:0.62264514 2481:3.8522253 2487:1.0679048 2494:4.1346283 2499:0.70245349 2508:0.54638368 2521:6.2505765 2528:2.6666865 2550:0.94192129 2552:2.9112515 2561:4.00283 2566:1.0568084 2576:0.17724808 2577:1.8901561 2604:3.6721632 2620:1.9309082 2634:2.8169601 2636:4.7041001 2639:4.3841791 2642:0.73915851 2647:3.9518118 2649:0.84007066 2656:2.7545502 2658:0.2163001 2674:1.411754 2682:0.52844781 2688:0.34591186 2695:1.049172 2702:8.3955765 2704:0.91631401 2705:2.3202119 2708:2.549118 2715:4.9587722 2718:1.7437314 2723:4.3604989 2724:1.5762644 2727:0.75590986 2735:0.63028067 2737:2.2244835 2741:0.11916831 2743:1.1458828 2744:0.029139459 2746:0.38871816 2747:1.7103221 2758:1.819908 2763:0.69574165 2766:1.8688271 2771:1.049371 2792:2.7204237 2796:7.4069662 2805:6.0585036 2816:0.53082061 2834:1.9706254 2837:0.78920698 2857:9.7630739 2860:0.67992103 2864:7.2065969 2867:1.0447826 2895:2.4162061 2903:0.26791611 2913:4.7518783 2918:2.4705126 2920:3.5022922 2926:1.4274174 2929:0.79949963 2936:2.1700869 2942:4.2562551 2950:1.7658342 2952:2.3623586 2972:2.9378633 2977:1.8180206 2980:5.3118834 2986:1.3828558 2995:0.84605736 2996:0.88670152 3001:2.184382 3004:3.9889114 3010:0.84130144 3011:1.6047269 3020:5.2964778 3047:0.98255706 3048:6.687984 3051:0.38604391 3058:1.5576563 3061:2.3650694 3065:2.1602864 3097:0.46346927 3101:0.19173592 3105:1.3976011 3110:0.025637537 3135:0.17355868 3138:0.93785179 3146:2.3961403 3151:3.7575693 3154:5.1399713 3163:3.0101981 3164:2.0525064 3170:1.9923975 3179:3.4415445 3183:3.1933956 3195:2.6787872 3214:0.7195608 3235:2.8368909 3246:1.8447204 3247:5.3203921 3252:6.8314857 3253:2.8089528 3260:1.6906747 3262:0.43992513 3287:4.3285322 3294:8.7275257 3299:2.4592583 3327:4.6760478 3331:4.0700002 3332:1.4328929 3334:4.3189988 3335:0.32698715 3351:2.7050283 3356:0.517609 3381:0.048076808 3382:0.86388242 3396:1.034707 3397:1.0486904 3411:0.270217 3412:0.24195869 3418:0.30599615 3422:4.8278718 3446:0.073726505 3449:6.7897272 3451:0.30270776 3452:1.2137212 3457:0.64918178 3471:4.4565721 3493:0.45814043 3501:0.8357935 3516:0.25365338 3528:2.5943296 3534:2.654985 3536:6.6210828 3539:0.17310329 3570:1.4139208 3582:1.950034 3586:1.6724341 3592:7.4152923 3593:6.8131223 3595:1.4013953 3602:0.83711171 3614:6.2521458 3618:4.7084002 3619:2.7980564 3621:0.86166841 3626:1.2672642 3629:0.17243391 3632:1.4979428 3633:3.6730726 3650:1.796414 3654:0.58201921 3657:1.3295252 3661:3.0802395 3667:0.077749237 3681:2.5125718 3682:1.2091243 3689:5.1859531 3690:1.0054512 3698:0.92161602 3706:0.53026271 3708:0.4635762 3727:0.89314032 3731:2.9382043 3732:2.6003127 3734:0.73997658 3739:0.046075284 3742:2.963484 3751:0.44318551 3752:0.54469764 3757:1.0926777 3765:0.51998138 3767:3.1368289 3769:3.7419362 3783:6.038291 3802:4.1331482 3810:0.12552527 3811:0.67247295 3815:1.8292525 3821:0.92095888 3824:2.050801 3826:1.9137353 3837:5.4384122 3841:0.33691689 3845:1.556617 3852:4.0252976 3863:0.35076386 3876:2.3406258 3880:0.51110929 3881:2.7447271 3890:1.4096332 3891:3.3643959 3903:1.7967625 3918:3.3343544 3923:1.3825022 3924:0.41668737 3926:2.8541644 3957:2.3763132 3962:0.97921962 3972:2.6849091 3974:0.18574712 3988:1.727378 3995:0.55812192 3997:2.1798933 4001:6.6334748 4004:6.0019231 4011:1.8529825 4016:0.36944485 4021:3.2931726 4026:0.76346326 4032:0.23508857 4036:4.5969496 4038:0.28463879 4059:3.2272501 4060:3.1945634 4072:1.56813 4077:0.62945592 4081:4.138917 4084:1.3073056 4087:0.5497787 4089:0.904387 4090:3.922375 4096:1.2158068 
